elements: [Fe]
E0: [0]
deltaSplineBins: 0.001
embeddings:
  0: {ndensity: 2, FS_parameters: [1, 1, 1, 0.5], npoti: FinnisSinclairShiftedScaled, rho_core_cutoff: 100000, drho_core_cutoff: 250}
bonds:
  [0, 0]: {nradmax: 6, lmax: 3, nradbasemax: 15, radbasename: SBessel, radparameters: [5.25], radcoefficients: [[[0.88627558150375507, -0.1741518644260725, 0.025308116344392256, 0.013864860746172332, 0.048454986011396813, 0.0095088024908131091, -0.043191139185358232, 0.057398812733379947, 0.029404416731253647, -0.015183043527956415, 0.0042803121329921265, -0.041789313101474768, 0.047997401921592929, -0.013428219492464156, 0.0021277127546623087], [0.6446520837238483, -0.30202829975182233, 0.047721802833174037, 0.046008801138675941, -0.036644750230369519, 0.026240173425460395, -0.059720144524962229, -0.014135785605982477, 0.05021732563378218, -0.050807437852820311, 0.070506400093596266, -0.06591059539603214, 0.046473673747267887, -0.027133115595419501, 0.0096952448385382844], [0.65934418255327776, -0.28005785024161212, 0.27171914482268, 0.019784761752709677, -0.03989516871074425, 0.11844921719358749, -0.13880644149332483, 0.10934108892674291, -0.045562742948830781, -0.029247793186104303, 0.11218583498124898, -0.13296514672764281, 0.065413096841036661, -0.015880041903653511, 0.0010204403883209106], [0.76431544039720756, -0.13020424020482491, -0.080546000719586272, 0.12919385177156026, 0.085386920596450852, -0.24461098208410093, 0.11389001813484928, 0.069284652402113567, -0.12675884347308941, 0.14221820148701414, -0.11177143141344617, 0.11039510459049727, -0.0087402527954701537, -0.042001392154378689, 0.056345098916515055]], [[0.23762897853335024, 0.71342405206229464, -0.49745079048084528, 0.091030505637329229, 0.051881971041646796, -0.015723217363996997, -0.017444731449113231, 0.027284892072601537, 0.029366786049699098, -0.0098081751686024815, -0.0030027784703198107, -0.026055986412856866, 0.032447422313501027, -0.0086729548542157624, 0.00043245447251885789], [-0.093335443550830122, 0.51258192787296164, -0.2824135871602948, 0.0013446076379509701, -0.036540198916851584, 0.166565863979284, -0.044499159789976234, -0.069742436195163002, 0.16522817575607451, -0.1278086793879544, 0.11054997893637686, 0.012993174507917827, -0.016188144130444646, 0.019692935437478989, -0.0058877664221079025], [-0.2695075941628467, 0.51907083044127356, -0.21286088149374088, 0.10345428675149322, -0.044431898106060574, 0.044586588383747759, -0.017843363658930227, -0.044423107705761897, 0.12210845687663957, -0.22105569065828437, 0.25533965288400146, -0.21483329198700449, 0.098001595451121026, -0.028345788713342011, 0.005420864114088546], [-0.042797546876611525, 0.6153696424692694, -0.074468415931979767, 0.54621901748253043, 0.22522920013896416, -0.10428545388198303, 0.032734419046310394, 0.072741946581610054, 0.135789972658028, -0.056003736088376971, -0.046865222228972714, 0.14713730221595014, -0.12005174059224179, 0.047582713586267547, 0.011433853143657101]], [[0.61600522691339099, -0.11286622706207111, 0.3121161194310127, -0.25001925870592412, -0.087084855599813674, 0.07574515350071595, 0.095912386612758388, -0.063072656379851183, 0.04655212655815405, -0.10223067765951246, 0.14858203726453711, -0.11235756875011768, 0.040224333085686695, -0.0018316313102448635, 0.0030194427900719686], [0.0045551176801138628, -0.16878679142903397, 0.67861113420561781, -0.26154580448913628, -0.059805536176744806, -0.015031424200494086, 0.0039434989177216852, 0.064197186715872323, -0.13155953025543102, 0.018211447491520715, 0.23323949029108121, -0.10367059138945219, -0.092093174469226727, 0.074059169527823335, 0.00090293160818039932], [0.18147458389162499, -0.11730794638666625, 0.59639058347166551, -0.26236281290810198, 0.13720287967273173, -0.010946246976060042, -0.07318965125281221, 0.17682585948499169, -0.25515917453317227, 0.10472369805352719, 0.14532471969089578, -0.24443868729611801, 0.12069570248093842, -0.013012998880043102, -0.011015542415608317], [0.088507639363476096, -0.18515574700378523, 0.86359883629414502, 0.066416204882887173, 0.0082174018079472569, -0.0020827838400571262, -0.061616045354910241, 0.086791560412447163, 0.10884314616377053, -0.16604944492782997, 0.046505739176920378, 0.020133036964636756, -0.13215285223829995, 0.10309763108011018, -0.070090751698615089]], [[0.47276648962037382, 0.23097251030804564, -0.1544359502902185, 0.69216281448751205, -0.41685278249318747, -0.070476736508356411, 0.20379959660444011, 0.13821230838245904, -0.061487791785241185, -0.12569098344318969, 0.2179642868831021, -0.20116563400801823, 0.056366406707391112, 0.026562395318408771, 0.0013846976699436098], [0.070852390071578619, -0.034564101156587472, -0.15605007417914007, 0.78005027092155288, -0.33507252943235805, -0.3268523440090616, -0.09387956314679996, 0.027205728817151029, -0.15001340292867704, 0.033925718637479896, 0.19279175002238785, -0.32097800961994727, 0.0057757372340987937, -0.01070961217957762, 0.030689219297049444], [-0.062833550418746859, -0.0054264314420563965, -0.044704177069255085, 0.85748841825436728, -0.27332451393017992, -0.34980847170684903, 0.083524901554474507, 0.27866649421349543, -0.17162251825785463, -0.053104360761282193, 0.14842055992845227, -0.1540542663197827, 0.15578561080051467, -0.15702933840319311, 0.080937788719158743], [0.031983798868013946, 0.17532729232080363, -0.0046488297495279208, 0.79283613950726695, -0.099316274590595166, -0.010756564664747885, 0.14667837923992921, 0.068666622428374874, -0.12903858235341095, 0.23894410210436168, 0.14335398604554025, -0.36112307893896506, 0.11999042253323133, 0.08504666335530911, -0.11548471734670498]], [[0.70089669172232139, 0.32743834049530862, -0.01780424302872147, -0.10094539681521457, 0.59541420755874896, 0.010873042651623843, 0.18003121857464408, -0.072779137745206737, 0.004224588347704698, -0.086510698015491341, 0.083917530591490389, -0.049915618158277775, 0.12550773474872179, -0.12737698829140434, 0.022775570467502018], [0.0017062403483415101, 0.079579592954749909, 0.049714512836277328, -0.14538872207710024, 0.80469094484014514, -0.048404757637352046, -0.025736114887481416, -0.059238086802691499, 0.21379060445406473, 0.19972306039027923, -0.46480556187302446, -0.38738799444625494, 0.33525047408067243, 0.13468650341370039, -0.18547778333182002], [-0.016916761973878286, 0.00090497191464776396, 0.022354612921256463, -0.11176684923815314, 0.7938594424484593, -0.17329781992018212, -0.11734648557850584, 0.10434014229004848, -0.043487177676290019, -0.34220503971913901, 0.35573666977921892, 0.6119632672101476, -0.25220596847272797, -0.14737337249401958, 0.14473751761541992], [-0.010800201888197629, -0.0027117725234127362, 0.023354107555479175, -0.038930740502516339, 1.001679281164477, 0.053671017870491493, -0.09046976497970971, 0.025676988459429631, 0.2231955311468774, 0.084817227307699056, -0.018627775887242293, -0.05050800777846845, -0.01602255597144318, 0.099069233014060065, -0.043021224933393283]], [[-0.0020115312847918659, -0.0063879432482116753, 0.07749671028331595, 0.059003821459151423, 0.027690307818933446, 1.1133251079095545, -0.10524115583886531, -0.25456829842225048, -0.031008324588780879, -0.065358979853641419, -0.0036644631461112808, 0.19323164309602284, 0.071207487821098328, -0.23383054655234628, 0.03944152065433576], [0.0070632100853747293, 0.035355050319563736, 0.01115058402010935, -0.16895917009228834, -0.1392757410493444, 0.99237116530307767, -0.17647581950767946, -0.093435156653273246, 0.14327419055453056, 0.04916412413664533, -0.1184343932197103, -0.20456658580389339, 0.24074478295029766, 0.090603487367139857, -0.13247258746374976], [-0.022572969591103734, -0.040091373509654707, 0.038118213351887906, 0.016030472632555814, -0.11114112929912269, 0.91472289336490431, -0.21340167725514128, -0.27845366642386549, 0.021777185899186504, 0.089334839343606143, 0.25399108479392118, 0.28669875570451292, -0.13952692912568232, 0.10708213534171294, -0.073505428919199645], [0.0015305296596275929, 0.0020104518699478936, 0.0073627543281692444, 0.030078059488295193, -0.01169872155347404, 0.96279005051140909, 0.08181654206454618, 0.095128937879908726, -0.049083593101041226, -0.045955765302835065, 0.11984451116994563, 0.24187639910657716, 0.14213901233769421, -0.061892681659786022, -0.13304681033467969]]], prehc: 0, lambdahc: 0, rcut: 6.5, dcut: 0.01, rcut_in: 0, dcut_in: 0, inner_cutoff_type: distance}
functions:
  0:
    - {mu0: 0, rank: 1, ndensity: 2, num_ms_combs: 1, mus: [0], ns: [1], ls: [0], ms_combs: [0], ctildes: [-0.13108698634252702, -0.050711958296329629]}
    - {mu0: 0, rank: 1, ndensity: 2, num_ms_combs: 1, mus: [0], ns: [2], ls: [0], ms_combs: [0], ctildes: [-0.21480985430267857, -0.061512193333769033]}
    - {mu0: 0, rank: 1, ndensity: 2, num_ms_combs: 1, mus: [0], ns: [3], ls: [0], ms_combs: [0], ctildes: [0.14993433820022201, 0.021221360754922789]}
    - {mu0: 0, rank: 1, ndensity: 2, num_ms_combs: 1, mus: [0], ns: [4], ls: [0], ms_combs: [0], ctildes: [-0.14213564471218043, 0.024247898672365441]}
    - {mu0: 0, rank: 1, ndensity: 2, num_ms_combs: 1, mus: [0], ns: [5], ls: [0], ms_combs: [0], ctildes: [-0.23289736330387675, 0.038349125190606459]}
    - {mu0: 0, rank: 1, ndensity: 2, num_ms_combs: 1, mus: [0], ns: [6], ls: [0], ms_combs: [0], ctildes: [0.33896690690067049, 0.10720825582048366]}
    - {mu0: 0, rank: 1, ndensity: 2, num_ms_combs: 1, mus: [0], ns: [7], ls: [0], ms_combs: [0], ctildes: [-0.21524349972147169, -0.11672678078260421]}
    - {mu0: 0, rank: 1, ndensity: 2, num_ms_combs: 1, mus: [0], ns: [8], ls: [0], ms_combs: [0], ctildes: [-0.16928392014397337, -0.19885036169960035]}
    - {mu0: 0, rank: 1, ndensity: 2, num_ms_combs: 1, mus: [0], ns: [9], ls: [0], ms_combs: [0], ctildes: [0.32219745318478576, 0.27286861655285743]}
    - {mu0: 0, rank: 1, ndensity: 2, num_ms_combs: 1, mus: [0], ns: [10], ls: [0], ms_combs: [0], ctildes: [-0.34188984532964867, 0.39212835153656644]}
    - {mu0: 0, rank: 1, ndensity: 2, num_ms_combs: 1, mus: [0], ns: [11], ls: [0], ms_combs: [0], ctildes: [0.21076570732807587, -0.10156431019141905]}
    - {mu0: 0, rank: 1, ndensity: 2, num_ms_combs: 1, mus: [0], ns: [12], ls: [0], ms_combs: [0], ctildes: [-0.073456308522032276, -0.31935478059844702]}
    - {mu0: 0, rank: 1, ndensity: 2, num_ms_combs: 1, mus: [0], ns: [13], ls: [0], ms_combs: [0], ctildes: [0.044799933375484158, 0.034837742666629007]}
    - {mu0: 0, rank: 1, ndensity: 2, num_ms_combs: 1, mus: [0], ns: [14], ls: [0], ms_combs: [0], ctildes: [-0.025531058629549675, 0.037769638019676997]}
    - {mu0: 0, rank: 1, ndensity: 2, num_ms_combs: 1, mus: [0], ns: [15], ls: [0], ms_combs: [0], ctildes: [0.0055091609852432923, -0.079567653206016969]}
    - {mu0: 0, rank: 2, ndensity: 2, num_ms_combs: 1, mus: [0, 0], ns: [1, 1], ls: [0, 0], ms_combs: [0, 0], ctildes: [-0.16982849029150604, -0.11717794502122406]}
    - {mu0: 0, rank: 2, ndensity: 2, num_ms_combs: 2, mus: [0, 0], ns: [1, 1], ls: [1, 1], ms_combs: [0, 0, 1, -1], ctildes: [-0.062356750957375882, -0.026138775226759805, 0.12471350191475174, 0.052277550453519603]}
    - {mu0: 0, rank: 2, ndensity: 2, num_ms_combs: 3, mus: [0, 0], ns: [1, 1], ls: [2, 2], ms_combs: [0, 0, 1, -1, 2, -2], ctildes: [-0.036829602948075524, -0.015855862924155924, 0.073659205896151062, 0.031711725848311847, -0.073659205896151075, -0.031711725848311854]}
    - {mu0: 0, rank: 2, ndensity: 2, num_ms_combs: 4, mus: [0, 0], ns: [1, 1], ls: [3, 3], ms_combs: [0, 0, 1, -1, 2, -2, 3, -3], ctildes: [0.0089582332015609584, -0.013377855453241581, -0.017916466403121917, 0.026755710906483161, 0.017916466403121913, -0.026755710906483158, -0.017916466403121913, 0.026755710906483158]}
    - {mu0: 0, rank: 2, ndensity: 2, num_ms_combs: 1, mus: [0, 0], ns: [1, 2], ls: [0, 0], ms_combs: [0, 0], ctildes: [-0.39683047752583872, -0.13376912294231028]}
    - {mu0: 0, rank: 2, ndensity: 2, num_ms_combs: 2, mus: [0, 0], ns: [1, 2], ls: [1, 1], ms_combs: [0, 0, 1, -1], ctildes: [0.050826552896287097, -0.00080811597404973875, -0.10165310579257418, 0.0016162319480994771]}
    - {mu0: 0, rank: 2, ndensity: 2, num_ms_combs: 3, mus: [0, 0], ns: [1, 2], ls: [2, 2], ms_combs: [0, 0, 1, -1, 2, -2], ctildes: [-0.015522707399374598, -0.0099152815888798318, 0.031045414798749199, 0.019830563177759667, -0.031045414798749206, -0.019830563177759671]}
    - {mu0: 0, rank: 2, ndensity: 2, num_ms_combs: 4, mus: [0, 0], ns: [1, 2], ls: [3, 3], ms_combs: [0, 0, 1, -1, 2, -2, 3, -3], ctildes: [-0.02511832457255115, 0.00092025582760772305, 0.0502366491451023, -0.0018405116552154461, -0.050236649145102293, 0.0018405116552154457, 0.050236649145102293, -0.0018405116552154457]}
    - {mu0: 0, rank: 2, ndensity: 2, num_ms_combs: 1, mus: [0, 0], ns: [1, 3], ls: [0, 0], ms_combs: [0, 0], ctildes: [0.30697897153625775, -0.003301994955667676]}
    - {mu0: 0, rank: 2, ndensity: 2, num_ms_combs: 2, mus: [0, 0], ns: [1, 3], ls: [1, 1], ms_combs: [0, 0, 1, -1], ctildes: [0.047156804221217638, 0.012668706653302704, -0.094313608442435262, -0.025337413306605404]}
    - {mu0: 0, rank: 2, ndensity: 2, num_ms_combs: 3, mus: [0, 0], ns: [1, 3], ls: [2, 2], ms_combs: [0, 0, 1, -1, 2, -2], ctildes: [0.092531767872164689, 0.013972872863567552, -0.18506353574432938, -0.027945745727135107, 0.18506353574432943, 0.027945745727135114]}
    - {mu0: 0, rank: 2, ndensity: 2, num_ms_combs: 4, mus: [0, 0], ns: [1, 3], ls: [3, 3], ms_combs: [0, 0, 1, -1, 2, -2, 3, -3], ctildes: [-0.041810997281846791, 0.0023371684136095244, 0.083621994563693583, -0.0046743368272190488, -0.083621994563693569, 0.0046743368272190479, 0.083621994563693569, -0.0046743368272190479]}
    - {mu0: 0, rank: 2, ndensity: 2, num_ms_combs: 1, mus: [0, 0], ns: [1, 4], ls: [0, 0], ms_combs: [0, 0], ctildes: [-0.20039365073338583, 0.049402812163014537]}
    - {mu0: 0, rank: 2, ndensity: 2, num_ms_combs: 2, mus: [0, 0], ns: [1, 4], ls: [1, 1], ms_combs: [0, 0, 1, -1], ctildes: [-0.017892790583083941, -0.0094841148799188479, 0.035785581166167875, 0.018968229759837692]}
    - {mu0: 0, rank: 2, ndensity: 2, num_ms_combs: 3, mus: [0, 0], ns: [1, 4], ls: [2, 2], ms_combs: [0, 0, 1, -1, 2, -2], ctildes: [0.17226301727735904, 0.011809253204791722, -0.34452603455471814, -0.023618506409583448, 0.3445260345547182, 0.023618506409583455]}
    - {mu0: 0, rank: 2, ndensity: 2, num_ms_combs: 4, mus: [0, 0], ns: [1, 4], ls: [3, 3], ms_combs: [0, 0, 1, -1, 2, -2, 3, -3], ctildes: [0.026381000703089425, -0.01073890330059055, -0.05276200140617885, 0.0214778066011811, 0.052762001406178843, -0.021477806601181097, -0.052762001406178843, 0.021477806601181097]}
    - {mu0: 0, rank: 2, ndensity: 2, num_ms_combs: 1, mus: [0, 0], ns: [1, 5], ls: [0, 0], ms_combs: [0, 0], ctildes: [-0.24686374661067456, -0.56671749922993064]}
    - {mu0: 0, rank: 2, ndensity: 2, num_ms_combs: 2, mus: [0, 0], ns: [1, 5], ls: [1, 1], ms_combs: [0, 0, 1, -1], ctildes: [0.036798599929341293, -0.017853992382625163, -0.073597199858682572, 0.03570798476525032]}
    - {mu0: 0, rank: 2, ndensity: 2, num_ms_combs: 3, mus: [0, 0], ns: [1, 5], ls: [2, 2], ms_combs: [0, 0, 1, -1, 2, -2], ctildes: [0.072552427624406043, -0.025911753222430518, -0.14510485524881209, 0.051823506444861042, 0.14510485524881214, -0.051823506444861056]}
    - {mu0: 0, rank: 2, ndensity: 2, num_ms_combs: 4, mus: [0, 0], ns: [1, 5], ls: [3, 3], ms_combs: [0, 0, 1, -1, 2, -2, 3, -3], ctildes: [-0.019085101991102651, 0.013606441682415869, 0.038170203982205303, -0.027212883364831738, -0.038170203982205296, 0.027212883364831734, 0.038170203982205296, -0.027212883364831734]}
    - {mu0: 0, rank: 2, ndensity: 2, num_ms_combs: 1, mus: [0, 0], ns: [1, 6], ls: [0, 0], ms_combs: [0, 0], ctildes: [0.096450431741643763, 0.21909152016314218]}
    - {mu0: 0, rank: 2, ndensity: 2, num_ms_combs: 2, mus: [0, 0], ns: [1, 6], ls: [1, 1], ms_combs: [0, 0, 1, -1], ctildes: [0.12360772910410682, 0.021636270995742467, -0.24721545820821358, -0.043272541991484927]}
    - {mu0: 0, rank: 2, ndensity: 2, num_ms_combs: 3, mus: [0, 0], ns: [1, 6], ls: [2, 2], ms_combs: [0, 0, 1, -1, 2, -2], ctildes: [-0.087074081689230171, -0.031215119939040789, 0.17414816337846037, 0.062430239878081585, -0.1741481633784604, -0.062430239878081599]}
    - {mu0: 0, rank: 2, ndensity: 2, num_ms_combs: 4, mus: [0, 0], ns: [1, 6], ls: [3, 3], ms_combs: [0, 0, 1, -1, 2, -2, 3, -3], ctildes: [0.0023132227268245764, -0.028908595505443536, -0.0046264454536491528, 0.057817191010887073, 0.004626445453649152, -0.057817191010887059, -0.004626445453649152, 0.057817191010887059]}
    - {mu0: 0, rank: 2, ndensity: 2, num_ms_combs: 1, mus: [0, 0], ns: [2, 2], ls: [0, 0], ms_combs: [0, 0], ctildes: [-0.48623120940334585, -0.14379015373943874]}
    - {mu0: 0, rank: 2, ndensity: 2, num_ms_combs: 2, mus: [0, 0], ns: [2, 2], ls: [1, 1], ms_combs: [0, 0, 1, -1], ctildes: [-0.051849088662406263, -0.012770919368815433, 0.10369817732481251, 0.025541838737630863]}
    - {mu0: 0, rank: 2, ndensity: 2, num_ms_combs: 3, mus: [0, 0], ns: [2, 2], ls: [2, 2], ms_combs: [0, 0, 1, -1, 2, -2], ctildes: [-0.0038012387850653363, -0.0039258649054540176, 0.0076024775701306734, 0.0078517298109080369, -0.0076024775701306752, -0.0078517298109080386]}
    - {mu0: 0, rank: 2, ndensity: 2, num_ms_combs: 4, mus: [0, 0], ns: [2, 2], ls: [3, 3], ms_combs: [0, 0, 1, -1, 2, -2, 3, -3], ctildes: [0.024468137448404526, -0.0064804390533734759, -0.048936274896809052, 0.012960878106746952, 0.048936274896809046, -0.012960878106746948, -0.048936274896809046, 0.012960878106746948]}
    - {mu0: 0, rank: 2, ndensity: 2, num_ms_combs: 1, mus: [0, 0], ns: [2, 3], ls: [0, 0], ms_combs: [0, 0], ctildes: [0.11851325958172658, -0.010837729821292085]}
    - {mu0: 0, rank: 2, ndensity: 2, num_ms_combs: 2, mus: [0, 0], ns: [2, 3], ls: [1, 1], ms_combs: [0, 0, 1, -1], ctildes: [-0.045307250512792115, -0.0032415298427431738, 0.090614501025584201, 0.0064830596854863459]}
    - {mu0: 0, rank: 2, ndensity: 2, num_ms_combs: 3, mus: [0, 0], ns: [2, 3], ls: [2, 2], ms_combs: [0, 0, 1, -1, 2, -2], ctildes: [0.058134908986355441, 0.0047348047561000528, -0.1162698179727109, -0.0094696095122001073, 0.11626981797271092, 0.0094696095122001091]}
    - {mu0: 0, rank: 2, ndensity: 2, num_ms_combs: 4, mus: [0, 0], ns: [2, 3], ls: [3, 3], ms_combs: [0, 0, 1, -1, 2, -2, 3, -3], ctildes: [-0.045351461827742384, -0.0040566431802948584, 0.090702923655484768, 0.0081132863605897169, -0.090702923655484755, -0.0081132863605897151, 0.090702923655484755, 0.0081132863605897151]}
    - {mu0: 0, rank: 2, ndensity: 2, num_ms_combs: 1, mus: [0, 0], ns: [2, 4], ls: [0, 0], ms_combs: [0, 0], ctildes: [0.069879151054984434, 0.053021631925018957]}
    - {mu0: 0, rank: 2, ndensity: 2, num_ms_combs: 2, mus: [0, 0], ns: [2, 4], ls: [1, 1], ms_combs: [0, 0, 1, -1], ctildes: [0.056749805551919094, 0.0064801486727115234, -0.11349961110383817, -0.012960297345423043]}
    - {mu0: 0, rank: 2, ndensity: 2, num_ms_combs: 3, mus: [0, 0], ns: [2, 4], ls: [2, 2], ms_combs: [0, 0, 1, -1, 2, -2], ctildes: [-0.038473063233688508, -0.0078253939255243567, 0.076946126467377016, 0.015650787851048717, -0.076946126467377043, -0.01565078785104872]}
    - {mu0: 0, rank: 2, ndensity: 2, num_ms_combs: 4, mus: [0, 0], ns: [2, 4], ls: [3, 3], ms_combs: [0, 0, 1, -1, 2, -2, 3, -3], ctildes: [0.012256788255807123, -0.001298907868170036, -0.024513576511614246, 0.0025978157363400721, 0.024513576511614243, -0.0025978157363400717, -0.024513576511614243, 0.0025978157363400717]}
    - {mu0: 0, rank: 2, ndensity: 2, num_ms_combs: 1, mus: [0, 0], ns: [2, 5], ls: [0, 0], ms_combs: [0, 0], ctildes: [0.45440152083626439, -0.42812293496681253]}
    - {mu0: 0, rank: 2, ndensity: 2, num_ms_combs: 2, mus: [0, 0], ns: [2, 5], ls: [1, 1], ms_combs: [0, 0, 1, -1], ctildes: [-0.039362454465839199, -0.0065516712346308393, 0.078724908931678383, 0.013103342469261677]}
    - {mu0: 0, rank: 2, ndensity: 2, num_ms_combs: 3, mus: [0, 0], ns: [2, 5], ls: [2, 2], ms_combs: [0, 0, 1, -1, 2, -2], ctildes: [-0.034411208307999923, -0.0083457183647869804, 0.068822416615999846, 0.016691436729573964, -0.06882241661599986, -0.016691436729573968]}
    - {mu0: 0, rank: 2, ndensity: 2, num_ms_combs: 4, mus: [0, 0], ns: [2, 5], ls: [3, 3], ms_combs: [0, 0, 1, -1, 2, -2, 3, -3], ctildes: [-0.027243231708674417, -0.01876151034651222, 0.054486463417348835, 0.037523020693024441, -0.054486463417348828, -0.037523020693024434, 0.054486463417348828, 0.037523020693024434]}
    - {mu0: 0, rank: 2, ndensity: 2, num_ms_combs: 1, mus: [0, 0], ns: [2, 6], ls: [0, 0], ms_combs: [0, 0], ctildes: [-0.053719725054605004, 0.39909820397824314]}
    - {mu0: 0, rank: 2, ndensity: 2, num_ms_combs: 2, mus: [0, 0], ns: [2, 6], ls: [1, 1], ms_combs: [0, 0, 1, -1], ctildes: [-0.059493884422796538, 0.03498581622894692, 0.11898776884559305, -0.069971632457893826]}
    - {mu0: 0, rank: 2, ndensity: 2, num_ms_combs: 3, mus: [0, 0], ns: [2, 6], ls: [2, 2], ms_combs: [0, 0, 1, -1, 2, -2], ctildes: [0.031531339134982461, 0.023213205326530244, -0.063062678269964936, -0.046426410653060496, 0.06306267826996495, 0.04642641065306051]}
    - {mu0: 0, rank: 2, ndensity: 2, num_ms_combs: 4, mus: [0, 0], ns: [2, 6], ls: [3, 3], ms_combs: [0, 0, 1, -1, 2, -2, 3, -3], ctildes: [-0.0019240964238563009, -0.0090490141954495829, 0.0038481928477126018, 0.018098028390899166, -0.0038481928477126009, -0.018098028390899162, 0.0038481928477126009, 0.018098028390899162]}
    - {mu0: 0, rank: 2, ndensity: 2, num_ms_combs: 1, mus: [0, 0], ns: [3, 3], ls: [0, 0], ms_combs: [0, 0], ctildes: [0.1110432945057522, -0.051086971633332701]}
    - {mu0: 0, rank: 2, ndensity: 2, num_ms_combs: 2, mus: [0, 0], ns: [3, 3], ls: [1, 1], ms_combs: [0, 0, 1, -1], ctildes: [-0.079070143990543504, -0.023080566482355444, 0.15814028798108695, 0.046161132964710881]}
    - {mu0: 0, rank: 2, ndensity: 2, num_ms_combs: 3, mus: [0, 0], ns: [3, 3], ls: [2, 2], ms_combs: [0, 0, 1, -1, 2, -2], ctildes: [-0.19748941398525402, -0.029038019458726621, 0.39497882797050804, 0.058076038917453249, -0.39497882797050815, -0.058076038917453263]}
    - {mu0: 0, rank: 2, ndensity: 2, num_ms_combs: 4, mus: [0, 0], ns: [3, 3], ls: [3, 3], ms_combs: [0, 0, 1, -1, 2, -2, 3, -3], ctildes: [-0.0031022388147372878, -0.014681476108165477, 0.0062044776294745757, 0.029362952216330954, -0.0062044776294745748, -0.029362952216330951, 0.0062044776294745748, 0.029362952216330951]}
    - {mu0: 0, rank: 2, ndensity: 2, num_ms_combs: 1, mus: [0, 0], ns: [3, 4], ls: [0, 0], ms_combs: [0, 0], ctildes: [-0.22185804151904209, -0.018107801920231325]}
    - {mu0: 0, rank: 2, ndensity: 2, num_ms_combs: 2, mus: [0, 0], ns: [3, 4], ls: [1, 1], ms_combs: [0, 0, 1, -1], ctildes: [-0.094503166161238911, -0.0096891162677295011, 0.18900633232247777, 0.019378232535458999]}
    - {mu0: 0, rank: 2, ndensity: 2, num_ms_combs: 3, mus: [0, 0], ns: [3, 4], ls: [2, 2], ms_combs: [0, 0, 1, -1, 2, -2], ctildes: [-0.030594381050992329, -0.0050752296584841081, 0.061188762101984664, 0.010150459316968216, -0.061188762101984678, -0.01015045931696822]}
    - {mu0: 0, rank: 2, ndensity: 2, num_ms_combs: 4, mus: [0, 0], ns: [3, 4], ls: [3, 3], ms_combs: [0, 0, 1, -1, 2, -2, 3, -3], ctildes: [0.0011132270709626241, -0.009630833006336605, -0.0022264541419252481, 0.01926166601267321, 0.0022264541419252477, -0.019261666012673206, -0.0022264541419252477, 0.019261666012673206]}
    - {mu0: 0, rank: 2, ndensity: 2, num_ms_combs: 1, mus: [0, 0], ns: [3, 5], ls: [0, 0], ms_combs: [0, 0], ctildes: [0.0083670704163225328, -0.33832906190946915]}
    - {mu0: 0, rank: 2, ndensity: 2, num_ms_combs: 2, mus: [0, 0], ns: [3, 5], ls: [1, 1], ms_combs: [0, 0, 1, -1], ctildes: [0.015770408172097697, 0.045375378597239051, -0.031540816344195387, -0.090750757194478088]}
    - {mu0: 0, rank: 2, ndensity: 2, num_ms_combs: 3, mus: [0, 0], ns: [3, 5], ls: [2, 2], ms_combs: [0, 0, 1, -1, 2, -2], ctildes: [-0.034906623303370687, 0.097043066179332588, 0.069813246606741389, -0.19408613235866518, -0.069813246606741403, 0.19408613235866523]}
    - {mu0: 0, rank: 2, ndensity: 2, num_ms_combs: 4, mus: [0, 0], ns: [3, 5], ls: [3, 3], ms_combs: [0, 0, 1, -1, 2, -2, 3, -3], ctildes: [0.048958937716086989, 0.0011553087125239043, -0.097917875432173979, -0.0023106174250478086, 0.097917875432173965, 0.0023106174250478082, -0.097917875432173965, -0.0023106174250478082]}
    - {mu0: 0, rank: 2, ndensity: 2, num_ms_combs: 1, mus: [0, 0], ns: [3, 6], ls: [0, 0], ms_combs: [0, 0], ctildes: [-0.11043793343310521, -0.11384601462241917]}
    - {mu0: 0, rank: 2, ndensity: 2, num_ms_combs: 2, mus: [0, 0], ns: [3, 6], ls: [1, 1], ms_combs: [0, 0, 1, -1], ctildes: [0.054159395501960833, 0.0068261779559445016, -0.10831879100392165, -0.013652355911889002]}
    - {mu0: 0, rank: 2, ndensity: 2, num_ms_combs: 3, mus: [0, 0], ns: [3, 6], ls: [2, 2], ms_combs: [0, 0, 1, -1, 2, -2], ctildes: [0.05353531731439802, 0.04300904172791551, -0.10707063462879605, -0.086018083455831035, 0.10707063462879608, 0.086018083455831049]}
    - {mu0: 0, rank: 2, ndensity: 2, num_ms_combs: 4, mus: [0, 0], ns: [3, 6], ls: [3, 3], ms_combs: [0, 0, 1, -1, 2, -2, 3, -3], ctildes: [-0.0011194144228047339, -0.0019125065566596988, 0.0022388288456094679, 0.0038250131133193976, -0.0022388288456094674, -0.0038250131133193968, 0.0022388288456094674, 0.0038250131133193968]}
    - {mu0: 0, rank: 2, ndensity: 2, num_ms_combs: 1, mus: [0, 0], ns: [4, 4], ls: [0, 0], ms_combs: [0, 0], ctildes: [-0.11745117214071005, 0.17137057223482621]}
    - {mu0: 0, rank: 2, ndensity: 2, num_ms_combs: 2, mus: [0, 0], ns: [4, 4], ls: [1, 1], ms_combs: [0, 0, 1, -1], ctildes: [0.041486266319621247, 0.011048117359212519, -0.08297253263924248, -0.022096234718425034]}
    - {mu0: 0, rank: 2, ndensity: 2, num_ms_combs: 3, mus: [0, 0], ns: [4, 4], ls: [2, 2], ms_combs: [0, 0, 1, -1, 2, -2], ctildes: [-0.0084937886018767034, -0.081902136248331481, 0.01698757720375341, 0.16380427249666296, -0.016987577203753414, -0.16380427249666302]}
    - {mu0: 0, rank: 2, ndensity: 2, num_ms_combs: 4, mus: [0, 0], ns: [4, 4], ls: [3, 3], ms_combs: [0, 0, 1, -1, 2, -2, 3, -3], ctildes: [-0.00077410254151964036, -0.017171000030485127, 0.0015482050830392807, 0.034342000060970254, -0.0015482050830392805, -0.034342000060970254, 0.0015482050830392805, 0.034342000060970254]}
    - {mu0: 0, rank: 2, ndensity: 2, num_ms_combs: 1, mus: [0, 0], ns: [4, 5], ls: [0, 0], ms_combs: [0, 0], ctildes: [0.30112961568939189, -0.4031375425156245]}
    - {mu0: 0, rank: 2, ndensity: 2, num_ms_combs: 2, mus: [0, 0], ns: [4, 5], ls: [1, 1], ms_combs: [0, 0, 1, -1], ctildes: [0.0058865596412440054, 0.014233103415932237, -0.011773119282488009, -0.028466206831864467]}
    - {mu0: 0, rank: 2, ndensity: 2, num_ms_combs: 3, mus: [0, 0], ns: [4, 5], ls: [2, 2], ms_combs: [0, 0, 1, -1, 2, -2], ctildes: [-0.014587832098987997, 0.10388533983743056, 0.029175664197975997, -0.20777067967486115, -0.029175664197976004, 0.20777067967486121]}
    - {mu0: 0, rank: 2, ndensity: 2, num_ms_combs: 4, mus: [0, 0], ns: [4, 5], ls: [3, 3], ms_combs: [0, 0, 1, -1, 2, -2, 3, -3], ctildes: [0.010064293485557409, 0.01294202156616002, -0.020128586971114817, -0.025884043132320039, 0.020128586971114814, 0.025884043132320036, -0.020128586971114814, -0.025884043132320036]}
    - {mu0: 0, rank: 2, ndensity: 2, num_ms_combs: 1, mus: [0, 0], ns: [4, 6], ls: [0, 0], ms_combs: [0, 0], ctildes: [-0.03888419459005206, -0.10071056762059268]}
    - {mu0: 0, rank: 2, ndensity: 2, num_ms_combs: 2, mus: [0, 0], ns: [4, 6], ls: [1, 1], ms_combs: [0, 0, 1, -1], ctildes: [-0.068957828952351238, -0.094913983829301024, 0.13791565790470245, 0.18982796765860199]}
    - {mu0: 0, rank: 2, ndensity: 2, num_ms_combs: 3, mus: [0, 0], ns: [4, 6], ls: [2, 2], ms_combs: [0, 0, 1, -1, 2, -2], ctildes: [-0.0078410229432213773, 0.10206847353430028, 0.015682045886442758, -0.20413694706860058, -0.015682045886442762, 0.20413694706860064]}
    - {mu0: 0, rank: 2, ndensity: 2, num_ms_combs: 1, mus: [0, 0], ns: [5, 5], ls: [0, 0], ms_combs: [0, 0], ctildes: [-0.028518438892204886, -0.43082511154392972]}
    - {mu0: 0, rank: 2, ndensity: 2, num_ms_combs: 2, mus: [0, 0], ns: [5, 5], ls: [1, 1], ms_combs: [0, 0, 1, -1], ctildes: [-0.0011144655793640466, -0.0031852404331181054, 0.0022289311587280927, 0.006370480866236209]}
    - {mu0: 0, rank: 2, ndensity: 2, num_ms_combs: 3, mus: [0, 0], ns: [5, 5], ls: [2, 2], ms_combs: [0, 0, 1, -1, 2, -2], ctildes: [0.0041597158874309426, -0.0068344047314764997, -0.0083194317748618851, 0.013668809462953001, 0.0083194317748618886, -0.013668809462953005]}
    - {mu0: 0, rank: 2, ndensity: 2, num_ms_combs: 1, mus: [0, 0], ns: [5, 6], ls: [0, 0], ms_combs: [0, 0], ctildes: [-0.10069391690109482, 0.64106599647826268]}
    - {mu0: 0, rank: 2, ndensity: 2, num_ms_combs: 2, mus: [0, 0], ns: [5, 6], ls: [1, 1], ms_combs: [0, 0, 1, -1], ctildes: [0.024083321502313987, 0.06798963862522639, -0.048166643004627967, -0.13597927725045275]}
    - {mu0: 0, rank: 2, ndensity: 2, num_ms_combs: 3, mus: [0, 0], ns: [5, 6], ls: [2, 2], ms_combs: [0, 0, 1, -1, 2, -2], ctildes: [-0.0065348351600750922, 0.03647407255306101, 0.013069670320150186, -0.072948145106122034, -0.01306967032015019, 0.072948145106122048]}
    - {mu0: 0, rank: 2, ndensity: 2, num_ms_combs: 1, mus: [0, 0], ns: [6, 6], ls: [0, 0], ms_combs: [0, 0], ctildes: [0.068136855206117342, -0.30077727592718012]}
    - {mu0: 0, rank: 2, ndensity: 2, num_ms_combs: 2, mus: [0, 0], ns: [6, 6], ls: [1, 1], ms_combs: [0, 0, 1, -1], ctildes: [-0.048316598667489351, 0.13899864626719341, 0.096633197334978688, -0.27799729253438676]}
    - {mu0: 0, rank: 3, ndensity: 2, num_ms_combs: 1, mus: [0, 0, 0], ns: [1, 1, 1], ls: [0, 0, 0], ms_combs: [0, 0, 0], ctildes: [0.71886053136499273, -0.04026845058630487]}
    - {mu0: 0, rank: 3, ndensity: 2, num_ms_combs: 2, mus: [0, 0, 0], ns: [1, 1, 1], ls: [0, 1, 1], ms_combs: [0, 0, 0, 0, 1, -1], ctildes: [-0.045239117043424266, -0.03693962117647677, 0.090478234086848519, 0.073879242352953525]}
    - {mu0: 0, rank: 3, ndensity: 2, num_ms_combs: 3, mus: [0, 0, 0], ns: [1, 1, 1], ls: [0, 2, 2], ms_combs: [0, 0, 0, 0, 1, -1, 0, 2, -2], ctildes: [-0.0036694763686957264, -0.021482757145193664, 0.0073389527373914536, 0.042965514290387329, -0.0073389527373914553, -0.042965514290387342]}
    - {mu0: 0, rank: 3, ndensity: 2, num_ms_combs: 4, mus: [0, 0, 0], ns: [1, 1, 1], ls: [0, 3, 3], ms_combs: [0, 0, 0, 0, 1, -1, 0, 2, -2, 0, 3, -3], ctildes: [-0.11814252530631568, -0.067352229504647587, 0.23628505061263136, 0.13470445900929517, -0.23628505061263133, -0.13470445900929515, 0.23628505061263133, 0.13470445900929515]}
    - {mu0: 0, rank: 3, ndensity: 2, num_ms_combs: 4, mus: [0, 0, 0], ns: [1, 1, 1], ls: [1, 1, 2], ms_combs: [-1, 1, 0, 0, 0, 0, 0, 1, -1, 1, 1, -2], ctildes: [0.052418753033630458, 0.011800779400127916, 0.052418753033630451, 0.011800779400127914, -0.18158388704730635, -0.040879098979867461, 0.12839919788536244, 0.028905888097460364]}
    - {mu0: 0, rank: 3, ndensity: 2, num_ms_combs: 8, mus: [0, 0, 0], ns: [1, 1, 1], ls: [1, 2, 3], ms_combs: [0, 0, 0, 0, 1, -1, 0, 2, -2, 1, -2, 1, 1, -1, 0, 1, 0, -1, 1, 1, -2, 1, 2, -3], ctildes: [0.061197119767517003, -0.0059476261753551073, -0.11539439567119089, 0.011214951468149884, 0.09122727988490939, -0.0088661976219007333, -0.040798079845011326, 0.0039650841169034043, 0.070664347142811404, -0.00686772714676107, -0.099934478105604366, 0.0097124328736273857, 0.1290148564716451, -0.012538696923572099, -0.15801028379696933, 0.015356704751078426]}
    - {mu0: 0, rank: 3, ndensity: 2, num_ms_combs: 5, mus: [0, 0, 0], ns: [1, 1, 1], ls: [2, 2, 2], ms_combs: [-2, 0, 2, -2, 1, 1, -1, -1, 2, -1, 0, 1, 0, 0, 0], ctildes: [-0.07261177445665741, -0.036296351214660343, 0.059287265578955965, 0.02963584666692208, 0.029643632789477983, 0.01481792333346104, -0.036305887228328698, -0.018148175607330164, 0.012101962409442897, 0.0060493918691100542]}
    - {mu0: 0, rank: 3, ndensity: 2, num_ms_combs: 9, mus: [0, 0, 0], ns: [1, 1, 1], ls: [2, 3, 3], ms_combs: [0, -3, 3, 0, -1, 1, 0, 0, 0, 1, -3, 2, 1, -2, 1, 1, -1, 0, 2, -3, 1, 2, -2, 0, 2, -1, -1], ctildes: [-0.0076851707038465313, 0.011658326156988814, 0.0046111024223079184, -0.0069949956941932883, -0.0030740682815386128, 0.0046633304627955261, 0.015370341407693063, -0.023316652313977629, -0.011905815259503502, 0.0180610012202688, 0.0043473890554128593, -0.0065949451863130349, -0.0097210574525417523, 0.014746745744480958, 0.013747651289992601, -0.020855047832712702, -0.0075298987242439427, 0.011422780135825972]}
    - {mu0: 0, rank: 3, ndensity: 2, num_ms_combs: 1, mus: [0, 0, 0], ns: [1, 1, 2], ls: [0, 0, 0], ms_combs: [0, 0, 0], ctildes: [0.32750998623863159, -0.068223405352993136]}
    - {mu0: 0, rank: 3, ndensity: 2, num_ms_combs: 2, mus: [0, 0, 0], ns: [1, 1, 2], ls: [0, 1, 1], ms_combs: [0, 0, 0, 0, 1, -1], ctildes: [0.1028118124829656, 0.0018792403483364553, -0.20562362496593115, -0.0037584806966729101]}
    - {mu0: 0, rank: 3, ndensity: 2, num_ms_combs: 3, mus: [0, 0, 0], ns: [1, 1, 2], ls: [0, 2, 2], ms_combs: [0, 0, 0, 0, 1, -1, 0, 2, -2], ctildes: [-0.014512943539870451, -0.011198664973742009, 0.029025887079740909, 0.022397329947484022, -0.029025887079740915, -0.022397329947484029]}
    - {mu0: 0, rank: 3, ndensity: 2, num_ms_combs: 4, mus: [0, 0, 0], ns: [1, 1, 2], ls: [0, 3, 3], ms_combs: [0, 0, 0, 0, 1, -1, 0, 2, -2, 0, 3, -3], ctildes: [0.097304349735730294, 0.048029460827128154, -0.19460869947146059, -0.096058921654256307, 0.19460869947146056, 0.096058921654256293, -0.19460869947146056, -0.096058921654256293]}
    - {mu0: 0, rank: 3, ndensity: 2, num_ms_combs: 2, mus: [0, 0, 0], ns: [1, 1, 2], ls: [1, 1, 0], ms_combs: [0, 0, 0, 1, -1, 0], ctildes: [-0.11726050506520533, -0.041100130362311818, 0.23452101013041063, 0.082200260724623622]}
    - {mu0: 0, rank: 3, ndensity: 2, num_ms_combs: 4, mus: [0, 0, 0], ns: [1, 1, 2], ls: [1, 1, 2], ms_combs: [-1, 1, 0, 0, 0, 0, 0, 1, -1, 1, 1, -2], ctildes: [-0.02508267765546577, 0.0072213249497207954, -0.025082677655465766, 0.0072213249497207945, 0.086888944178278651, -0.025015403421762374, -0.061439761638600238, 0.01768856139364534]}
    - {mu0: 0, rank: 3, ndensity: 2, num_ms_combs: 5, mus: [0, 0, 0], ns: [1, 1, 2], ls: [1, 2, 1], ms_combs: [0, 0, 0, 0, 1, -1, 1, -2, 1, 1, -1, 0, 1, 0, -1], ctildes: [0.013854489495074429, 0.0018397189474985182, -0.023996679718398192, -0.0031864866887145737, 0.033936429909682105, 0.0045063726915014844, -0.023996679718398192, -0.0031864866887145737, 0.013854489495074427, 0.001839718947498518]}
    - {mu0: 0, rank: 3, ndensity: 2, num_ms_combs: 8, mus: [0, 0, 0], ns: [1, 1, 2], ls: [1, 2, 3], ms_combs: [0, 0, 0, 0, 1, -1, 0, 2, -2, 1, -2, 1, 1, -1, 0, 1, 0, -1, 1, 1, -2, 1, 2, -3], ctildes: [0.021726188123032709, -0.0073372837514648218, -0.040967293203016147, 0.013835314923068389, 0.032387489023366453, -0.010937776825653339, -0.014484125415355136, 0.0048915225009765473, 0.025087241122594764, -0.0084723654980577625, -0.035478716638097547, 0.011981734192735171, 0.045802826228054587, -0.01546835232904909, -0.056096776518050021, 0.018944785183881017]}
    - {mu0: 0, rank: 3, ndensity: 2, num_ms_combs: 8, mus: [0, 0, 0], ns: [1, 1, 2], ls: [1, 3, 2], ms_combs: [0, 0, 0, 0, 1, -1, 0, 2, -2, 1, -3, 2, 1, -2, 1, 1, -1, 0, 1, 0, -1, 1, 1, -2], ctildes: [0.047098829759817142, -0.0087877828863529867, -0.088810405090979955, 0.016570402321427442, 0.070210790002427526, -0.013100053270263066, -0.12160865552375343, 0.022689957845954453, 0.099293051446362288, -0.018526273002616039, -0.076912066929175488, 0.014350389361284799, 0.054385044080693584, -0.01014725763003177, -0.031399219839878111, 0.0058585219242353274]}
    - {mu0: 0, rank: 3, ndensity: 2, num_ms_combs: 3, mus: [0, 0, 0], ns: [1, 1, 2], ls: [2, 2, 0], ms_combs: [0, 0, 0, 1, -1, 0, 2, -2, 0], ctildes: [-0.059414707006288765, -0.023679570499006278, 0.11882941401257754, 0.047359140998012562, -0.11882941401257757, -0.047359140998012576]}
    - {mu0: 0, rank: 3, ndensity: 2, num_ms_combs: 8, mus: [0, 0, 0], ns: [1, 1, 2], ls: [2, 2, 2], ms_combs: [-2, 1, 1, -2, 2, 0, -1, 1, 0, -1, 2, -1, 0, 0, 0, 0, 1, -1, 0, 2, -2, 1, 1, -2], ctildes: [0.05393940179979137, 0.015964804127358522, -0.044041337146816475, -0.013035207985169078, -0.022020668573408238, -0.0065176039925845392, 0.05393940179979137, 0.015964804127358522, 0.022020668573408238, 0.0065176039925845392, -0.044041337146816475, -0.013035207985169078, -0.088082674293632993, -0.02607041597033817, 0.05393940179979137, 0.015964804127358522]}
    - {mu0: 0, rank: 3, ndensity: 2, num_ms_combs: 8, mus: [0, 0, 0], ns: [1, 1, 2], ls: [2, 3, 1], ms_combs: [0, 0, 0, 0, 1, -1, 1, -2, 1, 1, -1, 0, 1, 0, -1, 2, -3, 1, 2, -2, 0, 2, -1, -1], ctildes: [0.019431366913049621, -0.0029640284799217678, -0.031731289294514298, 0.0048402382392570545, 0.040964918330447866, -0.0062487206974396288, -0.036640136831843459, 0.0055890257007539636, 0.02243740983594316, -0.0034225652815370981, -0.050171573632191317, 0.0076530886269476585, 0.028966571542212792, -0.0044185127789002953, -0.012954244608699742, 0.001976018986614511]}
    - {mu0: 0, rank: 3, ndensity: 2, num_ms_combs: 14, mus: [0, 0, 0], ns: [1, 1, 2], ls: [2, 3, 3], ms_combs: [0, 0, 0, 0, 1, -1, 0, 3, -3, 1, -3, 2, 1, -2, 1, 1, -1, 0, 1, 0, -1, 1, 1, -2, 1, 2, -3, 2, -3, 1, 2, -2, 0, 2, -1, -1, 2, 0, -2, 2, 1, -3], ctildes: [0.039353108816835673, 0.012238858769521957, -0.059029663225253499, -0.018358288154282931, 0.098382772042089173, 0.030597146923804889, -0.098382772042089173, -0.030597146923804889, 0.076206967534546408, 0.023700448095471567, -0.027826850105156602, -0.0086541800299134164, -0.027826850105156627, -0.0086541800299134233, 0.076206967534546421, 0.023700448095471571, -0.098382772042089173, -0.030597146923804889, 0.06222272843482736, 0.019351334836407569, -0.087996226440390887, -0.02736692017567053, 0.096395036393469233, 0.029978959019315982, -0.087996226440390887, -0.027366920175670526, 0.062222728434827353, 0.019351334836407566]}
    - {mu0: 0, rank: 3, ndensity: 2, num_ms_combs: 4, mus: [0, 0, 0], ns: [1, 1, 2], ls: [3, 3, 0], ms_combs: [0, 0, 0, 1, -1, 0, 2, -2, 0, 3, -3, 0], ctildes: [0.11516336945998647, -0.030424559360438488, -0.23032673891997293, 0.060849118720876977, 0.23032673891997291, -0.06084911872087697, -0.23032673891997291, 0.06084911872087697]}
    - {mu0: 0, rank: 3, ndensity: 2, num_ms_combs: 12, mus: [0, 0, 0], ns: [1, 1, 2], ls: [3, 3, 2], ms_combs: [-3, 1, 2, -3, 2, 1, -3, 3, 0, -2, 1, 1, -2, 3, -1, -1, 1, 0, -1, 2, -1, -1, 3, -2, 0, 0, 0, 0, 1, -1, 0, 2, -2, 1, 1, -2], ctildes: [0.016558219148415033, 0.0071747620126805869, -0.02618084325260257, -0.011344294814862267, 0.026180843252602566, 0.011344294814862266, 0.020279593981399321, 0.0087872529784857462, -0.02618084325260257, -0.011344294814862267, -0.015708505951561536, -0.0068065768889173581, 0.020279593981399321, 0.0087872529784857462, 0.016558219148415033, 0.0071747620126805869, 0.010472337301041027, 0.0045377179259449068, -0.01481012144087788, -0.0064173022330948019, -0.046833716176868857, -0.020293291490264348, 0.025651882801865679, 0.011115093515245412]}
    - {mu0: 0, rank: 3, ndensity: 2, num_ms_combs: 1, mus: [0, 0, 0], ns: [1, 1, 3], ls: [0, 0, 0], ms_combs: [0, 0, 0], ctildes: [0.27901159308839685, -0.10907467685296673]}
    - {mu0: 0, rank: 3, ndensity: 2, num_ms_combs: 2, mus: [0, 0, 0], ns: [1, 1, 3], ls: [0, 1, 1], ms_combs: [0, 0, 0, 0, 1, -1], ctildes: [0.029067394723520896, 0.017584201051714012, -0.058134789447041785, -0.035168402103428018]}
    - {mu0: 0, rank: 3, ndensity: 2, num_ms_combs: 3, mus: [0, 0, 0], ns: [1, 1, 3], ls: [0, 2, 2], ms_combs: [0, 0, 0, 0, 1, -1, 0, 2, -2], ctildes: [0.14566970286743808, 0.040704320330672637, -0.29133940573487621, -0.081408640661345275, 0.29133940573487627, 0.081408640661345302]}
    - {mu0: 0, rank: 3, ndensity: 2, num_ms_combs: 4, mus: [0, 0, 0], ns: [1, 1, 3], ls: [0, 3, 3], ms_combs: [0, 0, 0, 0, 1, -1, 0, 2, -2, 0, 3, -3], ctildes: [0.014755787596587003, 0.022350352997486118, -0.029511575193174006, -0.044700705994972237, 0.029511575193174003, 0.04470070599497223, -0.029511575193174003, -0.04470070599497223]}
    - {mu0: 0, rank: 3, ndensity: 2, num_ms_combs: 2, mus: [0, 0, 0], ns: [1, 1, 3], ls: [1, 1, 0], ms_combs: [0, 0, 0, 1, -1, 0], ctildes: [0.065391021122465198, 0.01299643942598144, -0.13078204224493037, -0.025992878851962876]}
    - {mu0: 0, rank: 3, ndensity: 2, num_ms_combs: 4, mus: [0, 0, 0], ns: [1, 1, 3], ls: [1, 1, 2], ms_combs: [-1, 1, 0, 0, 0, 0, 0, 1, -1, 1, 1, -2], ctildes: [-0.042385144296075462, -0.0018243927592588563, -0.042385144296075455, -0.0018243927592588561, 0.14682644681388182, 0.0063198819039942296, -0.1038219761996218, -0.00446883135061247]}
    - {mu0: 0, rank: 3, ndensity: 2, num_ms_combs: 5, mus: [0, 0, 0], ns: [1, 1, 3], ls: [1, 2, 1], ms_combs: [0, 0, 0, 0, 1, -1, 1, -2, 1, 1, -1, 0, 1, 0, -1], ctildes: [-0.062172402842701181, -0.019436578106345748, 0.10768576055219815, 0.033665140805471713, -0.15229066304738023, -0.047609698706297991, 0.10768576055219815, 0.033665140805471713, -0.062172402842701167, -0.019436578106345744]}
    - {mu0: 0, rank: 3, ndensity: 2, num_ms_combs: 8, mus: [0, 0, 0], ns: [1, 1, 3], ls: [1, 2, 3], ms_combs: [0, 0, 0, 0, 1, -1, 0, 2, -2, 1, -2, 1, 1, -1, 0, 1, 0, -1, 1, 1, -2, 1, 2, -3], ctildes: [0.011919287222852317, -0.001386263326215638, -0.022475223525837452, 0.0026139631959394582, 0.017768224315761638, -0.0020665193547554214, -0.007946191481901543, 0.00092417555081042533, 0.013763207373324503, -0.0016007190091166092, -0.019464114529108897, 0.0022637585322411308, 0.025128063806637513, -0.0029224996984016142, -0.030775467275179907, 0.003579316517260843]}
    - {mu0: 0, rank: 3, ndensity: 2, num_ms_combs: 8, mus: [0, 0, 0], ns: [1, 1, 3], ls: [1, 3, 2], ms_combs: [0, 0, 0, 0, 1, -1, 0, 2, -2, 1, -3, 2, 1, -2, 1, 1, -1, 0, 1, 0, -1, 1, 1, -2], ctildes: [0.1278577339262795, 0.0071686929793325672, -0.24109085516378015, -0.013517417114481213, 0.19059905633882815, 0.010686456541075418, -0.33012724945353317, -0.018509485682019385, 0.26954777044988432, 0.015112931774099524, -0.20879080519194831, -0.011706426614691274, 0.14763739420062608, 0.0082776936427108785, -0.085238489284186369, -0.0047791286528883802]}
    - {mu0: 0, rank: 3, ndensity: 2, num_ms_combs: 3, mus: [0, 0, 0], ns: [1, 1, 3], ls: [2, 2, 0], ms_combs: [0, 0, 0, 1, -1, 0, 2, -2, 0], ctildes: [0.052926585598654194, 0.0022674208242191934, -0.1058531711973084, -0.0045348416484383876, 0.10585317119730843, 0.0045348416484383884]}
    - {mu0: 0, rank: 3, ndensity: 2, num_ms_combs: 8, mus: [0, 0, 0], ns: [1, 1, 3], ls: [2, 2, 2], ms_combs: [-2, 1, 1, -2, 2, 0, -1, 1, 0, -1, 2, -1, 0, 0, 0, 0, 1, -1, 0, 2, -2, 1, 1, -2], ctildes: [-0.02323134253476148, -0.0066235983469598147, 0.018968311749993597, 0.0054081454037312252, 0.0094841558749967983, 0.0027040727018656126, -0.02323134253476148, -0.0066235983469598147, -0.0094841558749967983, -0.0027040727018656126, 0.018968311749993597, 0.0054081454037312252, 0.037936623499987214, 0.010816290807462456, -0.02323134253476148, -0.0066235983469598147]}
    - {mu0: 0, rank: 3, ndensity: 2, num_ms_combs: 8, mus: [0, 0, 0], ns: [1, 1, 3], ls: [2, 3, 1], ms_combs: [0, 0, 0, 0, 1, -1, 1, -2, 1, 1, -1, 0, 1, 0, -1, 2, -3, 1, 2, -2, 0, 2, -1, -1], ctildes: [0.021552008285306942, 0.011807865427137207, -0.03519428215415827, -0.019282163498624456, 0.045435622888259967, 0.024893166036340359, -0.040638856551277851, -0.022265124572978419, 0.024886115570198004, 0.013634548565825076, -0.055647046110878687, -0.030487777435707141, 0.032127837051723333, 0.017602126509498918, -0.014368005523537956, -0.0078719102847581348]}
    - {mu0: 0, rank: 3, ndensity: 2, num_ms_combs: 14, mus: [0, 0, 0], ns: [1, 1, 3], ls: [2, 3, 3], ms_combs: [0, 0, 0, 0, 1, -1, 0, 3, -3, 1, -3, 2, 1, -2, 1, 1, -1, 0, 1, 0, -1, 1, 1, -2, 1, 2, -3, 2, -3, 1, 2, -2, 0, 2, -1, -1, 2, 0, -2, 2, 1, -3], ctildes: [-0.049177751582421755, -0.0053816636097928526, 0.073766627373632612, 0.0080724954146892767, -0.12294437895605437, -0.013454159024482132, 0.12294437895605437, 0.013454159024482132, -0.09523230644132244, -0.010421546767809105, 0.034773921627437872, 0.0038054108325493983, 0.0347739216274379, 0.0038054108325494013, -0.095232306441322453, -0.010421546767809107, 0.12294437895605437, 0.013454159024482132, -0.077756852603201226, -0.0085091573038945274, 0.1099647955188929, 0.012033765663533723, -0.12046039807428129, -0.013182329811297085, 0.10996479551889289, 0.012033765663533721, -0.077756852603201213, -0.0085091573038945257]}
    - {mu0: 0, rank: 3, ndensity: 2, num_ms_combs: 4, mus: [0, 0, 0], ns: [1, 1, 3], ls: [3, 3, 0], ms_combs: [0, 0, 0, 1, -1, 0, 2, -2, 0, 3, -3, 0], ctildes: [-0.0506427199878626, -0.024612256766519444, 0.1012854399757252, 0.049224513533038888, -0.10128543997572519, -0.049224513533038881, 0.10128543997572519, 0.049224513533038881]}
    - {mu0: 0, rank: 3, ndensity: 2, num_ms_combs: 12, mus: [0, 0, 0], ns: [1, 1, 3], ls: [3, 3, 2], ms_combs: [-3, 1, 2, -3, 2, 1, -3, 3, 0, -2, 1, 1, -2, 3, -1, -1, 1, 0, -1, 2, -1, -1, 3, -2, 0, 0, 0, 0, 1, -1, 0, 2, -2, 1, 1, -2], ctildes: [-0.0080247390620773566, -0.001008065881595799, 0.012688226532343886, 0.0015938921086741686, -0.012688226532343885, -0.0015938921086741684, -0.0098282580105349942, -0.0012346235185092958, 0.012688226532343886, 0.0015938921086741686, 0.0076129359194063292, 0.00095633526520450072, -0.0098282580105349942, -0.0012346235185092958, -0.0080247390620773566, -0.001008065881595799, -0.0050752906129375545, -0.00063755684346966733, 0.0071775448178011507, 0.00090164153481858439, 0.022697389632189903, 0.0028512408830367398, -0.012431872298034293, -0.0015616889485201711]}
    - {mu0: 0, rank: 3, ndensity: 2, num_ms_combs: 1, mus: [0, 0, 0], ns: [1, 1, 4], ls: [0, 0, 0], ms_combs: [0, 0, 0], ctildes: [0.20502942252235387, 0.20989685582660625]}
    - {mu0: 0, rank: 3, ndensity: 2, num_ms_combs: 2, mus: [0, 0, 0], ns: [1, 1, 4], ls: [0, 1, 1], ms_combs: [0, 0, 0, 0, 1, -1], ctildes: [-0.050629944067283321, -0.03190428146372367, 0.10125988813456663, 0.063808562927447326]}
    - {mu0: 0, rank: 3, ndensity: 2, num_ms_combs: 3, mus: [0, 0, 0], ns: [1, 1, 4], ls: [0, 2, 2], ms_combs: [0, 0, 0, 0, 1, -1, 0, 2, -2], ctildes: [-0.005973672350733681, 0.0028879473678460272, 0.011947344701467362, -0.0057758947356920543, -0.011947344701467365, 0.0057758947356920561]}
    - {mu0: 0, rank: 3, ndensity: 2, num_ms_combs: 4, mus: [0, 0, 0], ns: [1, 1, 4], ls: [0, 3, 3], ms_combs: [0, 0, 0, 0, 1, -1, 0, 2, -2, 0, 3, -3], ctildes: [0.0017553357095681395, -0.056095902660994977, -0.003510671419136279, 0.11219180532198995, 0.0035106714191362781, -0.11219180532198994, -0.0035106714191362781, 0.11219180532198994]}
    - {mu0: 0, rank: 3, ndensity: 2, num_ms_combs: 2, mus: [0, 0, 0], ns: [1, 1, 4], ls: [1, 1, 0], ms_combs: [0, 0, 0, 1, -1, 0], ctildes: [-0.0062346137471223726, 0.0089983540713834166, 0.012469227494244742, -0.01799670814276683]}
    - {mu0: 0, rank: 3, ndensity: 2, num_ms_combs: 4, mus: [0, 0, 0], ns: [1, 1, 4], ls: [1, 1, 2], ms_combs: [-1, 1, 0, 0, 0, 0, 0, 1, -1, 1, 1, -2], ctildes: [0.029341409526470984, -0.0022357730930150526, 0.02934140952647098, -0.0022357730930150522, -0.10164162413106645, 0.0077449451825949778, 0.071871481673891319, -0.0054765032585309932]}
    - {mu0: 0, rank: 3, ndensity: 2, num_ms_combs: 5, mus: [0, 0, 0], ns: [1, 1, 4], ls: [1, 2, 1], ms_combs: [0, 0, 0, 0, 1, -1, 1, -2, 1, 1, -1, 0, 1, 0, -1], ctildes: [0.085959564744348849, 0.001215044967437895, -0.14888633353371861, -0.0021045196170833063, 0.21055707213538899, 0.0029762401847594441, -0.14888633353371861, -0.0021045196170833063, 0.085959564744348835, 0.0012150449674378947]}
    - {mu0: 0, rank: 3, ndensity: 2, num_ms_combs: 8, mus: [0, 0, 0], ns: [1, 1, 4], ls: [1, 2, 3], ms_combs: [0, 0, 0, 0, 1, -1, 0, 2, -2, 1, -2, 1, 1, -1, 0, 1, 0, -1, 1, 1, -2, 1, 2, -3], ctildes: [-0.021735776192251182, -0.012705502520807705, 0.040985372639717139, 0.023957725308922404, -0.032401782073063448, -0.018940244883213969, 0.014490517461500787, 0.008470335013871802, -0.025098312471283354, -0.014671050601155592, 0.035494373889566715, 0.020747998734416191, -0.04582303965278374, -0.02678555118850881, 0.056121532806320311, 0.032805466445523054]}
    - {mu0: 0, rank: 3, ndensity: 2, num_ms_combs: 8, mus: [0, 0, 0], ns: [1, 1, 4], ls: [1, 3, 2], ms_combs: [0, 0, 0, 0, 1, -1, 0, 2, -2, 1, -3, 2, 1, -2, 1, 1, -1, 0, 1, 0, -1, 1, 1, -2], ctildes: [-0.027644408933821186, -0.0062813103200413441, 0.052126797383997184, 0.01184415232543541, -0.041209851715884468, -0.009363624575588942, 0.071377556944291362, 0.01621827350792061, -0.058279531199987952, -0.013242164867767893, 0.045143130752465781, 0.0102573368001196, -0.031921013879059525, -0.0072530324082788911, 0.0184296059558808, 0.0041875402133608984]}
    - {mu0: 0, rank: 3, ndensity: 2, num_ms_combs: 3, mus: [0, 0, 0], ns: [1, 1, 4], ls: [2, 2, 0], ms_combs: [0, 0, 0, 1, -1, 0, 2, -2, 0], ctildes: [-0.08706306575369932, -0.0080731081711120627, 0.17412613150739867, 0.016146216342224125, -0.17412613150739872, -0.016146216342224132]}
    - {mu0: 0, rank: 3, ndensity: 2, num_ms_combs: 8, mus: [0, 0, 0], ns: [1, 1, 4], ls: [2, 2, 2], ms_combs: [-2, 1, 1, -2, 2, 0, -1, 1, 0, -1, 2, -1, 0, 0, 0, 0, 1, -1, 0, 2, -2, 1, 1, -2], ctildes: [0.054334743316145642, 0.0070636175159472072, -0.044364132143218521, -0.00576741955075209, -0.02218206607160926, -0.002883709775376045, 0.054334743316145642, 0.0070636175159472072, 0.02218206607160926, 0.002883709775376045, -0.044364132143218521, -0.00576741955075209, -0.088728264286437084, -0.011534839101504187, 0.054334743316145642, 0.0070636175159472072]}
    - {mu0: 0, rank: 3, ndensity: 2, num_ms_combs: 8, mus: [0, 0, 0], ns: [1, 1, 4], ls: [2, 3, 1], ms_combs: [0, 0, 0, 0, 1, -1, 1, -2, 1, 1, -1, 0, 1, 0, -1, 2, -3, 1, 2, -2, 0, 2, -1, -1], ctildes: [0.008868529358037754, 0.0030215230639699516, -0.014482247797389968, -0.0049341265018514628, 0.018696501511646802, 0.0063699299232504595, -0.016722659328587932, -0.0056974385281192193, 0.010240495624358388, 0.0034889543086914273, -0.02289844433935451, -0.0078015390046248185, 0.013220423003349991, 0.0045042206444135041, -0.0059123529053585, -0.0020143487093133004]}
    - {mu0: 0, rank: 3, ndensity: 2, num_ms_combs: 14, mus: [0, 0, 0], ns: [1, 1, 4], ls: [2, 3, 3], ms_combs: [0, 0, 0, 0, 1, -1, 0, 3, -3, 1, -3, 2, 1, -2, 1, 1, -1, 0, 1, 0, -1, 1, 1, -2, 1, 2, -3, 2, -3, 1, 2, -2, 0, 2, -1, -1, 2, 0, -2, 2, 1, -3], ctildes: [0.01247624875545887, -0.00099358701021414375, -0.0187143731331883, 0.0014903805153212153, 0.031190621888647175, -0.0024839675255353593, -0.031190621888647175, 0.0024839675255353593, 0.024160151826516606, -0.0019240729717836986, -0.0088220400987551861, 0.00070257211262128821, -0.0088220400987551947, 0.00070257211262128875, 0.02416015182651661, -0.0019240729717836991, -0.031190621888647175, 0.0024839675255353593, 0.019726681361045564, -0.0015709990029168391, -0.027897740321403186, 0.0022217280963996036, 0.030560443354907894, -0.00243378119008215, -0.027897740321403183, 0.0022217280963996032, 0.019726681361045561, -0.0015709990029168387]}
    - {mu0: 0, rank: 3, ndensity: 2, num_ms_combs: 4, mus: [0, 0, 0], ns: [1, 1, 4], ls: [3, 3, 0], ms_combs: [0, 0, 0, 1, -1, 0, 2, -2, 0, 3, -3, 0], ctildes: [0.01834862942157247, -0.014164931438516916, -0.036697258843144939, 0.028329862877033832, 0.036697258843144939, -0.028329862877033828, -0.036697258843144939, 0.028329862877033828]}
    - {mu0: 0, rank: 3, ndensity: 2, num_ms_combs: 12, mus: [0, 0, 0], ns: [1, 1, 4], ls: [3, 3, 2], ms_combs: [-3, 1, 2, -3, 2, 1, -3, 3, 0, -2, 1, 1, -2, 3, -1, -1, 1, 0, -1, 2, -1, -1, 3, -2, 0, 0, 0, 0, 1, -1, 0, 2, -2, 1, 1, -2], ctildes: [-0.0068896554760515287, 0.0090220777951235554, 0.010893501799087242, -0.014265157529910201, -0.010893501799087242, 0.0142651575299102, -0.0084380702099490883, 0.011049743508873512, 0.010893501799087242, -0.014265157529910201, 0.0065361010794523439, -0.008559094517946118, -0.0084380702099490883, 0.011049743508873512, -0.0068896554760515287, 0.0090220777951235554, -0.0043574007196348968, 0.0057060630119640798, 0.006162295194401958, -0.008069591699275078, 0.019486888428620276, -0.025518289557297773, -0.010673408367941725, 0.013976942819480507]}
    - {mu0: 0, rank: 3, ndensity: 2, num_ms_combs: 1, mus: [0, 0, 0], ns: [1, 2, 2], ls: [0, 0, 0], ms_combs: [0, 0, 0], ctildes: [0.12542117361668229, -0.094506184849223809]}
    - {mu0: 0, rank: 3, ndensity: 2, num_ms_combs: 2, mus: [0, 0, 0], ns: [1, 2, 2], ls: [0, 1, 1], ms_combs: [0, 0, 0, 0, 1, -1], ctildes: [-0.035974454741014739, -0.017232759725861763, 0.071948909482029463, 0.03446551945172352]}
    - {mu0: 0, rank: 3, ndensity: 2, num_ms_combs: 3, mus: [0, 0, 0], ns: [1, 2, 2], ls: [0, 2, 2], ms_combs: [0, 0, 0, 0, 1, -1, 0, 2, -2], ctildes: [0.018828559728273728, 0.010207773958661483, -0.037657119456547462, -0.02041554791732297, 0.037657119456547469, 0.020415547917322974]}
    - {mu0: 0, rank: 3, ndensity: 2, num_ms_combs: 4, mus: [0, 0, 0], ns: [1, 2, 2], ls: [0, 3, 3], ms_combs: [0, 0, 0, 0, 1, -1, 0, 2, -2, 0, 3, -3], ctildes: [0.016834353505327762, 0.045422692024891013, -0.033668707010655524, -0.090845384049782027, 0.033668707010655517, 0.090845384049782013, -0.033668707010655517, -0.090845384049782013]}
    - {mu0: 0, rank: 3, ndensity: 2, num_ms_combs: 2, mus: [0, 0, 0], ns: [1, 2, 2], ls: [1, 0, 1], ms_combs: [0, 0, 0, 1, 0, -1], ctildes: [0.06063741397716492, -0.0036861150237241938, -0.12127482795432981, 0.0073722300474483859]}
    - {mu0: 0, rank: 3, ndensity: 2, num_ms_combs: 5, mus: [0, 0, 0], ns: [1, 2, 2], ls: [1, 1, 2], ms_combs: [0, 0, 0, 0, 1, -1, 1, -1, 0, 1, 0, -1, 1, 1, -2], ctildes: [-0.039411485554517345, -0.0027644169094729336, 0.06826269538219093, 0.0047881105405096561, -0.039411485554517352, -0.002764416909472934, 0.06826269538219093, 0.0047881105405096561, -0.096538029613637666, -0.0067714108645303269]}
    - {mu0: 0, rank: 3, ndensity: 2, num_ms_combs: 8, mus: [0, 0, 0], ns: [1, 2, 2], ls: [1, 2, 3], ms_combs: [0, 0, 0, 0, 1, -1, 0, 2, -2, 1, -2, 1, 1, -1, 0, 1, 0, -1, 1, 1, -2, 1, 2, -3], ctildes: [-0.020016577448119282, -0.011793278968301936, 0.037743620399228968, 0.022237620082429306, -0.02983895190058931, -0.017580382300494472, 0.013344384965412853, 0.0078621859788679561, -0.023113152755853315, -0.013617705573954947, 0.032686934096528841, 0.01925834391109078, -0.042198650464811839, -0.024862415081063193, 0.051682580736424601, 0.030450115360941048]}
    - {mu0: 0, rank: 3, ndensity: 2, num_ms_combs: 3, mus: [0, 0, 0], ns: [1, 2, 2], ls: [2, 0, 2], ms_combs: [0, 0, 0, 1, 0, -1, 2, 0, -2], ctildes: [-0.044710218601607468, -0.015783793604957012, 0.089420437203214936, 0.031567587209914032, -0.089420437203214964, -0.031567587209914039]}
    - {mu0: 0, rank: 3, ndensity: 2, num_ms_combs: 4, mus: [0, 0, 0], ns: [1, 2, 2], ls: [2, 1, 1], ms_combs: [0, -1, 1, 0, 0, 0, 1, -1, 0, 2, -1, -1], ctildes: [-0.0053121740620124249, -0.0012522386118616134, -0.0053121740620124258, -0.0012522386118616136, 0.018401910748110133, 0.0043378817978876761, -0.013012115876778287, -0.003067345635272068]}
    - {mu0: 0, rank: 3, ndensity: 2, num_ms_combs: 8, mus: [0, 0, 0], ns: [1, 2, 2], ls: [2, 1, 3], ms_combs: [0, 0, 0, 0, 1, -1, 1, -1, 0, 1, 0, -1, 1, 1, -2, 2, -1, -1, 2, 0, -2, 2, 1, -3], ctildes: [-0.0014002928304672852, 0.00210097705888899, 0.0022866686167482926, -0.0034308811703809001, -0.0016169188852291798, 0.0024259993410215728, 0.0026404174828541915, -0.0039616403345540622, -0.002952076490320428, 0.0044292485452339441, 0.00093352855364485661, -0.0014006513725926598, -0.0020874333048869582, 0.0031319516818955726, 0.003615540541475626, -0.0054246994398939302]}
    - {mu0: 0, rank: 3, ndensity: 2, num_ms_combs: 7, mus: [0, 0, 0], ns: [1, 2, 2], ls: [2, 2, 2], ms_combs: [0, -2, 2, 0, -1, 1, 0, 0, 0, 1, -2, 1, 1, -1, 0, 2, -2, 0, 2, -1, -1], ctildes: [-0.021059679706408298, -0.0065523428264290771, -0.010529839853204142, -0.0032761714132145368, 0.010529839853204142, 0.0032761714132145368, 0.051585469427146154, 0.016049896544536958, -0.021059679706408284, -0.0065523428264290737, -0.042119359412816575, -0.013104685652858151, 0.025792734713573077, 0.0080249482722684791]}
    - {mu0: 0, rank: 3, ndensity: 2, num_ms_combs: 9, mus: [0, 0, 0], ns: [1, 2, 2], ls: [2, 3, 3], ms_combs: [0, -3, 3, 0, -1, 1, 0, 0, 0, 1, -3, 2, 1, -2, 1, 1, -1, 0, 2, -3, 1, 2, -2, 0, 2, -1, -1], ctildes: [0.017406907541363852, 0.0046027261114861889, -0.010444144524818309, -0.002761635666891713, 0.0069627630165455413, 0.0018410904445944757, -0.034813815082727705, -0.0092054522229723778, 0.0269666652066698, 0.0071305126307760142, -0.0098468338895885063, -0.0026036950763010185, 0.022018189940268554, 0.0058220391832905782, -0.031138422832434648, -0.0082336067736771164, 0.017055216590458364, 0.0045097321595702891]}
    - {mu0: 0, rank: 3, ndensity: 2, num_ms_combs: 4, mus: [0, 0, 0], ns: [1, 2, 2], ls: [3, 0, 3], ms_combs: [0, 0, 0, 1, 0, -1, 2, 0, -2, 3, 0, -3], ctildes: [-0.11308332030454712, 0.031288229948474848, 0.22616664060909425, -0.062576459896949696, -0.22616664060909422, 0.062576459896949696, 0.22616664060909422, -0.062576459896949696]}
    - {mu0: 0, rank: 3, ndensity: 2, num_ms_combs: 8, mus: [0, 0, 0], ns: [1, 2, 2], ls: [3, 1, 2], ms_combs: [0, 0, 0, 0, 1, -1, 1, -1, 0, 1, 0, -1, 1, 1, -2, 2, -1, -1, 2, 0, -2, 3, -1, -2], ctildes: [0.013760370591245142, -0.0056549061079232965, 0.015889107330008791, -0.006529723127303151, -0.022470591080100188, 0.0092344230051733759, -0.025946803617891694, 0.010662993215695443, -0.0091735803941634334, 0.0037699374052821998, 0.029009408344221655, -0.011921588836957044, 0.020512749358408754, -0.0084298363091301759, -0.035529124091689845, 0.014600904786902361]}
    - {mu0: 0, rank: 3, ndensity: 2, num_ms_combs: 14, mus: [0, 0, 0], ns: [1, 2, 2], ls: [3, 2, 3], ms_combs: [0, 0, 0, 0, 1, -1, 0, 2, -2, 1, -2, 1, 1, -1, 0, 1, 0, -1, 1, 1, -2, 1, 2, -3, 2, -2, 0, 2, -1, -1, 2, 1, -3, 3, -2, -1, 3, -1, -2, 3, 0, -3], ctildes: [-0.036612842279920954, 0.0058422316602804534, 0.025889189054645649, -0.0041310816242470516, 0.081868804187381627, -0.013063627132688551, -0.089682781618804649, 0.014310486526820107, 0.025889189054645628, -0.004131081624247049, 0.054919263419881417, -0.0087633474904206775, -0.070900464203726338, 0.011313432962475953, -0.05788998660853116, 0.0092373793324166467, 0.081868804187381641, -0.013063627132688552, -0.070900464203726324, 0.011313432962475951, 0.091532105699802371, -0.014605579150701133, -0.057889986608531167, 0.0092373793324166485, 0.091532105699802371, -0.014605579150701133, -0.091532105699802371, 0.014605579150701133]}
    - {mu0: 0, rank: 3, ndensity: 2, num_ms_combs: 1, mus: [0, 0, 0], ns: [1, 2, 3], ls: [0, 0, 0], ms_combs: [0, 0, 0], ctildes: [0.012830562103862173, -0.092034729902341586]}
    - {mu0: 0, rank: 3, ndensity: 2, num_ms_combs: 2, mus: [0, 0, 0], ns: [1, 2, 3], ls: [0, 1, 1], ms_combs: [0, 0, 0, 0, 1, -1], ctildes: [0.012357098134783815, 0.018259111792054788, -0.024714196269567622, -0.036518223584109569]}
    - {mu0: 0, rank: 3, ndensity: 2, num_ms_combs: 3, mus: [0, 0, 0], ns: [1, 2, 3], ls: [0, 2, 2], ms_combs: [0, 0, 0, 0, 1, -1, 0, 2, -2], ctildes: [0.024243850337557483, -0.015346371661019695, -0.048487700675114973, 0.030692743322039393, 0.048487700675114986, -0.0306927433220394]}
    - {mu0: 0, rank: 3, ndensity: 2, num_ms_combs: 4, mus: [0, 0, 0], ns: [1, 2, 3], ls: [0, 3, 3], ms_combs: [0, 0, 0, 0, 1, -1, 0, 2, -2, 0, 3, -3], ctildes: [-0.030053254862329525, -0.0030846474224524223, 0.06010650972465905, 0.0061692948449048445, -0.060106509724659037, -0.0061692948449048428, 0.060106509724659037, 0.0061692948449048428]}
    - {mu0: 0, rank: 3, ndensity: 2, num_ms_combs: 2, mus: [0, 0, 0], ns: [1, 2, 3], ls: [1, 0, 1], ms_combs: [0, 0, 0, 1, 0, -1], ctildes: [-0.018004569139478808, -0.00063076050781597261, 0.03600913827895761, 0.001261521015631945]}
    - {mu0: 0, rank: 3, ndensity: 2, num_ms_combs: 2, mus: [0, 0, 0], ns: [1, 2, 3], ls: [1, 1, 0], ms_combs: [0, 0, 0, 1, -1, 0], ctildes: [0.037328789971751139, -0.00018859408603104255, -0.074657579943502264, 0.00037718817206208499]}
    - {mu0: 0, rank: 3, ndensity: 2, num_ms_combs: 5, mus: [0, 0, 0], ns: [1, 2, 3], ls: [1, 1, 2], ms_combs: [0, 0, 0, 0, 1, -1, 1, -1, 0, 1, 0, -1, 1, 1, -2], ctildes: [0.017467124417296143, 0.0061661944734366795, -0.030253946952883849, -0.010680162117342752, 0.017467124417296146, 0.0061661944734366803, -0.030253946952883849, -0.010680162117342752, 0.042785542096084518, 0.015104030114689472]}
    - {mu0: 0, rank: 3, ndensity: 2, num_ms_combs: 5, mus: [0, 0, 0], ns: [1, 2, 3], ls: [1, 2, 1], ms_combs: [0, 0, 0, 0, 1, -1, 1, -2, 1, 1, -1, 0, 1, 0, -1], ctildes: [-0.0065826388161805719, -0.012327039411670382, 0.0114014648774998, 0.021351058567917063, -0.016124106260680712, -0.030194956597770578, 0.0114014648774998, 0.021351058567917063, -0.0065826388161805711, -0.01232703941167038]}
    - {mu0: 0, rank: 3, ndensity: 2, num_ms_combs: 8, mus: [0, 0, 0], ns: [1, 2, 3], ls: [1, 2, 3], ms_combs: [0, 0, 0, 0, 1, -1, 0, 2, -2, 1, -2, 1, 1, -1, 0, 1, 0, -1, 1, 1, -2, 1, 2, -3], ctildes: [0.018351683891578707, -0.0019543432772973295, -0.034604267002472627, 0.0036851450243820878, 0.027357075122105237, -0.002913362946271033, -0.012234455927719138, 0.0013028955181982197, 0.021190699269771768, -0.0022566812344730972, -0.02996817430348088, 0.0031914292077447129, 0.038688746664540821, -0.004120117390731733, -0.047383844057964822, 0.0050460926438299861]}
    - {mu0: 0, rank: 3, ndensity: 2, num_ms_combs: 8, mus: [0, 0, 0], ns: [1, 2, 3], ls: [1, 3, 2], ms_combs: [0, 0, 0, 0, 1, -1, 0, 2, -2, 1, -3, 2, 1, -2, 1, 1, -1, 0, 1, 0, -1, 1, 1, -2], ctildes: [-0.037249378171917022, 0.0013600483544804289, 0.070238101067585865, -0.0025645317711859121, -0.055528094474668908, 0.0020274403822033147, 0.096177480877611188, -0.003511629751293004, -0.078528584298811266, 0.0028672336854148181, 0.060827979838108261, -0.0022209496626593014, -0.043011877029404941, 0.0015704485671403671, 0.024832918781278027, -0.00090669890298695317]}
    - {mu0: 0, rank: 3, ndensity: 2, num_ms_combs: 3, mus: [0, 0, 0], ns: [1, 2, 3], ls: [2, 0, 2], ms_combs: [0, 0, 0, 1, 0, -1, 2, 0, -2], ctildes: [0.11444651019220102, 0.03449508879611226, -0.22889302038440207, -0.068990177592224533, 0.22889302038440212, 0.068990177592224547]}
    - {mu0: 0, rank: 3, ndensity: 2, num_ms_combs: 5, mus: [0, 0, 0], ns: [1, 2, 3], ls: [2, 1, 1], ms_combs: [0, 0, 0, 0, 1, -1, 1, -1, 0, 1, 0, -1, 2, -1, -1], ctildes: [0.031448282507047981, 0.0012233970428470306, 0.031448282507047974, 0.0012233970428470304, -0.054470023112986654, -0.0021189858360405761, -0.054470023112986654, -0.0021189858360405761, 0.077032245429161664, 0.0029966985078050735]}
    - {mu0: 0, rank: 3, ndensity: 2, num_ms_combs: 8, mus: [0, 0, 0], ns: [1, 2, 3], ls: [2, 1, 3], ms_combs: [0, 0, 0, 0, 1, -1, 1, -1, 0, 1, 0, -1, 1, 1, -2, 2, -1, -1, 2, 0, -2, 2, 1, -3], ctildes: [0.032857567467246045, 0.0038281600438166124, -0.053656182989216948, -0.0062513591740407954, 0.037940650844261577, 0.0044203784635969811, -0.061956823385024451, -0.0072184478038669802, 0.069269834379431613, 0.0080704699907403147, -0.021905044978164024, -0.0025521066958777414, 0.048981169621365145, 0.0057066840578150107, -0.084837874398353663, -0.0098842667308789278]}
    - {mu0: 0, rank: 3, ndensity: 2, num_ms_combs: 3, mus: [0, 0, 0], ns: [1, 2, 3], ls: [2, 2, 0], ms_combs: [0, 0, 0, 1, -1, 0, 2, -2, 0], ctildes: [0.073913174995126896, 0.018466580894402528, -0.14782634999025382, -0.036933161788805062, 0.14782634999025385, 0.036933161788805069]}
    - {mu0: 0, rank: 3, ndensity: 2, num_ms_combs: 10, mus: [0, 0, 0], ns: [1, 2, 3], ls: [2, 2, 2], ms_combs: [0, 0, 0, 0, 1, -1, 0, 2, -2, 1, -2, 1, 1, -1, 0, 1, 0, -1, 1, 1, -2, 2, -2, 0, 2, -1, -1, 2, 0, -2], ctildes: [-0.025704702942772297, 0.0013801852903338994, 0.025704702942772297, -0.0013801852903338994, 0.051409405885544622, -0.0027603705806678001, -0.062963406199609329, 0.0033807497118131099, 0.025704702942772297, -0.0013801852903338994, 0.025704702942772297, -0.0013801852903338994, -0.062963406199609329, 0.0033807497118131099, 0.051409405885544594, -0.0027603705806677988, -0.062963406199609329, 0.0033807497118131099, 0.051409405885544622, -0.0027603705806678001]}
    - {mu0: 0, rank: 3, ndensity: 2, num_ms_combs: 8, mus: [0, 0, 0], ns: [1, 2, 3], ls: [2, 3, 1], ms_combs: [0, 0, 0, 0, 1, -1, 1, -2, 1, 1, -1, 0, 1, 0, -1, 2, -3, 1, 2, -2, 0, 2, -1, -1], ctildes: [-0.051942943163367838, 0.0040951626409465843, 0.084822470992426055, -0.0066873725893516825, -0.10950533917927595, 0.0086333608894810145, 0.097944552921612846, -0.00772191272926704, -0.059978544435743679, 0.0047286865062516163, 0.13411610254981465, -0.010573664472264599, -0.077431967909798963, 0.0061047080293827492, 0.034628628775578547, -0.0027301084272977217]}
    - {mu0: 0, rank: 3, ndensity: 2, num_ms_combs: 14, mus: [0, 0, 0], ns: [1, 2, 3], ls: [2, 3, 3], ms_combs: [0, 0, 0, 0, 1, -1, 0, 3, -3, 1, -3, 2, 1, -2, 1, 1, -1, 0, 1, 0, -1, 1, 1, -2, 1, 2, -3, 2, -3, 1, 2, -2, 0, 2, -1, -1, 2, 0, -2, 2, 1, -3], ctildes: [0.0044190684231584952, -0.00084324141994306405, -0.0066286026347377406, 0.0012648621299145956, 0.011047671057896237, -0.0021081035498576599, -0.011047671057896237, 0.0021081035498576599, 0.0085574892043219601, -0.0016329299881358908, -0.0031247532485427138, 0.00059626172621911355, -0.0031247532485427164, 0.00059626172621911398, 0.0085574892043219618, -0.001632929988135891, -0.011047671057896237, 0.0021081035498576599, 0.0069871606766548069, -0.001333281752207307, -0.0098813373914052004, 0.0018855451364361382, 0.010824462775183766, -0.0020655112088404579, -0.0098813373914052004, 0.001885545136436138, 0.0069871606766548052, -0.0013332817522073068]}
    - {mu0: 0, rank: 3, ndensity: 2, num_ms_combs: 4, mus: [0, 0, 0], ns: [1, 2, 3], ls: [3, 0, 3], ms_combs: [0, 0, 0, 1, 0, -1, 2, 0, -2, 3, 0, -3], ctildes: [0.029522967539038811, 0.029124947177086295, -0.059045935078077622, -0.058249894354172591, 0.059045935078077615, 0.058249894354172584, -0.059045935078077615, -0.058249894354172584]}
    - {mu0: 0, rank: 3, ndensity: 2, num_ms_combs: 8, mus: [0, 0, 0], ns: [1, 2, 3], ls: [3, 1, 2], ms_combs: [0, 0, 0, 0, 1, -1, 1, -1, 0, 1, 0, -1, 1, 1, -2, 2, -1, -1, 2, 0, -2, 3, -1, -2], ctildes: [-0.062916442527690644, -0.0080498417435798993, -0.072649650059631657, -0.0092951565951794862, 0.10274212041599042, 0.013145336521284551, 0.11863638175857003, 0.015178927158303707, 0.041944295018460455, 0.0053665611623866022, -0.13263950710838932, -0.016970556475742402, -0.093790294929583393, -0.011999995564506732, 0.16244955607490805, 0.020784602008326828]}
    - {mu0: 0, rank: 3, ndensity: 2, num_ms_combs: 8, mus: [0, 0, 0], ns: [1, 2, 3], ls: [3, 2, 1], ms_combs: [0, 0, 0, 0, 1, -1, 1, -2, 1, 1, -1, 0, 1, 0, -1, 2, -2, 0, 2, -1, -1, 3, -2, -1], ctildes: [0.032831483033526988, 0.014347839159875518, 0.037910531134602854, 0.016567457602487162, -0.021887655355684651, -0.0095652261065836755, -0.061907638105114703, -0.027054544974191668, -0.053613587287322843, -0.023429923235478586, 0.048942285243398227, 0.021388495794476752, 0.069214843564746359, 0.030247900831308926, -0.084770524680094231, -0.037045961413506988]}
    - {mu0: 0, rank: 3, ndensity: 2, num_ms_combs: 14, mus: [0, 0, 0], ns: [1, 2, 3], ls: [3, 2, 3], ms_combs: [0, 0, 0, 0, 1, -1, 0, 2, -2, 1, -2, 1, 1, -1, 0, 1, 0, -1, 1, 1, -2, 1, 2, -3, 2, -2, 0, 2, -1, -1, 2, 1, -3, 3, -2, -1, 3, -1, -2, 3, 0, -3], ctildes: [0.041092539903039786, 0.0057193830223463268, -0.029056813621618233, -0.0040442145193043001, -0.091885712591319571, -0.012788929227324584, 0.1006557549974044, 0.014009570048285579, -0.029056813621618209, -0.0040442145193042966, -0.061638809854559662, -0.008579074533519488, 0.079575361348918419, 0.011075537598064384, 0.064973010467480191, 0.0090431385807560449, -0.091885712591319585, -0.012788929227324585, 0.079575361348918405, 0.011075537598064383, -0.10273134975759945, -0.014298457555865816, 0.064973010467480191, 0.0090431385807560466, -0.10273134975759945, -0.014298457555865816, 0.10273134975759945, 0.014298457555865816]}
    - {mu0: 0, rank: 3, ndensity: 2, num_ms_combs: 4, mus: [0, 0, 0], ns: [1, 2, 3], ls: [3, 3, 0], ms_combs: [0, 0, 0, 1, -1, 0, 2, -2, 0, 3, -3, 0], ctildes: [0.050930923359138867, 0.043072926460871214, -0.10186184671827773, -0.086145852921742427, 0.10186184671827772, 0.086145852921742413, -0.10186184671827772, -0.086145852921742413]}
    - {mu0: 0, rank: 3, ndensity: 2, num_ms_combs: 14, mus: [0, 0, 0], ns: [1, 2, 3], ls: [3, 3, 2], ms_combs: [0, 0, 0, 0, 1, -1, 0, 2, -2, 1, -3, 2, 1, -2, 1, 1, -1, 0, 1, 0, -1, 1, 1, -2, 2, -3, 1, 2, -1, -1, 2, 0, -2, 3, -3, 0, 3, -2, -1, 3, -1, -2], ctildes: [-0.0015538900253752094, -0.0013220851953965015, 0.0010987661741609475, 0.00093485540697120831, 0.0034746037262978436, 0.0029562723689526712, -0.0024569158568012511, -0.0020904002391208521, -0.0030090950950580043, -0.0025602069720190154, 0.0023308350380628136, 0.0019831277930947517, 0.0010987661741609475, 0.00093485540697120831, -0.0038062376785696697, -0.0032384341252092259, 0.0038847250634380238, 0.0033052129884912538, -0.0030090950950580043, -0.0025602069720190154, 0.0034746037262978436, 0.0029562723689526712, -0.0038847250634380234, -0.0033052129884912538, 0.0038847250634380238, 0.0033052129884912538, -0.0024569158568012511, -0.0020904002391208521]}
    - {mu0: 0, rank: 3, ndensity: 2, num_ms_combs: 1, mus: [0, 0, 0], ns: [1, 2, 4], ls: [0, 0, 0], ms_combs: [0, 0, 0], ctildes: [-0.29842059772670532, -0.0079274326760526738]}
    - {mu0: 0, rank: 3, ndensity: 2, num_ms_combs: 2, mus: [0, 0, 0], ns: [1, 2, 4], ls: [0, 1, 1], ms_combs: [0, 0, 0, 0, 1, -1], ctildes: [0.044779952908222738, 0.023450898697725292, -0.089559905816445462, -0.04690179739545057]}
    - {mu0: 0, rank: 3, ndensity: 2, num_ms_combs: 3, mus: [0, 0, 0], ns: [1, 2, 4], ls: [0, 2, 2], ms_combs: [0, 0, 0, 0, 1, -1, 0, 2, -2], ctildes: [0.062572334105511135, -0.043167238025228767, -0.1251446682110223, 0.086334476050457548, 0.12514466821102233, -0.086334476050457576]}
    - {mu0: 0, rank: 3, ndensity: 2, num_ms_combs: 4, mus: [0, 0, 0], ns: [1, 2, 4], ls: [0, 3, 3], ms_combs: [0, 0, 0, 0, 1, -1, 0, 2, -2, 0, 3, -3], ctildes: [0.0057219953666019455, -0.06520968126541965, -0.011443990733203891, 0.1304193625308393, 0.011443990733203891, -0.13041936253083927, -0.011443990733203891, 0.13041936253083927]}
    - {mu0: 0, rank: 3, ndensity: 2, num_ms_combs: 2, mus: [0, 0, 0], ns: [1, 2, 4], ls: [1, 0, 1], ms_combs: [0, 0, 0, 1, 0, -1], ctildes: [0.032085365920713434, -0.026738935176722777, -0.064170731841426853, 0.05347787035344554]}
    - {mu0: 0, rank: 3, ndensity: 2, num_ms_combs: 2, mus: [0, 0, 0], ns: [1, 2, 4], ls: [1, 1, 0], ms_combs: [0, 0, 0, 1, -1, 0], ctildes: [-0.14464002493761291, -0.00036519395174214509, 0.28928004987522576, 0.00073038790348429008]}
    - {mu0: 0, rank: 3, ndensity: 2, num_ms_combs: 5, mus: [0, 0, 0], ns: [1, 2, 4], ls: [1, 1, 2], ms_combs: [0, 0, 0, 0, 1, -1, 1, -1, 0, 1, 0, -1, 1, 1, -2], ctildes: [0.076493160845316585, 0.0108760598805675, -0.13249004101562667, -0.018837888299304412, 0.076493160845316599, 0.010876059880567501, -0.13249004101562667, -0.018837888299304412, 0.18736921288366687, 0.026640797119345739]}
    - {mu0: 0, rank: 3, ndensity: 2, num_ms_combs: 5, mus: [0, 0, 0], ns: [1, 2, 4], ls: [1, 2, 1], ms_combs: [0, 0, 0, 0, 1, -1, 1, -2, 1, 1, -1, 0, 1, 0, -1], ctildes: [-0.024682802929526952, 3.8684763355739125e-05, 0.042751868747150611, -6.700397561091887e-05, -0.06046027259901484, 9.4757931041877547e-05, 0.042751868747150611, -6.700397561091887e-05, -0.024682802929526945, 3.8684763355739118e-05]}
    - {mu0: 0, rank: 3, ndensity: 2, num_ms_combs: 8, mus: [0, 0, 0], ns: [1, 2, 4], ls: [1, 2, 3], ms_combs: [0, 0, 0, 0, 1, -1, 0, 2, -2, 1, -2, 1, 1, -1, 0, 1, 0, -1, 1, 1, -2, 1, 2, -3], ctildes: [0.01747457488720526, -0.012042368514604784, -0.032950374402919966, 0.022707307835265103, 0.026049558217134443, -0.017951703072506302, -0.011649716591470171, 0.0080282456764031868, 0.020177901030204459, -0.013905329407175489, -0.028535861297137192, 0.019665105436893007, 0.036839638524499028, -0.025387541952833173, -0.045119158346800199, 0.031093261803971237]}
    - {mu0: 0, rank: 3, ndensity: 2, num_ms_combs: 8, mus: [0, 0, 0], ns: [1, 2, 4], ls: [1, 3, 2], ms_combs: [0, 0, 0, 0, 1, -1, 0, 2, -2, 1, -3, 2, 1, -2, 1, 1, -1, 0, 1, 0, -1, 1, 1, -2], ctildes: [-0.0041681109569610564, 0.0088801619842034437, 0.0078594653930803039, -0.016744594018840649, -0.0062134529583510864, 0.013237763898592218, 0.010762016214303227, -0.022928479650962775, -0.0087871494428673324, 0.018721025240882042, 0.0068064966905721927, -0.01450124379637297, -0.0048129199660273915, 0.010253927824054682, 0.0027787406379740391, -0.0059201079894689651]}
    - {mu0: 0, rank: 3, ndensity: 2, num_ms_combs: 3, mus: [0, 0, 0], ns: [1, 2, 4], ls: [2, 0, 2], ms_combs: [0, 0, 0, 1, 0, -1, 2, 0, -2], ctildes: [-0.083762921549592792, -0.0060314171872718489, 0.16752584309918558, 0.0120628343745437, -0.16752584309918564, -0.012062834374543701]}
    - {mu0: 0, rank: 3, ndensity: 2, num_ms_combs: 5, mus: [0, 0, 0], ns: [1, 2, 4], ls: [2, 1, 1], ms_combs: [0, 0, 0, 0, 1, -1, 1, -1, 0, 1, 0, -1, 2, -1, -1], ctildes: [0.066868748702081912, 0.0060741418816527698, 0.066868748702081912, 0.0060741418816527689, -0.11582007019056131, -0.01052072235140462, -0.11582007019056131, -0.01052072235140462, 0.16379431405849559, 0.014878548235318171]}
    - {mu0: 0, rank: 3, ndensity: 2, num_ms_combs: 8, mus: [0, 0, 0], ns: [1, 2, 4], ls: [2, 1, 3], ms_combs: [0, 0, 0, 0, 1, -1, 1, -1, 0, 1, 0, -1, 1, 1, -2, 2, -1, -1, 2, 0, -2, 2, 1, -3], ctildes: [-0.0060911387682765546, -0.0063003993173967668, 0.0099467879565082549, 0.010288509002267679, -0.0070334412150716676, -0.0072750744838023145, 0.011485561408524336, 0.011880146884038264, -0.012841248034604321, -0.01328240800769593, 0.0040607591788510361, 0.0042002662115978437, -0.0090801335641671407, -0.0093920807727282934, 0.015727252672648965, 0.016267561087156164]}
    - {mu0: 0, rank: 3, ndensity: 2, num_ms_combs: 3, mus: [0, 0, 0], ns: [1, 2, 4], ls: [2, 2, 0], ms_combs: [0, 0, 0, 1, -1, 0, 2, -2, 0], ctildes: [-0.037782311405749329, 0.021369978319954307, 0.075564622811498658, -0.042739956639908622, -0.075564622811498686, 0.042739956639908629]}
    - {mu0: 0, rank: 3, ndensity: 2, num_ms_combs: 10, mus: [0, 0, 0], ns: [1, 2, 4], ls: [2, 2, 2], ms_combs: [0, 0, 0, 0, 1, -1, 0, 2, -2, 1, -2, 1, 1, -1, 0, 1, 0, -1, 1, 1, -2, 2, -2, 0, 2, -1, -1, 2, 0, -2], ctildes: [0.036781273390215752, 0.0031736655089450684, -0.036781273390215752, -0.0031736655089450684, -0.073562546780431545, -0.0063473310178901402, 0.090095351895837367, 0.0077738611111857021, -0.036781273390215752, -0.0031736655089450684, -0.036781273390215752, -0.0031736655089450684, 0.090095351895837367, 0.0077738611111857021, -0.073562546780431504, -0.0063473310178901367, 0.090095351895837367, 0.0077738611111857021, -0.073562546780431545, -0.0063473310178901402]}
    - {mu0: 0, rank: 3, ndensity: 2, num_ms_combs: 8, mus: [0, 0, 0], ns: [1, 2, 4], ls: [2, 3, 1], ms_combs: [0, 0, 0, 0, 1, -1, 1, -2, 1, 1, -1, 0, 1, 0, -1, 2, -3, 1, 2, -2, 0, 2, -1, -1], ctildes: [0.01932740659634578, -0.0062913806536973906, -0.0315615228082326, 0.010273781586117518, 0.040745750739076811, -0.01326339499520186, -0.036444107378735227, 0.011863141128680744, 0.022317366802275158, -0.0072646606279731813, -0.049903149248684373, 0.016244274997614348, 0.028811596652137998, -0.009378636542662952, -0.012884937730897182, 0.004194253769131592]}
    - {mu0: 0, rank: 3, ndensity: 2, num_ms_combs: 4, mus: [0, 0, 0], ns: [1, 2, 4], ls: [3, 0, 3], ms_combs: [0, 0, 0, 1, 0, -1, 2, 0, -2, 3, 0, -3], ctildes: [0.014664154191041324, -0.043396467140631251, -0.029328308382082648, 0.086792934281262502, 0.029328308382082641, -0.086792934281262488, -0.029328308382082641, 0.086792934281262488]}
    - {mu0: 0, rank: 3, ndensity: 2, num_ms_combs: 8, mus: [0, 0, 0], ns: [1, 2, 4], ls: [3, 1, 2], ms_combs: [0, 0, 0, 0, 1, -1, 1, -1, 0, 1, 0, -1, 1, 1, -2, 2, -1, -1, 2, 0, -2, 3, -1, -2], ctildes: [0.0040696231506189909, 0.0042818782864050588, 0.0046991960430204163, 0.004944287162586351, -0.0066456667762894552, -0.0069922779615968047, -0.0076737550044705385, -0.0080739871267532064, -0.002713082100412662, -0.0028545855242700408, 0.0085795189163376633, 0.0090269920324391895, 0.006066636005060624, 0.0063830472798546882, -0.010507721791791678, -0.011055762195822636]}
    - {mu0: 0, rank: 3, ndensity: 2, num_ms_combs: 8, mus: [0, 0, 0], ns: [1, 2, 4], ls: [3, 2, 1], ms_combs: [0, 0, 0, 0, 1, -1, 1, -2, 1, 1, -1, 0, 1, 0, -1, 2, -2, 0, 2, -1, -1, 3, -2, -1], ctildes: [-0.021807599310081013, -0.00096565968743185938, -0.025181246664109529, -0.0011150477609687074, 0.014538399540054004, 0.00064377312495457267, 0.041120803609486292, 0.0018208653688041325, 0.035611660549845957, 0.001576915666255699, -0.032508849655612439, -0.001439520469485891, -0.045974456080115023, -0.0020357893712606321, 0.056306979299138735, 0.0024933225916849667]}
    - {mu0: 0, rank: 3, ndensity: 2, num_ms_combs: 4, mus: [0, 0, 0], ns: [1, 2, 4], ls: [3, 3, 0], ms_combs: [0, 0, 0, 1, -1, 0, 2, -2, 0, 3, -3, 0], ctildes: [-0.011737947064113562, 0.054362504178620923, 0.023475894128227124, -0.10872500835724185, -0.023475894128227121, 0.10872500835724183, 0.023475894128227121, -0.10872500835724183]}
    - {mu0: 0, rank: 3, ndensity: 2, num_ms_combs: 1, mus: [0, 0, 0], ns: [1, 3, 3], ls: [0, 0, 0], ms_combs: [0, 0, 0], ctildes: [0.018158679035302629, -0.18674208200577477]}
    - {mu0: 0, rank: 3, ndensity: 2, num_ms_combs: 2, mus: [0, 0, 0], ns: [1, 3, 3], ls: [0, 1, 1], ms_combs: [0, 0, 0, 0, 1, -1], ctildes: [-0.061098562744335845, -0.0377865230276885, 0.12219712548867166, 0.075573046055376986]}
    - {mu0: 0, rank: 3, ndensity: 2, num_ms_combs: 3, mus: [0, 0, 0], ns: [1, 3, 3], ls: [0, 2, 2], ms_combs: [0, 0, 0, 0, 1, -1, 0, 2, -2], ctildes: [-0.023583428674180878, -0.020072566904962945, 0.047166857348361763, 0.040145133809925897, -0.047166857348361776, -0.040145133809925904]}
    - {mu0: 0, rank: 3, ndensity: 2, num_ms_combs: 4, mus: [0, 0, 0], ns: [1, 3, 3], ls: [0, 3, 3], ms_combs: [0, 0, 0, 0, 1, -1, 0, 2, -2, 0, 3, -3], ctildes: [0.027426700624419133, -0.043856738231898652, -0.054853401248838266, 0.087713476463797305, 0.054853401248838259, -0.087713476463797291, -0.054853401248838259, 0.087713476463797291]}
    - {mu0: 0, rank: 3, ndensity: 2, num_ms_combs: 2, mus: [0, 0, 0], ns: [1, 3, 3], ls: [1, 0, 1], ms_combs: [0, 0, 0, 1, 0, -1], ctildes: [-0.072272112207822217, -0.018163572417751642, 0.14454422441564441, 0.036327144835503276]}
    - {mu0: 0, rank: 3, ndensity: 2, num_ms_combs: 5, mus: [0, 0, 0], ns: [1, 3, 3], ls: [1, 1, 2], ms_combs: [0, 0, 0, 0, 1, -1, 1, -1, 0, 1, 0, -1, 1, 1, -2], ctildes: [0.021901459697596933, 0.00035178416542225608, -0.037934440956159998, -0.00060930804780956233, 0.021901459697596937, 0.00035178416542225614, -0.037934440956159998, -0.00060930804780956233, 0.053647400881242882, 0.00086169170487535734]}
    - {mu0: 0, rank: 3, ndensity: 2, num_ms_combs: 8, mus: [0, 0, 0], ns: [1, 3, 3], ls: [1, 2, 3], ms_combs: [0, 0, 0, 0, 1, -1, 0, 2, -2, 1, -2, 1, 1, -1, 0, 1, 0, -1, 1, 1, -2, 1, 2, -3], ctildes: [0.051963612213066376, 0.0067826042333674671, -0.097983526855486211, -0.012789401193383254, 0.077462779509903101, 0.010110909420191666, -0.034642408142044244, -0.0045217361555783108, 0.060002410998558381, 0.007831876759882804, -0.08485622340924584, -0.011075946332660914, 0.10954891336202166, 0.014298985229960939, -0.13416946980665756, -0.017512608826498743]}
    - {mu0: 0, rank: 3, ndensity: 2, num_ms_combs: 3, mus: [0, 0, 0], ns: [1, 3, 3], ls: [2, 0, 2], ms_combs: [0, 0, 0, 1, 0, -1, 2, 0, -2], ctildes: [0.13031711892052378, 0.040903333285187825, -0.26063423784104761, -0.081806666570375663, 0.26063423784104767, 0.081806666570375677]}
    - {mu0: 0, rank: 3, ndensity: 2, num_ms_combs: 4, mus: [0, 0, 0], ns: [1, 3, 3], ls: [2, 1, 1], ms_combs: [0, -1, 1, 0, 0, 0, 1, -1, 0, 2, -1, -1], ctildes: [0.065585129222551428, 0.013363126298048705, 0.065585129222551428, 0.013363126298048707, -0.22719355206885877, -0.046291227392360336, 0.16065010130974899, 0.032732840798586446]}
    - {mu0: 0, rank: 3, ndensity: 2, num_ms_combs: 8, mus: [0, 0, 0], ns: [1, 3, 3], ls: [2, 1, 3], ms_combs: [0, 0, 0, 0, 1, -1, 1, -1, 0, 1, 0, -1, 1, 1, -2, 2, -1, -1, 2, 0, -2, 2, 1, -3], ctildes: [0.078036141426664721, 0.0091472446979759432, -0.12743248532732845, -0.014937388041613256, 0.090108374518409154, 0.010562328377439575, -0.14714635941447224, -0.017248210013630621, 0.16451463114618797, 0.019284085040335314, -0.052024094284443143, -0.0060981631319839621, 0.11632941128787312, 0.013635907300999157, -0.20148845076517272, -0.023618084252629942]}
    - {mu0: 0, rank: 3, ndensity: 2, num_ms_combs: 7, mus: [0, 0, 0], ns: [1, 3, 3], ls: [2, 2, 2], ms_combs: [0, -2, 2, 0, -1, 1, 0, 0, 0, 1, -2, 1, 1, -1, 0, 2, -2, 0, 2, -1, -1], ctildes: [-0.096815605639703275, -0.015161472639042833, -0.04840780281985161, -0.0075807363195214122, 0.04840780281985161, 0.0075807363195214122, 0.23714883295579431, 0.03713787171482321, -0.09681560563970322, -0.015161472639042824, -0.19363121127940647, -0.030322945278085656, 0.11857441647789715, 0.018568935857411605]}
    - {mu0: 0, rank: 3, ndensity: 2, num_ms_combs: 4, mus: [0, 0, 0], ns: [1, 3, 3], ls: [3, 0, 3], ms_combs: [0, 0, 0, 1, 0, -1, 2, 0, -2, 3, 0, -3], ctildes: [-0.020618516308279149, 0.016220583970995101, 0.041237032616558297, -0.032441167941990201, -0.04123703261655829, 0.032441167941990194, 0.04123703261655829, -0.032441167941990194]}
    - {mu0: 0, rank: 3, ndensity: 2, num_ms_combs: 8, mus: [0, 0, 0], ns: [1, 3, 3], ls: [3, 1, 2], ms_combs: [0, 0, 0, 0, 1, -1, 1, -1, 0, 1, 0, -1, 1, 1, -2, 2, -1, -1, 2, 0, -2, 3, -1, -2], ctildes: [0.020427354907461653, -0.0041230693437071947, 0.023587477709310023, -0.0047609103909536862, -0.033357730878679298, 0.0067329440441296975, -0.038518189804721166, 0.0077745341126339365, -0.013618236604974441, 0.0027487128958047979, 0.04306464538679794, -0.0086921933846202445, 0.030451302782398805, -0.0061463088856498248, -0.05274320357577824, 0.010645719268957543]}
    - {mu0: 0, rank: 3, ndensity: 2, num_ms_combs: 1, mus: [0, 0, 0], ns: [1, 3, 4], ls: [0, 0, 0], ms_combs: [0, 0, 0], ctildes: [0.038724600211167824, 0.024078981709960447]}
    - {mu0: 0, rank: 3, ndensity: 2, num_ms_combs: 2, mus: [0, 0, 0], ns: [1, 3, 4], ls: [0, 1, 1], ms_combs: [0, 0, 0, 0, 1, -1], ctildes: [-0.056799354629695403, -0.026048802309059829, 0.11359870925939078, 0.052097604618119651]}
    - {mu0: 0, rank: 3, ndensity: 2, num_ms_combs: 3, mus: [0, 0, 0], ns: [1, 3, 4], ls: [0, 2, 2], ms_combs: [0, 0, 0, 0, 1, -1, 0, 2, -2], ctildes: [-0.065791887456430179, 0.015604326609974344, 0.13158377491286039, -0.031208653219948691, -0.13158377491286041, 0.031208653219948698]}
    - {mu0: 0, rank: 3, ndensity: 2, num_ms_combs: 4, mus: [0, 0, 0], ns: [1, 3, 4], ls: [0, 3, 3], ms_combs: [0, 0, 0, 0, 1, -1, 0, 2, -2, 0, 3, -3], ctildes: [0.0019335366364316869, -0.039982157483953937, -0.0038670732728633738, 0.079964314967907874, 0.0038670732728633733, -0.07996431496790786, -0.0038670732728633733, 0.07996431496790786]}
    - {mu0: 0, rank: 3, ndensity: 2, num_ms_combs: 2, mus: [0, 0, 0], ns: [1, 3, 4], ls: [1, 0, 1], ms_combs: [0, 0, 0, 1, 0, -1], ctildes: [0.066452173867029798, 0.0026802652938499576, -0.13290434773405957, -0.0053605305876999144]}
    - {mu0: 0, rank: 3, ndensity: 2, num_ms_combs: 2, mus: [0, 0, 0], ns: [1, 3, 4], ls: [1, 1, 0], ms_combs: [0, 0, 0, 1, -1, 0], ctildes: [0.072372429345068628, 0.020578182626296487, -0.14474485869013723, -0.041156365252592968]}
    - {mu0: 0, rank: 3, ndensity: 2, num_ms_combs: 5, mus: [0, 0, 0], ns: [1, 3, 4], ls: [1, 1, 2], ms_combs: [0, 0, 0, 0, 1, -1, 1, -1, 0, 1, 0, -1, 1, 1, -2], ctildes: [-0.012533855700951769, -0.010622376041148919, 0.021709274888785293, 0.018398495000372283, -0.012533855700951771, -0.01062237604114892, 0.021709274888785293, 0.018398495000372283, -0.030701550977005831, -0.026019401156780069]}
    - {mu0: 0, rank: 3, ndensity: 2, num_ms_combs: 5, mus: [0, 0, 0], ns: [1, 3, 4], ls: [1, 2, 1], ms_combs: [0, 0, 0, 0, 1, -1, 1, -2, 1, 1, -1, 0, 1, 0, -1], ctildes: [-0.062279088437421998, -0.010318262934999281, 0.10787054542269031, 0.01787175564927352, -0.15255198831735159, -0.025274479222620588, 0.10787054542269031, 0.01787175564927352, -0.062279088437421991, -0.010318262934999279]}
    - {mu0: 0, rank: 3, ndensity: 2, num_ms_combs: 8, mus: [0, 0, 0], ns: [1, 3, 4], ls: [1, 2, 3], ms_combs: [0, 0, 0, 0, 1, -1, 0, 2, -2, 1, -2, 1, 1, -1, 0, 1, 0, -1, 1, 1, -2, 1, 2, -3], ctildes: [0.0041342993804716491, -0.0057299792148652129, -0.0077957096730315867, 0.010804552423704431, 0.0061630496360465803, -0.0085417486893996572, -0.0027561995869810987, 0.0038199861432434748, 0.0047738777204516187, -0.0066164100843067817, -0.0067512826173734344, 0.0093570168754487648, 0.0087158683808756399, -0.012079856842931605, -0.010674715099201555, 0.014794742715525076]}
    - {mu0: 0, rank: 3, ndensity: 2, num_ms_combs: 8, mus: [0, 0, 0], ns: [1, 3, 4], ls: [1, 3, 2], ms_combs: [0, 0, 0, 0, 1, -1, 0, 2, -2, 1, -3, 2, 1, -2, 1, 1, -1, 0, 1, 0, -1, 1, 1, -2], ctildes: [0.0050569363827950402, 0.0058315482756587343, -0.0095354506888089188, -0.010996072881426695, 0.00753843567321441, 0.0086931589056297477, -0.01305695359559705, -0.015056992902820579, 0.010660957968136969, 0.012293983224206037, -0.0082579425330423489, -0.0095228784571806686, 0.0058392471637630601, 0.0067336919334877393, -0.003371290921863362, -0.0038876988504391581]}
    - {mu0: 0, rank: 3, ndensity: 2, num_ms_combs: 3, mus: [0, 0, 0], ns: [1, 3, 4], ls: [2, 0, 2], ms_combs: [0, 0, 0, 1, 0, -1, 2, 0, -2], ctildes: [-0.047127780146162389, 0.0075686038404760396, 0.094255560292324791, -0.015137207680952081, -0.094255560292324805, 0.015137207680952084]}
    - {mu0: 0, rank: 3, ndensity: 2, num_ms_combs: 5, mus: [0, 0, 0], ns: [1, 3, 4], ls: [2, 1, 1], ms_combs: [0, 0, 0, 0, 1, -1, 1, -1, 0, 1, 0, -1, 2, -1, -1], ctildes: [-0.033022759853016233, -0.015679874842525577, -0.033022759853016233, -0.015679874842525574, 0.057197097871569874, 0.027158339883575348, 0.057197097871569874, 0.027158339883575348, -0.080888911538355396, -0.038407692594890394]}
    - {mu0: 0, rank: 3, ndensity: 2, num_ms_combs: 8, mus: [0, 0, 0], ns: [1, 3, 4], ls: [2, 1, 3], ms_combs: [0, 0, 0, 0, 1, -1, 1, -1, 0, 1, 0, -1, 1, 1, -2, 2, -1, -1, 2, 0, -2, 2, 1, -3], ctildes: [0.0020076389861906278, 0.012906851444671543, -0.0032784607359237074, -0.021076800150232791, 0.0023182218182254922, 0.014903548311943248, -0.0037856403768263421, -0.024337392480785692, 0.0042324746104758088, 0.027210031991064518, -0.0013384259907937516, -0.0086045676297810264, 0.002992811498267336, 0.019240398137184617, -0.0051837015724753611, -0.033325347131457336]}
    - {mu0: 0, rank: 3, ndensity: 2, num_ms_combs: 3, mus: [0, 0, 0], ns: [1, 3, 4], ls: [2, 2, 0], ms_combs: [0, 0, 0, 1, -1, 0, 2, -2, 0], ctildes: [-0.010040142095955662, 0.03396140350472026, 0.020080284191911327, -0.06792280700944052, -0.020080284191911334, 0.067922807009440533]}
    - {mu0: 0, rank: 3, ndensity: 2, num_ms_combs: 10, mus: [0, 0, 0], ns: [1, 3, 4], ls: [2, 2, 2], ms_combs: [0, 0, 0, 0, 1, -1, 0, 2, -2, 1, -2, 1, 1, -1, 0, 1, 0, -1, 1, 1, -2, 2, -2, 0, 2, -1, -1, 2, 0, -2], ctildes: [-0.013144731966862336, -0.012801302603141615, 0.013144731966862336, 0.012801302603141615, 0.02628946393372469, 0.025602605206283244, -0.032197886124463455, -0.031356659420658989, 0.013144731966862336, 0.012801302603141615, 0.013144731966862336, 0.012801302603141615, -0.032197886124463455, -0.031356659420658989, 0.026289463933724673, 0.025602605206283231, -0.032197886124463455, -0.031356659420658989, 0.02628946393372469, 0.025602605206283244]}
    - {mu0: 0, rank: 3, ndensity: 2, num_ms_combs: 8, mus: [0, 0, 0], ns: [1, 3, 4], ls: [2, 3, 1], ms_combs: [0, 0, 0, 0, 1, -1, 1, -2, 1, 1, -1, 0, 1, 0, -1, 2, -3, 1, 2, -2, 0, 2, -1, -1], ctildes: [-0.034802695033241828, -0.0060742369081045388, 0.056832563003424583, 0.0099191873344247113, -0.073370523344849073, -0.012805615784712818, 0.065624591097527121, 0.011453690955344872, -0.040186690691933223, -0.0070139246280314276, 0.089860172177920764, 0.015683612257338202, -0.05188079459634868, -0.0090549377586399259, 0.023201796688827877, 0.0040494912720696911]}
    - {mu0: 0, rank: 3, ndensity: 2, num_ms_combs: 4, mus: [0, 0, 0], ns: [1, 3, 4], ls: [3, 0, 3], ms_combs: [0, 0, 0, 1, 0, -1, 2, 0, -2, 3, 0, -3], ctildes: [-0.0052460322993305173, -0.0058607298263952503, 0.010492064598661035, 0.011721459652790501, -0.010492064598661033, -0.011721459652790499, 0.010492064598661033, 0.011721459652790499]}
    - {mu0: 0, rank: 3, ndensity: 2, num_ms_combs: 8, mus: [0, 0, 0], ns: [1, 3, 4], ls: [3, 1, 2], ms_combs: [0, 0, 0, 0, 1, -1, 1, -1, 0, 1, 0, -1, 1, 1, -2, 2, -1, -1, 2, 0, -2, 3, -1, -2], ctildes: [-0.0093957800024885782, -0.00052798413289099281, -0.01084931222736657, -0.00060966356250493194, 0.015343244494362055, 0.00086219447857917189, 0.01771685267812435, 0.00099557642860298792, 0.0062638533349923886, 0.00035198942192732878, -0.019808043467817626, -0.0011130882855763735, -0.014006401858131744, -0.00078707227479036222, 0.024259799649511308, 0.00136324916916572]}
    - {mu0: 0, rank: 3, ndensity: 2, num_ms_combs: 8, mus: [0, 0, 0], ns: [1, 3, 4], ls: [3, 2, 1], ms_combs: [0, 0, 0, 0, 1, -1, 1, -2, 1, 1, -1, 0, 1, 0, -1, 2, -2, 0, 2, -1, -1, 3, -2, -1], ctildes: [-0.037746299398616477, -0.01964540041082467, -0.043585672237406843, -0.022684554431055205, 0.025164199599077643, 0.013096933607216442, 0.071175104718558424, 0.037043722265650961, 0.061639448803289247, 0.032080804532788963, -0.056268860902910577, -0.0292856338425375, -0.079576186228181328, -0.041416140562809026, 0.09746052596786707, 0.050724205747133516]}
    - {mu0: 0, rank: 3, ndensity: 2, num_ms_combs: 4, mus: [0, 0, 0], ns: [1, 3, 4], ls: [3, 3, 0], ms_combs: [0, 0, 0, 1, -1, 0, 2, -2, 0, 3, -3, 0], ctildes: [-0.016576716924870363, 0.032080981471151571, 0.033153433849740725, -0.064161962942303141, -0.033153433849740718, 0.064161962942303141, 0.033153433849740718, -0.064161962942303141]}
    - {mu0: 0, rank: 3, ndensity: 2, num_ms_combs: 1, mus: [0, 0, 0], ns: [1, 4, 4], ls: [0, 0, 0], ms_combs: [0, 0, 0], ctildes: [-0.082531325904386263, 0.24419866375819405]}
    - {mu0: 0, rank: 3, ndensity: 2, num_ms_combs: 2, mus: [0, 0, 0], ns: [1, 4, 4], ls: [0, 1, 1], ms_combs: [0, 0, 0, 0, 1, -1], ctildes: [0.037267800818852857, -0.014722014411935049, -0.074535601637705701, 0.029444028823870094]}
    - {mu0: 0, rank: 3, ndensity: 2, num_ms_combs: 3, mus: [0, 0, 0], ns: [1, 4, 4], ls: [0, 2, 2], ms_combs: [0, 0, 0, 0, 1, -1, 0, 2, -2], ctildes: [0.0034773471888285383, -0.03752330710206668, -0.0069546943776570775, 0.075046614204133374, 0.0069546943776570792, -0.075046614204133388]}
    - {mu0: 0, rank: 3, ndensity: 2, num_ms_combs: 2, mus: [0, 0, 0], ns: [1, 4, 4], ls: [1, 0, 1], ms_combs: [0, 0, 0, 1, 0, -1], ctildes: [-0.010150432057958863, 0.013360790049432603, 0.020300864115917722, -0.026721580098865202]}
    - {mu0: 0, rank: 3, ndensity: 2, num_ms_combs: 5, mus: [0, 0, 0], ns: [1, 4, 4], ls: [1, 1, 2], ms_combs: [0, 0, 0, 0, 1, -1, 1, -1, 0, 1, 0, -1, 1, 1, -2], ctildes: [0.012094501349529748, -0.023225041888052061, -0.020948290829595883, 0.040226952558021584, 0.012094501349529749, -0.023225041888052064, -0.020948290829595883, 0.040226952558021584, 0.029625356999750434, -0.056889501880493201]}
    - {mu0: 0, rank: 3, ndensity: 2, num_ms_combs: 3, mus: [0, 0, 0], ns: [1, 4, 4], ls: [2, 0, 2], ms_combs: [0, 0, 0, 1, 0, -1, 2, 0, -2], ctildes: [0.047102071779578446, -0.0022977330543549348, -0.094204143559156905, 0.0045954661087098695, 0.094204143559156919, -0.0045954661087098713]}
    - {mu0: 0, rank: 3, ndensity: 2, num_ms_combs: 4, mus: [0, 0, 0], ns: [1, 4, 4], ls: [2, 1, 1], ms_combs: [0, -1, 1, 0, 0, 0, 1, -1, 0, 2, -1, -1], ctildes: [0.01639537664692239, -0.024573070515656027, 0.016395376646922394, -0.024573070515656034, -0.056795250723395689, 0.085123613262178002, 0.040160306925703257, -0.060191484176787192]}
    - {mu0: 0, rank: 3, ndensity: 2, num_ms_combs: 1, mus: [0, 0, 0], ns: [2, 2, 2], ls: [0, 0, 0], ms_combs: [0, 0, 0], ctildes: [0.1126943519096812, -0.12595235261081031]}
    - {mu0: 0, rank: 3, ndensity: 2, num_ms_combs: 2, mus: [0, 0, 0], ns: [2, 2, 2], ls: [0, 1, 1], ms_combs: [0, 0, 0, 0, 1, -1], ctildes: [-0.054510781237390775, -0.020617032075181976, 0.10902156247478154, 0.041234064150363944]}
    - {mu0: 0, rank: 3, ndensity: 2, num_ms_combs: 3, mus: [0, 0, 0], ns: [2, 2, 2], ls: [0, 2, 2], ms_combs: [0, 0, 0, 0, 1, -1, 0, 2, -2], ctildes: [0.037332193563277362, 0.019167902076483861, -0.074664387126554724, -0.03833580415296773, 0.074664387126554752, 0.038335804152967737]}
    - {mu0: 0, rank: 3, ndensity: 2, num_ms_combs: 4, mus: [0, 0, 0], ns: [2, 2, 2], ls: [0, 3, 3], ms_combs: [0, 0, 0, 0, 1, -1, 0, 2, -2, 0, 3, -3], ctildes: [-0.010320134779295383, 0.056589397712254907, 0.020640269558590767, -0.11317879542450981, -0.020640269558590763, 0.1131787954245098, 0.020640269558590763, -0.1131787954245098]}
    - {mu0: 0, rank: 3, ndensity: 2, num_ms_combs: 4, mus: [0, 0, 0], ns: [2, 2, 2], ls: [1, 1, 2], ms_combs: [-1, 1, 0, 0, 0, 0, 0, 1, -1, 1, 1, -2], ctildes: [-0.0073725105244615936, -0.0013772569881378375, -0.0073725105244615927, -0.0013772569881378373, 0.025539125615407506, 0.0047709581570680422, -0.018058888908229709, -0.003373576865620087]}
    - {mu0: 0, rank: 3, ndensity: 2, num_ms_combs: 8, mus: [0, 0, 0], ns: [2, 2, 2], ls: [1, 2, 3], ms_combs: [0, 0, 0, 0, 1, -1, 0, 2, -2, 1, -2, 1, 1, -1, 0, 1, 0, -1, 1, 1, -2, 1, 2, -3], ctildes: [0.048997002651930022, 0.0041277209861985513, -0.092389634221319919, -0.0077833053338320513, 0.07304041908230198, 0.0061532431448616193, -0.032664668434620014, -0.0027518139907990341, 0.056576865341153207, 0.004766281645042802, -0.080011770282015185, -0.006740540144509477, 0.10329475126760607, 0.0087019999080425771, -0.12650971685667037, -0.010657729758225227]}
    - {mu0: 0, rank: 3, ndensity: 2, num_ms_combs: 5, mus: [0, 0, 0], ns: [2, 2, 2], ls: [2, 2, 2], ms_combs: [-2, 0, 2, -2, 1, 1, -1, -1, 2, -1, 0, 1, 0, 0, 0], ctildes: [-0.5364385231785288, -0.05961865649034287, 0.43800022005318745, 0.048678429183869533, 0.21900011002659373, 0.024339214591934766, -0.26821926158926435, -0.029809328245171424, 0.089406420529754768, 0.0099364427483904748]}
    - {mu0: 0, rank: 3, ndensity: 2, num_ms_combs: 9, mus: [0, 0, 0], ns: [2, 2, 2], ls: [2, 3, 3], ms_combs: [0, -3, 3, 0, -1, 1, 0, 0, 0, 1, -3, 2, 1, -2, 1, 1, -1, 0, 2, -3, 1, 2, -2, 0, 2, -1, -1], ctildes: [0.012988205463774412, 0.013058127324748252, -0.0077929232782646459, -0.0078348763948489497, 0.0051952821855097654, 0.0052232509298993013, -0.025976410927548824, -0.026116254649496504, 0.020121241383327396, 0.0202295638645624, -0.0073472385271032437, -0.0073867923047414713, 0.016428924793508281, 0.016517369729074267, -0.023234008258187017, -0.023359088285587651, 0.012725790424270342, 0.012794299576771034]}
    - {mu0: 0, rank: 3, ndensity: 2, num_ms_combs: 1, mus: [0, 0, 0], ns: [2, 2, 3], ls: [0, 0, 0], ms_combs: [0, 0, 0], ctildes: [-0.25620475698097839, -0.09178610158037924]}
    - {mu0: 0, rank: 3, ndensity: 2, num_ms_combs: 2, mus: [0, 0, 0], ns: [2, 2, 3], ls: [0, 1, 1], ms_combs: [0, 0, 0, 0, 1, -1], ctildes: [0.026164831352073491, 0.016029427167385635, -0.052329662704146976, -0.032058854334771264]}
    - {mu0: 0, rank: 3, ndensity: 2, num_ms_combs: 3, mus: [0, 0, 0], ns: [2, 2, 3], ls: [0, 2, 2], ms_combs: [0, 0, 0, 0, 1, -1, 0, 2, -2], ctildes: [0.057860803769475493, -0.0078182300706579853, -0.115721607538951, 0.015636460141315974, 0.11572160753895103, -0.015636460141315978]}
    - {mu0: 0, rank: 3, ndensity: 2, num_ms_combs: 4, mus: [0, 0, 0], ns: [2, 2, 3], ls: [0, 3, 3], ms_combs: [0, 0, 0, 0, 1, -1, 0, 2, -2, 0, 3, -3], ctildes: [-0.0028086518139808117, 0.0092082961607247663, 0.0056173036279616234, -0.018416592321449533, -0.0056173036279616225, 0.018416592321449529, 0.0056173036279616225, -0.018416592321449529]}
    - {mu0: 0, rank: 3, ndensity: 2, num_ms_combs: 2, mus: [0, 0, 0], ns: [2, 2, 3], ls: [1, 1, 0], ms_combs: [0, 0, 0, 1, -1, 0], ctildes: [0.024893906990955849, -0.0049336349817991438, -0.049787813981911684, 0.0098672699635982859]}
    - {mu0: 0, rank: 3, ndensity: 2, num_ms_combs: 4, mus: [0, 0, 0], ns: [2, 2, 3], ls: [1, 1, 2], ms_combs: [-1, 1, 0, 0, 0, 0, 0, 1, -1, 1, 1, -2], ctildes: [-0.0166490608326362, 0.00073878800056406441, -0.016649060832636196, 0.0007387880005640643, 0.057674038520861795, -0.0025592367059983682, -0.040781703736515539, 0.0018096536294729692]}
    - {mu0: 0, rank: 3, ndensity: 2, num_ms_combs: 5, mus: [0, 0, 0], ns: [2, 2, 3], ls: [1, 2, 1], ms_combs: [0, 0, 0, 0, 1, -1, 1, -2, 1, 1, -1, 0, 1, 0, -1], ctildes: [0.062603489764684953, 0.0029894179336518675, -0.10843242500355253, -0.0051778237461426024, 0.15334660604102746, 0.0073225485653723322, -0.10843242500355253, -0.0051778237461426024, 0.062603489764684953, 0.002989417933651867]}
    - {mu0: 0, rank: 3, ndensity: 2, num_ms_combs: 8, mus: [0, 0, 0], ns: [2, 2, 3], ls: [1, 2, 3], ms_combs: [0, 0, 0, 0, 1, -1, 0, 2, -2, 1, -2, 1, 1, -1, 0, 1, 0, -1, 1, 1, -2, 1, 2, -3], ctildes: [-0.068211410399089956, -0.0060095547308818909, 0.12862066892665358, 0.01133172507231542, -0.10168356699566743, -0.0089585152618382388, 0.045474273599393294, 0.0040063698205879267, -0.07876375231143723, -0.0069392360831688968, 0.11138876674222976, 0.0098135617813262088, -0.14380227951574609, -0.012669253782017996, 0.17612110433132983, 0.015516603593885035]}
    - {mu0: 0, rank: 3, ndensity: 2, num_ms_combs: 8, mus: [0, 0, 0], ns: [2, 2, 3], ls: [1, 3, 2], ms_combs: [0, 0, 0, 0, 1, -1, 0, 2, -2, 1, -3, 2, 1, -2, 1, 1, -1, 0, 1, 0, -1, 1, 1, -2], ctildes: [0.0072305068336980033, 0.00035036117397281455, -0.013633974436062754, -0.00066064736528175189, 0.010778603194617009, 0.00052228760111989591, -0.018669088367700867, -0.00090462866130292723, 0.015243246821265337, 0.00073862620896306586, -0.01180736821617796, -0.00057213740127725471, 0.0083490701336259455, 0.00040456223621359569, -0.0048203378891320051, -0.00023357411598187648]}
    - {mu0: 0, rank: 3, ndensity: 2, num_ms_combs: 3, mus: [0, 0, 0], ns: [2, 2, 3], ls: [2, 2, 0], ms_combs: [0, 0, 0, 1, -1, 0, 2, -2, 0], ctildes: [-0.012442635801689608, 0.0071468078786761967, 0.024885271603379219, -0.014293615757352395, -0.024885271603379226, 0.014293615757352399]}
    - {mu0: 0, rank: 3, ndensity: 2, num_ms_combs: 8, mus: [0, 0, 0], ns: [2, 2, 3], ls: [2, 2, 2], ms_combs: [-2, 1, 1, -2, 2, 0, -1, 1, 0, -1, 2, -1, 0, 0, 0, 0, 1, -1, 0, 2, -2, 1, 1, -2], ctildes: [-0.14575260798497205, -0.02869294992760962, 0.11900650608102883, 0.023427695512623692, 0.059503253040514417, 0.011713847756311846, -0.14575260798497205, -0.02869294992760962, -0.059503253040514417, -0.011713847756311846, 0.11900650608102883, 0.023427695512623692, 0.23801301216205781, 0.046855391025247412, -0.14575260798497205, -0.02869294992760962]}
    - {mu0: 0, rank: 3, ndensity: 2, num_ms_combs: 8, mus: [0, 0, 0], ns: [2, 2, 3], ls: [2, 3, 1], ms_combs: [0, 0, 0, 0, 1, -1, 1, -2, 1, 1, -1, 0, 1, 0, -1, 2, -3, 1, 2, -2, 0, 2, -1, -1], ctildes: [0.011653492622601831, 0.013223333317632098, -0.019030073764441741, -0.021593612884628577, 0.024567719588927187, 0.027877234362205464, -0.021974036421197753, -0.02493415642343377, 0.013456294205316964, 0.015268990101038072, -0.030089188568325247, -0.034142499813692516, 0.017372001119619992, 0.019712181458242124, -0.0077689950817345504, -0.0088155555450880625]}
