################################################################################
# Neural network connection values (weights and biases).
################################################################################
# Col  Name       Description
################################################################################
# 1    connection Neural network connection value.
# 2    t          Connection type (a = weight, b = bias).
# 3    index      Index enumerating weights.
# 4    l_s        Starting point layer (end point layer for biases).
# 5    n_s        Starting point neuron in starting layer (end point neuron for biases).
# 6    l_e        End point layer.
# 7    n_e        End point neuron in end layer.
################################################################################
#                      1 2         3     4     5     6     7
#             connection t     index   l_s   n_s   l_e   n_e
############################################################
 -1.0610466084048621E+01 a         1     0     1     1     1
  1.1202347268129365E+01 a         2     0     1     1     2
  9.7054566440321928E+00 a         3     0     1     1     3
  4.0974569798286051E+00 a         4     0     1     1     4
  1.0755886652487450E+00 a         5     0     1     1     5
  8.7068441512832528E+00 a         6     0     1     1     6
  1.3221694515612285E+01 a         7     0     1     1     7
  9.3819571172680707E+00 a         8     0     1     1     8
 -3.3827368617492306E+00 a         9     0     1     1     9
 -3.0211659196888725E+00 a        10     0     1     1    10
  7.9333509377239242E+00 a        11     0     2     1     1
  7.9491234142582217E+00 a        12     0     2     1     2
 -6.4543216257334013E+00 a        13     0     2     1     3
  6.0511857072102950E+00 a        14     0     2     1     4
  8.1844571859916138E-01 a        15     0     2     1     5
 -1.0426210427266662E+01 a        16     0     2     1     6
 -1.6283004300707436E+01 a        17     0     2     1     7
 -2.1789231613269848E+00 a        18     0     2     1     8
  1.1097891859964516E+01 a        19     0     2     1     9
  1.3678426009880282E+00 a        20     0     2     1    10
  2.0837788094374606E+01 a        21     0     3     1     1
 -1.6077938727732256E+01 a        22     0     3     1     2
 -1.5385416926812930E+01 a        23     0     3     1     3
 -2.2525132848300096E+01 a        24     0     3     1     4
 -6.4493631853667379E+00 a        25     0     3     1     5
 -2.3437500014353827E+01 a        26     0     3     1     6
 -1.0296521033293921E+01 a        27     0     3     1     7
 -1.0480987019648346E+01 a        28     0     3     1     8
 -1.7995587874229283E+01 a        29     0     3     1     9
  3.5545140106373645E+00 a        30     0     3     1    10
 -2.5053375656537249E+01 a        31     0     4     1     1
 -1.8425621411868882E+01 a        32     0     4     1     2
  1.2380266871926628E+01 a        33     0     4     1     3
  2.4118286829964486E+01 a        34     0     4     1     4
  1.3498194063074667E+00 a        35     0     4     1     5
  4.5843328787813114E+01 a        36     0     4     1     6
  3.9877669306916786E+01 a        37     0     4     1     7
 -4.5602571002146348E+00 a        38     0     4     1     8
  1.8444465776341893E+01 a        39     0     4     1     9
 -7.9543669997190110E+00 a        40     0     4     1    10
  6.5786255476497715E+00 a        41     0     5     1     1
  2.7006560669806671E+01 a        42     0     5     1     2
 -3.8552501372380292E+00 a        43     0     5     1     3
 -2.5874822536545739E+01 a        44     0     5     1     4
  1.1263505989732012E+01 a        45     0     5     1     5
 -2.5655807321406545E+01 a        46     0     5     1     6
 -3.7779802442853779E+01 a        47     0     5     1     7
  3.5938665815185020E+00 a        48     0     5     1     8
 -1.0273661322157421E+01 a        49     0     5     1     9
  1.6092856053267841E+01 a        50     0     5     1    10
 -5.9390705176610736E-01 a        51     0     6     1     1
 -9.7094092956924101E+00 a        52     0     6     1     2
  2.4027027665494987E+00 a        53     0     6     1     3
  2.3402866078988232E+01 a        54     0     6     1     4
 -1.2293020321816707E+01 a        55     0     6     1     5
  4.4176445686749446E+00 a        56     0     6     1     6
  1.7300228891846182E+01 a        57     0     6     1     7
  4.0082122604593380E+00 a        58     0     6     1     8
  1.0908350012104029E+00 a        59     0     6     1     9
 -1.9644207005316257E+01 a        60     0     6     1    10
  1.9216094997891335E+00 a        61     0     7     1     1
 -1.3083727255172357E+00 a        62     0     7     1     2
 -1.4786669605950182E+00 a        63     0     7     1     3
 -1.3236252860540231E+01 a        64     0     7     1     4
  4.5528922375413039E+00 a        65     0     7     1     5
  1.2872172810882336E+00 a        66     0     7     1     6
 -5.0376736397839794E+00 a        67     0     7     1     7
 -3.8746546556552017E+00 a        68     0     7     1     8
  2.1065157391092675E+00 a        69     0     7     1     9
  1.2866038822872573E+01 a        70     0     7     1    10
 -2.2362777575696535E+00 a        71     0     8     1     1
  1.2487264758246663E-01 a        72     0     8     1     2
  1.6129434152304527E+00 a        73     0     8     1     3
  4.5779612467065363E+00 a        74     0     8     1     4
  1.2398892558823409E+00 a        75     0     8     1     5
 -4.7056959414349381E-01 a        76     0     8     1     6
  1.4210008598928503E-01 a        77     0     8     1     7
  2.3876548311989532E+00 a        78     0     8     1     8
 -1.5282545428125263E+00 a        79     0     8     1     9
 -4.0679667074698571E+00 a        80     0     8     1    10
  1.0286649051321701E+00 a        81     0     9     1     1
  1.4706170560130529E+00 a        82     0     9     1     2
 -9.1579779034004549E-01 a        83     0     9     1     3
 -7.5345153257164543E-01 a        84     0     9     1     4
 -2.2355472660067952E+00 a        85     0     9     1     5
 -6.5401177891204129E-02 a        86     0     9     1     6
  2.3036614854465753E-01 a        87     0     9     1     7
  3.9911846989006911E-01 a        88     0     9     1     8
  3.7494106703328767E-01 a        89     0     9     1     9
  4.6057830498674196E-01 a        90     0     9     1    10
 -1.6282662854033916E-01 a        91     0    10     1     1
 -3.6918373195924009E-01 a        92     0    10     1     2
  2.9662768533060793E-02 a        93     0    10     1     3
 -3.2091633293788542E-03 a        94     0    10     1     4
  5.7109066659798413E-01 a        95     0    10     1     5
  4.0669173910235071E-04 a        96     0    10     1     6
 -7.0253840867637252E-02 a        97     0    10     1     7
 -3.1584874496555126E-01 a        98     0    10     1     8
 -2.6813242010218626E-02 a        99     0    10     1     9
 -4.5580309522880602E-01 a       100     0    10     1    10
  2.0658901718447726E+00 a       101     0    11     1     1
 -1.2321039367303991E+01 a       102     0    11     1     2
  5.8119992611466422E+00 a       103     0    11     1     3
 -9.0696055574262324E+00 a       104     0    11     1     4
  8.1920315843240186E+00 a       105     0    11     1     5
  1.2312184251308935E+01 a       106     0    11     1     6
  9.4685345732773651E+00 a       107     0    11     1     7
  1.0879724177800595E+01 a       108     0    11     1     8
 -2.3338380790632316E+00 a       109     0    11     1     9
  3.5628019454075548E+00 a       110     0    11     1    10
  7.0957152051838712E-01 a       111     0    12     1     1
 -1.7111522208434270E+01 a       112     0    12     1     2
 -6.7106216809654242E+00 a       113     0    12     1     3
 -1.8758736828473364E+01 a       114     0    12     1     4
 -1.0417328400115657E+01 a       115     0    12     1     5
 -7.8776444540401505E+00 a       116     0    12     1     6
  5.0652805120527655E-01 a       117     0    12     1     7
  4.0408863800836734E+00 a       118     0    12     1     8
 -3.0599845999399502E+00 a       119     0    12     1     9
  8.0918515241133147E+00 a       120     0    12     1    10
  3.4254234030690354E+00 a       121     0    13     1     1
 -1.4944929485433578E+00 a       122     0    13     1     2
 -5.9821528859309838E+00 a       123     0    13     1     3
 -1.0330799837037244E+01 a       124     0    13     1     4
  4.1553074000504671E+00 a       125     0    13     1     5
 -3.6639905702677528E-01 a       126     0    13     1     6
  9.7576893961985878E+00 a       127     0    13     1     7
  6.4185150396595976E+00 a       128     0    13     1     8
 -1.0731686573880108E+01 a       129     0    13     1     9
  7.0757326560663287E+00 a       130     0    13     1    10
  7.0029848807824475E+00 a       131     0    14     1     1
 -8.5223322010615004E+00 a       132     0    14     1     2
 -6.0842766122766676E+00 a       133     0    14     1     3
 -2.0842803828841230E+01 a       134     0    14     1     4
 -3.5129925785163381E+00 a       135     0    14     1     5
 -2.3222394707436806E+01 a       136     0    14     1     6
  1.8762409430587632E+00 a       137     0    14     1     7
  6.9933854633484449E-01 a       138     0    14     1     8
  7.9553990724149959E-01 a       139     0    14     1     9
 -1.2497219739069110E+00 a       140     0    14     1    10
  4.8261806610759335E+00 a       141     0    15     1     1
 -2.0445513697645243E-01 a       142     0    15     1     2
  4.3744009648553552E+00 a       143     0    15     1     3
 -6.3883052746725895E+00 a       144     0    15     1     4
  7.0619601171288835E+00 a       145     0    15     1     5
  1.8309691343385972E+00 a       146     0    15     1     6
 -3.3533459220010196E+00 a       147     0    15     1     7
  4.4135269130338592E+00 a       148     0    15     1     8
  4.1009437807228064E+00 a       149     0    15     1     9
  2.1379509575972282E+00 a       150     0    15     1    10
 -5.1498273538305375E+00 a       151     0    16     1     1
 -1.1005382257746161E+00 a       152     0    16     1     2
 -4.3985074190746998E+00 a       153     0    16     1     3
  1.0431770387075774E+01 a       154     0    16     1     4
 -5.3456291650247474E+00 a       155     0    16     1     5
  4.7998402154308071E+00 a       156     0    16     1     6
 -6.0564112784851449E+00 a       157     0    16     1     7
 -4.2645592632053342E-01 a       158     0    16     1     8
  1.2681994710639768E+00 a       159     0    16     1     9
  3.6435588022860466E+00 a       160     0    16     1    10
  1.1098008362869582E+00 a       161     0    17     1     1
  6.4329252775092147E+00 a       162     0    17     1     2
 -3.2942143656375595E+00 a       163     0    17     1     3
  4.4245765634597998E+00 a       164     0    17     1     4
  3.1919395626348468E+00 a       165     0    17     1     5
  5.5047792975078058E-01 a       166     0    17     1     6
 -5.2613485856879167E+00 a       167     0    17     1     7
  2.4181919003829808E+00 a       168     0    17     1     8
  4.0939935608762923E+00 a       169     0    17     1     9
  3.8870650121422261E+00 a       170     0    17     1    10
 -1.9326004634152651E+00 a       171     0    18     1     1
  8.7813884273630827E-01 a       172     0    18     1     2
  1.3197286289135582E-01 a       173     0    18     1     3
  1.9898836465184544E+01 a       174     0    18     1     4
  4.9002381333368197E+00 a       175     0    18     1     5
  7.0833256383347880E+00 a       176     0    18     1     6
  5.0422123226009550E+00 a       177     0    18     1     7
 -1.5210817487602331E+00 a       178     0    18     1     8
 -1.7189007226786694E+00 a       179     0    18     1     9
 -6.3326337904968710E+00 a       180     0    18     1    10
  2.7030696974662085E+00 a       181     0    19     1     1
  7.6324115925257345E+00 a       182     0    19     1     2
  1.0973247537776967E+00 a       183     0    19     1     3
 -1.5115862373583548E+00 a       184     0    19     1     4
  3.3775178103355921E+00 a       185     0    19     1     5
 -7.4911864590533428E+00 a       186     0    19     1     6
 -6.0060400299481334E+00 a       187     0    19     1     7
 -1.3577281829255463E+00 a       188     0    19     1     8
  8.2060024143705270E+00 a       189     0    19     1     9
 -1.4631643882803831E+00 a       190     0    19     1    10
 -1.1366960163960952E+01 a       191     0    20     1     1
  1.0472282055449750E+01 a       192     0    20     1     2
 -1.3227019166007192E+00 a       193     0    20     1     3
  2.7595394394763158E+01 a       194     0    20     1     4
 -3.4646163001006616E+00 a       195     0    20     1     5
  1.0842612873738023E+01 a       196     0    20     1     6
 -9.6443555920728468E+00 a       197     0    20     1     7
 -6.6761810368764465E+00 a       198     0    20     1     8
  3.8798407455843882E+00 a       199     0    20     1     9
 -2.7384556933119422E+00 a       200     0    20     1    10
 -6.7427323709824529E+00 a       201     0    21     1     1
  8.2743907780822603E+00 a       202     0    21     1     2
  1.5395974112723971E+00 a       203     0    21     1     3
  2.1716440756166943E+01 a       204     0    21     1     4
 -1.8338032478146424E+00 a       205     0    21     1     5
  5.1905626186689249E+00 a       206     0    21     1     6
 -1.0316616910262653E+01 a       207     0    21     1     7
 -5.6592175787362837E+00 a       208     0    21     1     8
  2.1402305179850089E+01 a       209     0    21     1     9
 -5.1701763633101754E+00 a       210     0    21     1    10
 -3.0941782895319636E+00 a       211     0    22     1     1
  7.9420396540865035E+00 a       212     0    22     1     2
  6.6391456144292347E+00 a       213     0    22     1     3
  2.9227656735273680E+01 a       214     0    22     1     4
  1.0312932409869410E+01 a       215     0    22     1     5
  2.4352477377420385E+01 a       216     0    22     1     6
  3.3400932159265309E+00 a       217     0    22     1     7
 -5.8321678428238126E+00 a       218     0    22     1     8
 -4.7686333413954651E+00 a       219     0    22     1     9
 -3.8746976348286561E+00 a       220     0    22     1    10
 -6.5280093025561108E+00 a       221     0    23     1     1
 -8.9946861130647571E-01 a       222     0    23     1     2
  1.6535203879386746E+00 a       223     0    23     1     3
  1.6559455918484627E+00 a       224     0    23     1     4
 -8.2670776769598149E+00 a       225     0    23     1     5
 -1.0488631151458385E+01 a       226     0    23     1     6
  1.9617214971906144E+01 a       227     0    23     1     7
 -5.9776195187200578E+00 a       228     0    23     1     8
 -8.4484412691037694E+00 a       229     0    23     1     9
 -1.4204736056919323E+01 a       230     0    23     1    10
 -4.8501425568732497E+00 a       231     0    24     1     1
  1.1461791553320609E+01 a       232     0    24     1     2
  1.0879224180598075E+00 a       233     0    24     1     3
 -4.3914425933758174E+00 a       234     0    24     1     4
 -8.5572292760698598E+00 a       235     0    24     1     5
 -7.6415122409136949E+00 a       236     0    24     1     6
 -4.8687349754138559E-01 a       237     0    24     1     7
 -4.3360119417368237E+00 a       238     0    24     1     8
 -1.1695792700991399E+01 a       239     0    24     1     9
 -1.2251677394094826E+00 a       240     0    24     1    10
  6.8895908806628381E-01 a       241     0    25     1     1
 -6.0321204601301233E+00 a       242     0    25     1     2
  4.3593639469544527E+00 a       243     0    25     1     3
 -6.9119312109668076E+00 a       244     0    25     1     4
 -1.6539455683113854E+01 a       245     0    25     1     5
 -1.1620246817628072E+01 a       246     0    25     1     6
 -3.6521818471596879E+00 a       247     0    25     1     7
 -9.4349097663781745E+00 a       248     0    25     1     8
 -2.1857944134204789E+01 a       249     0    25     1     9
 -1.8356936368337958E+01 a       250     0    25     1    10
  9.2134127128696583E+00 a       251     0    26     1     1
  1.4354549340952851E+00 a       252     0    26     1     2
  1.2724952418720939E+01 a       253     0    26     1     3
 -4.5931095260033999E+01 a       254     0    26     1     4
  1.4478948790144877E+00 a       255     0    26     1     5
 -4.8764247003446393E+00 a       256     0    26     1     6
 -1.0664090239732399E+01 a       257     0    26     1     7
 -5.0966012066982396E+00 a       258     0    26     1     8
  1.2638337722604014E+01 a       259     0    26     1     9
  1.3503995594428734E+01 a       260     0    26     1    10
  2.0464898701888616E+00 a       261     0    27     1     1
  2.6141898120077672E-01 a       262     0    27     1     2
 -9.3595801674337018E+00 a       263     0    27     1     3
  1.1073662143349752E+01 a       264     0    27     1     4
 -6.0502171238737090E-01 a       265     0    27     1     5
  3.0747706973429718E+00 a       266     0    27     1     6
 -1.2936602671974887E+01 a       267     0    27     1     7
 -5.6442019287676146E+00 a       268     0    27     1     8
  1.5490556879508328E+00 a       269     0    27     1     9
  9.7856738245602966E+00 a       270     0    27     1    10
  1.4508478039074461E+01 a       271     0    28     1     1
 -3.2635414573759916E-02 a       272     0    28     1     2
  9.5722532846268500E+00 a       273     0    28     1     3
 -8.9300499051907529E+00 a       274     0    28     1     4
  1.0963060921476350E+01 a       275     0    28     1     5
 -2.4729454928623724E+00 a       276     0    28     1     6
  9.2716525756593988E+00 a       277     0    28     1     7
  1.6839183069743036E+01 a       278     0    28     1     8
  6.9773649451151947E+00 a       279     0    28     1     9
 -2.0982880079278048E+00 a       280     0    28     1    10
  9.8116453510355139E-01 a       281     0    29     1     1
 -3.6094820166438937E+00 a       282     0    29     1     2
 -5.9872944294803587E-01 a       283     0    29     1     3
 -6.6151132433144664E+00 a       284     0    29     1     4
  8.6711552812125241E+00 a       285     0    29     1     5
  7.4980677189616465E+00 a       286     0    29     1     6
  6.4711038384732946E+00 a       287     0    29     1     7
  1.0403808931219491E+01 a       288     0    29     1     8
  6.5120900225860270E+00 a       289     0    29     1     9
  1.3140794982707400E+01 a       290     0    29     1    10
 -7.8541098031354730E+00 a       291     0    30     1     1
 -5.5567125496017153E+00 a       292     0    30     1     2
 -1.0064110178667049E+01 a       293     0    30     1     3
  1.5336342163959729E+01 a       294     0    30     1     4
 -1.9602633967391059E+00 a       295     0    30     1     5
 -2.0407981174276193E+00 a       296     0    30     1     6
  1.4517266891008749E+00 a       297     0    30     1     7
  4.3035330161631347E+00 a       298     0    30     1     8
 -5.9148066940412871E+00 a       299     0    30     1     9
 -5.8248157032012902E+00 a       300     0    30     1    10
 -1.5857237472447478E+00 a       301     0    31     1     1
  1.8762156945983401E+00 a       302     0    31     1     2
  4.3095665472925768E+00 a       303     0    31     1     3
 -5.6169379091569454E+00 a       304     0    31     1     4
 -2.6156276353164984E+00 a       305     0    31     1     5
  1.9085312607838674E+00 a       306     0    31     1     6
  6.7780191591250583E-01 a       307     0    31     1     7
  1.3662279669383659E+00 a       308     0    31     1     8
 -2.5241182061821699E-01 a       309     0    31     1     9
 -2.8109826063293069E+00 a       310     0    31     1    10
 -1.2626124665230891E+00 a       311     0    32     1     1
 -2.4696023095455288E+00 a       312     0    32     1     2
 -4.2156820029542619E+00 a       313     0    32     1     3
  2.8818878374653316E+00 a       314     0    32     1     4
  1.9896942591974813E+00 a       315     0    32     1     5
 -7.5892720233428834E-01 a       316     0    32     1     6
 -1.4020139376555774E-01 a       317     0    32     1     7
 -7.2429653914467833E+00 a       318     0    32     1     8
 -7.3347377768610844E-01 a       319     0    32     1     9
 -8.7482242530141571E-03 a       320     0    32     1    10
  2.9774613676154227E-01 a       321     0    33     1     1
  5.3039010470666359E-01 a       322     0    33     1     2
 -1.3590688632535364E+00 a       323     0    33     1     3
  2.3544632988743723E+00 a       324     0    33     1     4
  4.5430085807769305E-01 a       325     0    33     1     5
 -1.6017311575502524E+00 a       326     0    33     1     6
  1.6825380735750234E-01 a       327     0    33     1     7
  8.5121127936318708E-02 a       328     0    33     1     8
 -5.0482254693313100E-01 a       329     0    33     1     9
 -3.2081263551452754E-01 a       330     0    33     1    10
  1.0873022598610356E+00 a       331     0    34     1     1
  1.5829766740623368E+00 a       332     0    34     1     2
  1.2533983329224130E+00 a       333     0    34     1     3
 -1.0267358111773917E+00 a       334     0    34     1     4
 -2.1870398009467915E+00 a       335     0    34     1     5
  3.4573302697429381E-01 a       336     0    34     1     6
  1.7038972423143275E-01 a       337     0    34     1     7
  5.9432923371314261E-01 a       338     0    34     1     8
  6.2104998481638174E-01 a       339     0    34     1     9
  9.2847707529345191E-01 a       340     0    34     1    10
 -2.6554916612940991E-02 b       341     1     1
  3.2742323581760757E-01 b       342     1     2
 -2.5660697490280443E-03 b       343     1     3
 -3.9782075113050019E-01 b       344     1     4
 -3.2368661529963033E-01 b       345     1     5
  4.3127138441936463E-01 b       346     1     6
 -1.0157196923910743E+00 b       347     1     7
 -1.3637641413183208E+00 b       348     1     8
  7.2513592705817764E-01 b       349     1     9
  4.8699741075747927E-01 b       350     1    10
  9.9862566669058239E-01 a       351     1     1     2     1
 -7.9363347339012535E-01 a       352     1     1     2     2
  3.6891594084907287E-01 a       353     1     1     2     3
 -1.8040707936691680E+00 a       354     1     1     2     4
  7.9756311783679179E-01 a       355     1     1     2     5
 -2.4972542292689779E+00 a       356     1     1     2     6
 -2.6209202157488494E+00 a       357     1     1     2     7
 -1.2687011734030105E+00 a       358     1     1     2     8
  3.4126118894315738E+00 a       359     1     1     2     9
  4.3034617507744166E-01 a       360     1     1     2    10
  3.8383855158530489E-01 a       361     1     2     2     1
  6.4605458099435109E-01 a       362     1     2     2     2
 -1.3811071861780673E+00 a       363     1     2     2     3
  1.5038943272732042E+00 a       364     1     2     2     4
 -1.7685346336404812E+00 a       365     1     2     2     5
  2.6313326023115149E+00 a       366     1     2     2     6
 -2.2560775170036069E+00 a       367     1     2     2     7
  3.9613429814575896E-01 a       368     1     2     2     8
  1.2048957297213487E+00 a       369     1     2     2     9
  2.9770103295906587E+00 a       370     1     2     2    10
 -3.0896539350727221E+00 a       371     1     3     2     1
  1.3443051428992137E+00 a       372     1     3     2     2
  9.2708167061912261E-01 a       373     1     3     2     3
  9.3873475926187289E-01 a       374     1     3     2     4
 -2.3041058870562132E+00 a       375     1     3     2     5
  2.2530909607408205E+00 a       376     1     3     2     6
  9.2141015575608043E-01 a       377     1     3     2     7
  1.2552285713901426E-01 a       378     1     3     2     8
  3.1744433733913130E-01 a       379     1     3     2     9
 -2.8207621020445659E+00 a       380     1     3     2    10
  1.3390475109549435E-01 a       381     1     4     2     1
  7.1771176800949477E-01 a       382     1     4     2     2
  7.9430962616084475E+00 a       383     1     4     2     3
  4.0118569703220857E+00 a       384     1     4     2     4
  9.2852251979068989E-01 a       385     1     4     2     5
  5.7783869947309716E+00 a       386     1     4     2     6
  4.8360637212905013E+00 a       387     1     4     2     7
 -5.5436350560521219E-01 a       388     1     4     2     8
 -2.3515088038324564E-01 a       389     1     4     2     9
 -3.3200884904341077E+00 a       390     1     4     2    10
 -1.4175652870465238E+00 a       391     1     5     2     1
  7.2276044966721154E-01 a       392     1     5     2     2
 -2.9472915402577238E+00 a       393     1     5     2     3
 -1.6111139433905084E+00 a       394     1     5     2     4
 -1.1786302123280905E+00 a       395     1     5     2     5
  2.5623380662913422E+00 a       396     1     5     2     6
  1.9145679640507287E+00 a       397     1     5     2     7
  2.4800700314381023E+00 a       398     1     5     2     8
 -1.6605912573466564E+00 a       399     1     5     2     9
 -5.3426354105215890E-01 a       400     1     5     2    10
 -4.6804115970425847E-01 a       401     1     6     2     1
 -1.6729867867933275E+00 a       402     1     6     2     2
  2.8678448542399129E+00 a       403     1     6     2     3
 -8.9118668971605997E-01 a       404     1     6     2     4
  2.3872586613351605E+00 a       405     1     6     2     5
  8.7793150930460007E-01 a       406     1     6     2     6
  7.5363388452978217E+00 a       407     1     6     2     7
 -3.3927919602012708E+00 a       408     1     6     2     8
 -1.8385131681194622E+00 a       409     1     6     2     9
 -2.2786188564557217E+00 a       410     1     6     2    10
 -5.3519265858135580E-02 a       411     1     7     2     1
 -2.0342027267569542E+00 a       412     1     7     2     2
  1.6788734649376413E+00 a       413     1     7     2     3
  3.6466431752616296E-01 a       414     1     7     2     4
  5.5825361723932021E-01 a       415     1     7     2     5
  1.1722149119082184E+00 a       416     1     7     2     6
  5.9404278536865824E+00 a       417     1     7     2     7
 -2.2398421271154354E+00 a       418     1     7     2     8
 -1.8677422107284289E+00 a       419     1     7     2     9
 -1.1141873510334197E+00 a       420     1     7     2    10
 -3.0401819385745283E+00 a       421     1     8     2     1
  1.0424142726250214E+00 a       422     1     8     2     2
  1.6967753530921523E+00 a       423     1     8     2     3
  7.7285689340497310E-01 a       424     1     8     2     4
 -2.1871855072293184E-01 a       425     1     8     2     5
  9.2430612178901361E-01 a       426     1     8     2     6
 -8.7670098158115684E-01 a       427     1     8     2     7
  5.0433551418673039E-01 a       428     1     8     2     8
 -1.8132221180161576E-01 a       429     1     8     2     9
 -2.7721894902193540E+00 a       430     1     8     2    10
 -1.8020973120923365E+00 a       431     1     9     2     1
  3.5200060545945577E+00 a       432     1     9     2     2
 -2.0615515950317880E+00 a       433     1     9     2     3
 -2.7133737869530670E+00 a       434     1     9     2     4
  5.5491825491658924E+00 a       435     1     9     2     5
 -3.6237523939058547E+00 a       436     1     9     2     6
  4.1111625020219336E+00 a       437     1     9     2     7
 -4.1353054768578410E+00 a       438     1     9     2     8
 -1.0555097598989320E+00 a       439     1     9     2     9
 -4.3628315246588301E+00 a       440     1     9     2    10
  7.2436044294968627E-01 a       441     1    10     2     1
  2.5217093162981064E-01 a       442     1    10     2     2
 -5.9271215627126239E-01 a       443     1    10     2     3
  8.1926598954294017E-01 a       444     1    10     2     4
 -1.2018299534880799E+00 a       445     1    10     2     5
 -1.1511128622573488E+00 a       446     1    10     2     6
 -3.2540882452483779E+00 a       447     1    10     2     7
 -1.8828611928386740E+00 a       448     1    10     2     8
  2.8913243647070339E+00 a       449     1    10     2     9
  3.7953934802974745E+00 a       450     1    10     2    10
  1.7885261912610364E+00 b       451     2     1
 -2.1457063576874660E+00 b       452     2     2
 -2.7596889504806881E+00 b       453     2     3
 -1.0254486543120943E-01 b       454     2     4
 -1.1771574899999222E+00 b       455     2     5
 -6.3077695355861851E-01 b       456     2     6
 -7.4869992636111800E+00 b       457     2     7
  6.0100161169224542E+00 b       458     2     8
 -3.2180970601280925E+00 b       459     2     9
  1.1175961738171480E+00 b       460     2    10
 -1.6494753749426110E+00 a       461     2     1     3     1
 -2.6368456885919813E+00 a       462     2     2     3     1
  1.3159292941014771E+00 a       463     2     3     3     1
 -2.5339309446890028E+00 a       464     2     4     3     1
 -1.5282808857687309E+00 a       465     2     5     3     1
 -2.0639416013212526E+00 a       466     2     6     3     1
 -1.4318530748920855E+00 a       467     2     7     3     1
  2.3688447811212074E+00 a       468     2     8     3     1
  3.1242187230754053E+00 a       469     2     9     3     1
  4.0346113897809106E+00 a       470     2    10     3     1
  4.2051902428423906E+00 b       471     3     1
