elements: [Fe]
E0: [0]
deltaSplineBins: 0.001
embeddings:
  0: {ndensity: 1, FS_parameters: [1, 1], npoti: FinnisSinclairShiftedScaled, rho_core_cutoff: 100000, drho_core_cutoff: 250}
bonds:
  [0, 0]: {nradmax: 6, lmax: 3, nradbasemax: 11, radbasename: SBessel, radparameters: [5.25], radcoefficients: [[[1.2520018405255589, -0.50749657665355874, 0.29808947290608923, -0.3844264591433223, 0.64765469456240898, -0.37996695412521564, 0.15876279181762243, -0.02495862813074453, -0.027697795784418298, 0.14853553643867023, -0.13897954366611301], [0.5726940888778892, -0.35448548441023453, 0.22235813365354573, -0.21003709449300381, 0.035068336310181261, 0.28761609834472157, -0.569519109820115, 0.29456613932312359, -0.18964061112199343, 0.17907733813090634, -0.22553243360043215], [0.61031773312634274, -0.11016977300553515, -0.22437230234302297, 0.1991401846858192, 0.11388938324502196, -0.26362389020904942, 0.46524890032273275, -0.53887407577282653, 0.51707021186634083, -0.21798673170957442, -0.023922578067624201], [1.1673169026366266, 0.01668610516185378, -0.49504368138265292, 0.1515256778014995, -0.027646407029414215, -0.43150628677547076, 0.36249115399685572, -0.35651896497399216, 0.35026223687126873, -0.15774400071666811, 0.0071256695918285986]], [[-0.0025393594568923045, 1.0585140194969147, -1.0441228392732356, 0.41838446566134835, 0.25098793845677692, -0.26889274452760042, 0.16681231535915095, -0.027739350233500673, -0.010144427570247841, 0.13483932187993208, -0.13750894652755888], [0.58312978730648268, 0.52778020861377728, -0.27734733172174508, 0.33041294232940477, -0.23907264368541123, 0.030992070531998824, 0.11679630459037843, 0.086992377597154086, -0.027885887218186085, 0.12705217883611625, 0.096550771936854921], [0.0082064100325067377, 0.59436300160449451, -0.96087461789272133, -0.89668034179382516, 0.26827192881629008, 0.56487777273185258, -0.74673307548423684, -0.10590802648067901, 0.71815379957193282, -0.30630371608911622, -0.43168164587160296], [-0.56995809178451251, -0.079381261596775998, 0.47993470987188924, 0.44002175913317382, -0.8923958351661494, 0.34705326306509654, -0.097636226648943336, -0.22850501363600753, 1.0614547750033354, -1.2527984320300443, 0.27264020968622721]], [[0.51403889088239674, -0.23002267441196297, 0.36829131000843429, -0.70466946643510553, 0.8550298935562648, -0.33022469616359329, -0.054213100707289574, 0.43336810129657188, -0.55179221289661029, 0.57747619239061954, -0.3268815230491432], [-0.46428558214999982, -0.48285168429418124, 0.54605387851183662, 0.10119824975826602, 0.19450338046095356, -0.39565783802321997, 0.48099990555407252, 0.38221190040169717, -0.73048463190593027, 0.28514682108941114, 0.25742462651391346], [-0.22623730364670447, -0.37343441918601211, 0.49486676166245019, -0.39425067842940481, 0.012336170227958592, 0.56508164872251243, 0.35035645855625341, -0.85818815650854141, 0.56696912312717207, 0.19563214947027222, -0.76612019935128373], [0.24275107291059758, 0.2660393150809971, 0.61153033605672436, -0.11175976282773133, 0.081639732164592499, -0.95749465851948012, 0.082840472032040147, 0.76208260318619625, -0.55457962330472932, 0.36182275556521526, -0.67397343155233802]], [[0.14492704640104317, 0.25652159205570652, -0.41367592658569957, 0.65757425944703662, 0.21794616416761156, -0.056473834534286262, 0.19969951699963379, -0.43216176361882436, 0.34643662332080583, 0.094428607671548814, -0.26887439791877105], [0.40564766269381453, -0.0005956091431904701, -0.26184095518108624, 1.0512294876169548, -0.24025866299346926, -0.36200079671089885, 0.16070016708248802, 0.30793553497057885, 0.11411830249958108, -0.21025123273411225, 0.1778451943647382], [0.53960324461106468, 0.234353616787213, -0.45975621885381701, 0.84404441419966181, 0.1293747141334807, -0.63479710125430788, -0.14540379677440013, 0.28987981827443715, -0.91562111802412927, 0.90235511419105241, -0.41282598285183508], [0, 0, 0, 1, 0, 0, 0, 0, 0, 0, 0]], [[-0.04651214882213997, -0.02712644648636317, -0.052683879517986684, -0.17924649911953372, 0.89730903099051518, 0.01972524327824126, -0.53485122272407482, 0.017736138878890889, 0.18554342242497071, 0.15698148881720042, -0.3063747702794305], [-0.38352615158303532, -0.036119300947596127, -0.099728381585375989, -0.24188286402994857, 1.1472216277639447, -0.06343524847448645, 0.12204729071513332, 0.28155686386928258, -0.37035469581229313, -0.10868651079837764, -0.089757333740689574], [0.19766845634735294, 0.22491551584778696, 0.068696430096295558, -0.030165969212500924, 1.0122953120317726, 0.02507783463397803, 0.11967647362697198, 0.21349148084874991, -0.3000929190945848, 0.062041933271723061, 0.042686633558958527], [0, 0, 0, 0, 1, 0, 0, 0, 0, 0, 0]], [[-0.021190191445100488, 0.017586186143308348, -0.015715651418750316, 0.061252507187899798, 0.19881414060692509, 1.3536249268241005, 0.30646859390562864, 0.25158126995984897, 0.32492029437328102, -0.36668633985485866, -0.12821273915583439], [0.12935034552438918, -0.069885461615943723, -0.16730320293830508, -0.015634037373798645, -0.070740976885425758, 0.91298844277543245, 0.090425679396250278, 0.053057969165132599, -0.17244571391574068, -0.10971932447234123, 0.028116311646949114], [0, 0, 0, 0, 0, 1, 0, 0, 0, 0, 0], [0, 0, 0, 0, 0, 1, 0, 0, 0, 0, 0]]], prehc: 0, lambdahc: 0, rcut: 6.5, dcut: 0.01, rcut_in: 0, dcut_in: 0, inner_cutoff_type: distance}
functions:
  0:
    - {mu0: 0, rank: 1, ndensity: 1, num_ms_combs: 1, mus: [0], ns: [1], ls: [0], ms_combs: [0], ctildes: [-1.9662835211916709]}
    - {mu0: 0, rank: 1, ndensity: 1, num_ms_combs: 1, mus: [0], ns: [2], ls: [0], ms_combs: [0], ctildes: [-1.324316170956167]}
    - {mu0: 0, rank: 1, ndensity: 1, num_ms_combs: 1, mus: [0], ns: [3], ls: [0], ms_combs: [0], ctildes: [1.5960278160120656]}
    - {mu0: 0, rank: 1, ndensity: 1, num_ms_combs: 1, mus: [0], ns: [4], ls: [0], ms_combs: [0], ctildes: [-0.030149477602787789]}
    - {mu0: 0, rank: 1, ndensity: 1, num_ms_combs: 1, mus: [0], ns: [5], ls: [0], ms_combs: [0], ctildes: [-0.99628772540334887]}
    - {mu0: 0, rank: 1, ndensity: 1, num_ms_combs: 1, mus: [0], ns: [6], ls: [0], ms_combs: [0], ctildes: [0.47897197931198199]}
    - {mu0: 0, rank: 1, ndensity: 1, num_ms_combs: 1, mus: [0], ns: [7], ls: [0], ms_combs: [0], ctildes: [0.12459994319785443]}
    - {mu0: 0, rank: 1, ndensity: 1, num_ms_combs: 1, mus: [0], ns: [8], ls: [0], ms_combs: [0], ctildes: [-0.94797526298431789]}
    - {mu0: 0, rank: 1, ndensity: 1, num_ms_combs: 1, mus: [0], ns: [9], ls: [0], ms_combs: [0], ctildes: [1.1570381367669891]}
    - {mu0: 0, rank: 1, ndensity: 1, num_ms_combs: 1, mus: [0], ns: [10], ls: [0], ms_combs: [0], ctildes: [-1.1797057607871109]}
    - {mu0: 0, rank: 1, ndensity: 1, num_ms_combs: 1, mus: [0], ns: [11], ls: [0], ms_combs: [0], ctildes: [0.64325604767316014]}
    - {mu0: 0, rank: 2, ndensity: 1, num_ms_combs: 1, mus: [0, 0], ns: [1, 1], ls: [0, 0], ms_combs: [0, 0], ctildes: [0.28714607153304145]}
    - {mu0: 0, rank: 2, ndensity: 1, num_ms_combs: 2, mus: [0, 0], ns: [1, 1], ls: [1, 1], ms_combs: [0, 0, 1, -1], ctildes: [0.10500754372215244, -0.21001508744430483]}
    - {mu0: 0, rank: 2, ndensity: 1, num_ms_combs: 3, mus: [0, 0], ns: [1, 1], ls: [2, 2], ms_combs: [0, 0, 1, -1, 2, -2], ctildes: [0.18648387875663958, -0.37296775751327921, 0.37296775751327932]}
    - {mu0: 0, rank: 2, ndensity: 1, num_ms_combs: 4, mus: [0, 0], ns: [1, 1], ls: [3, 3], ms_combs: [0, 0, 1, -1, 2, -2, 3, -3], ctildes: [-0.027662586078000019, 0.055325172156000038, -0.055325172156000031, 0.055325172156000031]}
    - {mu0: 0, rank: 2, ndensity: 1, num_ms_combs: 1, mus: [0, 0], ns: [1, 2], ls: [0, 0], ms_combs: [0, 0], ctildes: [0.16048756961022487]}
    - {mu0: 0, rank: 2, ndensity: 1, num_ms_combs: 2, mus: [0, 0], ns: [1, 2], ls: [1, 1], ms_combs: [0, 0, 1, -1], ctildes: [-0.30132288384056105, 0.60264576768112199]}
    - {mu0: 0, rank: 2, ndensity: 1, num_ms_combs: 3, mus: [0, 0], ns: [1, 2], ls: [2, 2], ms_combs: [0, 0, 1, -1, 2, -2], ctildes: [-0.10280071214854372, 0.20560142429708747, -0.20560142429708753]}
    - {mu0: 0, rank: 2, ndensity: 1, num_ms_combs: 4, mus: [0, 0], ns: [1, 2], ls: [3, 3], ms_combs: [0, 0, 1, -1, 2, -2, 3, -3], ctildes: [-0.018599542369354859, 0.037199084738709719, -0.037199084738709719, 0.037199084738709719]}
    - {mu0: 0, rank: 2, ndensity: 1, num_ms_combs: 1, mus: [0, 0], ns: [1, 3], ls: [0, 0], ms_combs: [0, 0], ctildes: [0.20171611062038491]}
    - {mu0: 0, rank: 2, ndensity: 1, num_ms_combs: 2, mus: [0, 0], ns: [1, 3], ls: [1, 1], ms_combs: [0, 0, 1, -1], ctildes: [-0.088375924238026093, 0.17675184847605216]}
    - {mu0: 0, rank: 2, ndensity: 1, num_ms_combs: 3, mus: [0, 0], ns: [1, 3], ls: [2, 2], ms_combs: [0, 0, 1, -1, 2, -2], ctildes: [0.035921637073816168, -0.071843274147632336, 0.071843274147632363]}
    - {mu0: 0, rank: 2, ndensity: 1, num_ms_combs: 4, mus: [0, 0], ns: [1, 3], ls: [3, 3], ms_combs: [0, 0, 1, -1, 2, -2, 3, -3], ctildes: [0.016330792204900305, -0.032661584409800611, 0.032661584409800604, -0.032661584409800604]}
    - {mu0: 0, rank: 2, ndensity: 1, num_ms_combs: 1, mus: [0, 0], ns: [1, 4], ls: [0, 0], ms_combs: [0, 0], ctildes: [-0.36741589161329535]}
    - {mu0: 0, rank: 2, ndensity: 1, num_ms_combs: 2, mus: [0, 0], ns: [1, 4], ls: [1, 1], ms_combs: [0, 0, 1, -1], ctildes: [0.13277482208189675, -0.26554964416379345]}
    - {mu0: 0, rank: 2, ndensity: 1, num_ms_combs: 3, mus: [0, 0], ns: [1, 4], ls: [2, 2], ms_combs: [0, 0, 1, -1, 2, -2], ctildes: [0.010590051677700616, -0.021180103355401235, 0.021180103355401238]}
    - {mu0: 0, rank: 2, ndensity: 1, num_ms_combs: 1, mus: [0, 0], ns: [1, 5], ls: [0, 0], ms_combs: [0, 0], ctildes: [0.055166729002236028]}
    - {mu0: 0, rank: 2, ndensity: 1, num_ms_combs: 2, mus: [0, 0], ns: [1, 5], ls: [1, 1], ms_combs: [0, 0, 1, -1], ctildes: [-0.069859329108763496, 0.13971865821752696]}
    - {mu0: 0, rank: 2, ndensity: 1, num_ms_combs: 3, mus: [0, 0], ns: [1, 5], ls: [2, 2], ms_combs: [0, 0, 1, -1, 2, -2], ctildes: [-0.024414252452240399, 0.048828504904480804, -0.048828504904480811]}
    - {mu0: 0, rank: 2, ndensity: 1, num_ms_combs: 1, mus: [0, 0], ns: [1, 6], ls: [0, 0], ms_combs: [0, 0], ctildes: [-0.012627453015395017]}
    - {mu0: 0, rank: 2, ndensity: 1, num_ms_combs: 2, mus: [0, 0], ns: [1, 6], ls: [1, 1], ms_combs: [0, 0, 1, -1], ctildes: [0.12815356238092634, -0.25630712476185263]}
    - {mu0: 0, rank: 2, ndensity: 1, num_ms_combs: 1, mus: [0, 0], ns: [2, 2], ls: [0, 0], ms_combs: [0, 0], ctildes: [0.59909370370715709]}
    - {mu0: 0, rank: 2, ndensity: 1, num_ms_combs: 2, mus: [0, 0], ns: [2, 2], ls: [1, 1], ms_combs: [0, 0, 1, -1], ctildes: [0.015849418679540234, -0.031698837359080467]}
    - {mu0: 0, rank: 2, ndensity: 1, num_ms_combs: 3, mus: [0, 0], ns: [2, 2], ls: [2, 2], ms_combs: [0, 0, 1, -1, 2, -2], ctildes: [-0.0029971712697472101, 0.0059943425394944211, -0.0059943425394944228]}
    - {mu0: 0, rank: 2, ndensity: 1, num_ms_combs: 4, mus: [0, 0], ns: [2, 2], ls: [3, 3], ms_combs: [0, 0, 1, -1, 2, -2, 3, -3], ctildes: [0.0025941556957171526, -0.0051883113914343052, 0.0051883113914343044, -0.0051883113914343044]}
    - {mu0: 0, rank: 2, ndensity: 1, num_ms_combs: 1, mus: [0, 0], ns: [2, 3], ls: [0, 0], ms_combs: [0, 0], ctildes: [0.24185919647275156]}
    - {mu0: 0, rank: 2, ndensity: 1, num_ms_combs: 2, mus: [0, 0], ns: [2, 3], ls: [1, 1], ms_combs: [0, 0, 1, -1], ctildes: [-0.022125928281332505, 0.044251856562664997]}
    - {mu0: 0, rank: 2, ndensity: 1, num_ms_combs: 3, mus: [0, 0], ns: [2, 3], ls: [2, 2], ms_combs: [0, 0, 1, -1, 2, -2], ctildes: [0.0053154396957278867, -0.010630879391455775, 0.010630879391455777]}
    - {mu0: 0, rank: 2, ndensity: 1, num_ms_combs: 1, mus: [0, 0], ns: [2, 4], ls: [0, 0], ms_combs: [0, 0], ctildes: [0.034108688816834785]}
    - {mu0: 0, rank: 2, ndensity: 1, num_ms_combs: 2, mus: [0, 0], ns: [2, 4], ls: [1, 1], ms_combs: [0, 0, 1, -1], ctildes: [0.056843490096503406, -0.11368698019300678]}
    - {mu0: 0, rank: 2, ndensity: 1, num_ms_combs: 3, mus: [0, 0], ns: [2, 4], ls: [2, 2], ms_combs: [0, 0, 1, -1, 2, -2], ctildes: [-0.0062055063569509527, 0.012411012713901907, -0.012411012713901909]}
    - {mu0: 0, rank: 2, ndensity: 1, num_ms_combs: 1, mus: [0, 0], ns: [2, 5], ls: [0, 0], ms_combs: [0, 0], ctildes: [-0.073044675877634219]}
    - {mu0: 0, rank: 2, ndensity: 1, num_ms_combs: 2, mus: [0, 0], ns: [2, 5], ls: [1, 1], ms_combs: [0, 0, 1, -1], ctildes: [-0.079265599329865336, 0.15853119865973064]}
    - {mu0: 0, rank: 2, ndensity: 1, num_ms_combs: 1, mus: [0, 0], ns: [2, 6], ls: [0, 0], ms_combs: [0, 0], ctildes: [0.029058632244849607]}
    - {mu0: 0, rank: 2, ndensity: 1, num_ms_combs: 2, mus: [0, 0], ns: [2, 6], ls: [1, 1], ms_combs: [0, 0, 1, -1], ctildes: [0.083423005760527483, -0.16684601152105494]}
    - {mu0: 0, rank: 2, ndensity: 1, num_ms_combs: 1, mus: [0, 0], ns: [3, 3], ls: [0, 0], ms_combs: [0, 0], ctildes: [0.55154111800929584]}
    - {mu0: 0, rank: 2, ndensity: 1, num_ms_combs: 2, mus: [0, 0], ns: [3, 3], ls: [1, 1], ms_combs: [0, 0, 1, -1], ctildes: [0.012384575473823115, -0.024769150947646222]}
    - {mu0: 0, rank: 2, ndensity: 1, num_ms_combs: 3, mus: [0, 0], ns: [3, 3], ls: [2, 2], ms_combs: [0, 0, 1, -1, 2, -2], ctildes: [-0.0048635862895262359, 0.0097271725790524718, -0.0097271725790524753]}
    - {mu0: 0, rank: 2, ndensity: 1, num_ms_combs: 1, mus: [0, 0], ns: [3, 4], ls: [0, 0], ms_combs: [0, 0], ctildes: [-0.37409397074244588]}
    - {mu0: 0, rank: 2, ndensity: 1, num_ms_combs: 2, mus: [0, 0], ns: [3, 4], ls: [1, 1], ms_combs: [0, 0, 1, -1], ctildes: [-0.00083738230338540253, 0.0016747646067708046]}
    - {mu0: 0, rank: 2, ndensity: 1, num_ms_combs: 1, mus: [0, 0], ns: [3, 5], ls: [0, 0], ms_combs: [0, 0], ctildes: [0.066215130563299529]}
    - {mu0: 0, rank: 2, ndensity: 1, num_ms_combs: 2, mus: [0, 0], ns: [3, 5], ls: [1, 1], ms_combs: [0, 0, 1, -1], ctildes: [0.017653905201938637, -0.035307810403877267]}
    - {mu0: 0, rank: 2, ndensity: 1, num_ms_combs: 1, mus: [0, 0], ns: [3, 6], ls: [0, 0], ms_combs: [0, 0], ctildes: [-0.021477648709761623]}
    - {mu0: 0, rank: 2, ndensity: 1, num_ms_combs: 1, mus: [0, 0], ns: [4, 4], ls: [0, 0], ms_combs: [0, 0], ctildes: [0.20291976999969252]}
    - {mu0: 0, rank: 2, ndensity: 1, num_ms_combs: 2, mus: [0, 0], ns: [4, 4], ls: [1, 1], ms_combs: [0, 0, 1, -1], ctildes: [-0.011146387439872143, 0.022292774879744282]}
    - {mu0: 0, rank: 2, ndensity: 1, num_ms_combs: 1, mus: [0, 0], ns: [4, 5], ls: [0, 0], ms_combs: [0, 0], ctildes: [-0.095200719120124955]}
    - {mu0: 0, rank: 2, ndensity: 1, num_ms_combs: 1, mus: [0, 0], ns: [4, 6], ls: [0, 0], ms_combs: [0, 0], ctildes: [-0.00020610316251241185]}
    - {mu0: 0, rank: 3, ndensity: 1, num_ms_combs: 1, mus: [0, 0, 0], ns: [1, 1, 1], ls: [0, 0, 0], ms_combs: [0, 0, 0], ctildes: [0.46410911334470406]}
    - {mu0: 0, rank: 3, ndensity: 1, num_ms_combs: 2, mus: [0, 0, 0], ns: [1, 1, 1], ls: [0, 1, 1], ms_combs: [0, 0, 0, 0, 1, -1], ctildes: [0.096427336123350707, -0.19285467224670139]}
    - {mu0: 0, rank: 3, ndensity: 1, num_ms_combs: 3, mus: [0, 0, 0], ns: [1, 1, 1], ls: [0, 2, 2], ms_combs: [0, 0, 0, 0, 1, -1, 0, 2, -2], ctildes: [-0.16856113573498557, 0.3371222714699712, -0.33712227146997131]}
    - {mu0: 0, rank: 3, ndensity: 1, num_ms_combs: 4, mus: [0, 0, 0], ns: [1, 1, 1], ls: [1, 1, 2], ms_combs: [-1, 1, 0, 0, 0, 0, 0, 1, -1, 1, 1, -2], ctildes: [0.029189471333536582, 0.029189471333536578, -0.10111529479152127, 0.071499310628761484]}
    - {mu0: 0, rank: 3, ndensity: 1, num_ms_combs: 1, mus: [0, 0, 0], ns: [1, 1, 2], ls: [0, 0, 0], ms_combs: [0, 0, 0], ctildes: [-0.40513224023871885]}
    - {mu0: 0, rank: 3, ndensity: 1, num_ms_combs: 2, mus: [0, 0, 0], ns: [1, 1, 2], ls: [0, 1, 1], ms_combs: [0, 0, 0, 0, 1, -1], ctildes: [0.35073612503584617, -0.70147225007169223]}
    - {mu0: 0, rank: 3, ndensity: 1, num_ms_combs: 3, mus: [0, 0, 0], ns: [1, 1, 2], ls: [0, 2, 2], ms_combs: [0, 0, 0, 0, 1, -1, 0, 2, -2], ctildes: [0.01602260657913207, -0.032045213158264148, 0.032045213158264155]}
    - {mu0: 0, rank: 3, ndensity: 1, num_ms_combs: 2, mus: [0, 0, 0], ns: [1, 1, 2], ls: [1, 1, 0], ms_combs: [0, 0, 0, 1, -1, 0], ctildes: [-0.069297826185463554, 0.13859565237092708]}
    - {mu0: 0, rank: 3, ndensity: 1, num_ms_combs: 4, mus: [0, 0, 0], ns: [1, 1, 2], ls: [1, 1, 2], ms_combs: [-1, 1, 0, 0, 0, 0, 0, 1, -1, 1, 1, -2], ctildes: [-0.0051224164824846584, -0.0051224164824846576, 0.017744571210383361, -0.012547306632109661]}
    - {mu0: 0, rank: 3, ndensity: 1, num_ms_combs: 5, mus: [0, 0, 0], ns: [1, 1, 2], ls: [1, 2, 1], ms_combs: [0, 0, 0, 0, 1, -1, 1, -2, 1, 1, -1, 0, 1, 0, -1], ctildes: [0.04852254328665967, -0.084043510284954687, 0.11885547207442561, -0.084043510284954687, 0.048522543286659663]}
    - {mu0: 0, rank: 3, ndensity: 1, num_ms_combs: 3, mus: [0, 0, 0], ns: [1, 1, 2], ls: [2, 2, 0], ms_combs: [0, 0, 0, 1, -1, 0, 2, -2, 0], ctildes: [0.12743717863338533, -0.25487435726677066, 0.25487435726677071]}
    - {mu0: 0, rank: 3, ndensity: 1, num_ms_combs: 1, mus: [0, 0, 0], ns: [1, 1, 3], ls: [0, 0, 0], ms_combs: [0, 0, 0], ctildes: [-0.14995050842201654]}
    - {mu0: 0, rank: 3, ndensity: 1, num_ms_combs: 2, mus: [0, 0, 0], ns: [1, 1, 3], ls: [0, 1, 1], ms_combs: [0, 0, 0, 0, 1, -1], ctildes: [0.13088038281691527, -0.26176076563383049]}
    - {mu0: 0, rank: 3, ndensity: 1, num_ms_combs: 2, mus: [0, 0, 0], ns: [1, 1, 3], ls: [1, 1, 0], ms_combs: [0, 0, 0, 1, -1, 0], ctildes: [0.040115277582957548, -0.080230555165915082]}
    - {mu0: 0, rank: 3, ndensity: 1, num_ms_combs: 1, mus: [0, 0, 0], ns: [1, 1, 4], ls: [0, 0, 0], ms_combs: [0, 0, 0], ctildes: [0.24147019807873493]}
    - {mu0: 0, rank: 3, ndensity: 1, num_ms_combs: 2, mus: [0, 0, 0], ns: [1, 1, 4], ls: [0, 1, 1], ms_combs: [0, 0, 0, 0, 1, -1], ctildes: [-0.012345051424566466, 0.024690102849132929]}
    - {mu0: 0, rank: 3, ndensity: 1, num_ms_combs: 2, mus: [0, 0, 0], ns: [1, 1, 4], ls: [1, 1, 0], ms_combs: [0, 0, 0, 1, -1, 0], ctildes: [-0.038177811509370267, 0.07635562301874052]}
    - {mu0: 0, rank: 3, ndensity: 1, num_ms_combs: 1, mus: [0, 0, 0], ns: [1, 2, 2], ls: [0, 0, 0], ms_combs: [0, 0, 0], ctildes: [-0.17982251486026607]}
    - {mu0: 0, rank: 3, ndensity: 1, num_ms_combs: 2, mus: [0, 0, 0], ns: [1, 2, 2], ls: [0, 1, 1], ms_combs: [0, 0, 0, 0, 1, -1], ctildes: [0.013404509280170101, -0.026809018560340195]}
    - {mu0: 0, rank: 3, ndensity: 1, num_ms_combs: 2, mus: [0, 0, 0], ns: [1, 2, 2], ls: [1, 0, 1], ms_combs: [0, 0, 0, 1, 0, -1], ctildes: [-0.12351150541789488, 0.24702301083578973]}
    - {mu0: 0, rank: 3, ndensity: 1, num_ms_combs: 1, mus: [0, 0, 0], ns: [1, 2, 3], ls: [0, 0, 0], ms_combs: [0, 0, 0], ctildes: [0.15420222369735781]}
    - {mu0: 0, rank: 3, ndensity: 1, num_ms_combs: 2, mus: [0, 0, 0], ns: [1, 2, 3], ls: [0, 1, 1], ms_combs: [0, 0, 0, 0, 1, -1], ctildes: [0.033148495538748976, -0.066296991077497938]}
    - {mu0: 0, rank: 3, ndensity: 1, num_ms_combs: 2, mus: [0, 0, 0], ns: [1, 2, 3], ls: [1, 0, 1], ms_combs: [0, 0, 0, 1, 0, -1], ctildes: [-0.070001912384451859, 0.14000382476890369]}
    - {mu0: 0, rank: 3, ndensity: 1, num_ms_combs: 2, mus: [0, 0, 0], ns: [1, 2, 3], ls: [1, 1, 0], ms_combs: [0, 0, 0, 1, -1, 0], ctildes: [-0.032866304035503266, 0.065732608071006518]}
    - {mu0: 0, rank: 3, ndensity: 1, num_ms_combs: 1, mus: [0, 0, 0], ns: [1, 2, 4], ls: [0, 0, 0], ms_combs: [0, 0, 0], ctildes: [-0.56729032998951667]}
    - {mu0: 0, rank: 3, ndensity: 1, num_ms_combs: 1, mus: [0, 0, 0], ns: [1, 3, 3], ls: [0, 0, 0], ms_combs: [0, 0, 0], ctildes: [0.087472377344579688]}
    - {mu0: 0, rank: 3, ndensity: 1, num_ms_combs: 1, mus: [0, 0, 0], ns: [1, 3, 4], ls: [0, 0, 0], ms_combs: [0, 0, 0], ctildes: [0.032057862617492994]}
    - {mu0: 0, rank: 3, ndensity: 1, num_ms_combs: 1, mus: [0, 0, 0], ns: [2, 2, 2], ls: [0, 0, 0], ms_combs: [0, 0, 0], ctildes: [-0.084229363876856964]}
    - {mu0: 0, rank: 3, ndensity: 1, num_ms_combs: 2, mus: [0, 0, 0], ns: [2, 2, 2], ls: [0, 1, 1], ms_combs: [0, 0, 0, 0, 1, -1], ctildes: [-0.021213604472449871, 0.042427208944899736]}
    - {mu0: 0, rank: 3, ndensity: 1, num_ms_combs: 1, mus: [0, 0, 0], ns: [2, 2, 3], ls: [0, 0, 0], ms_combs: [0, 0, 0], ctildes: [-0.038620013803928432]}
    - {mu0: 0, rank: 3, ndensity: 1, num_ms_combs: 1, mus: [0, 0, 0], ns: [2, 2, 4], ls: [0, 0, 0], ms_combs: [0, 0, 0], ctildes: [0.33648861988270345]}
    - {mu0: 0, rank: 3, ndensity: 1, num_ms_combs: 1, mus: [0, 0, 0], ns: [2, 3, 3], ls: [0, 0, 0], ms_combs: [0, 0, 0], ctildes: [-0.18268936771488581]}
    - {mu0: 0, rank: 4, ndensity: 1, num_ms_combs: 1, mus: [0, 0, 0, 0], ns: [1, 1, 1, 1], ls: [0, 0, 0, 0], ms_combs: [0, 0, 0, 0], ctildes: [-0.05143244026070988]}
    - {mu0: 0, rank: 4, ndensity: 1, num_ms_combs: 2, mus: [0, 0, 0, 0], ns: [1, 1, 1, 1], ls: [0, 0, 1, 1], ms_combs: [0, 0, 0, 0, 0, 0, 1, -1], ctildes: [0.093954198465393393, -0.18790839693078676]}
    - {mu0: 0, rank: 4, ndensity: 1, num_ms_combs: 1, mus: [0, 0, 0, 0], ns: [1, 1, 1, 2], ls: [0, 0, 0, 0], ms_combs: [0, 0, 0, 0], ctildes: [-0.056182653030689304]}
    - {mu0: 0, rank: 4, ndensity: 1, num_ms_combs: 2, mus: [0, 0, 0, 0], ns: [1, 1, 1, 2], ls: [0, 0, 1, 1], ms_combs: [0, 0, 0, 0, 0, 0, 1, -1], ctildes: [-0.011705325466565249, 0.023410650933130495]}
    - {mu0: 0, rank: 4, ndensity: 1, num_ms_combs: 2, mus: [0, 0, 0, 0], ns: [1, 1, 1, 2], ls: [0, 1, 1, 0], ms_combs: [0, 0, 0, 0, 0, 1, -1, 0], ctildes: [-0.076431708630428877, 0.15286341726085773]}
    - {mu0: 0, rank: 4, ndensity: 1, num_ms_combs: 1, mus: [0, 0, 0, 0], ns: [1, 1, 1, 3], ls: [0, 0, 0, 0], ms_combs: [0, 0, 0, 0], ctildes: [-0.0061932270968740148]}
    - {mu0: 0, rank: 4, ndensity: 1, num_ms_combs: 1, mus: [0, 0, 0, 0], ns: [1, 1, 2, 2], ls: [0, 0, 0, 0], ms_combs: [0, 0, 0, 0], ctildes: [0.19106898136761077]}
    - {mu0: 0, rank: 4, ndensity: 1, num_ms_combs: 1, mus: [0, 0, 0, 0], ns: [1, 1, 2, 3], ls: [0, 0, 0, 0], ms_combs: [0, 0, 0, 0], ctildes: [0.010821939889376134]}
    - {mu0: 0, rank: 4, ndensity: 1, num_ms_combs: 1, mus: [0, 0, 0, 0], ns: [1, 2, 2, 2], ls: [0, 0, 0, 0], ms_combs: [0, 0, 0, 0], ctildes: [-0.060641248890654767]}
    - {mu0: 0, rank: 5, ndensity: 1, num_ms_combs: 1, mus: [0, 0, 0, 0, 0], ns: [1, 1, 1, 1, 1], ls: [0, 0, 0, 0, 0], ms_combs: [0, 0, 0, 0, 0], ctildes: [0.0064470926675292634]}
    - {mu0: 0, rank: 5, ndensity: 1, num_ms_combs: 1, mus: [0, 0, 0, 0, 0], ns: [1, 1, 1, 1, 2], ls: [0, 0, 0, 0, 0], ms_combs: [0, 0, 0, 0, 0], ctildes: [-0.0076028813309436593]}
