elements: [Fe]
E0: [0]
deltaSplineBins: 0.001
embeddings:
  0: {ndensity: 1, FS_parameters: [1, 1], npoti: FinnisSinclairShiftedScaled, rho_core_cutoff: 100000, drho_core_cutoff: 250}
bonds:
  [0, 0]: {nradmax: 6, lmax: 3, nradbasemax: 9, radbasename: SBessel, radparameters: [5.25], radcoefficients: [[[2.4812964740495405, -1.193452136425349, 1.0912758119819812, -1.1566583721837049, 0.19000973806167584, 0.15316131805023239, -0.54122657566573096, 0.3416632124963887, -0.11678370553526844], [0.772610723284199, -0.14069524001091382, 0.16861038082282476, -0.10772959582945185, -0.033222078237193024, 0.18982651016704263, 0.18643799676189707, -0.29290089385483892, 0.12359459199498822], [0.038740097638207585, 1.3790075038475869, -1.0454431482552846, 1.399635255952429, -0.93663806871533051, 0.95471033440708764, -0.7109614520857005, 0.19848081284236213, 0.052257651673832957], [0.91484824468619674, -0.57619204453967354, 0.0012794797126842634, 0.16923370423442199, -0.57519711874916879, 0.61526320278065827, -0.49397398046566104, 0.29980692860955704, -0.092616840390113392]], [[1.3827595464890672, 0.3857285896546182, -0.21209427567343589, -0.42308547785810285, -0.64246853194131848, 0.72497783299856955, -1.3617516536747569, 0.84835184313243361, -0.34420673965390042], [-0.27913263137659361, 0.7340299522975483, -0.0068307529486352943, -0.2409585618277699, -0.80121714646295783, -0.050570013070977353, 0.42877295639955937, -1.1784990415141623, 0.94855457368572571], [-0.05814219128765049, 1.3377759119509876, -0.28998607084753691, -0.43585081126438951, 0.13721147766712444, 0.5911142478174497, -0.69848483483947865, 0.35538210164775952, -0.17747705644798881], [0, 1, 0, 0, 0, 0, 0, 0, 0]], [[0.11304365677256761, 0.30356593723822134, -0.18807386852253999, 0.87289901618619559, -0.64071967443209332, 0.6784011493369706, -0.17780508641519829, -0.028879765410338525, 0.14873465198195229], [0.17329761655454615, -0.25351267315395359, -0.035521636061069471, -0.36863009821190096, -0.15005055102518533, -1.5749987171027415, -1.3246843340928847, -0.021228251858515072, 0.92620538112617246], [1.1310614804270145, -0.33391978242877274, 0.94204532603334812, -0.56859773320778639, 0.57600947959188697, -0.14781709585272645, -0.009372656420472773, -0.08698810726491088, 0.11033324045640837], [0, 0, 1, 0, 0, 0, 0, 0, 0]], [[-0.37393485822634281, 0.031131749681411205, 1.198037329048111, 0.66963386223332411, 0.49393700678310065, -0.04444224209716488, 1.1022819052378132, -0.77528964180129745, 0.63411765307990464], [0.34432510139391509, -0.19539801112373764, 0.32287716921050652, 0.8941238058181481, -0.89924566455456312, 0.44449408108019867, -0.71675145138436891, -0.10834540842843822, 0.4226677261407692], [0, 0, 0, 1, 0, 0, 0, 0, 0], [0, 0, 0, 1, 0, 0, 0, 0, 0]], [[0.00071613345940345233, 0.2396489614614756, 0.44588844633159208, -0.74826496452168678, 1.0419370167982254, 0.13011795229259068, -0.21440835928897706, 0.15407208856709059, -0.077882410068797273], [-0.10640883234261368, -0.049073894757403223, -0.023435943663585691, 0.054459490527759759, 1.0790025378553991, -0.073300337417470746, 0.11666344319924792, -0.095890573207605134, -0.079087792113134825], [0, 0, 0, 0, 1, 0, 0, 0, 0], [0, 0, 0, 0, 1, 0, 0, 0, 0]], [[0.13587213710481963, -0.19739328412983867, -0.55777509483184129, 0.14687629424485324, 0.56055910439939982, 1.5695262818113005, -0.25277064426272072, -0.38983527501481574, 0.020843663891597315], [0, 0, 0, 0, 0, 1, 0, 0, 0], [0, 0, 0, 0, 0, 1, 0, 0, 0], [0, 0, 0, 0, 0, 1, 0, 0, 0]]], prehc: 0, lambdahc: 0, rcut: 6.5, dcut: 0.01, rcut_in: 0, dcut_in: 0, inner_cutoff_type: distance}
functions:
  0:
    - {mu0: 0, rank: 1, ndensity: 1, num_ms_combs: 1, mus: [0], ns: [1], ls: [0], ms_combs: [0], ctildes: [-1.6073051793900051]}
    - {mu0: 0, rank: 1, ndensity: 1, num_ms_combs: 1, mus: [0], ns: [2], ls: [0], ms_combs: [0], ctildes: [-1.3643853980871439]}
    - {mu0: 0, rank: 1, ndensity: 1, num_ms_combs: 1, mus: [0], ns: [3], ls: [0], ms_combs: [0], ctildes: [0.98591964191699621]}
    - {mu0: 0, rank: 1, ndensity: 1, num_ms_combs: 1, mus: [0], ns: [4], ls: [0], ms_combs: [0], ctildes: [-0.13740452842597808]}
    - {mu0: 0, rank: 1, ndensity: 1, num_ms_combs: 1, mus: [0], ns: [5], ls: [0], ms_combs: [0], ctildes: [0.11873779109911935]}
    - {mu0: 0, rank: 1, ndensity: 1, num_ms_combs: 1, mus: [0], ns: [6], ls: [0], ms_combs: [0], ctildes: [-0.1644499740304998]}
    - {mu0: 0, rank: 1, ndensity: 1, num_ms_combs: 1, mus: [0], ns: [7], ls: [0], ms_combs: [0], ctildes: [0.47740189950935497]}
    - {mu0: 0, rank: 1, ndensity: 1, num_ms_combs: 1, mus: [0], ns: [8], ls: [0], ms_combs: [0], ctildes: [-0.47681149015966756]}
    - {mu0: 0, rank: 1, ndensity: 1, num_ms_combs: 1, mus: [0], ns: [9], ls: [0], ms_combs: [0], ctildes: [0.071186140027174757]}
    - {mu0: 0, rank: 2, ndensity: 1, num_ms_combs: 1, mus: [0, 0], ns: [1, 1], ls: [0, 0], ms_combs: [0, 0], ctildes: [0.49176629583717929]}
    - {mu0: 0, rank: 2, ndensity: 1, num_ms_combs: 2, mus: [0, 0], ns: [1, 1], ls: [1, 1], ms_combs: [0, 0, 1, -1], ctildes: [0.26341852283148359, -0.52683704566296707]}
    - {mu0: 0, rank: 2, ndensity: 1, num_ms_combs: 3, mus: [0, 0], ns: [1, 1], ls: [2, 2], ms_combs: [0, 0, 1, -1, 2, -2], ctildes: [-0.36756687437439717, 0.73513374874879434, -0.73513374874879456]}
    - {mu0: 0, rank: 2, ndensity: 1, num_ms_combs: 4, mus: [0, 0], ns: [1, 1], ls: [3, 3], ms_combs: [0, 0, 1, -1, 2, -2, 3, -3], ctildes: [-0.12347450046382452, 0.24694900092764904, -0.24694900092764902, 0.24694900092764902]}
    - {mu0: 0, rank: 2, ndensity: 1, num_ms_combs: 1, mus: [0, 0], ns: [1, 2], ls: [0, 0], ms_combs: [0, 0], ctildes: [-0.31109756870981137]}
    - {mu0: 0, rank: 2, ndensity: 1, num_ms_combs: 2, mus: [0, 0], ns: [1, 2], ls: [1, 1], ms_combs: [0, 0, 1, -1], ctildes: [-0.0024526887034854246, 0.0049053774069708483]}
    - {mu0: 0, rank: 2, ndensity: 1, num_ms_combs: 3, mus: [0, 0], ns: [1, 2], ls: [2, 2], ms_combs: [0, 0, 1, -1, 2, -2], ctildes: [-0.065702394330776195, 0.13140478866155242, -0.13140478866155245]}
    - {mu0: 0, rank: 2, ndensity: 1, num_ms_combs: 1, mus: [0, 0], ns: [1, 3], ls: [0, 0], ms_combs: [0, 0], ctildes: [0.18775129221393849]}
    - {mu0: 0, rank: 2, ndensity: 1, num_ms_combs: 2, mus: [0, 0], ns: [1, 3], ls: [1, 1], ms_combs: [0, 0, 1, -1], ctildes: [0.055981170702303559, -0.11196234140460709]}
    - {mu0: 0, rank: 2, ndensity: 1, num_ms_combs: 3, mus: [0, 0], ns: [1, 3], ls: [2, 2], ms_combs: [0, 0, 1, -1, 2, -2], ctildes: [0.52449265993478145, -1.0489853198695631, 1.0489853198695633]}
    - {mu0: 0, rank: 2, ndensity: 1, num_ms_combs: 1, mus: [0, 0], ns: [1, 4], ls: [0, 0], ms_combs: [0, 0], ctildes: [-0.16239930918656559]}
    - {mu0: 0, rank: 2, ndensity: 1, num_ms_combs: 2, mus: [0, 0], ns: [1, 4], ls: [1, 1], ms_combs: [0, 0, 1, -1], ctildes: [0.040893601555968807, -0.081787203111937601]}
    - {mu0: 0, rank: 2, ndensity: 1, num_ms_combs: 1, mus: [0, 0], ns: [1, 5], ls: [0, 0], ms_combs: [0, 0], ctildes: [0.82778616070077482]}
    - {mu0: 0, rank: 2, ndensity: 1, num_ms_combs: 2, mus: [0, 0], ns: [1, 5], ls: [1, 1], ms_combs: [0, 0, 1, -1], ctildes: [-0.080130657876312628, 0.16026131575262523]}
    - {mu0: 0, rank: 2, ndensity: 1, num_ms_combs: 1, mus: [0, 0], ns: [1, 6], ls: [0, 0], ms_combs: [0, 0], ctildes: [-0.26502835921283679]}
    - {mu0: 0, rank: 2, ndensity: 1, num_ms_combs: 1, mus: [0, 0], ns: [2, 2], ls: [0, 0], ms_combs: [0, 0], ctildes: [0.22894835362411234]}
    - {mu0: 0, rank: 2, ndensity: 1, num_ms_combs: 2, mus: [0, 0], ns: [2, 2], ls: [1, 1], ms_combs: [0, 0, 1, -1], ctildes: [0.009285543153310323, -0.018571086306620643]}
    - {mu0: 0, rank: 2, ndensity: 1, num_ms_combs: 3, mus: [0, 0], ns: [2, 2], ls: [2, 2], ms_combs: [0, 0, 1, -1, 2, -2], ctildes: [0.010078793852464459, -0.020157587704928918, 0.020157587704928925]}
    - {mu0: 0, rank: 2, ndensity: 1, num_ms_combs: 1, mus: [0, 0], ns: [2, 3], ls: [0, 0], ms_combs: [0, 0], ctildes: [-0.80027890930311452]}
    - {mu0: 0, rank: 2, ndensity: 1, num_ms_combs: 2, mus: [0, 0], ns: [2, 3], ls: [1, 1], ms_combs: [0, 0, 1, -1], ctildes: [-0.017699450464773257, 0.035398900929546506]}
    - {mu0: 0, rank: 2, ndensity: 1, num_ms_combs: 1, mus: [0, 0], ns: [2, 4], ls: [0, 0], ms_combs: [0, 0], ctildes: [0.32235988345790989]}
    - {mu0: 0, rank: 2, ndensity: 1, num_ms_combs: 2, mus: [0, 0], ns: [2, 4], ls: [1, 1], ms_combs: [0, 0, 1, -1], ctildes: [0.030422683994702247, -0.060845367989404479]}
    - {mu0: 0, rank: 2, ndensity: 1, num_ms_combs: 1, mus: [0, 0], ns: [2, 5], ls: [0, 0], ms_combs: [0, 0], ctildes: [-0.46356234931676477]}
    - {mu0: 0, rank: 2, ndensity: 1, num_ms_combs: 1, mus: [0, 0], ns: [2, 6], ls: [0, 0], ms_combs: [0, 0], ctildes: [0.14242095770959431]}
    - {mu0: 0, rank: 2, ndensity: 1, num_ms_combs: 1, mus: [0, 0], ns: [3, 3], ls: [0, 0], ms_combs: [0, 0], ctildes: [-0.37919365252238585]}
    - {mu0: 0, rank: 2, ndensity: 1, num_ms_combs: 2, mus: [0, 0], ns: [3, 3], ls: [1, 1], ms_combs: [0, 0, 1, -1], ctildes: [0.0022017342546445631, -0.0044034685092891254]}
    - {mu0: 0, rank: 2, ndensity: 1, num_ms_combs: 1, mus: [0, 0], ns: [3, 4], ls: [0, 0], ms_combs: [0, 0], ctildes: [0.62042586510275588]}
    - {mu0: 0, rank: 2, ndensity: 1, num_ms_combs: 1, mus: [0, 0], ns: [3, 5], ls: [0, 0], ms_combs: [0, 0], ctildes: [-0.14991140268990782]}
    - {mu0: 0, rank: 2, ndensity: 1, num_ms_combs: 1, mus: [0, 0], ns: [4, 4], ls: [0, 0], ms_combs: [0, 0], ctildes: [-0.15241452273557463]}
    - {mu0: 0, rank: 3, ndensity: 1, num_ms_combs: 1, mus: [0, 0, 0], ns: [1, 1, 1], ls: [0, 0, 0], ms_combs: [0, 0, 0], ctildes: [0.087570451565724461]}
    - {mu0: 0, rank: 3, ndensity: 1, num_ms_combs: 2, mus: [0, 0, 0], ns: [1, 1, 1], ls: [0, 1, 1], ms_combs: [0, 0, 0, 0, 1, -1], ctildes: [-0.092989930874890714, 0.1859798617497814]}
    - {mu0: 0, rank: 3, ndensity: 1, num_ms_combs: 1, mus: [0, 0, 0], ns: [1, 1, 2], ls: [0, 0, 0], ms_combs: [0, 0, 0], ctildes: [-0.16709765817151598]}
    - {mu0: 0, rank: 3, ndensity: 1, num_ms_combs: 2, mus: [0, 0, 0], ns: [1, 1, 2], ls: [0, 1, 1], ms_combs: [0, 0, 0, 0, 1, -1], ctildes: [-0.038350550593164723, 0.076701101186329418]}
    - {mu0: 0, rank: 3, ndensity: 1, num_ms_combs: 2, mus: [0, 0, 0], ns: [1, 1, 2], ls: [1, 1, 0], ms_combs: [0, 0, 0, 1, -1, 0], ctildes: [0.12265820376462531, -0.24531640752925057]}
    - {mu0: 0, rank: 3, ndensity: 1, num_ms_combs: 1, mus: [0, 0, 0], ns: [1, 1, 3], ls: [0, 0, 0], ms_combs: [0, 0, 0], ctildes: [0.040745036356641298]}
    - {mu0: 0, rank: 3, ndensity: 1, num_ms_combs: 1, mus: [0, 0, 0], ns: [1, 1, 4], ls: [0, 0, 0], ms_combs: [0, 0, 0], ctildes: [-0.055360358154140331]}
    - {mu0: 0, rank: 3, ndensity: 1, num_ms_combs: 1, mus: [0, 0, 0], ns: [1, 2, 2], ls: [0, 0, 0], ms_combs: [0, 0, 0], ctildes: [-0.0073578614160843313]}
    - {mu0: 0, rank: 3, ndensity: 1, num_ms_combs: 1, mus: [0, 0, 0], ns: [1, 2, 3], ls: [0, 0, 0], ms_combs: [0, 0, 0], ctildes: [0.083776994340329397]}
    - {mu0: 0, rank: 3, ndensity: 1, num_ms_combs: 1, mus: [0, 0, 0], ns: [2, 2, 2], ls: [0, 0, 0], ms_combs: [0, 0, 0], ctildes: [0.028955970673455195]}
    - {mu0: 0, rank: 4, ndensity: 1, num_ms_combs: 1, mus: [0, 0, 0, 0], ns: [1, 1, 1, 1], ls: [0, 0, 0, 0], ms_combs: [0, 0, 0, 0], ctildes: [-0.0016542186324422768]}
    - {mu0: 0, rank: 4, ndensity: 1, num_ms_combs: 1, mus: [0, 0, 0, 0], ns: [1, 1, 1, 2], ls: [0, 0, 0, 0], ms_combs: [0, 0, 0, 0], ctildes: [0.0029443349377318404]}
