elements: [Fe]
E0: [0]
deltaSplineBins: 0.001
embeddings:
  0: {ndensity: 2, FS_parameters: [1, 1, 1, 0.5], npoti: FinnisSinclairShiftedScaled, rho_core_cutoff: 100000, drho_core_cutoff: 250}
bonds:
  [0, 0]: {nradmax: 6, lmax: 3, nradbasemax: 15, radbasename: SBessel, radparameters: [5.25], radcoefficients: [[[1.0353543631796669, -0.013387592964253375, -0.045800311647570903, -0.37457208382090124, 0.17058765429469772, 0.10600970564855612, -0.14169325286435766, 0.10590463662122182, -0.0621460915607479, 0.047662446302297427, 0.001054217083309237, -0.044153787138948811, 0.04061367267815779, -0.014408432796489732, 0.0069617980674988554], [0.49824102703875156, -0.27973022228341049, 0.1676352397057394, 0.029540554026672414, -0.063306848174219901, 0.047956614130063198, -0.018058877280446087, 0.040381497079055882, 0.044961029805176682, -0.1077894236665361, 0.10603181428290212, -0.064456645827600606, 0.034584487083022995, -0.012715071673414352, 0.0015864183289235722], [0.81596072556532828, -0.43511860570135358, 0.048349752166478258, 0.14151632700806088, -0.15434966017102036, 0.01850724436389262, 0.012186448855782215, -0.022811835297699534, 0.058044522555397021, -0.040490504305525143, -0.012846481924383282, 0.081943855815048303, -0.092610858861635087, 0.056021207709751129, -0.019765453452966805], [0.8335739297232766, -0.12025226332088926, -0.15271452571460459, 0.13727687313187056, 0.11505682136218752, -0.26927979839117383, 0.18531548156689898, 0.065370481522611268, -0.16625982802352821, 0.19984181858143404, -0.20192935385579033, 0.23350383428957242, -0.15179888599346222, 0.04809777474900967, 0.0067883639184653458]], [[0.43805323963789405, 0.85208231829270775, -0.64017063819638809, -0.22234390240084387, 0.082970353175706474, 0.18187073705597767, -0.19412212764740777, 0.12394217896253153, -0.069687131092099106, 0.029400057324088597, 0.02172034821513829, -0.041314880540505645, 0.026064670978505639, -0.0063915230302370469, 0.005829563239586371], [-0.32587747655000016, 0.68548561654357076, 0.010088570911152667, -0.13023982560359043, -0.16929961435259883, 0.17081461504225354, 0.092925810552812724, 0.037241132014886595, 0.052384296234005708, -0.16588221067416228, 0.081206923607823472, 0.1661490262164447, -0.14237291733876614, 0.062463965871453753, -0.0027810967489425701], [0.054553949017584508, 0.36301846617518091, -0.31423971378445353, 0.28171008911486412, -0.32523604210794299, 0.090497860436712069, 0.088737089172357703, -0.17810159518731422, 0.32465244332362531, -0.43158499906623743, 0.30848469525342082, -0.085446074785594961, 0.0014014100031091231, -0.0087651651055466497, 0.01518310753433013], [0.10308188465594764, 0.63287795972088756, -0.28103970882084484, 0.33090161570793014, 0.31541475464758462, 0.1405700665603461, -0.036332209870987016, 0.086498224139549953, 0.29453563925589787, -0.23109300079931516, 0.00024235660985838739, 0.23550194608083846, -0.26864204143454051, 0.14332513160168617, -0.0020238859849488399]], [[0.24265570029466763, 0.20575850442837873, 0.088909317908547544, -0.64107343025141272, 0.39509150452261182, -0.085222535775104677, -0.090770362766974783, 0.038559354298277573, 0.00082696819098701546, -0.015156287972154401, 0.0029635708539349241, 0.0028488308694182302, -0.00010457767188475582, -0.0046925568017909163, 0.0073934969717068637], [0.15740741802021685, -0.067459256416441196, 0.51699443609296414, -0.043406289049261998, 0.49742463322010627, -0.22041068554072168, -0.36951168265566681, 0.51778993217515323, 0.14972256977353635, -0.24596208069699402, 0.17963935482357582, 0.0175319979080472, 0.041182674622757355, -0.03799361996438734, -0.0027448597669864228], [-0.18641745205093713, -0.49826988837165404, 0.73589842987483223, -0.20425155196503583, -0.41378884765495205, -0.043873131193220956, 0.24983872703921076, -0.071814871210437448, -0.032299959840353151, 0.1741476935055665, -0.2128009649177377, 0.18003222243065473, -0.034161416793676805, -0.025907327332824907, 0.061843568347523685], [-0.10197956617888854, -0.24465134284927917, 0.76827152841773871, -0.27048972386302367, -0.27510818490607447, -0.020943983582991394, 0.096374364914667221, 0.048899259753964135, -0.030312347860869737, -0.12065578088869186, 0.062369542067931751, 0.07451694610454708, -0.20318452000804058, 0.21633925539183774, -0.12155156542706753]], [[0.20476301289666535, 0.12423778644759108, -0.38116530896699635, 0.44589865410120133, -0.072710470262317958, -0.088442383415628642, -0.35713208887937004, 0.19918504700770526, 0.027611224305016918, -0.22769725304925093, 0.30970456639791277, -0.36362222597990024, 0.22891749321971103, -0.083975285317784143, 0.036963771185784249], [0.108313355186291, -0.059297154244558989, -0.37130579762532973, 0.86270098956254615, 0.25966082040291899, -0.040727779680443853, -0.32267232394227269, 0.13080800555715935, 0.38177626231549583, -0.14233415702543653, -0.23417711970181118, 0.268379947990941, -0.039446504565399443, 0.0082392621919820282, -0.06331613253972547], [-0.16730110330563441, -0.11398466795547865, -0.36125357035635014, 0.75702406250283283, -0.28046472074338985, -0.20596364442408857, 0.22177117313823916, -0.13880639228338812, 0.097327560440530203, 0.1008024902874894, -0.21814913755709497, 0.21542777613350966, -0.10138777267229059, 0.0081408413520697998, 0.022714899672997273], [0.00098606208587839229, -0.0097550597393477011, -0.046089812698702062, 0.93536273839400219, -0.14358801037056224, -0.21654079268293538, 0.038459765869468171, 0.29746921187792524, 0.023416160473479931, -0.10570391093056285, 0.097291322234884292, -0.19504835558597672, -0.024999784839088317, 0.12170037706588976, -0.10633422250948421]], [[-0.2555839394773245, -0.17989633888222267, -0.10228572457315036, -0.32075583318015355, 0.76862009447091773, 0.093616300030162219, -0.11108378433297478, -0.23645942167205569, 0.092082766040905151, 0.10862001112668736, 0.081157354669776111, -0.056007940829179981, -0.078981899966335326, 0.10650496903670922, -0.081128329450808556], [0.15884614652438164, -0.0028098448590293478, -0.1994575549862424, -0.21073480391083685, 0.88339049824968174, -0.11807048182535346, -0.28010298276071938, -0.069073999197116556, 0.13276935596821193, 0.011481901770444385, -0.039434645434394608, -0.14355327438315307, 0.16924532461326464, -0.07964076353763512, -0.023058572996303713], [-0.06990308347835289, -0.090019725528097741, -0.16975212751636914, -0.23999167582326569, 0.89725522472285302, -0.04116801351865787, -0.020183121404009848, 0.10527975769551379, -0.011521459230094813, -0.28568665113154307, -0.14156546415367804, 0.20465037734558783, -0.10370952170179192, -0.06364308709715942, -0.034382150673418127], [-0.057161679423592883, 0.07845441104397359, 0.024929895768613708, -0.011754124841639502, 1.0078725989734534, -0.042008418805863458, 0.18679524113423296, 0.15825553535986939, 0.099207624961464361, 0.2204722974916154, -0.048454151405260618, 0.14232052021865005, -0.073140597389709183, -0.010569384932001923, 0.13206813385375094]], [[-0.19024431549036885, -0.12846679949209894, 0.17355601335513715, 0.060784736455027202, -0.2577182274987716, 0.85346833055014903, 0.048175228340292919, -0.10298438875828433, -0.14152949442590568, 0.18963161194137221, 0.25520787973536208, -0.19407958117754651, -0.054812520421648074, 0.15369709324101777, -0.10510870446543132], [-0.12926448078980027, 0.076634611569248293, 0.075480764701083031, -0.10498723177791508, -0.13711000502631795, 0.77090213303410338, -0.29495292971804915, -0.20185174757245899, 0.1779164434972359, 0.16871237848851484, -0.24295104690394381, 0.050973048944912933, 0.052445798741425229, 0.044393618829630256, -0.074731340044572103], [0.046684387427812828, 0.029096898616834489, 0.064513438184622254, 0.11618742268986913, -0.022241268917832464, 0.99454973973764771, 0.093579039750630477, -0.16528587182757018, -0.18866020235344119, 0.056399470311157995, -0.2104893701296203, -0.25369488640129217, 0.21543747716946451, -0.025745648763482523, -0.19682965344525596], [-0.017442841208332276, -0.077804156286271992, -0.019773111803347274, -0.040257618626317319, -0.070146664493506442, 0.99156441450191579, -0.091499002734887397, 0.05601783857292178, 0.18232193938323926, 0.0064912046712861486, 0.21817244736202174, 0.20853650704081006, -0.06206624485618982, -0.053686964754532614, 0.20701341520986591]]], prehc: 0, lambdahc: 0, rcut: 6.5, dcut: 0.01, rcut_in: 0, dcut_in: 0, inner_cutoff_type: distance}
functions:
  0:
    - {mu0: 0, rank: 1, ndensity: 2, num_ms_combs: 1, mus: [0], ns: [1], ls: [0], ms_combs: [0], ctildes: [-0.4268746241987168, -0.20699785307228205]}
    - {mu0: 0, rank: 1, ndensity: 2, num_ms_combs: 1, mus: [0], ns: [2], ls: [0], ms_combs: [0], ctildes: [-0.32851110630408226, -0.21515509622135753]}
    - {mu0: 0, rank: 1, ndensity: 2, num_ms_combs: 1, mus: [0], ns: [3], ls: [0], ms_combs: [0], ctildes: [0.31525906550741906, 0.012993562110635508]}
    - {mu0: 0, rank: 1, ndensity: 2, num_ms_combs: 1, mus: [0], ns: [4], ls: [0], ms_combs: [0], ctildes: [0.037553516109788888, -0.1869282388604544]}
    - {mu0: 0, rank: 1, ndensity: 2, num_ms_combs: 1, mus: [0], ns: [5], ls: [0], ms_combs: [0], ctildes: [-0.10705319053531492, -0.33897527371866759]}
    - {mu0: 0, rank: 1, ndensity: 2, num_ms_combs: 1, mus: [0], ns: [6], ls: [0], ms_combs: [0], ctildes: [0.2583461787609756, -0.024085377577239532]}
    - {mu0: 0, rank: 1, ndensity: 2, num_ms_combs: 1, mus: [0], ns: [7], ls: [0], ms_combs: [0], ctildes: [-0.086996652910422245, 0.033301952481697206]}
    - {mu0: 0, rank: 1, ndensity: 2, num_ms_combs: 1, mus: [0], ns: [8], ls: [0], ms_combs: [0], ctildes: [-0.075868647608643688, -0.034664357169294877]}
    - {mu0: 0, rank: 1, ndensity: 2, num_ms_combs: 1, mus: [0], ns: [9], ls: [0], ms_combs: [0], ctildes: [0.12019026857709729, 0.13714536237971819]}
    - {mu0: 0, rank: 1, ndensity: 2, num_ms_combs: 1, mus: [0], ns: [10], ls: [0], ms_combs: [0], ctildes: [-0.20592107596631948, 0.23199720680144792]}
    - {mu0: 0, rank: 1, ndensity: 2, num_ms_combs: 1, mus: [0], ns: [11], ls: [0], ms_combs: [0], ctildes: [0.14505937353884113, -0.19823363979010133]}
    - {mu0: 0, rank: 1, ndensity: 2, num_ms_combs: 1, mus: [0], ns: [12], ls: [0], ms_combs: [0], ctildes: [0.056864853540019231, -0.38159118013620247]}
    - {mu0: 0, rank: 1, ndensity: 2, num_ms_combs: 1, mus: [0], ns: [13], ls: [0], ms_combs: [0], ctildes: [-0.067571611229306966, 0.30462363586067853]}
    - {mu0: 0, rank: 1, ndensity: 2, num_ms_combs: 1, mus: [0], ns: [14], ls: [0], ms_combs: [0], ctildes: [-0.01444513372452874, 0.087994095344179402]}
    - {mu0: 0, rank: 1, ndensity: 2, num_ms_combs: 1, mus: [0], ns: [15], ls: [0], ms_combs: [0], ctildes: [-0.0044267021378012437, -0.071407960234666848]}
    - {mu0: 0, rank: 2, ndensity: 2, num_ms_combs: 1, mus: [0, 0], ns: [1, 1], ls: [0, 0], ms_combs: [0, 0], ctildes: [-0.15017967105236718, -0.20951792542062117]}
    - {mu0: 0, rank: 2, ndensity: 2, num_ms_combs: 2, mus: [0, 0], ns: [1, 1], ls: [1, 1], ms_combs: [0, 0, 1, -1], ctildes: [-0.043596848866809174, -0.013041245859568529, 0.087193697733618333, 0.026082491719137055]}
    - {mu0: 0, rank: 2, ndensity: 2, num_ms_combs: 3, mus: [0, 0], ns: [1, 1], ls: [2, 2], ms_combs: [0, 0, 1, -1, 2, -2], ctildes: [-0.069527788496748982, -0.013931399640504695, 0.13905557699349796, 0.027862799281009393, -0.13905557699349799, -0.0278627992810094]}
    - {mu0: 0, rank: 2, ndensity: 2, num_ms_combs: 4, mus: [0, 0], ns: [1, 1], ls: [3, 3], ms_combs: [0, 0, 1, -1, 2, -2, 3, -3], ctildes: [0.1225294907837795, -0.0067728738666627663, -0.24505898156755901, 0.013545747733325533, 0.24505898156755895, -0.013545747733325529, -0.24505898156755895, 0.013545747733325529]}
    - {mu0: 0, rank: 2, ndensity: 2, num_ms_combs: 1, mus: [0, 0], ns: [1, 2], ls: [0, 0], ms_combs: [0, 0], ctildes: [-0.27485549108057494, -0.23401755599184673]}
    - {mu0: 0, rank: 2, ndensity: 2, num_ms_combs: 2, mus: [0, 0], ns: [1, 2], ls: [1, 1], ms_combs: [0, 0, 1, -1], ctildes: [-0.0408085182307939, -0.0066337001840960103, 0.081617036461587786, 0.013267400368192019]}
    - {mu0: 0, rank: 2, ndensity: 2, num_ms_combs: 3, mus: [0, 0], ns: [1, 2], ls: [2, 2], ms_combs: [0, 0, 1, -1, 2, -2], ctildes: [-0.12016318183148196, -0.034631041127852244, 0.24032636366296395, 0.069262082255704502, -0.240326363662964, -0.069262082255704516]}
    - {mu0: 0, rank: 2, ndensity: 2, num_ms_combs: 4, mus: [0, 0], ns: [1, 2], ls: [3, 3], ms_combs: [0, 0, 1, -1, 2, -2, 3, -3], ctildes: [-0.078466034921054709, 0.0085511405861535342, 0.15693206984210942, -0.017102281172307068, -0.15693206984210939, 0.017102281172307065, 0.15693206984210939, -0.017102281172307065]}
    - {mu0: 0, rank: 2, ndensity: 2, num_ms_combs: 1, mus: [0, 0], ns: [1, 3], ls: [0, 0], ms_combs: [0, 0], ctildes: [-0.040439051549426126, 0.020567370472751492]}
    - {mu0: 0, rank: 2, ndensity: 2, num_ms_combs: 2, mus: [0, 0], ns: [1, 3], ls: [1, 1], ms_combs: [0, 0, 1, -1], ctildes: [0.056466925335943108, 0.017102297539092731, -0.1129338506718862, -0.034204595078185455]}
    - {mu0: 0, rank: 2, ndensity: 2, num_ms_combs: 3, mus: [0, 0], ns: [1, 3], ls: [2, 2], ms_combs: [0, 0, 1, -1, 2, -2], ctildes: [0.057672833025141132, 0.0089581765818704476, -0.11534566605028228, -0.017916353163740899, 0.11534566605028231, 0.017916353163740902]}
    - {mu0: 0, rank: 2, ndensity: 2, num_ms_combs: 4, mus: [0, 0], ns: [1, 3], ls: [3, 3], ms_combs: [0, 0, 1, -1, 2, -2, 3, -3], ctildes: [0.01266459774281992, -0.0016784322353471787, -0.02532919548563984, 0.0033568644706943574, 0.025329195485639836, -0.003356864470694357, -0.025329195485639836, 0.003356864470694357]}
    - {mu0: 0, rank: 2, ndensity: 2, num_ms_combs: 1, mus: [0, 0], ns: [1, 4], ls: [0, 0], ms_combs: [0, 0], ctildes: [-0.055111489081368419, -0.20832406227905717]}
    - {mu0: 0, rank: 2, ndensity: 2, num_ms_combs: 2, mus: [0, 0], ns: [1, 4], ls: [1, 1], ms_combs: [0, 0, 1, -1], ctildes: [-0.29299574700238012, -0.031567789650462683, 0.58599149400476014, 0.063135579300925351]}
    - {mu0: 0, rank: 2, ndensity: 2, num_ms_combs: 3, mus: [0, 0], ns: [1, 4], ls: [2, 2], ms_combs: [0, 0, 1, -1, 2, -2], ctildes: [0.097021383674427655, 0.010264258949021153, -0.19404276734885531, -0.02052851789804231, 0.19404276734885537, 0.020528517898042317]}
    - {mu0: 0, rank: 2, ndensity: 2, num_ms_combs: 4, mus: [0, 0], ns: [1, 4], ls: [3, 3], ms_combs: [0, 0, 1, -1, 2, -2, 3, -3], ctildes: [-0.080037635361289994, -0.032728854610169222, 0.16007527072257999, 0.065457709220338445, -0.16007527072257999, -0.065457709220338445, 0.16007527072257999, 0.065457709220338445]}
    - {mu0: 0, rank: 2, ndensity: 2, num_ms_combs: 1, mus: [0, 0], ns: [1, 5], ls: [0, 0], ms_combs: [0, 0], ctildes: [-0.16518875150408413, -0.058706607529079191]}
    - {mu0: 0, rank: 2, ndensity: 2, num_ms_combs: 2, mus: [0, 0], ns: [1, 5], ls: [1, 1], ms_combs: [0, 0, 1, -1], ctildes: [0.28239940642952704, 0.015052814909774901, -0.56479881285905398, -0.030105629819549794]}
    - {mu0: 0, rank: 2, ndensity: 2, num_ms_combs: 3, mus: [0, 0], ns: [1, 5], ls: [2, 2], ms_combs: [0, 0, 1, -1, 2, -2], ctildes: [0.031713886948393735, 0.010415413605722984, -0.063427773896787484, -0.020830827211445972, 0.063427773896787498, 0.020830827211445975]}
    - {mu0: 0, rank: 2, ndensity: 2, num_ms_combs: 4, mus: [0, 0], ns: [1, 5], ls: [3, 3], ms_combs: [0, 0, 1, -1, 2, -2, 3, -3], ctildes: [0.098029311115213319, 0.047539748718249682, -0.19605862223042664, -0.095079497436499363, 0.19605862223042661, 0.095079497436499349, -0.19605862223042661, -0.095079497436499349]}
    - {mu0: 0, rank: 2, ndensity: 2, num_ms_combs: 1, mus: [0, 0], ns: [1, 6], ls: [0, 0], ms_combs: [0, 0], ctildes: [-0.22401160967409314, 0.10255359785099387]}
    - {mu0: 0, rank: 2, ndensity: 2, num_ms_combs: 2, mus: [0, 0], ns: [1, 6], ls: [1, 1], ms_combs: [0, 0, 1, -1], ctildes: [-0.030158297939670588, 0.070193430060056863, 0.06031659587934117, -0.1403868601201137]}
    - {mu0: 0, rank: 2, ndensity: 2, num_ms_combs: 3, mus: [0, 0], ns: [1, 6], ls: [2, 2], ms_combs: [0, 0, 1, -1, 2, -2], ctildes: [-0.022674614499835027, 0.031775103299184787, 0.04534922899967006, -0.063550206598369574, -0.045349228999670067, 0.063550206598369588]}
    - {mu0: 0, rank: 2, ndensity: 2, num_ms_combs: 4, mus: [0, 0], ns: [1, 6], ls: [3, 3], ms_combs: [0, 0, 1, -1, 2, -2, 3, -3], ctildes: [-0.071666457904365002, 0.096458280809540553, 0.14333291580873, -0.19291656161908111, -0.14333291580873, 0.19291656161908108, 0.14333291580873, -0.19291656161908108]}
    - {mu0: 0, rank: 2, ndensity: 2, num_ms_combs: 1, mus: [0, 0], ns: [2, 2], ls: [0, 0], ms_combs: [0, 0], ctildes: [-0.27038278323610831, -0.23752123216482923]}
    - {mu0: 0, rank: 2, ndensity: 2, num_ms_combs: 2, mus: [0, 0], ns: [2, 2], ls: [1, 1], ms_combs: [0, 0, 1, -1], ctildes: [-0.0074832957055120126, 0.0030798600572231097, 0.014966591411024022, -0.0061597201144462186]}
    - {mu0: 0, rank: 2, ndensity: 2, num_ms_combs: 3, mus: [0, 0], ns: [2, 2], ls: [2, 2], ms_combs: [0, 0, 1, -1, 2, -2], ctildes: [-0.10982612646315315, -0.03696877690370462, 0.21965225292630633, 0.073937553807409254, -0.21965225292630638, -0.073937553807409268]}
    - {mu0: 0, rank: 2, ndensity: 2, num_ms_combs: 4, mus: [0, 0], ns: [2, 2], ls: [3, 3], ms_combs: [0, 0, 1, -1, 2, -2, 3, -3], ctildes: [-0.013787507616435652, 0.055725637951405414, 0.027575015232871303, -0.11145127590281083, -0.0275750152328713, 0.11145127590281081, 0.0275750152328713, -0.11145127590281081]}
    - {mu0: 0, rank: 2, ndensity: 2, num_ms_combs: 1, mus: [0, 0], ns: [2, 3], ls: [0, 0], ms_combs: [0, 0], ctildes: [0.11627125795885503, 0.02386011849114553]}
    - {mu0: 0, rank: 2, ndensity: 2, num_ms_combs: 2, mus: [0, 0], ns: [2, 3], ls: [1, 1], ms_combs: [0, 0, 1, -1], ctildes: [0.011850984075515419, 0.013679807401855907, -0.023701968151030834, -0.027359614803711806]}
    - {mu0: 0, rank: 2, ndensity: 2, num_ms_combs: 3, mus: [0, 0], ns: [2, 3], ls: [2, 2], ms_combs: [0, 0, 1, -1, 2, -2], ctildes: [-0.048098291519076665, 0.013030429218479453, 0.096196583038153344, -0.026060858436958909, -0.096196583038153372, 0.026060858436958916]}
    - {mu0: 0, rank: 2, ndensity: 2, num_ms_combs: 4, mus: [0, 0], ns: [2, 3], ls: [3, 3], ms_combs: [0, 0, 1, -1, 2, -2, 3, -3], ctildes: [0.04280369518010909, -0.0074026662630499625, -0.08560739036021818, 0.014805332526099925, 0.085607390360218166, -0.014805332526099923, -0.085607390360218166, 0.014805332526099923]}
    - {mu0: 0, rank: 2, ndensity: 2, num_ms_combs: 1, mus: [0, 0], ns: [2, 4], ls: [0, 0], ms_combs: [0, 0], ctildes: [0.10405456844878763, -0.19742252249071024]}
    - {mu0: 0, rank: 2, ndensity: 2, num_ms_combs: 2, mus: [0, 0], ns: [2, 4], ls: [1, 1], ms_combs: [0, 0, 1, -1], ctildes: [0.025599709328596624, -0.016524488578398028, -0.051199418657193234, 0.033048977156796049]}
    - {mu0: 0, rank: 2, ndensity: 2, num_ms_combs: 3, mus: [0, 0], ns: [2, 4], ls: [2, 2], ms_combs: [0, 0, 1, -1, 2, -2], ctildes: [-0.0015313313034097489, -0.00230092271712055, 0.0030626626068194981, 0.0046018454342411008, -0.003062662606819499, -0.0046018454342411017]}
    - {mu0: 0, rank: 2, ndensity: 2, num_ms_combs: 4, mus: [0, 0], ns: [2, 4], ls: [3, 3], ms_combs: [0, 0, 1, -1, 2, -2, 3, -3], ctildes: [-0.021334018868487608, 0.056730293827880945, 0.042668037736975216, -0.11346058765576189, -0.042668037736975209, 0.11346058765576186, 0.042668037736975209, -0.11346058765576186]}
    - {mu0: 0, rank: 2, ndensity: 2, num_ms_combs: 1, mus: [0, 0], ns: [2, 5], ls: [0, 0], ms_combs: [0, 0], ctildes: [0.1275798438830042, -0.046396445582070039]}
    - {mu0: 0, rank: 2, ndensity: 2, num_ms_combs: 2, mus: [0, 0], ns: [2, 5], ls: [1, 1], ms_combs: [0, 0, 1, -1], ctildes: [0.049145462759155351, -0.08811855415759931, -0.098290925518310687, 0.17623710831519859]}
    - {mu0: 0, rank: 2, ndensity: 2, num_ms_combs: 3, mus: [0, 0], ns: [2, 5], ls: [2, 2], ms_combs: [0, 0, 1, -1, 2, -2], ctildes: [0.0070323026922005588, -0.040879563334229888, -0.014064605384401119, 0.081759126668459789, 0.014064605384401123, -0.081759126668459803]}
    - {mu0: 0, rank: 2, ndensity: 2, num_ms_combs: 4, mus: [0, 0], ns: [2, 5], ls: [3, 3], ms_combs: [0, 0, 1, -1, 2, -2, 3, -3], ctildes: [0.0068058326973100391, 0.037131083997532802, -0.013611665394620078, -0.074262167995065603, 0.013611665394620076, 0.074262167995065589, -0.013611665394620076, -0.074262167995065589]}
    - {mu0: 0, rank: 2, ndensity: 2, num_ms_combs: 1, mus: [0, 0], ns: [2, 6], ls: [0, 0], ms_combs: [0, 0], ctildes: [0.26111165629084526, 0.31346553675145933]}
    - {mu0: 0, rank: 2, ndensity: 2, num_ms_combs: 2, mus: [0, 0], ns: [2, 6], ls: [1, 1], ms_combs: [0, 0, 1, -1], ctildes: [-0.043592206685525735, -0.0099901095221596927, 0.087184413371051442, 0.019980219044319382]}
    - {mu0: 0, rank: 2, ndensity: 2, num_ms_combs: 3, mus: [0, 0], ns: [2, 6], ls: [2, 2], ms_combs: [0, 0, 1, -1, 2, -2], ctildes: [-0.029133704828679542, 0.15016658573606656, 0.05826740965735909, -0.30033317147213318, -0.058267409657359104, 0.30033317147213323]}
    - {mu0: 0, rank: 2, ndensity: 2, num_ms_combs: 4, mus: [0, 0], ns: [2, 6], ls: [3, 3], ms_combs: [0, 0, 1, -1, 2, -2, 3, -3], ctildes: [-0.0056219358165076972, -0.063316615189211209, 0.011243871633015394, 0.12663323037842242, -0.011243871633015393, -0.12663323037842239, 0.011243871633015393, 0.12663323037842239]}
    - {mu0: 0, rank: 2, ndensity: 2, num_ms_combs: 1, mus: [0, 0], ns: [3, 3], ls: [0, 0], ms_combs: [0, 0], ctildes: [0.15429583338163899, 0.059223035028230238]}
    - {mu0: 0, rank: 2, ndensity: 2, num_ms_combs: 2, mus: [0, 0], ns: [3, 3], ls: [1, 1], ms_combs: [0, 0, 1, -1], ctildes: [0.013532669348543283, -0.013323873900360933, -0.02706533869708656, 0.026647747800721863]}
    - {mu0: 0, rank: 2, ndensity: 2, num_ms_combs: 3, mus: [0, 0], ns: [3, 3], ls: [2, 2], ms_combs: [0, 0, 1, -1, 2, -2], ctildes: [0.090418576415293841, 0.0045516548474368772, -0.18083715283058771, -0.0091033096948737562, 0.18083715283058777, 0.0091033096948737579]}
    - {mu0: 0, rank: 2, ndensity: 2, num_ms_combs: 4, mus: [0, 0], ns: [3, 3], ls: [3, 3], ms_combs: [0, 0, 1, -1, 2, -2, 3, -3], ctildes: [-0.016204131486363092, -0.005060529393347904, 0.032408262972726185, 0.010121058786695808, -0.032408262972726178, -0.010121058786695806, 0.032408262972726178, 0.010121058786695806]}
    - {mu0: 0, rank: 2, ndensity: 2, num_ms_combs: 1, mus: [0, 0], ns: [3, 4], ls: [0, 0], ms_combs: [0, 0], ctildes: [-0.062090248878154265, -0.020384864167760804]}
    - {mu0: 0, rank: 2, ndensity: 2, num_ms_combs: 2, mus: [0, 0], ns: [3, 4], ls: [1, 1], ms_combs: [0, 0, 1, -1], ctildes: [0.038532128041827374, 0.0059627796345894128, -0.077064256083654734, -0.011925559269178824]}
    - {mu0: 0, rank: 2, ndensity: 2, num_ms_combs: 3, mus: [0, 0], ns: [3, 4], ls: [2, 2], ms_combs: [0, 0, 1, -1, 2, -2], ctildes: [-0.10702600582485004, -0.046264673083746051, 0.21405201164970011, 0.092529346167492116, -0.21405201164970017, -0.092529346167492144]}
    - {mu0: 0, rank: 2, ndensity: 2, num_ms_combs: 4, mus: [0, 0], ns: [3, 4], ls: [3, 3], ms_combs: [0, 0, 1, -1, 2, -2, 3, -3], ctildes: [-0.0065018994876607167, -0.044902231064914574, 0.013003798975321433, 0.089804462129829149, -0.013003798975321432, -0.089804462129829135, 0.013003798975321432, 0.089804462129829135]}
    - {mu0: 0, rank: 2, ndensity: 2, num_ms_combs: 1, mus: [0, 0], ns: [3, 5], ls: [0, 0], ms_combs: [0, 0], ctildes: [-0.19562822653257594, -0.22915689076539641]}
    - {mu0: 0, rank: 2, ndensity: 2, num_ms_combs: 2, mus: [0, 0], ns: [3, 5], ls: [1, 1], ms_combs: [0, 0, 1, -1], ctildes: [0.012117638842249596, -0.038666617853538615, -0.024235277684499189, 0.077333235707077216]}
    - {mu0: 0, rank: 2, ndensity: 2, num_ms_combs: 3, mus: [0, 0], ns: [3, 5], ls: [2, 2], ms_combs: [0, 0, 1, -1, 2, -2], ctildes: [0.060506615963302139, -0.053094618402492008, -0.12101323192660429, 0.10618923680498403, 0.12101323192660432, -0.10618923680498406]}
    - {mu0: 0, rank: 2, ndensity: 2, num_ms_combs: 4, mus: [0, 0], ns: [3, 5], ls: [3, 3], ms_combs: [0, 0, 1, -1, 2, -2, 3, -3], ctildes: [-0.00068937841960631198, -0.012475320403889698, 0.001378756839212624, 0.024950640807779395, -0.0013787568392126237, -0.024950640807779392, 0.0013787568392126237, 0.024950640807779392]}
    - {mu0: 0, rank: 2, ndensity: 2, num_ms_combs: 1, mus: [0, 0], ns: [3, 6], ls: [0, 0], ms_combs: [0, 0], ctildes: [0.026810924933182427, -0.034217255010415198]}
    - {mu0: 0, rank: 2, ndensity: 2, num_ms_combs: 2, mus: [0, 0], ns: [3, 6], ls: [1, 1], ms_combs: [0, 0, 1, -1], ctildes: [-0.031147302692792023, 0.055233435109950456, 0.062294605385584033, -0.1104668702199009]}
    - {mu0: 0, rank: 2, ndensity: 2, num_ms_combs: 3, mus: [0, 0], ns: [3, 6], ls: [2, 2], ms_combs: [0, 0, 1, -1, 2, -2], ctildes: [-0.0058069226283770405, -0.16752991240047738, 0.011613845256754083, 0.33505982480095481, -0.011613845256754084, -0.33505982480095486]}
    - {mu0: 0, rank: 2, ndensity: 2, num_ms_combs: 1, mus: [0, 0], ns: [4, 4], ls: [0, 0], ms_combs: [0, 0], ctildes: [0.13607981849690121, -0.072882918561547272]}
    - {mu0: 0, rank: 2, ndensity: 2, num_ms_combs: 2, mus: [0, 0], ns: [4, 4], ls: [1, 1], ms_combs: [0, 0, 1, -1], ctildes: [-0.030904881400459789, 0.038208285885100564, 0.061809762800919571, -0.076416571770201114]}
    - {mu0: 0, rank: 2, ndensity: 2, num_ms_combs: 3, mus: [0, 0], ns: [4, 4], ls: [2, 2], ms_combs: [0, 0, 1, -1, 2, -2], ctildes: [0.031458311221811044, -0.0086345521297697472, -0.062916622443622103, 0.017269104259539494, 0.062916622443622117, -0.017269104259539501]}
    - {mu0: 0, rank: 2, ndensity: 2, num_ms_combs: 4, mus: [0, 0], ns: [4, 4], ls: [3, 3], ms_combs: [0, 0, 1, -1, 2, -2, 3, -3], ctildes: [0.011669777205369684, -0.047588271789762562, -0.023339554410739368, 0.095176543579525125, 0.023339554410739365, -0.095176543579525111, -0.023339554410739365, 0.095176543579525111]}
    - {mu0: 0, rank: 2, ndensity: 2, num_ms_combs: 1, mus: [0, 0], ns: [4, 5], ls: [0, 0], ms_combs: [0, 0], ctildes: [-0.017937643384607217, 0.091180599732750764]}
    - {mu0: 0, rank: 2, ndensity: 2, num_ms_combs: 2, mus: [0, 0], ns: [4, 5], ls: [1, 1], ms_combs: [0, 0, 1, -1], ctildes: [-0.029788314219158729, -0.080543101565661385, 0.059576628438317444, 0.16108620313132274]}
    - {mu0: 0, rank: 2, ndensity: 2, num_ms_combs: 3, mus: [0, 0], ns: [4, 5], ls: [2, 2], ms_combs: [0, 0, 1, -1, 2, -2], ctildes: [-0.044825937410498208, 0.0036470181000424046, 0.08965187482099643, -0.0072940362000848101, -0.089651874820996444, 0.0072940362000848118]}
    - {mu0: 0, rank: 2, ndensity: 2, num_ms_combs: 1, mus: [0, 0], ns: [4, 6], ls: [0, 0], ms_combs: [0, 0], ctildes: [0.0023969773522445215, 0.084060953429140675]}
    - {mu0: 0, rank: 2, ndensity: 2, num_ms_combs: 2, mus: [0, 0], ns: [4, 6], ls: [1, 1], ms_combs: [0, 0, 1, -1], ctildes: [0.038827961135951848, -0.0044379402236660826, -0.077655922271903682, 0.0088758804473321636]}
    - {mu0: 0, rank: 2, ndensity: 2, num_ms_combs: 3, mus: [0, 0], ns: [4, 6], ls: [2, 2], ms_combs: [0, 0, 1, -1, 2, -2], ctildes: [0.029494261353379469, 0.022402739347675657, -0.058988522706758945, -0.044805478695351314, 0.058988522706758958, 0.044805478695351328]}
    - {mu0: 0, rank: 2, ndensity: 2, num_ms_combs: 1, mus: [0, 0], ns: [5, 5], ls: [0, 0], ms_combs: [0, 0], ctildes: [0.0060848920995721879, -0.10126875948349832]}
    - {mu0: 0, rank: 2, ndensity: 2, num_ms_combs: 2, mus: [0, 0], ns: [5, 5], ls: [1, 1], ms_combs: [0, 0, 1, -1], ctildes: [0.041039781823969369, 0.054041078899658139, -0.082079563647938711, -0.10808215779931626]}
    - {mu0: 0, rank: 2, ndensity: 2, num_ms_combs: 3, mus: [0, 0], ns: [5, 5], ls: [2, 2], ms_combs: [0, 0, 1, -1, 2, -2], ctildes: [0.013016436433613339, -0.07589706478653932, -0.026032872867226681, 0.15179412957307867, 0.026032872867226688, -0.1517941295730787]}
    - {mu0: 0, rank: 2, ndensity: 2, num_ms_combs: 1, mus: [0, 0], ns: [5, 6], ls: [0, 0], ms_combs: [0, 0], ctildes: [-0.0059805307020263897, 0.14082438644572379]}
    - {mu0: 0, rank: 2, ndensity: 2, num_ms_combs: 2, mus: [0, 0], ns: [5, 6], ls: [1, 1], ms_combs: [0, 0, 1, -1], ctildes: [-0.054740811846996626, 0.015779497312796729, 0.10948162369399324, -0.031558994625593452]}
    - {mu0: 0, rank: 2, ndensity: 2, num_ms_combs: 1, mus: [0, 0], ns: [6, 6], ls: [0, 0], ms_combs: [0, 0], ctildes: [-0.016312067370636316, 0.010923397902228495]}
    - {mu0: 0, rank: 2, ndensity: 2, num_ms_combs: 2, mus: [0, 0], ns: [6, 6], ls: [1, 1], ms_combs: [0, 0, 1, -1], ctildes: [0.0085299377175840577, -0.098706139165779624, -0.017059875435168112, 0.19741227833155922]}
    - {mu0: 0, rank: 3, ndensity: 2, num_ms_combs: 1, mus: [0, 0, 0], ns: [1, 1, 1], ls: [0, 0, 0], ms_combs: [0, 0, 0], ctildes: [0.39011297403162548, -0.1433631064134307]}
    - {mu0: 0, rank: 3, ndensity: 2, num_ms_combs: 2, mus: [0, 0, 0], ns: [1, 1, 1], ls: [0, 1, 1], ms_combs: [0, 0, 0, 0, 1, -1], ctildes: [-0.012832525671045224, -0.015659709363164111, 0.025665051342090441, 0.031319418726328214]}
    - {mu0: 0, rank: 3, ndensity: 2, num_ms_combs: 3, mus: [0, 0, 0], ns: [1, 1, 1], ls: [0, 2, 2], ms_combs: [0, 0, 0, 0, 1, -1, 0, 2, -2], ctildes: [0.078338570330680396, 0.029387434749714801, -0.15667714066136082, -0.058774869499429609, 0.15667714066136088, 0.058774869499429623]}
    - {mu0: 0, rank: 3, ndensity: 2, num_ms_combs: 4, mus: [0, 0, 0], ns: [1, 1, 1], ls: [0, 3, 3], ms_combs: [0, 0, 0, 0, 1, -1, 0, 2, -2, 0, 3, -3], ctildes: [-0.068604868023033824, -0.0048478624184502871, 0.13720973604606765, 0.0096957248369005742, -0.13720973604606765, -0.0096957248369005725, 0.13720973604606765, 0.0096957248369005725]}
    - {mu0: 0, rank: 3, ndensity: 2, num_ms_combs: 4, mus: [0, 0, 0], ns: [1, 1, 1], ls: [1, 1, 2], ms_combs: [-1, 1, 0, 0, 0, 0, 0, 1, -1, 1, 1, -2], ctildes: [0.024508349636983281, 0.002165600032156662, 0.024508349636983277, 0.0021656000321566616, -0.0848994135618346, -0.0075018585691362669, 0.060032951048334386, 0.0053046150657386658]}
    - {mu0: 0, rank: 3, ndensity: 2, num_ms_combs: 8, mus: [0, 0, 0], ns: [1, 1, 1], ls: [1, 2, 3], ms_combs: [0, 0, 0, 0, 1, -1, 0, 2, -2, 1, -2, 1, 1, -1, 0, 1, 0, -1, 1, 1, -2, 1, 2, -3], ctildes: [0.0010321401694936738, -0.010569186869565686, -0.0019462221679573581, 0.019929449885593906, 0.0015386237208640059, -0.015755613538164712, -0.00068809344632911589, 0.0070461245797104567, 0.001191812809397197, -0.012204245768518413, -0.0016854778388594967, 0.017259409884373196, 0.0021759425334348321, -0.022281802349181683, -0.0026649744582671322, 0.027289523152521328]}
    - {mu0: 0, rank: 3, ndensity: 2, num_ms_combs: 5, mus: [0, 0, 0], ns: [1, 1, 1], ls: [2, 2, 2], ms_combs: [-2, 0, 2, -2, 1, 1, -1, -1, 2, -1, 0, 1, 0, 0, 0], ctildes: [-0.55842167833070411, -0.13992902135773458, 0.45594939107294225, 0.11425156751115302, 0.22797469553647112, 0.057125783755576511, -0.27921083916535194, -0.069964510678867262, 0.093070279721783972, 0.023321503559622422]}
    - {mu0: 0, rank: 3, ndensity: 2, num_ms_combs: 9, mus: [0, 0, 0], ns: [1, 1, 1], ls: [2, 3, 3], ms_combs: [0, -3, 3, 0, -1, 1, 0, 0, 0, 1, -3, 2, 1, -2, 1, 1, -1, 0, 2, -3, 1, 2, -2, 0, 2, -1, -1], ctildes: [-0.010115906967366558, 0.030250345978962728, 0.0060695441804199338, -0.018150207587377634, -0.0040463627869466237, 0.012100138391585092, 0.020231813934733115, -0.060500691957925457, -0.015671495686557704, 0.046863634477414068, 0.0057224211315817083, -0.017112179819971002, -0.012795722646097967, 0.038263997320655267, 0.018095884506476298, -0.054113463961478474, -0.009911524142205308, 0.029639164876444624]}
    - {mu0: 0, rank: 3, ndensity: 2, num_ms_combs: 1, mus: [0, 0, 0], ns: [1, 1, 2], ls: [0, 0, 0], ms_combs: [0, 0, 0], ctildes: [0.10415553307173596, -0.19126164171696958]}
    - {mu0: 0, rank: 3, ndensity: 2, num_ms_combs: 2, mus: [0, 0, 0], ns: [1, 1, 2], ls: [0, 1, 1], ms_combs: [0, 0, 0, 0, 1, -1], ctildes: [-0.025521526880174134, -0.001822271261715587, 0.051043053760348261, 0.0036445425234311732]}
    - {mu0: 0, rank: 3, ndensity: 2, num_ms_combs: 3, mus: [0, 0, 0], ns: [1, 1, 2], ls: [0, 2, 2], ms_combs: [0, 0, 0, 0, 1, -1, 0, 2, -2], ctildes: [-0.0043063296013670033, -0.015820502173078805, 0.0086126592027340066, 0.03164100434615761, -0.0086126592027340083, -0.031641004346157624]}
    - {mu0: 0, rank: 3, ndensity: 2, num_ms_combs: 4, mus: [0, 0, 0], ns: [1, 1, 2], ls: [0, 3, 3], ms_combs: [0, 0, 0, 0, 1, -1, 0, 2, -2, 0, 3, -3], ctildes: [0.068482743159368864, -0.015817014464279841, -0.13696548631873773, 0.031634028928559682, 0.1369654863187377, -0.031634028928559682, -0.1369654863187377, 0.031634028928559682]}
    - {mu0: 0, rank: 3, ndensity: 2, num_ms_combs: 2, mus: [0, 0, 0], ns: [1, 1, 2], ls: [1, 1, 0], ms_combs: [0, 0, 0, 1, -1, 0], ctildes: [-0.092007318045172815, -0.034010761935719509, 0.1840146360903456, 0.068021523871439005]}
    - {mu0: 0, rank: 3, ndensity: 2, num_ms_combs: 4, mus: [0, 0, 0], ns: [1, 1, 2], ls: [1, 1, 2], ms_combs: [-1, 1, 0, 0, 0, 0, 0, 1, -1, 1, 1, -2], ctildes: [0.0013685436452633576, 0.0015041374052403469, 0.0013685436452633573, 0.0015041374052403467, -0.0047407742519433079, -0.0052104848148821978, 0.0033522336216236953, 0.0036843691458727352]}
    - {mu0: 0, rank: 3, ndensity: 2, num_ms_combs: 5, mus: [0, 0, 0], ns: [1, 1, 2], ls: [1, 2, 1], ms_combs: [0, 0, 0, 0, 1, -1, 1, -2, 1, 1, -1, 0, 1, 0, -1], ctildes: [0.012049891132105134, 9.5607938847764744e-05, -0.020871023666479752, -0.00016559780769126678, 0.029516084729745505, 0.00023419066553624109, -0.020871023666479752, -0.00016559780769126678, 0.012049891132105132, 9.560793884776473e-05]}
    - {mu0: 0, rank: 3, ndensity: 2, num_ms_combs: 8, mus: [0, 0, 0], ns: [1, 1, 2], ls: [1, 2, 3], ms_combs: [0, 0, 0, 0, 1, -1, 0, 2, -2, 1, -2, 1, 1, -1, 0, 1, 0, -1, 1, 1, -2, 1, 2, -3], ctildes: [-0.0043479838989049762, -0.012478328347755521, 0.0081986370650816865, 0.023529361580187348, -0.0064815917086840646, -0.018601593620762646, 0.002898655932603317, 0.0083188855651703461, -0.0050206193489298924, -0.014408732461226374, 0.0071002279747694325, 0.020377024863271805, -0.0091663549001860054, -0.026306625980235383, 0.011226446153357973, 0.032218905252910018]}
    - {mu0: 0, rank: 3, ndensity: 2, num_ms_combs: 8, mus: [0, 0, 0], ns: [1, 1, 2], ls: [1, 3, 2], ms_combs: [0, 0, 0, 0, 1, -1, 0, 2, -2, 1, -3, 2, 1, -2, 1, 1, -1, 0, 1, 0, -1, 1, 1, -2], ctildes: [-0.092466877487755686, -0.018072609710693861, 0.17435721628463408, 0.034078039680451949, -0.13784148248651121, -0.026941055895956204, 0.23874845105725295, 0.046663277621349197, -0.19493729399003754, -0.038100406632712885, 0.15099777863563094, 0.029512448074445523, -0.10677155321735982, -0.020868452162856297, 0.061644584991837156, 0.012048406473795913]}
    - {mu0: 0, rank: 3, ndensity: 2, num_ms_combs: 3, mus: [0, 0, 0], ns: [1, 1, 2], ls: [2, 2, 0], ms_combs: [0, 0, 0, 1, -1, 0, 2, -2, 0], ctildes: [0.082098257308233183, 0.028769130865762518, -0.16419651461646639, -0.057538261731525042, 0.16419651461646642, 0.057538261731525056]}
    - {mu0: 0, rank: 3, ndensity: 2, num_ms_combs: 8, mus: [0, 0, 0], ns: [1, 1, 2], ls: [2, 2, 2], ms_combs: [-2, 1, 1, -2, 2, 0, -1, 1, 0, -1, 2, -1, 0, 0, 0, 0, 1, -1, 0, 2, -2, 1, 1, -2], ctildes: [0.16276257759403776, 0.047640088121412842, -0.1328950881085155, -0.038897969066229152, -0.066447544054257748, -0.019448984533114576, 0.16276257759403776, 0.047640088121412842, 0.066447544054257748, 0.019448984533114576, -0.1328950881085155, -0.038897969066229152, -0.26579017621703116, -0.077795938132458345, 0.16276257759403776, 0.047640088121412842]}
    - {mu0: 0, rank: 3, ndensity: 2, num_ms_combs: 8, mus: [0, 0, 0], ns: [1, 1, 2], ls: [2, 3, 1], ms_combs: [0, 0, 0, 0, 1, -1, 1, -2, 1, 1, -1, 0, 1, 0, -1, 2, -3, 1, 2, -2, 0, 2, -1, -1], ctildes: [0.056430920283792665, 0.023654054247869469, -0.09215130694064351, -0.038626908836928736, 0.11896682570412011, 0.049867124880299041, -0.10640716373671276, -0.044602512429927896, 0.065160814032931988, 0.027313349174866886, -0.14570400964685815, -0.061074505448190153, 0.084122249191621395, 0.035261382161135855, -0.037620613522528427, -0.015769369498579641]}
    - {mu0: 0, rank: 3, ndensity: 2, num_ms_combs: 14, mus: [0, 0, 0], ns: [1, 1, 2], ls: [2, 3, 3], ms_combs: [0, 0, 0, 0, 1, -1, 0, 3, -3, 1, -3, 2, 1, -2, 1, 1, -1, 0, 1, 0, -1, 1, 1, -2, 1, 2, -3, 2, -3, 1, 2, -2, 0, 2, -1, -1, 2, 0, -2, 2, 1, -3], ctildes: [0.0083438154757053563, -0.027205681345629812, -0.012515723213558032, 0.040808522018444711, 0.02085953868926339, -0.06801420336407453, -0.02085953868926339, 0.06801420336407453, 0.016157729190617282, -0.052683575386925023, -0.0058999685038405138, 0.019237321766295189, -0.005899968503840519, 0.019237321766295203, 0.016157729190617285, -0.05268357538692503, -0.02085953868926339, 0.06801420336407453, 0.013192730639695123, -0.04301595917447238, -0.018657338595391926, 0.060833752863026211, 0.020438090423415815, -0.066640037401547877, -0.018657338595391922, 0.060833752863026204, 0.013192730639695121, -0.043015959174472373]}
    - {mu0: 0, rank: 3, ndensity: 2, num_ms_combs: 4, mus: [0, 0, 0], ns: [1, 1, 2], ls: [3, 3, 0], ms_combs: [0, 0, 0, 1, -1, 0, 2, -2, 0, 3, -3, 0], ctildes: [0.03984266604012917, 0.0078492474717255459, -0.079685332080258339, -0.015698494943451092, 0.079685332080258325, 0.015698494943451088, -0.079685332080258325, -0.015698494943451088]}
    - {mu0: 0, rank: 3, ndensity: 2, num_ms_combs: 12, mus: [0, 0, 0], ns: [1, 1, 2], ls: [3, 3, 2], ms_combs: [-3, 1, 2, -3, 2, 1, -3, 3, 0, -2, 1, 1, -2, 3, -1, -1, 1, 0, -1, 2, -1, -1, 3, -2, 0, 0, 0, 0, 1, -1, 0, 2, -2, 1, 1, -2], ctildes: [-0.0049166549117866361, 0.032750865553204368, 0.0077739139951500062, -0.051783665245038135, -0.0077739139951500053, 0.051783665245038128, -0.0060216478876129499, 0.040111454619922514, 0.0077739139951500062, -0.051783665245038135, 0.004664348397090002, -0.031070199147022869, -0.0060216478876129499, 0.040111454619922514, -0.0049166549117866361, 0.032750865553204368, -0.003109565598060002, 0.020713466098015252, 0.0043975898418652619, -0.029293264679568495, 0.013906400115513914, -0.092633436489598903, -0.0076168490369594175, 0.050737422744575482]}
    - {mu0: 0, rank: 3, ndensity: 2, num_ms_combs: 1, mus: [0, 0, 0], ns: [1, 1, 3], ls: [0, 0, 0], ms_combs: [0, 0, 0], ctildes: [-0.17023203833572267, 0.16468308509168941]}
    - {mu0: 0, rank: 3, ndensity: 2, num_ms_combs: 2, mus: [0, 0, 0], ns: [1, 1, 3], ls: [0, 1, 1], ms_combs: [0, 0, 0, 0, 1, -1], ctildes: [0.10644513465181588, 0.041094958393447026, -0.21289026930363172, -0.082189916786894038]}
    - {mu0: 0, rank: 3, ndensity: 2, num_ms_combs: 3, mus: [0, 0, 0], ns: [1, 1, 3], ls: [0, 2, 2], ms_combs: [0, 0, 0, 0, 1, -1, 0, 2, -2], ctildes: [0.026783709150910065, 0.025444758526665653, -0.05356741830182013, -0.050889517053331314, 0.053567418301820144, 0.050889517053331328]}
    - {mu0: 0, rank: 3, ndensity: 2, num_ms_combs: 4, mus: [0, 0, 0], ns: [1, 1, 3], ls: [0, 3, 3], ms_combs: [0, 0, 0, 0, 1, -1, 0, 2, -2, 0, 3, -3], ctildes: [0.0053202633249494428, 0.016269103512845173, -0.010640526649898886, -0.032538207025690345, 0.010640526649898884, 0.032538207025690338, -0.010640526649898884, -0.032538207025690338]}
    - {mu0: 0, rank: 3, ndensity: 2, num_ms_combs: 2, mus: [0, 0, 0], ns: [1, 1, 3], ls: [1, 1, 0], ms_combs: [0, 0, 0, 1, -1, 0], ctildes: [-0.027577598570525139, -0.0072130467933021114, 0.055155197141050272, 0.014426093586604221]}
    - {mu0: 0, rank: 3, ndensity: 2, num_ms_combs: 4, mus: [0, 0, 0], ns: [1, 1, 3], ls: [1, 1, 2], ms_combs: [-1, 1, 0, 0, 0, 0, 0, 1, -1, 1, 1, -2], ctildes: [0.060262567572970487, 0.020256163148861674, 0.06026256757297048, 0.02025616314886167, -0.20875565766187518, -0.070169407480465601, 0.1476125411437694, 0.049617263861279286]}
    - {mu0: 0, rank: 3, ndensity: 2, num_ms_combs: 5, mus: [0, 0, 0], ns: [1, 1, 3], ls: [1, 2, 1], ms_combs: [0, 0, 0, 0, 1, -1, 1, -2, 1, 1, -1, 0, 1, 0, -1], ctildes: [0.0047122767959420281, -0.015798917023764198, -0.0081619028298994707, 0.027364526989724466, 0.011542673676815177, -0.038699285196792943, -0.0081619028298994707, 0.027364526989724466, 0.0047122767959420272, -0.015798917023764198]}
    - {mu0: 0, rank: 3, ndensity: 2, num_ms_combs: 8, mus: [0, 0, 0], ns: [1, 1, 3], ls: [1, 2, 3], ms_combs: [0, 0, 0, 0, 1, -1, 0, 2, -2, 1, -2, 1, 1, -1, 0, 1, 0, -1, 1, 1, -2, 1, 2, -3], ctildes: [-0.030029174995218351, 0.0024882621617364261, 0.056623555393483745, -0.0046919121278232662, -0.044764851065030087, 0.0037092822263221489, 0.020019449996812232, -0.0016588414411576173, -0.034674704534063384, 0.0028731976577857712, 0.049037437423352294, -0.004063315095019249, -0.063307059493777226, 0.0052457172311342511, 0.077534996437885875, -0.0064246652756021613]}
    - {mu0: 0, rank: 3, ndensity: 2, num_ms_combs: 8, mus: [0, 0, 0], ns: [1, 1, 3], ls: [1, 3, 2], ms_combs: [0, 0, 0, 0, 1, -1, 0, 2, -2, 1, -3, 2, 1, -2, 1, 1, -1, 0, 1, 0, -1, 1, 1, -2], ctildes: [-0.006670761420044696, -0.012283372567029337, 0.012578508362109891, 0.023161749434632686, -0.0099441839979353183, -0.01831097070188914, 0.017223831924237373, 0.031715531591577133, -0.014063199876613629, -0.025895623106828004, 0.010893307783302157, 0.020058663406481766, -0.0077027318031251532, -0.01418361691626171, 0.0044471742800297996, 0.0081889150446862301]}
    - {mu0: 0, rank: 3, ndensity: 2, num_ms_combs: 3, mus: [0, 0, 0], ns: [1, 1, 3], ls: [2, 2, 0], ms_combs: [0, 0, 0, 1, -1, 0, 2, -2, 0], ctildes: [0.087858221604265582, 0.038800892576410513, -0.17571644320853119, -0.07760178515282104, 0.17571644320853122, 0.077601785152821054]}
    - {mu0: 0, rank: 3, ndensity: 2, num_ms_combs: 8, mus: [0, 0, 0], ns: [1, 1, 3], ls: [2, 2, 2], ms_combs: [-2, 1, 1, -2, 2, 0, -1, 1, 0, -1, 2, -1, 0, 0, 0, 0, 1, -1, 0, 2, -2, 1, 1, -2], ctildes: [-0.037318419769668654, 0.027714423782983538, 0.030470362147560107, -0.022628732261188104, 0.015235181073780054, -0.011314366130594052, -0.037318419769668654, 0.027714423782983538, -0.015235181073780054, 0.011314366130594052, 0.030470362147560107, -0.022628732261188104, 0.060940724295120249, -0.045257464522376237, -0.037318419769668654, 0.027714423782983538]}
    - {mu0: 0, rank: 3, ndensity: 2, num_ms_combs: 8, mus: [0, 0, 0], ns: [1, 1, 3], ls: [2, 3, 1], ms_combs: [0, 0, 0, 0, 1, -1, 1, -2, 1, 1, -1, 0, 1, 0, -1, 2, -3, 1, 2, -2, 0, 2, -1, -1], ctildes: [-0.0044358584073400835, -0.00011068701152105548, 0.0072437264461453705, 0.00018075113292009915, -0.0093516106301344201, -0.00023334870920255579, 0.0083643348272360845, 0.00020871343049549824, -0.0051220880911297213, -0.00012781035179495312, 0.011453337158508197, 0.00028579263484167748, -0.006612587291584252, -0.00016500245465825495, 0.0029572389382267212, 7.3791341014036954e-05]}
    - {mu0: 0, rank: 3, ndensity: 2, num_ms_combs: 14, mus: [0, 0, 0], ns: [1, 1, 3], ls: [2, 3, 3], ms_combs: [0, 0, 0, 0, 1, -1, 0, 3, -3, 1, -3, 2, 1, -2, 1, 1, -1, 0, 1, 0, -1, 1, 1, -2, 1, 2, -3, 2, -3, 1, 2, -2, 0, 2, -1, -1, 2, 0, -2, 2, 1, -3], ctildes: [-0.0063176233398202584, 0.0060269541108977365, 0.009476435009730385, -0.0090404311663466012, -0.015794058349550645, 0.015067385277244339, 0.015794058349550645, -0.015067385277244339, -0.012234024991367569, 0.01167114644993163, 0.0044672343045693069, -0.0042617001217159266, 0.0044672343045693104, -0.0042617001217159301, -0.012234024991367571, 0.011671146449931632, 0.015794058349550645, -0.015067385277244339, -0.0099890395764359735, 0.0095294511718759436, 0.014126635244077352, -0.013476679089239146, -0.015474953569657326, 0.014762962274868913, 0.014126635244077351, -0.013476679089239144, -0.0099890395764359718, 0.0095294511718759418]}
    - {mu0: 0, rank: 3, ndensity: 2, num_ms_combs: 4, mus: [0, 0, 0], ns: [1, 1, 3], ls: [3, 3, 0], ms_combs: [0, 0, 0, 1, -1, 0, 2, -2, 0, 3, -3, 0], ctildes: [0.0028127556618092434, -0.018807573907677528, -0.0056255113236184867, 0.037615147815355056, 0.0056255113236184859, -0.037615147815355049, -0.0056255113236184859, 0.037615147815355049]}
    - {mu0: 0, rank: 3, ndensity: 2, num_ms_combs: 12, mus: [0, 0, 0], ns: [1, 1, 3], ls: [3, 3, 2], ms_combs: [-3, 1, 2, -3, 2, 1, -3, 3, 0, -2, 1, 1, -2, 3, -1, -1, 1, 0, -1, 2, -1, -1, 3, -2, 0, 0, 0, 0, 1, -1, 0, 2, -2, 1, 1, -2], ctildes: [-0.0020644541821020186, -0.026187891125867755, 0.0032641886702511978, 0.041406691537126672, -0.0032641886702511973, -0.041406691537126665, -0.0025284296717523655, -0.032073485348967846, 0.0032641886702511978, 0.041406691537126672, 0.0019585132021507179, 0.024844014922275993, -0.0025284296717523655, -0.032073485348967846, -0.0020644541821020186, -0.026187891125867755, -0.001305675468100479, -0.016562676614850665, 0.0018465039550455377, 0.023423161897921527, 0.0058391582064530627, 0.074070541600304435, -0.0031982386665157497, -0.040570106481111541]}
    - {mu0: 0, rank: 3, ndensity: 2, num_ms_combs: 1, mus: [0, 0, 0], ns: [1, 1, 4], ls: [0, 0, 0], ms_combs: [0, 0, 0], ctildes: [0.060235929995428553, -0.062202367134529028]}
    - {mu0: 0, rank: 3, ndensity: 2, num_ms_combs: 2, mus: [0, 0, 0], ns: [1, 1, 4], ls: [0, 1, 1], ms_combs: [0, 0, 0, 0, 1, -1], ctildes: [0.059716148124005726, 0.024100503926242408, -0.11943229624801142, -0.048201007852484809]}
    - {mu0: 0, rank: 3, ndensity: 2, num_ms_combs: 3, mus: [0, 0, 0], ns: [1, 1, 4], ls: [0, 2, 2], ms_combs: [0, 0, 0, 0, 1, -1, 0, 2, -2], ctildes: [-0.0059693331805039801, -0.055977409486015525, 0.011938666361007962, 0.11195481897203106, -0.011938666361007964, -0.11195481897203109]}
    - {mu0: 0, rank: 3, ndensity: 2, num_ms_combs: 4, mus: [0, 0, 0], ns: [1, 1, 4], ls: [0, 3, 3], ms_combs: [0, 0, 0, 0, 1, -1, 0, 2, -2, 0, 3, -3], ctildes: [0.0040693586553845465, 0.023746348043871459, -0.0081387173107690929, -0.047492696087742918, 0.0081387173107690912, 0.047492696087742911, -0.0081387173107690912, -0.047492696087742911]}
    - {mu0: 0, rank: 3, ndensity: 2, num_ms_combs: 2, mus: [0, 0, 0], ns: [1, 1, 4], ls: [1, 1, 0], ms_combs: [0, 0, 0, 1, -1, 0], ctildes: [0.24064193653847082, 0.051652241745821795, -0.48128387307694159, -0.10330448349164358]}
    - {mu0: 0, rank: 3, ndensity: 2, num_ms_combs: 4, mus: [0, 0, 0], ns: [1, 1, 4], ls: [1, 1, 2], ms_combs: [-1, 1, 0, 0, 0, 0, 0, 1, -1, 1, 1, -2], ctildes: [0.053206671727043915, 0.00020953624021272064, 0.053206671727043908, 0.00020953624021272061, -0.18431331746575716, -0.00072585482815077816, 0.13032919664302584, 0.00051325687114241137]}
    - {mu0: 0, rank: 3, ndensity: 2, num_ms_combs: 5, mus: [0, 0, 0], ns: [1, 1, 4], ls: [1, 2, 1], ms_combs: [0, 0, 0, 0, 1, -1, 1, -2, 1, 1, -1, 0, 1, 0, -1], ctildes: [0.088243728140860622, -0.0030391980142823703, -0.15284262058926612, 0.0052640453749995082, 0.21615210694598538, -0.0074444843622716687, -0.15284262058926612, 0.0052640453749995082, 0.088243728140860608, -0.0030391980142823699]}
    - {mu0: 0, rank: 3, ndensity: 2, num_ms_combs: 8, mus: [0, 0, 0], ns: [1, 1, 4], ls: [1, 2, 3], ms_combs: [0, 0, 0, 0, 1, -1, 0, 2, -2, 1, -2, 1, 1, -1, 0, 1, 0, -1, 1, 1, -2, 1, 2, -3], ctildes: [0.043237817085850401, -0.013942575742927251, -0.081530009773622361, 0.02629037294674913, 0.064455132135108881, -0.020784364761749968, -0.028825211390566929, 0.0092950504952848331, 0.049926730667375054, -0.016099499716751585, -0.07060705963475053, 0.022768130846851899, 0.091153322030020884, -0.029393530531376246, -0.11163956366657404, 0.035999575770395149]}
    - {mu0: 0, rank: 3, ndensity: 2, num_ms_combs: 8, mus: [0, 0, 0], ns: [1, 1, 4], ls: [1, 3, 2], ms_combs: [0, 0, 0, 0, 1, -1, 0, 2, -2, 1, -3, 2, 1, -2, 1, 1, -1, 0, 1, 0, -1, 1, 1, -2], ctildes: [-0.083786548810501127, -0.016435529556403893, 0.15798943156299472, 0.030991131737933671, -0.12490161249358986, -0.024500640889550729, 0.21633593878617724, 0.042436354838701389, -0.17663755435070352, -0.03464913863283544, 0.13682286126301643, 0.026839107377080739, -0.096748373020425119, -0.018978114827327683, 0.055857699207000781, 0.010957019704269268]}
    - {mu0: 0, rank: 3, ndensity: 2, num_ms_combs: 3, mus: [0, 0, 0], ns: [1, 1, 4], ls: [2, 2, 0], ms_combs: [0, 0, 0, 1, -1, 0, 2, -2, 0], ctildes: [0.045779431665831496, -0.0061316418529447627, -0.091558863331663007, 0.012263283705889527, 0.091558863331663035, -0.012263283705889531]}
    - {mu0: 0, rank: 3, ndensity: 2, num_ms_combs: 8, mus: [0, 0, 0], ns: [1, 1, 4], ls: [2, 2, 2], ms_combs: [-2, 1, 1, -2, 2, 0, -1, 1, 0, -1, 2, -1, 0, 0, 0, 0, 1, -1, 0, 2, -2, 1, 1, -2], ctildes: [-0.020663070585180712, -0.039549131004916749, 0.016871326484268315, 0.032291730244177239, 0.0084356632421341577, 0.016145865122088619, -0.020663070585180712, -0.039549131004916749, -0.0084356632421341577, -0.016145865122088619, 0.016871326484268315, 0.032291730244177239, 0.033742652968536652, 0.064583460488354505, -0.020663070585180712, -0.039549131004916749]}
    - {mu0: 0, rank: 3, ndensity: 2, num_ms_combs: 8, mus: [0, 0, 0], ns: [1, 1, 4], ls: [2, 3, 1], ms_combs: [0, 0, 0, 0, 1, -1, 1, -2, 1, 1, -1, 0, 1, 0, -1, 2, -3, 1, 2, -2, 0, 2, -1, -1], ctildes: [0.01815391055646437, -0.038002278244591653, -0.029645211799641805, 0.062057460508346353, 0.038271803864934784, -0.080115837018916641, -0.03423134202541335, 0.071657783059436708, 0.020962330293238175, -0.043881251148668081, -0.046873195502483665, 0.098121460506162564, 0.027062252041136905, -0.056650451636512202, -0.012102607037642907, 0.02533485216306109]}
    - {mu0: 0, rank: 3, ndensity: 2, num_ms_combs: 4, mus: [0, 0, 0], ns: [1, 1, 4], ls: [3, 3, 0], ms_combs: [0, 0, 0, 1, -1, 0, 2, -2, 0, 3, -3, 0], ctildes: [0.024996643713658388, -0.1337118499855125, -0.049993287427316777, 0.267423699971025, 0.04999328742731677, -0.26742369997102494, -0.04999328742731677, 0.26742369997102494]}
    - {mu0: 0, rank: 3, ndensity: 2, num_ms_combs: 1, mus: [0, 0, 0], ns: [1, 2, 2], ls: [0, 0, 0], ms_combs: [0, 0, 0], ctildes: [0.026895835225506381, -0.19818747932919728]}
    - {mu0: 0, rank: 3, ndensity: 2, num_ms_combs: 2, mus: [0, 0, 0], ns: [1, 2, 2], ls: [0, 1, 1], ms_combs: [0, 0, 0, 0, 1, -1], ctildes: [0.073858838826127454, 0.017975383126854736, -0.14771767765225488, -0.035950766253709465]}
    - {mu0: 0, rank: 3, ndensity: 2, num_ms_combs: 3, mus: [0, 0, 0], ns: [1, 2, 2], ls: [0, 2, 2], ms_combs: [0, 0, 0, 0, 1, -1, 0, 2, -2], ctildes: [0.010689152695381312, -0.02260803744702275, -0.021378305390762627, 0.045216074894045506, 0.021378305390762631, -0.045216074894045513]}
    - {mu0: 0, rank: 3, ndensity: 2, num_ms_combs: 4, mus: [0, 0, 0], ns: [1, 2, 2], ls: [0, 3, 3], ms_combs: [0, 0, 0, 0, 1, -1, 0, 2, -2, 0, 3, -3], ctildes: [-0.016739366841549242, -0.0019426199431106358, 0.033478733683098484, 0.0038852398862212717, -0.033478733683098477, -0.0038852398862212708, 0.033478733683098477, 0.0038852398862212708]}
    - {mu0: 0, rank: 3, ndensity: 2, num_ms_combs: 2, mus: [0, 0, 0], ns: [1, 2, 2], ls: [1, 0, 1], ms_combs: [0, 0, 0, 1, 0, -1], ctildes: [-0.049547712137238131, -0.014686408190530714, 0.099095424274476235, 0.029372816381061425]}
    - {mu0: 0, rank: 3, ndensity: 2, num_ms_combs: 5, mus: [0, 0, 0], ns: [1, 2, 2], ls: [1, 1, 2], ms_combs: [0, 0, 0, 0, 1, -1, 1, -1, 0, 1, 0, -1, 1, 1, -2], ctildes: [-0.0013689221357932567, -0.0022290348167861101, 0.0023710426907996235, 0.0038608015545135276, -0.0013689221357932569, -0.0022290348167861105, 0.0023710426907996235, 0.0038608015545135276, -0.0033531607302944248, -0.0054599979200241596]}
    - {mu0: 0, rank: 3, ndensity: 2, num_ms_combs: 8, mus: [0, 0, 0], ns: [1, 2, 2], ls: [1, 2, 3], ms_combs: [0, 0, 0, 0, 1, -1, 0, 2, -2, 1, -2, 1, 1, -1, 0, 1, 0, -1, 1, 1, -2, 1, 2, -3], ctildes: [0.01335321492669923, 0.0023258373282322737, -0.025179063534161206, -0.0043856409246129128, 0.019905797529509561, 0.0034671535803559015, -0.0089021432844661515, -0.0015505582188215154, 0.015418964464953456, 0.0026856456150923659, -0.021805708664085991, -0.003798076452591457, 0.028151048836085265, 0.00490329561616975, -0.034477852686289598, -0.0060052861588207641]}
    - {mu0: 0, rank: 3, ndensity: 2, num_ms_combs: 3, mus: [0, 0, 0], ns: [1, 2, 2], ls: [2, 0, 2], ms_combs: [0, 0, 0, 1, 0, -1, 2, 0, -2], ctildes: [-0.027875572214966341, -0.022361863807530018, 0.055751144429932689, 0.044723727615060042, -0.055751144429932703, -0.044723727615060049]}
    - {mu0: 0, rank: 3, ndensity: 2, num_ms_combs: 4, mus: [0, 0, 0], ns: [1, 2, 2], ls: [2, 1, 1], ms_combs: [0, -1, 1, 0, 0, 0, 1, -1, 0, 2, -1, -1], ctildes: [0.018073334888336241, -0.0064173145869605422, 0.018073334888336245, -0.006417314586960543, -0.062607868577611123, 0.022230229825537091, 0.044270448426864985, -0.015719146256972717]}
    - {mu0: 0, rank: 3, ndensity: 2, num_ms_combs: 8, mus: [0, 0, 0], ns: [1, 2, 2], ls: [2, 1, 3], ms_combs: [0, 0, 0, 0, 1, -1, 1, -1, 0, 1, 0, -1, 1, 1, -2, 2, -1, -1, 2, 0, -2, 2, 1, -3], ctildes: [0.0044764905187537271, 0.011926782388022498, -0.0073100784062356009, -0.019476354082578778, 0.0051690060120545426, 0.013771862044581753, -0.0084409514712747886, -0.022489356544818647, 0.0094372706422736433, 0.025143865002222137, -0.002984327012502484, -0.0079511882586816643, 0.006673158067044418, 0.017779397448310381, -0.011558248819059052, -0.030794819708434031]}
    - {mu0: 0, rank: 3, ndensity: 2, num_ms_combs: 7, mus: [0, 0, 0], ns: [1, 2, 2], ls: [2, 2, 2], ms_combs: [0, -2, 2, 0, -1, 1, 0, 0, 0, 1, -2, 1, 1, -1, 0, 2, -2, 0, 2, -1, -1], ctildes: [0.10301404875959026, -0.0097594678859377892, 0.051507024379795104, -0.0048797339429688912, -0.051507024379795104, 0.0048797339429688912, -0.25233185579918244, 0.023905716481626434, 0.10301404875959021, -0.0097594678859377823, 0.20602809751918044, -0.019518935771875572, -0.12616592789959122, 0.011952858240813217]}
    - {mu0: 0, rank: 3, ndensity: 2, num_ms_combs: 9, mus: [0, 0, 0], ns: [1, 2, 2], ls: [2, 3, 3], ms_combs: [0, -3, 3, 0, -1, 1, 0, 0, 0, 1, -3, 2, 1, -2, 1, 1, -1, 0, 2, -3, 1, 2, -2, 0, 2, -1, -1], ctildes: [0.019003384171269788, -0.11110056881943325, -0.011402030502761871, 0.066660341291659944, 0.0076013536685079156, -0.04444022752777331, -0.038006768342539576, 0.22220113763886651, 0.029439916166763815, -0.17211626111673445, -0.010749937450398372, 0.062847972484723166, 0.024037590892961532, -0.14053233872387733, -0.033994287047602205, 0.19874273937531708, 0.018619437842277421, -0.10885588149623135]}
    - {mu0: 0, rank: 3, ndensity: 2, num_ms_combs: 4, mus: [0, 0, 0], ns: [1, 2, 2], ls: [3, 0, 3], ms_combs: [0, 0, 0, 1, 0, -1, 2, 0, -2, 3, 0, -3], ctildes: [-0.041966968456347432, -0.014404641215926951, 0.083933936912694865, 0.028809282431853902, -0.083933936912694851, -0.028809282431853898, 0.083933936912694851, 0.028809282431853898]}
    - {mu0: 0, rank: 3, ndensity: 2, num_ms_combs: 8, mus: [0, 0, 0], ns: [1, 2, 2], ls: [3, 1, 2], ms_combs: [0, 0, 0, 0, 1, -1, 1, -1, 0, 1, 0, -1, 1, 1, -2, 2, -1, -1, 2, 0, -2, 3, -1, -2], ctildes: [-0.0022533619702411883, 0.011506039363800891, -0.0026019582802008323, 0.013286029847993755, 0.0036797246885889906, -0.018789283601126517, 0.0042489800790011306, -0.02169599588998123, 0.0015022413134941264, -0.0076706929092005983, -0.004750504145844478, 0.02425686082477704, -0.0033591136955814392, 0.017152190779498162, 0.0058181555891475062, -0.029708465891205238]}
    - {mu0: 0, rank: 3, ndensity: 2, num_ms_combs: 14, mus: [0, 0, 0], ns: [1, 2, 2], ls: [3, 2, 3], ms_combs: [0, 0, 0, 0, 1, -1, 0, 2, -2, 1, -2, 1, 1, -1, 0, 1, 0, -1, 1, 1, -2, 1, 2, -3, 2, -2, 0, 2, -1, -1, 2, 1, -3, 3, -2, -1, 3, -1, -2, 3, 0, -3], ctildes: [-0.0051860061723120856, -0.0089918488779177925, 0.0036670601317171678, 0.0063581973169803217, 0.01159626233302331, 0.020106385334429391, -0.012703068925088703, -0.022025441595116064, 0.0036670601317171647, 0.0063581973169803165, 0.0077790092584681262, 0.013487773316876686, -0.010042657769346789, -0.017412640477894731, -0.0081997957320989155, -0.014217361415124769, 0.011596262333023312, 0.020106385334429395, -0.010042657769346788, -0.017412640477894731, 0.012965015430780212, 0.02247962219479448, -0.0081997957320989155, -0.014217361415124771, 0.012965015430780212, 0.02247962219479448, -0.012965015430780212, -0.02247962219479448]}
    - {mu0: 0, rank: 3, ndensity: 2, num_ms_combs: 1, mus: [0, 0, 0], ns: [1, 2, 3], ls: [0, 0, 0], ms_combs: [0, 0, 0], ctildes: [-0.006683689103441609, 0.1381546004864449]}
    - {mu0: 0, rank: 3, ndensity: 2, num_ms_combs: 2, mus: [0, 0, 0], ns: [1, 2, 3], ls: [0, 1, 1], ms_combs: [0, 0, 0, 0, 1, -1], ctildes: [0.007127154950336616, 0.023495609524477473, -0.014254309900673228, -0.046991219048954931]}
    - {mu0: 0, rank: 3, ndensity: 2, num_ms_combs: 3, mus: [0, 0, 0], ns: [1, 2, 3], ls: [0, 2, 2], ms_combs: [0, 0, 0, 0, 1, -1, 0, 2, -2], ctildes: [-0.15213811313932107, 0.035690416848166956, 0.3042762262786422, -0.071380833696333912, -0.30427622627864226, 0.07138083369633394]}
    - {mu0: 0, rank: 3, ndensity: 2, num_ms_combs: 4, mus: [0, 0, 0], ns: [1, 2, 3], ls: [0, 3, 3], ms_combs: [0, 0, 0, 0, 1, -1, 0, 2, -2, 0, 3, -3], ctildes: [-0.0073272566519322971, 0.006481639460808473, 0.014654513303864594, -0.012963278921616946, -0.014654513303864591, 0.012963278921616944, 0.014654513303864591, -0.012963278921616944]}
    - {mu0: 0, rank: 3, ndensity: 2, num_ms_combs: 2, mus: [0, 0, 0], ns: [1, 2, 3], ls: [1, 0, 1], ms_combs: [0, 0, 0, 1, 0, -1], ctildes: [0.044344707632175025, 0.013354146332238748, -0.088689415264350036, -0.026708292664477488]}
    - {mu0: 0, rank: 3, ndensity: 2, num_ms_combs: 2, mus: [0, 0, 0], ns: [1, 2, 3], ls: [1, 1, 0], ms_combs: [0, 0, 0, 1, -1, 0], ctildes: [0.031024692761503932, 0.00040313410315258644, -0.062049385523007851, -0.00080626820630517267]}
    - {mu0: 0, rank: 3, ndensity: 2, num_ms_combs: 5, mus: [0, 0, 0], ns: [1, 2, 3], ls: [1, 1, 2], ms_combs: [0, 0, 0, 0, 1, -1, 1, -1, 0, 1, 0, -1, 1, 1, -2], ctildes: [0.022308096554572894, 0.010328592303969791, -0.038638756652672482, -0.017889646641140573, 0.022308096554572898, 0.010328592303969793, -0.038638756652672482, -0.017889646641140573, 0.054643453691443085, 0.025299780905963288]}
    - {mu0: 0, rank: 3, ndensity: 2, num_ms_combs: 5, mus: [0, 0, 0], ns: [1, 2, 3], ls: [1, 2, 1], ms_combs: [0, 0, 0, 0, 1, -1, 1, -2, 1, 1, -1, 0, 1, 0, -1], ctildes: [-0.031875146361678951, -0.014021260780598465, 0.05520937299712219, 0.0242855360581694, -0.078077844062645119, -0.034344934462963994, 0.05520937299712219, 0.0242855360581694, -0.031875146361678944, -0.014021260780598463]}
    - {mu0: 0, rank: 3, ndensity: 2, num_ms_combs: 8, mus: [0, 0, 0], ns: [1, 2, 3], ls: [1, 2, 3], ms_combs: [0, 0, 0, 0, 1, -1, 0, 2, -2, 1, -2, 1, 1, -1, 0, 1, 0, -1, 1, 1, -2, 1, 2, -3], ctildes: [-0.011329863495634612, 0.0018542102955347696, 0.021363795487149749, -0.0034963324632494609, -0.016889563301354917, 0.0027640935102638121, 0.0075532423304230734, -0.0012361401970231796, -0.013082599478172714, 0.0021410576265223492, 0.018501589613127027, -0.0030279127332502554, -0.023885449483335028, 0.0039090185298825391, 0.029253581755597457, -0.0047875503966483286]}
    - {mu0: 0, rank: 3, ndensity: 2, num_ms_combs: 8, mus: [0, 0, 0], ns: [1, 2, 3], ls: [1, 3, 2], ms_combs: [0, 0, 0, 0, 1, -1, 0, 2, -2, 1, -3, 2, 1, -2, 1, 1, -1, 0, 1, 0, -1, 1, 1, -2], ctildes: [-0.00023128060643762125, -0.0073547569751659181, 0.00043610689378394433, 0.013868262749650353, -0.00034477277191459797, -0.010963824369641157, 0.00059716395802243965, 0.018989900853480301, -0.00048758232997858999, -0.015505189119023169, 0.00037767964878241767, 0.012010267847554637, -0.00026705984077020117, -0.0084925418388726442, 0.00015418707095841427, 0.0049031713167772811]}
    - {mu0: 0, rank: 3, ndensity: 2, num_ms_combs: 3, mus: [0, 0, 0], ns: [1, 2, 3], ls: [2, 0, 2], ms_combs: [0, 0, 0, 1, 0, -1, 2, 0, -2], ctildes: [0.03116800763146306, -0.0028919694218144396, -0.062336015262926127, 0.00578393884362888, 0.062336015262926148, -0.0057839388436288809]}
    - {mu0: 0, rank: 3, ndensity: 2, num_ms_combs: 5, mus: [0, 0, 0], ns: [1, 2, 3], ls: [2, 1, 1], ms_combs: [0, 0, 0, 0, 1, -1, 1, -1, 0, 1, 0, -1, 2, -1, -1], ctildes: [-0.019679998510062923, -0.0068532401585026399, -0.01967999851006292, -0.0068532401585026381, 0.034086757312308792, 0.011870160150997958, 0.034086757312308792, 0.011870160150997958, -0.048205954488387354, -0.016786941473081976]}
    - {mu0: 0, rank: 3, ndensity: 2, num_ms_combs: 8, mus: [0, 0, 0], ns: [1, 2, 3], ls: [2, 1, 3], ms_combs: [0, 0, 0, 0, 1, -1, 1, -1, 0, 1, 0, -1, 1, 1, -2, 2, -1, -1, 2, 0, -2, 2, 1, -3], ctildes: [0.036378543124125182, -0.011038284409650245, -0.059405912159960092, 0.018025442959574495, 0.042006323330880155, -0.012745912950606434, -0.068596038754016445, 0.020813988689945159, 0.076692702820595343, -0.023270746796814575, -0.024252362082750115, 0.0073588562731001618, 0.054229930231967628, -0.016454902863302718, -0.093928994452683406, 0.0285007277928509]}
    - {mu0: 0, rank: 3, ndensity: 2, num_ms_combs: 3, mus: [0, 0, 0], ns: [1, 2, 3], ls: [2, 2, 0], ms_combs: [0, 0, 0, 1, -1, 0, 2, -2, 0], ctildes: [0.032983303883490189, -0.00045611390927555477, -0.065966607766980379, 0.00091222781855110964, 0.065966607766980406, -0.00091222781855110986]}
    - {mu0: 0, rank: 3, ndensity: 2, num_ms_combs: 10, mus: [0, 0, 0], ns: [1, 2, 3], ls: [2, 2, 2], ms_combs: [0, 0, 0, 0, 1, -1, 0, 2, -2, 1, -2, 1, 1, -1, 0, 1, 0, -1, 1, 1, -2, 2, -2, 0, 2, -1, -1, 2, 0, -2], ctildes: [0.017928595601247401, 0.025677989870133273, -0.017928595601247401, -0.025677989870133273, -0.035857191202494823, -0.051355979740266573, 0.04391591102776312, 0.062897972802181817, -0.017928595601247401, -0.025677989870133273, -0.017928595601247401, -0.025677989870133273, 0.04391591102776312, 0.062897972802181817, -0.035857191202494802, -0.051355979740266545, 0.04391591102776312, 0.062897972802181817, -0.035857191202494823, -0.051355979740266573]}
    - {mu0: 0, rank: 3, ndensity: 2, num_ms_combs: 8, mus: [0, 0, 0], ns: [1, 2, 3], ls: [2, 3, 1], ms_combs: [0, 0, 0, 0, 1, -1, 1, -2, 1, 1, -1, 0, 1, 0, -1, 2, -3, 1, 2, -2, 0, 2, -1, -1], ctildes: [-0.0042000989284720677, -0.013835340442259326, 0.0068587328293112952, 0.022593016334151655, -0.0088545860080029102, -0.029167458667587173, 0.0079197824906052025, 0.026088168124656148, -0.0048498564939528123, -0.015975675057337067, 0.010844608801597287, 0.035722695414653539, -0.0062611378108583795, -0.020624507813829233, 0.0028000659523147106, 0.0092235602948395473]}
    - {mu0: 0, rank: 3, ndensity: 2, num_ms_combs: 4, mus: [0, 0, 0], ns: [1, 2, 3], ls: [3, 0, 3], ms_combs: [0, 0, 0, 1, 0, -1, 2, 0, -2, 3, 0, -3], ctildes: [-0.00048839077138180436, 0.019415967086065997, 0.00097678154276360871, -0.038831934172131995, -0.00097678154276360871, 0.038831934172131988, 0.00097678154276360871, -0.038831934172131988]}
    - {mu0: 0, rank: 3, ndensity: 2, num_ms_combs: 8, mus: [0, 0, 0], ns: [1, 2, 3], ls: [3, 1, 2], ms_combs: [0, 0, 0, 0, 1, -1, 1, -1, 0, 1, 0, -1, 1, 1, -2, 2, -1, -1, 2, 0, -2, 3, -1, -2], ctildes: [0.010596365580830184, -0.018258465029004939, 0.012235629041047989, -0.02108305939897075, -0.017303792534016173, 0.029815948538341987, -0.019980698555031349, 0.034428491829511548, -0.0070642437205534602, 0.012172310019336633, 0.022339100103490959, -0.038492224046791958, 0.015796129168783569, -0.027218112646438496, -0.027359698283253873, 0.047143153989764458]}
    - {mu0: 0, rank: 3, ndensity: 2, num_ms_combs: 8, mus: [0, 0, 0], ns: [1, 2, 3], ls: [3, 2, 1], ms_combs: [0, 0, 0, 0, 1, -1, 1, -2, 1, 1, -1, 0, 1, 0, -1, 2, -2, 0, 2, -1, -1, 3, -2, -1], ctildes: [0.0066409261566062498, -0.00048521707591805496, 0.0076682810083700866, -0.000560280418793384, -0.0044272841044041651, 0.00032347805061203652, -0.012522250449854387, 0.00091493409261110526, -0.01084458700212501, 0.00079235616698968112, 0.009899708213151991, -0.00072331891039763123, 0.014000301618575862, -0.0010229274130052596, -0.017146797605286149, 0.0012528251028840576]}
    - {mu0: 0, rank: 3, ndensity: 2, num_ms_combs: 4, mus: [0, 0, 0], ns: [1, 2, 3], ls: [3, 3, 0], ms_combs: [0, 0, 0, 1, -1, 0, 2, -2, 0, 3, -3, 0], ctildes: [-0.008896230643701453, 0.0088300689352350855, 0.017792461287402906, -0.017660137870470171, -0.017792461287402903, 0.017660137870470168, 0.017792461287402903, -0.017660137870470168]}
    - {mu0: 0, rank: 3, ndensity: 2, num_ms_combs: 1, mus: [0, 0, 0], ns: [1, 2, 4], ls: [0, 0, 0], ms_combs: [0, 0, 0], ctildes: [-0.14814776058212065, -0.030243716834471232]}
    - {mu0: 0, rank: 3, ndensity: 2, num_ms_combs: 2, mus: [0, 0, 0], ns: [1, 2, 4], ls: [0, 1, 1], ms_combs: [0, 0, 0, 0, 1, -1], ctildes: [0.063702345474909439, 0.038949987239339665, -0.12740469094981885, -0.077899974478679315]}
    - {mu0: 0, rank: 3, ndensity: 2, num_ms_combs: 3, mus: [0, 0, 0], ns: [1, 2, 4], ls: [0, 2, 2], ms_combs: [0, 0, 0, 0, 1, -1, 0, 2, -2], ctildes: [0.07087770271542336, -0.054041321881306142, -0.14175540543084675, 0.1080826437626123, 0.14175540543084678, -0.10808264376261233]}
    - {mu0: 0, rank: 3, ndensity: 2, num_ms_combs: 4, mus: [0, 0, 0], ns: [1, 2, 4], ls: [0, 3, 3], ms_combs: [0, 0, 0, 0, 1, -1, 0, 2, -2, 0, 3, -3], ctildes: [0.0026742212217963478, -0.025824080276566103, -0.0053484424435926957, 0.051648160553132205, 0.0053484424435926957, -0.051648160553132198, -0.0053484424435926957, 0.051648160553132198]}
    - {mu0: 0, rank: 3, ndensity: 2, num_ms_combs: 2, mus: [0, 0, 0], ns: [1, 2, 4], ls: [1, 0, 1], ms_combs: [0, 0, 0, 1, 0, -1], ctildes: [-0.064906280447069614, -0.0047958572531178762, 0.12981256089413923, 0.0095917145062357507]}
    - {mu0: 0, rank: 3, ndensity: 2, num_ms_combs: 2, mus: [0, 0, 0], ns: [1, 2, 4], ls: [1, 1, 0], ms_combs: [0, 0, 0, 1, -1, 0], ctildes: [-0.066779868897293551, 0.0064281087712792758, 0.13355973779458707, -0.01285621754255855]}
    - {mu0: 0, rank: 3, ndensity: 2, num_ms_combs: 5, mus: [0, 0, 0], ns: [1, 2, 4], ls: [1, 1, 2], ms_combs: [0, 0, 0, 0, 1, -1, 1, -1, 0, 1, 0, -1, 1, 1, -2], ctildes: [-0.020052602101157856, -0.0017681955273671061, 0.034732125663167836, 0.0030626044911158741, -0.020052602101157859, -0.0017681955273671065, 0.034732125663167836, 0.0030626044911158741, -0.049118643162898594, -0.004331176807520821]}
    - {mu0: 0, rank: 3, ndensity: 2, num_ms_combs: 5, mus: [0, 0, 0], ns: [1, 2, 4], ls: [1, 2, 1], ms_combs: [0, 0, 0, 0, 1, -1, 1, -2, 1, 1, -1, 0, 1, 0, -1], ctildes: [0.0010668479106820878, -0.008045274018909367, -0.0018478347852500798, 0.013934823361564878, 0.0026132330143254384, -0.019706816187198491, -0.0018478347852500798, 0.013934823361564878, 0.0010668479106820876, -0.0080452740189093652]}
    - {mu0: 0, rank: 3, ndensity: 2, num_ms_combs: 8, mus: [0, 0, 0], ns: [1, 2, 4], ls: [1, 2, 3], ms_combs: [0, 0, 0, 0, 1, -1, 0, 2, -2, 1, -2, 1, 1, -1, 0, 1, 0, -1, 1, 1, -2, 1, 2, -3], ctildes: [0.013954560585216316, -0.00679708521267792, -0.026312971782093263, 0.012816706789832969, 0.020802230709788611, -0.010132496389604293, -0.0093030403901442089, 0.0045313901417852794, 0.01611333862059516, -0.0078485979544888427, -0.022787702012355859, 0.011099593672851854, 0.029418796797397149, -0.014329513814874809, -0.036030520500123467, 0.017549998554302847]}
    - {mu0: 0, rank: 3, ndensity: 2, num_ms_combs: 8, mus: [0, 0, 0], ns: [1, 2, 4], ls: [1, 3, 2], ms_combs: [0, 0, 0, 0, 1, -1, 0, 2, -2, 1, -3, 2, 1, -2, 1, 1, -1, 0, 1, 0, -1, 1, 1, -2], ctildes: [-0.0046405979594735429, -0.0069188600766342777, 0.0087503954290778629, 0.013046327675383934, -0.0069177949957531081, -0.010314027638775774, 0.011981972408990108, 0.017864419901029296, -0.0097832395047107688, -0.014586237769447643, 0.0075780647347406622, 0.011298451192978468, -0.0053585009622057573, -0.0079892114554603131, 0.0030937319729823633, 0.0046125733844228538]}
    - {mu0: 0, rank: 3, ndensity: 2, num_ms_combs: 3, mus: [0, 0, 0], ns: [1, 2, 4], ls: [2, 0, 2], ms_combs: [0, 0, 0, 1, 0, -1, 2, 0, -2], ctildes: [-0.016086474669443792, -0.047838323907137902, 0.032172949338887591, 0.095676647814275817, -0.032172949338887598, -0.095676647814275831]}
    - {mu0: 0, rank: 3, ndensity: 2, num_ms_combs: 5, mus: [0, 0, 0], ns: [1, 2, 4], ls: [2, 1, 1], ms_combs: [0, 0, 0, 0, 1, -1, 1, -1, 0, 1, 0, -1, 2, -1, -1], ctildes: [-0.02218093226550653, -0.029230426385212057, -0.022180932265506527, -0.029230426385212054, 0.038418501643101156, 0.050628583626089164, 0.038418501643101156, 0.050628583626089164, -0.054331966069726685, -0.071599629607755705]}
    - {mu0: 0, rank: 3, ndensity: 2, num_ms_combs: 8, mus: [0, 0, 0], ns: [1, 2, 4], ls: [2, 1, 3], ms_combs: [0, 0, 0, 0, 1, -1, 1, -1, 0, 1, 0, -1, 1, 1, -2, 2, -1, -1, 2, 0, -2, 2, 1, -3], ctildes: [-0.0055941963349255041, -0.019491584578478775, 0.0091352843610101805, 0.03182962433038302, -0.0064596215197377143, -0.022506943206634156, 0.010548517769906011, 0.036753684350702601, -0.011793601397687158, -0.041091868315870604, 0.0037294642232836689, 0.012994389718985849, -0.0083393355229157348, -0.02905633873777674, 0.014444152827054026, 0.050327054975761058]}
    - {mu0: 0, rank: 3, ndensity: 2, num_ms_combs: 3, mus: [0, 0, 0], ns: [1, 2, 4], ls: [2, 2, 0], ms_combs: [0, 0, 0, 1, -1, 0, 2, -2, 0], ctildes: [-0.060529445037490782, -0.034190246468559532, 0.12105889007498158, 0.068380492937119078, -0.12105889007498161, -0.068380492937119092]}
    - {mu0: 0, rank: 3, ndensity: 2, num_ms_combs: 10, mus: [0, 0, 0], ns: [1, 2, 4], ls: [2, 2, 2], ms_combs: [0, 0, 0, 0, 1, -1, 0, 2, -2, 1, -2, 1, 1, -1, 0, 1, 0, -1, 1, 1, -2, 2, -2, 0, 2, -1, -1, 2, 0, -2], ctildes: [-0.0041794811167075799, 0.0041697261026451809, 0.0041794811167075799, -0.0041697261026451809, 0.008358962233415165, -0.008339452205290367, -0.010237596125531202, 0.010213701318644651, 0.0041794811167075799, -0.0041697261026451809, 0.0041794811167075799, -0.0041697261026451809, -0.010237596125531202, 0.010213701318644651, 0.0083589622334151598, -0.0083394522052903618, -0.010237596125531202, 0.010213701318644651, 0.008358962233415165, -0.008339452205290367]}
    - {mu0: 0, rank: 3, ndensity: 2, num_ms_combs: 8, mus: [0, 0, 0], ns: [1, 2, 4], ls: [2, 3, 1], ms_combs: [0, 0, 0, 0, 1, -1, 1, -2, 1, 1, -1, 0, 1, 0, -1, 2, -3, 1, 2, -2, 0, 2, -1, -1], ctildes: [0.0167288916488607, -0.031758138370446755, -0.027318165668010291, 0.05186082279219878, 0.035267600227046364, -0.066952034331599977, -0.031544300604385081, 0.059883719998942909, 0.019316860193427609, -0.036671139474277616, -0.043193812504363875, 0.081999160676860666, 0.024937959276720711, -0.047342237490108893, -0.011152594432573796, 0.021172092246964497]}
    - {mu0: 0, rank: 3, ndensity: 2, num_ms_combs: 4, mus: [0, 0, 0], ns: [1, 2, 4], ls: [3, 0, 3], ms_combs: [0, 0, 0, 1, 0, -1, 2, 0, -2, 3, 0, -3], ctildes: [-0.00747946130172594, 0.044575171631307108, 0.01495892260345188, -0.089150343262614215, -0.014958922603451878, 0.089150343262614201, 0.014958922603451878, -0.089150343262614201]}
    - {mu0: 0, rank: 3, ndensity: 2, num_ms_combs: 8, mus: [0, 0, 0], ns: [1, 2, 4], ls: [3, 1, 2], ms_combs: [0, 0, 0, 0, 1, -1, 1, -1, 0, 1, 0, -1, 1, 1, -2, 2, -1, -1, 2, 0, -2, 3, -1, -2], ctildes: [-0.029543491096363693, 0.011102817485502989, -0.034113885074573795, 0.012820429328036875, 0.048244318937699364, -0.018130825031155533, 0.055707741051101774, -0.020935673424735304, 0.019695660730909139, -0.0074018783236686637, -0.062283147931609571, 0.023406794466221983, -0.044040836256086034, 0.016551103092905323, 0.076280966003362496, -0.028667351478222407]}
    - {mu0: 0, rank: 3, ndensity: 2, num_ms_combs: 8, mus: [0, 0, 0], ns: [1, 2, 4], ls: [3, 2, 1], ms_combs: [0, 0, 0, 0, 1, -1, 1, -2, 1, 1, -1, 0, 1, 0, -1, 2, -2, 0, 2, -1, -1, 3, -2, -1], ctildes: [-0.0062340721216950674, -0.0085746479816262572, -0.0071984864352163738, -0.0099011506407963978, 0.0041560480811300435, 0.0057164319877508361, 0.011755079124417573, 0.016168511290921252, 0.010180197145241751, 0.014002341519313326, -0.0092932060271643403, -0.012782330513365118, -0.013142578001543198, -0.018076945170736394, 0.016096305004253953, 0.02213964588828635]}
    - {mu0: 0, rank: 3, ndensity: 2, num_ms_combs: 4, mus: [0, 0, 0], ns: [1, 2, 4], ls: [3, 3, 0], ms_combs: [0, 0, 0, 1, -1, 0, 2, -2, 0, 3, -3, 0], ctildes: [-0.01627116438398336, 0.022366515486426909, 0.03254232876796672, -0.044733030972853818, -0.032542328767966713, 0.044733030972853811, 0.032542328767966713, -0.044733030972853811]}
    - {mu0: 0, rank: 3, ndensity: 2, num_ms_combs: 1, mus: [0, 0, 0], ns: [1, 3, 3], ls: [0, 0, 0], ms_combs: [0, 0, 0], ctildes: [0.012164530697850846, 0.15790921647896922]}
    - {mu0: 0, rank: 3, ndensity: 2, num_ms_combs: 2, mus: [0, 0, 0], ns: [1, 3, 3], ls: [0, 1, 1], ms_combs: [0, 0, 0, 0, 1, -1], ctildes: [0.080747697067571622, -0.00064549772562552666, -0.16149539413514322, 0.0012909954512510531]}
    - {mu0: 0, rank: 3, ndensity: 2, num_ms_combs: 3, mus: [0, 0, 0], ns: [1, 3, 3], ls: [0, 2, 2], ms_combs: [0, 0, 0, 0, 1, -1, 0, 2, -2], ctildes: [0.005050198628071649, 0.04305723627935458, -0.0101003972561433, -0.086114472558709174, 0.010100397256143303, 0.086114472558709201]}
    - {mu0: 0, rank: 3, ndensity: 2, num_ms_combs: 4, mus: [0, 0, 0], ns: [1, 3, 3], ls: [0, 3, 3], ms_combs: [0, 0, 0, 0, 1, -1, 0, 2, -2, 0, 3, -3], ctildes: [0.0034983550000540122, 0.0058274490085007905, -0.0069967100001080244, -0.011654898017001581, 0.0069967100001080236, 0.011654898017001579, -0.0069967100001080236, -0.011654898017001579]}
    - {mu0: 0, rank: 3, ndensity: 2, num_ms_combs: 2, mus: [0, 0, 0], ns: [1, 3, 3], ls: [1, 0, 1], ms_combs: [0, 0, 0, 1, 0, -1], ctildes: [-0.018336658648263393, -0.017476660980205456, 0.036673317296526779, 0.034953321960410906]}
    - {mu0: 0, rank: 3, ndensity: 2, num_ms_combs: 5, mus: [0, 0, 0], ns: [1, 3, 3], ls: [1, 1, 2], ms_combs: [0, 0, 0, 0, 1, -1, 1, -1, 0, 1, 0, -1, 1, 1, -2], ctildes: [-0.012824905163918432, 0.0058651752832447387, 0.022213387346159189, -0.010158781585877071, -0.012824905163918434, 0.0058651752832447395, 0.022213387346159189, -0.010158781585877071, -0.031414473651185222, 0.014366686695933415]}
    - {mu0: 0, rank: 3, ndensity: 2, num_ms_combs: 8, mus: [0, 0, 0], ns: [1, 3, 3], ls: [1, 2, 3], ms_combs: [0, 0, 0, 0, 1, -1, 0, 2, -2, 1, -2, 1, 1, -1, 0, 1, 0, -1, 1, 1, -2, 1, 2, -3], ctildes: [0.026879776858566792, 0.036164934177409985, -0.050684993315930162, -0.068193253861364628, 0.040070005517187382, 0.053911500814996086, -0.017919851239044524, -0.024109956118273317, 0.031038092810101215, 0.041759668965105495, -0.043894491802239997, -0.059057090210663028, 0.056667545246771138, 0.076242375620455632, -0.069403285415333776, -0.093377458523864157]}
    - {mu0: 0, rank: 3, ndensity: 2, num_ms_combs: 3, mus: [0, 0, 0], ns: [1, 3, 3], ls: [2, 0, 2], ms_combs: [0, 0, 0, 1, 0, -1, 2, 0, -2], ctildes: [0.0038123756309735701, 0.0030082079632086775, -0.007624751261947141, -0.0060164159264173558, 0.0076247512619471427, 0.0060164159264173567]}
    - {mu0: 0, rank: 3, ndensity: 2, num_ms_combs: 4, mus: [0, 0, 0], ns: [1, 3, 3], ls: [2, 1, 1], ms_combs: [0, -1, 1, 0, 0, 0, 1, -1, 0, 2, -1, -1], ctildes: [-0.00045230360079593268, -0.07853490577913802, -0.00045230360079593279, -0.078534905779138034, 0.0015668256340498131, 0.27205289395420346, -0.0011079130307735346, -0.19237044615644192]}
    - {mu0: 0, rank: 3, ndensity: 2, num_ms_combs: 8, mus: [0, 0, 0], ns: [1, 3, 3], ls: [2, 1, 3], ms_combs: [0, 0, 0, 0, 1, -1, 1, -1, 0, 1, 0, -1, 1, 1, -2, 2, -1, -1, 2, 0, -2, 2, 1, -3], ctildes: [0.00083249149953795103, -0.010658055348226638, -0.0013594529260482651, 0.017404531502331028, 0.00096127838271262232, -0.012306862248673158, -0.0015697610256091806, 0.020097021895980283, 0.0017550461808459573, -0.022469153552356801, -0.00055499433302530054, 0.0071053702321510915, 0.0012410050557717283, -0.015888090844393299, -0.0021494838090464815, 0.027518980577759099]}
    - {mu0: 0, rank: 3, ndensity: 2, num_ms_combs: 7, mus: [0, 0, 0], ns: [1, 3, 3], ls: [2, 2, 2], ms_combs: [0, -2, 2, 0, -1, 1, 0, 0, 0, 1, -2, 1, 1, -1, 0, 2, -2, 0, 2, -1, -1], ctildes: [-0.01440541542295347, 0.05934398639180339, -0.0072027077114767309, 0.029671993195901677, 0.0072027077114767309, -0.029671993195901677, 0.035285917319055109, -0.14536248596258686, -0.014405415422953462, 0.059343986391803355, -0.02881083084590693, 0.11868797278360674, 0.017642958659527554, -0.072681242981293429]}
    - {mu0: 0, rank: 3, ndensity: 2, num_ms_combs: 4, mus: [0, 0, 0], ns: [1, 3, 3], ls: [3, 0, 3], ms_combs: [0, 0, 0, 1, 0, -1, 2, 0, -2, 3, 0, -3], ctildes: [0.011920490499648131, 0.026138104871638913, -0.023840980999296262, -0.052276209743277825, 0.023840980999296258, 0.052276209743277818, -0.023840980999296258, -0.052276209743277818]}
    - {mu0: 0, rank: 3, ndensity: 2, num_ms_combs: 8, mus: [0, 0, 0], ns: [1, 3, 3], ls: [3, 1, 2], ms_combs: [0, 0, 0, 0, 1, -1, 1, -1, 0, 1, 0, -1, 1, 1, -2, 2, -1, -1, 2, 0, -2, 3, -1, -2], ctildes: [0.0015034272835094049, -0.0018750289783300666, 0.001736008293682366, -0.002165096970754427, -0.0024550864733177769, 0.0030619094998938145, -0.0028348896725076552, 0.0035355885479959326, -0.001002284855672937, 0.0012500193188867117, 0.0031695030082196166, -0.003952908166894341, 0.0022411770701032535, -0.0027951281702186747, -0.0038818325541771894, 0.0048413040044857731]}
    - {mu0: 0, rank: 3, ndensity: 2, num_ms_combs: 1, mus: [0, 0, 0], ns: [1, 3, 4], ls: [0, 0, 0], ms_combs: [0, 0, 0], ctildes: [-0.065964665862831673, 0.12936604194992579]}
    - {mu0: 0, rank: 3, ndensity: 2, num_ms_combs: 2, mus: [0, 0, 0], ns: [1, 3, 4], ls: [0, 1, 1], ms_combs: [0, 0, 0, 0, 1, -1], ctildes: [0.093396589672023231, 0.0090802513235035531, -0.18679317934404643, -0.018160502647007103]}
    - {mu0: 0, rank: 3, ndensity: 2, num_ms_combs: 3, mus: [0, 0, 0], ns: [1, 3, 4], ls: [0, 2, 2], ms_combs: [0, 0, 0, 0, 1, -1, 0, 2, -2], ctildes: [0.0063248332708955423, -0.16305505292273603, -0.012649666541791086, 0.32611010584547212, 0.01264966654179109, -0.32611010584547218]}
    - {mu0: 0, rank: 3, ndensity: 2, num_ms_combs: 2, mus: [0, 0, 0], ns: [1, 3, 4], ls: [1, 0, 1], ms_combs: [0, 0, 0, 1, 0, -1], ctildes: [0.10163126282357461, 0.0073169632206120591, -0.20326252564714919, -0.014633926441224115]}
    - {mu0: 0, rank: 3, ndensity: 2, num_ms_combs: 2, mus: [0, 0, 0], ns: [1, 3, 4], ls: [1, 1, 0], ms_combs: [0, 0, 0, 1, -1, 0], ctildes: [-0.071683095054463256, 0.028836260975285442, 0.14336619010892648, -0.057672521950570869]}
    - {mu0: 0, rank: 3, ndensity: 2, num_ms_combs: 5, mus: [0, 0, 0], ns: [1, 3, 4], ls: [1, 1, 2], ms_combs: [0, 0, 0, 0, 1, -1, 1, -1, 0, 1, 0, -1, 1, 1, -2], ctildes: [0.048511085201516382, -0.025784958993068912, -0.084023664299329087, 0.04466085904707541, 0.048511085201516389, -0.025784958993068915, -0.084023664299329087, 0.04466085904707541, 0.11882740561239526, -0.06315999257160719]}
    - {mu0: 0, rank: 3, ndensity: 2, num_ms_combs: 5, mus: [0, 0, 0], ns: [1, 3, 4], ls: [1, 2, 1], ms_combs: [0, 0, 0, 0, 1, -1, 1, -2, 1, 1, -1, 0, 1, 0, -1], ctildes: [-0.032848663278222695, 0.035733334415762895, 0.056895553758603744, -0.061891950731950883, -0.080462463764144926, 0.087528436126852335, 0.056895553758603744, -0.061891950731950883, -0.032848663278222688, 0.035733334415762888]}
    - {mu0: 0, rank: 3, ndensity: 2, num_ms_combs: 3, mus: [0, 0, 0], ns: [1, 3, 4], ls: [2, 0, 2], ms_combs: [0, 0, 0, 1, 0, -1, 2, 0, -2], ctildes: [-0.1290542910863092, -0.034713167820322577, 0.25810858217261839, 0.069426335640645168, -0.25810858217261845, -0.069426335640645181]}
    - {mu0: 0, rank: 3, ndensity: 2, num_ms_combs: 5, mus: [0, 0, 0], ns: [1, 3, 4], ls: [2, 1, 1], ms_combs: [0, 0, 0, 0, 1, -1, 1, -1, 0, 1, 0, -1, 2, -1, -1], ctildes: [0.019310680413400276, -0.054269656545379547, 0.019310680413400273, -0.05426965654537954, -0.033447079604734455, 0.093997802445910258, -0.033447079604734455, 0.093997802445910258, 0.047301313598787996, -0.13293296705227317]}
    - {mu0: 0, rank: 3, ndensity: 2, num_ms_combs: 3, mus: [0, 0, 0], ns: [1, 3, 4], ls: [2, 2, 0], ms_combs: [0, 0, 0, 1, -1, 0, 2, -2, 0], ctildes: [-0.0082861169762327158, 0.030378083019773246, 0.016572233952465435, -0.060756166039546498, -0.016572233952465439, 0.060756166039546512]}
    - {mu0: 0, rank: 3, ndensity: 2, num_ms_combs: 1, mus: [0, 0, 0], ns: [1, 4, 4], ls: [0, 0, 0], ms_combs: [0, 0, 0], ctildes: [-0.11602472077541334, 0.27680839315274219]}
    - {mu0: 0, rank: 3, ndensity: 2, num_ms_combs: 2, mus: [0, 0, 0], ns: [1, 4, 4], ls: [0, 1, 1], ms_combs: [0, 0, 0, 0, 1, -1], ctildes: [-0.081733753507673992, 0.10243233986780029, 0.16346750701534796, -0.20486467973560055]}
    - {mu0: 0, rank: 3, ndensity: 2, num_ms_combs: 3, mus: [0, 0, 0], ns: [1, 4, 4], ls: [0, 2, 2], ms_combs: [0, 0, 0, 0, 1, -1, 0, 2, -2], ctildes: [0.024789026557317247, -0.052398925270951274, -0.0495780531146345, 0.10479785054190256, 0.049578053114634514, -0.10479785054190259]}
    - {mu0: 0, rank: 3, ndensity: 2, num_ms_combs: 2, mus: [0, 0, 0], ns: [1, 4, 4], ls: [1, 0, 1], ms_combs: [0, 0, 0, 1, 0, -1], ctildes: [-0.00054245212568252929, 0.1402197722020406, 0.0010849042513650584, -0.28043954440408114]}
    - {mu0: 0, rank: 3, ndensity: 2, num_ms_combs: 5, mus: [0, 0, 0], ns: [1, 4, 4], ls: [1, 1, 2], ms_combs: [0, 0, 0, 0, 1, -1, 1, -1, 0, 1, 0, -1, 1, 1, -2], ctildes: [-0.00038097980103209389, -0.012171553594896642, 0.00065987637204506858, 0.021081749233408609, -0.00038097980103209394, -0.012171553594896644, 0.00065987637204506858, 0.021081749233408609, -0.00093320611483569034, -0.029814095684435056]}
    - {mu0: 0, rank: 3, ndensity: 2, num_ms_combs: 3, mus: [0, 0, 0], ns: [1, 4, 4], ls: [2, 0, 2], ms_combs: [0, 0, 0, 1, 0, -1, 2, 0, -2], ctildes: [0.011128848302233565, 0.0033150700466096578, -0.022257696604467133, -0.0066301400932193165, 0.022257696604467136, 0.0066301400932193182]}
    - {mu0: 0, rank: 3, ndensity: 2, num_ms_combs: 4, mus: [0, 0, 0], ns: [1, 4, 4], ls: [2, 1, 1], ms_combs: [0, -1, 1, 0, 0, 0, 1, -1, 0, 2, -1, -1], ctildes: [0.0048244515296567911, -0.042926882847657687, 0.0048244515296567919, -0.042926882847657694, -0.016712390336037903, 0.14870308420540021, 0.011817444536448925, -0.10514895922499265]}
    - {mu0: 0, rank: 3, ndensity: 2, num_ms_combs: 1, mus: [0, 0, 0], ns: [2, 2, 2], ls: [0, 0, 0], ms_combs: [0, 0, 0], ctildes: [0.11808392110619047, -0.17402265092188882]}
    - {mu0: 0, rank: 3, ndensity: 2, num_ms_combs: 2, mus: [0, 0, 0], ns: [2, 2, 2], ls: [0, 1, 1], ms_combs: [0, 0, 0, 0, 1, -1], ctildes: [-0.00092126175425004755, -0.01125646459631093, 0.0018425235085000947, 0.022512929192621857]}
    - {mu0: 0, rank: 3, ndensity: 2, num_ms_combs: 3, mus: [0, 0, 0], ns: [2, 2, 2], ls: [0, 2, 2], ms_combs: [0, 0, 0, 0, 1, -1, 0, 2, -2], ctildes: [0.023758289667691081, -0.037557956106383558, -0.04751657933538217, 0.07511591221276713, 0.047516579335382184, -0.075115912212767144]}
    - {mu0: 0, rank: 3, ndensity: 2, num_ms_combs: 4, mus: [0, 0, 0], ns: [2, 2, 2], ls: [0, 3, 3], ms_combs: [0, 0, 0, 0, 1, -1, 0, 2, -2, 0, 3, -3], ctildes: [0.013218378481274502, 0.05174798074423257, -0.026436756962549005, -0.10349596148846514, 0.026436756962549001, 0.10349596148846513, -0.026436756962549001, -0.10349596148846513]}
    - {mu0: 0, rank: 3, ndensity: 2, num_ms_combs: 4, mus: [0, 0, 0], ns: [2, 2, 2], ls: [1, 1, 2], ms_combs: [-1, 1, 0, 0, 0, 0, 0, 1, -1, 1, 1, -2], ctildes: [0.063629868270201062, 0.010169881890790504, 0.063629868270201048, 0.010169881890790503, -0.22042032944580606, -0.035229504283647593, 0.15586070966250232, 0.02491102137680774]}
    - {mu0: 0, rank: 3, ndensity: 2, num_ms_combs: 8, mus: [0, 0, 0], ns: [2, 2, 2], ls: [1, 2, 3], ms_combs: [0, 0, 0, 0, 1, -1, 0, 2, -2, 1, -2, 1, 1, -1, 0, 1, 0, -1, 1, 1, -2, 1, 2, -3], ctildes: [-0.00012889974249896555, 0.010189565453543008, 0.00024305568537124893, -0.019213628878785173, -0.00019215239100660365, 0.01518970734353709, 8.5933161665977025e-05, -0.0067930436356953379, -0.00014884060206050238, 0.011765896715056732, 0.00021049239806573934, -0.016639490707914279, -0.00027174451740395679, 0.021481490133708349, 0.00033281770401927854, -0.026309344871108323]}
    - {mu0: 0, rank: 3, ndensity: 2, num_ms_combs: 5, mus: [0, 0, 0], ns: [2, 2, 2], ls: [2, 2, 2], ms_combs: [-2, 0, 2, -2, 1, 1, -1, -1, 2, -1, 0, 1, 0, 0, 0], ctildes: [-0.10439414190810355, -0.046674375849095937, 0.085237459936850377, 0.038109468297722458, 0.042618729968425188, 0.019054734148861229, -0.052197070954051759, -0.023337187924547961, 0.017399023651350584, 0.0077790626415159859]}
    - {mu0: 0, rank: 3, ndensity: 2, num_ms_combs: 1, mus: [0, 0, 0], ns: [2, 2, 3], ls: [0, 0, 0], ms_combs: [0, 0, 0], ctildes: [0.215565973169176, 0.13665410925263602]}
    - {mu0: 0, rank: 3, ndensity: 2, num_ms_combs: 2, mus: [0, 0, 0], ns: [2, 2, 3], ls: [0, 1, 1], ms_combs: [0, 0, 0, 0, 1, -1], ctildes: [-0.045313356113900749, 0.0086751069399448062, 0.090626712227801484, -0.017350213879889609]}
    - {mu0: 0, rank: 3, ndensity: 2, num_ms_combs: 3, mus: [0, 0, 0], ns: [2, 2, 3], ls: [0, 2, 2], ms_combs: [0, 0, 0, 0, 1, -1, 0, 2, -2], ctildes: [0.052176830596027013, 0.045637618733380347, -0.10435366119205404, -0.091275237466760709, 0.10435366119205407, 0.091275237466760722]}
    - {mu0: 0, rank: 3, ndensity: 2, num_ms_combs: 4, mus: [0, 0, 0], ns: [2, 2, 3], ls: [0, 3, 3], ms_combs: [0, 0, 0, 0, 1, -1, 0, 2, -2, 0, 3, -3], ctildes: [0.0037179612813509947, -0.039669426643789897, -0.0074359225627019894, 0.079338853287579794, 0.0074359225627019885, -0.07933885328757978, -0.0074359225627019885, 0.07933885328757978]}
    - {mu0: 0, rank: 3, ndensity: 2, num_ms_combs: 2, mus: [0, 0, 0], ns: [2, 2, 3], ls: [1, 1, 0], ms_combs: [0, 0, 0, 1, -1, 0], ctildes: [-0.094089201967986258, -0.021446490048355742, 0.18817840393597249, 0.042892980096711469]}
    - {mu0: 0, rank: 3, ndensity: 2, num_ms_combs: 4, mus: [0, 0, 0], ns: [2, 2, 3], ls: [1, 1, 2], ms_combs: [-1, 1, 0, 0, 0, 0, 0, 1, -1, 1, 1, -2], ctildes: [-0.0088036756180595449, 0.0094720351688900757, -0.0088036756180595432, 0.009472035168890074, 0.030496826927668943, -0.032812092327193731, -0.021564513125227218, 0.023201652989477774]}
    - {mu0: 0, rank: 3, ndensity: 2, num_ms_combs: 5, mus: [0, 0, 0], ns: [2, 2, 3], ls: [1, 2, 1], ms_combs: [0, 0, 0, 0, 1, -1, 1, -2, 1, 1, -1, 0, 1, 0, -1], ctildes: [0.0062018919362921577, 0.035830135784278606, -0.01074199193670974, -0.062059615620462291, 0.015191470683797342, 0.087765550086118943, -0.01074199193670974, -0.062059615620462291, 0.0062018919362921568, 0.035830135784278599]}
    - {mu0: 0, rank: 3, ndensity: 2, num_ms_combs: 8, mus: [0, 0, 0], ns: [2, 2, 3], ls: [1, 2, 3], ms_combs: [0, 0, 0, 0, 1, -1, 0, 2, -2, 1, -2, 1, 1, -1, 0, 1, 0, -1, 1, 1, -2, 1, 2, -3], ctildes: [-0.01291343987834659, -0.0010466459223289492, 0.024349815750463091, 0.0019735744778134625, -0.019250219594226386, -0.0015602476204669964, 0.0086089599188977264, 0.00069776394821929942, -0.014911155979854903, -0.0012085626100056858, 0.021087559017371482, 0.0017091656340470667, -0.027223921628815255, -0.0022065233455247756, 0.033342358394058039, 0.0027024281510372805]}
    - {mu0: 0, rank: 3, ndensity: 2, num_ms_combs: 8, mus: [0, 0, 0], ns: [2, 2, 3], ls: [1, 3, 2], ms_combs: [0, 0, 0, 0, 1, -1, 0, 2, -2, 1, -3, 2, 1, -2, 1, 1, -1, 0, 1, 0, -1, 1, 1, -2], ctildes: [0.0145562321261954, -0.082921590159217726, -0.027447494519888659, 0.15635844988894548, 0.021699149686959487, -0.12361220826559237, -0.037584029738856127, 0.21410262515179146, 0.030687231779261998, -0.17481406140408826, -0.023770227524457743, 0.13541038970018293, 0.016808089072891191, -0.095749604800112381, -0.0097041547507969381, 0.055281060106145176]}
    - {mu0: 0, rank: 3, ndensity: 2, num_ms_combs: 3, mus: [0, 0, 0], ns: [2, 2, 3], ls: [2, 2, 0], ms_combs: [0, 0, 0, 1, -1, 0, 2, -2, 0], ctildes: [0.1212851482533643, -0.013044465176568048, -0.24257029650672862, 0.0260889303531361, 0.24257029650672868, -0.026088930353136107]}
    - {mu0: 0, rank: 3, ndensity: 2, num_ms_combs: 8, mus: [0, 0, 0], ns: [2, 2, 3], ls: [2, 2, 2], ms_combs: [-2, 1, 1, -2, 2, 0, -1, 1, 0, -1, 2, -1, 0, 0, 0, 0, 1, -1, 0, 2, -2, 1, 1, -2], ctildes: [0.0037715653365364161, -0.013806432921741345, -0.0030794702020275114, 0.011272905275409801, -0.0015397351010137557, 0.0056364526377049003, 0.0037715653365364161, -0.013806432921741345, 0.0015397351010137557, -0.0056364526377049003, -0.0030794702020275114, 0.011272905275409801, -0.0061589404040550263, 0.022545810550819615, 0.0037715653365364161, -0.013806432921741345]}
    - {mu0: 0, rank: 3, ndensity: 2, num_ms_combs: 8, mus: [0, 0, 0], ns: [2, 2, 3], ls: [2, 3, 1], ms_combs: [0, 0, 0, 0, 1, -1, 1, -2, 1, 1, -1, 0, 1, 0, -1, 2, -3, 1, 2, -2, 0, 2, -1, -1], ctildes: [-0.0043527594369432467, -0.00025529548884868311, 0.0071080263957301066, 0.00041689578754244415, -0.0091764226183551467, -0.00053821014741863731, 0.0082076419059634882, 0.0004813897903233025, -0.0050261336652737323, -0.00029478983841936844, 0.011238776539552242, 0.00065917011778188715, -0.0064887106604725386, -0.00038057204494312992, 0.0029018396246288298, 0.00017019699256578868]}
    - {mu0: 0, rank: 3, ndensity: 2, num_ms_combs: 1, mus: [0, 0, 0], ns: [2, 2, 4], ls: [0, 0, 0], ms_combs: [0, 0, 0], ctildes: [0.095822377942076112, 0.055235022201765599]}
    - {mu0: 0, rank: 3, ndensity: 2, num_ms_combs: 2, mus: [0, 0, 0], ns: [2, 2, 4], ls: [0, 1, 1], ms_combs: [0, 0, 0, 0, 1, -1], ctildes: [-0.11395178949587953, -0.0031338140421530141, 0.227903578991759, 0.0062676280843060274]}
    - {mu0: 0, rank: 3, ndensity: 2, num_ms_combs: 3, mus: [0, 0, 0], ns: [2, 2, 4], ls: [0, 2, 2], ms_combs: [0, 0, 0, 0, 1, -1, 0, 2, -2], ctildes: [-0.031104185144647661, -0.071995929026277425, 0.06220837028929533, 0.14399185805255488, -0.062208370289295351, -0.14399185805255491]}
    - {mu0: 0, rank: 3, ndensity: 2, num_ms_combs: 2, mus: [0, 0, 0], ns: [2, 2, 4], ls: [1, 1, 0], ms_combs: [0, 0, 0, 1, -1, 0], ctildes: [0.0044170281791641513, 0.069936338679376625, -0.0088340563583283009, -0.13987267735875322]}
    - {mu0: 0, rank: 3, ndensity: 2, num_ms_combs: 4, mus: [0, 0, 0], ns: [2, 2, 4], ls: [1, 1, 2], ms_combs: [-1, 1, 0, 0, 0, 0, 0, 1, -1, 1, 1, -2], ctildes: [0.014172718950304681, -0.022962232401225632, 0.01417271895030468, -0.022962232401225628, -0.049095738606643916, 0.079543506348254203, 0.034715929696120099, -0.05624575273820575]}
    - {mu0: 0, rank: 3, ndensity: 2, num_ms_combs: 5, mus: [0, 0, 0], ns: [2, 2, 4], ls: [1, 2, 1], ms_combs: [0, 0, 0, 0, 1, -1, 1, -2, 1, 1, -1, 0, 1, 0, -1], ctildes: [-0.013591146616050981, 0.0016932761452378357, 0.023540556472118116, -0.0029328403147963092, -0.033291374228679178, 0.0041476625494595168, 0.023540556472118116, -0.0029328403147963092, -0.013591146616050979, 0.0016932761452378355]}
    - {mu0: 0, rank: 3, ndensity: 2, num_ms_combs: 3, mus: [0, 0, 0], ns: [2, 2, 4], ls: [2, 2, 0], ms_combs: [0, 0, 0, 1, -1, 0, 2, -2, 0], ctildes: [0.0077621608244039398, -0.083756394293206263, -0.015524321648807883, 0.16751278858641255, 0.015524321648807887, -0.16751278858641261]}
    - {mu0: 0, rank: 3, ndensity: 2, num_ms_combs: 1, mus: [0, 0, 0], ns: [2, 3, 3], ls: [0, 0, 0], ms_combs: [0, 0, 0], ctildes: [0.099421981980916063, 0.17201819319246747]}
    - {mu0: 0, rank: 3, ndensity: 2, num_ms_combs: 2, mus: [0, 0, 0], ns: [2, 3, 3], ls: [0, 1, 1], ms_combs: [0, 0, 0, 0, 1, -1], ctildes: [-0.09272976346096734, -0.058594034026743125, 0.18545952692193463, 0.11718806805348624]}
    - {mu0: 0, rank: 3, ndensity: 2, num_ms_combs: 3, mus: [0, 0, 0], ns: [2, 3, 3], ls: [0, 2, 2], ms_combs: [0, 0, 0, 0, 1, -1, 0, 2, -2], ctildes: [-0.012977777415261961, 0.00047759105319348654, 0.025955554830523926, -0.00095518210638697318, -0.025955554830523933, 0.00095518210638697351]}
    - {mu0: 0, rank: 3, ndensity: 2, num_ms_combs: 2, mus: [0, 0, 0], ns: [2, 3, 3], ls: [1, 0, 1], ms_combs: [0, 0, 0, 1, 0, -1], ctildes: [-0.030901636921394898, -0.0028326450212626704, 0.061803273842789781, 0.0056652900425253399]}
    - {mu0: 0, rank: 3, ndensity: 2, num_ms_combs: 5, mus: [0, 0, 0], ns: [2, 3, 3], ls: [1, 1, 2], ms_combs: [0, 0, 0, 0, 1, -1, 1, -1, 0, 1, 0, -1, 1, 1, -2], ctildes: [-0.002011829246594351, -0.018866337675533026, 0.0034845904712544323, 0.032677455406774122, -0.002011829246594351, -0.018866337675533026, 0.0034845904712544323, 0.032677455406774122, -0.0049279551037640732, -0.046212900620101992]}
    - {mu0: 0, rank: 3, ndensity: 2, num_ms_combs: 3, mus: [0, 0, 0], ns: [2, 3, 3], ls: [2, 0, 2], ms_combs: [0, 0, 0, 1, 0, -1, 2, 0, -2], ctildes: [-0.010784839752854743, -0.0016422073830289015, 0.021569679505709489, 0.0032844147660578034, -0.021569679505709493, -0.0032844147660578043]}
    - {mu0: 0, rank: 3, ndensity: 2, num_ms_combs: 4, mus: [0, 0, 0], ns: [2, 3, 3], ls: [2, 1, 1], ms_combs: [0, -1, 1, 0, 0, 0, 1, -1, 0, 2, -1, -1], ctildes: [-0.003550406789176687, 0.016080191171556527, -0.0035504067891766874, 0.01608019117155653, 0.012298969892783014, -0.055703416209112837, -0.0086966850127960533, 0.039388263336720332]}
    - {mu0: 0, rank: 3, ndensity: 2, num_ms_combs: 1, mus: [0, 0, 0], ns: [2, 3, 4], ls: [0, 0, 0], ms_combs: [0, 0, 0], ctildes: [0.060059722416556299, 0.10199221858867999]}
    - {mu0: 0, rank: 3, ndensity: 2, num_ms_combs: 2, mus: [0, 0, 0], ns: [2, 3, 4], ls: [0, 1, 1], ms_combs: [0, 0, 0, 0, 1, -1], ctildes: [-0.072641349067214811, -0.10042323572545508, 0.14528269813442959, 0.20084647145091014]}
    - {mu0: 0, rank: 3, ndensity: 2, num_ms_combs: 2, mus: [0, 0, 0], ns: [2, 3, 4], ls: [1, 0, 1], ms_combs: [0, 0, 0, 1, 0, -1], ctildes: [0.14241909354399249, 0.0044249096829874091, -0.28483818708798492, -0.0088498193659748165]}
    - {mu0: 0, rank: 3, ndensity: 2, num_ms_combs: 2, mus: [0, 0, 0], ns: [2, 3, 4], ls: [1, 1, 0], ms_combs: [0, 0, 0, 1, -1, 0], ctildes: [0.00015312236505439495, -0.06886989451161174, -0.00030624473010878984, 0.13773978902322345]}
    - {mu0: 0, rank: 3, ndensity: 2, num_ms_combs: 1, mus: [0, 0, 0], ns: [2, 4, 4], ls: [0, 0, 0], ms_combs: [0, 0, 0], ctildes: [0.065502424937415607, 0.10985660079483965]}
    - {mu0: 0, rank: 3, ndensity: 2, num_ms_combs: 2, mus: [0, 0, 0], ns: [2, 4, 4], ls: [0, 1, 1], ms_combs: [0, 0, 0, 0, 1, -1], ctildes: [0.075170524442007086, 0.0020478095130671832, -0.15034104888401414, -0.0040956190261343655]}
    - {mu0: 0, rank: 3, ndensity: 2, num_ms_combs: 2, mus: [0, 0, 0], ns: [2, 4, 4], ls: [1, 0, 1], ms_combs: [0, 0, 0, 1, 0, -1], ctildes: [0.01031164671045573, 0.018776193584227954, -0.020623293420911456, -0.037552387168455902]}
    - {mu0: 0, rank: 3, ndensity: 2, num_ms_combs: 1, mus: [0, 0, 0], ns: [3, 3, 3], ls: [0, 0, 0], ms_combs: [0, 0, 0], ctildes: [0.13066965996083246, 0.16257963281565671]}
    - {mu0: 0, rank: 3, ndensity: 2, num_ms_combs: 2, mus: [0, 0, 0], ns: [3, 3, 3], ls: [0, 1, 1], ms_combs: [0, 0, 0, 0, 1, -1], ctildes: [0.065893753712641626, -0.052226230619458115, -0.13178750742528322, 0.10445246123891622]}
    - {mu0: 0, rank: 3, ndensity: 2, num_ms_combs: 1, mus: [0, 0, 0], ns: [3, 3, 4], ls: [0, 0, 0], ms_combs: [0, 0, 0], ctildes: [0.0049183404055825842, 0.0021799838328397316]}
    - {mu0: 0, rank: 3, ndensity: 2, num_ms_combs: 2, mus: [0, 0, 0], ns: [3, 3, 4], ls: [0, 1, 1], ms_combs: [0, 0, 0, 0, 1, -1], ctildes: [-0.04232564421430654, -0.14822198403214143, 0.084651288428613067, 0.2964439680642828]}
    - {mu0: 0, rank: 3, ndensity: 2, num_ms_combs: 2, mus: [0, 0, 0], ns: [3, 3, 4], ls: [1, 1, 0], ms_combs: [0, 0, 0, 1, -1, 0], ctildes: [-0.0023306611463916982, 0.0038612604599996799, 0.0046613222927833955, -0.0077225209199993589]}
    - {mu0: 0, rank: 3, ndensity: 2, num_ms_combs: 1, mus: [0, 0, 0], ns: [3, 4, 4], ls: [0, 0, 0], ms_combs: [0, 0, 0], ctildes: [-0.0058853053413807539, -0.17388248161543932]}
    - {mu0: 0, rank: 3, ndensity: 2, num_ms_combs: 1, mus: [0, 0, 0], ns: [4, 4, 4], ls: [0, 0, 0], ms_combs: [0, 0, 0], ctildes: [0.0050916900515207367, -0.090085988719272245]}
    - {mu0: 0, rank: 4, ndensity: 2, num_ms_combs: 1, mus: [0, 0, 0, 0], ns: [1, 1, 1, 1], ls: [0, 0, 0, 0], ms_combs: [0, 0, 0, 0], ctildes: [0.12321953348832272, 0.036768157477267548]}
    - {mu0: 0, rank: 4, ndensity: 2, num_ms_combs: 2, mus: [0, 0, 0, 0], ns: [1, 1, 1, 1], ls: [0, 0, 1, 1], ms_combs: [0, 0, 0, 0, 0, 0, 1, -1], ctildes: [0.064798708189338458, -0.019314543098105912, -0.12959741637867692, 0.038629086196211818]}
    - {mu0: 0, rank: 4, ndensity: 2, num_ms_combs: 3, mus: [0, 0, 0, 0], ns: [1, 1, 1, 1], ls: [0, 0, 2, 2], ms_combs: [0, 0, 0, 0, 0, 0, 1, -1, 0, 0, 2, -2], ctildes: [-0.054429135490721238, 0.072502286251400747, 0.10885827098144249, -0.14500457250280149, -0.10885827098144252, 0.14500457250280155]}
    - {mu0: 0, rank: 4, ndensity: 2, num_ms_combs: 4, mus: [0, 0, 0, 0], ns: [1, 1, 1, 1], ls: [0, 1, 1, 2], ms_combs: [0, -1, 1, 0, 0, 0, 0, 0, 0, 0, 1, -1, 0, 1, 1, -2], ctildes: [0.018228220377155796, -0.0015287059729198441, 0.018228220377155799, -0.0015287059729198443, -0.063144407649592338, 0.0052955928298623655, 0.044649838843034445, -0.0037445496003985375]}
    - {mu0: 0, rank: 4, ndensity: 2, num_ms_combs: 5, mus: [0, 0, 0, 0], ns: [1, 1, 1, 1], ls: [0, 2, 2, 2], ms_combs: [0, -2, 0, 2, 0, -2, 1, 1, 0, -1, -1, 2, 0, -1, 0, 1, 0, 0, 0, 0], ctildes: [0.35298435042327336, -0.020839690053428929, -0.28821051524159702, 0.017015535676218257, -0.14410525762079851, 0.0085077678381091284, 0.17649217521163663, -0.010419845026714461, -0.058830725070545542, 0.0034732816755714867]}
    - {mu0: 0, rank: 4, ndensity: 2, num_ms_combs: 3, mus: [0, 0, 0, 0], ns: [1, 1, 1, 1], ls: [1, 1, 1, 1], ms_combs: [-1, -1, 1, 1, -1, 0, 0, 1, 0, 0, 0, 0], ctildes: [-0.071902065712565549, 0.0088650988928056125, 0.071902065712565563, -0.0088650988928056142, -0.017975516428141394, 0.0022162747232014044]}
    - {mu0: 0, rank: 4, ndensity: 2, num_ms_combs: 10, mus: [0, 0, 0, 0], ns: [1, 1, 1, 1], ls: [1, 1, 2, 2], ms_combs: [-1, 1, -2, 2, -1, 1, -1, 1, -1, 1, 0, 0, 0, 0, -2, 2, 0, 0, -1, 1, 0, 0, 0, 0, 0, 1, -2, 1, 0, 1, -1, 0, 1, 1, -2, 0, 1, 1, -1, -1], ctildes: [0.16924994286304995, 0.019063215105193421, -0.091481763030116958, -0.0084647298820794328, 0.03277951820956964, 0.0024659507371873842, -0.0068567915985920311, 0.0010668776705172736, 0.084624971431524976, 0.0095316075525967107, -0.055273849021251306, -0.0065322179801506853, -0.21996162928160728, -0.029977043086277279, 0.089798959121862157, 0.012238076593134261, 0.12699490587712467, 0.017307253895371202, -0.077768179832932979, -0.010598485223113989]}
    - {mu0: 0, rank: 4, ndensity: 2, num_ms_combs: 1, mus: [0, 0, 0, 0], ns: [1, 1, 1, 2], ls: [0, 0, 0, 0], ms_combs: [0, 0, 0, 0], ctildes: [-0.11405792727902687, 0.010510592269230644]}
    - {mu0: 0, rank: 4, ndensity: 2, num_ms_combs: 2, mus: [0, 0, 0, 0], ns: [1, 1, 1, 2], ls: [0, 0, 1, 1], ms_combs: [0, 0, 0, 0, 0, 0, 1, -1], ctildes: [0.0039600126892557616, 0.010030962005706023, -0.0079200253785115214, -0.020061924011412043]}
    - {mu0: 0, rank: 4, ndensity: 2, num_ms_combs: 3, mus: [0, 0, 0, 0], ns: [1, 1, 1, 2], ls: [0, 0, 2, 2], ms_combs: [0, 0, 0, 0, 0, 0, 1, -1, 0, 0, 2, -2], ctildes: [0.1117315909100422, 0.024488795033767812, -0.22346318182008443, -0.048977590067535631, 0.22346318182008448, 0.048977590067535645]}
    - {mu0: 0, rank: 4, ndensity: 2, num_ms_combs: 2, mus: [0, 0, 0, 0], ns: [1, 1, 1, 2], ls: [0, 1, 1, 0], ms_combs: [0, 0, 0, 0, 0, 1, -1, 0], ctildes: [-0.035510537753046641, -0.047898451907286824, 0.071021075506093267, 0.095796903814573633]}
    - {mu0: 0, rank: 4, ndensity: 2, num_ms_combs: 4, mus: [0, 0, 0, 0], ns: [1, 1, 1, 2], ls: [0, 1, 1, 2], ms_combs: [0, -1, 1, 0, 0, 0, 0, 0, 0, 0, 1, -1, 0, 1, 1, -2], ctildes: [-0.010668555115757332, 0.0019471166532458238, -0.010668555115757334, 0.0019471166532458242, 0.036956959007681138, -0.0067450099433704796, -0.02613251632636459, 0.0047694422701279561]}
    - {mu0: 0, rank: 4, ndensity: 2, num_ms_combs: 5, mus: [0, 0, 0, 0], ns: [1, 1, 1, 2], ls: [0, 1, 2, 1], ms_combs: [0, 0, 0, 0, 0, 0, 1, -1, 0, 1, -2, 1, 0, 1, -1, 0, 0, 1, 0, -1], ctildes: [0.01749507329133957, 0.00040245116037703952, -0.030302355822741402, -0.00069706585733808309, 0.042854002576376213, 0.0009857999893147461, -0.030302355822741402, -0.00069706585733808309, 0.01749507329133957, 0.00040245116037703946]}
