elements: [Fe]
E0: [0]
deltaSplineBins: 0.001
embeddings:
  0: {ndensity: 1, FS_parameters: [1, 1], npoti: FinnisSinclairShiftedScaled, rho_core_cutoff: 100000, drho_core_cutoff: 250}
bonds:
  [0, 0]: {nradmax: 6, lmax: 3, nradbasemax: 14, radbasename: SBessel, radparameters: [5.25], radcoefficients: [[[1.1833597006298464, 0.039498307267680485, -0.18516340316733865, -0.14689390082195217, 0.040415077106622309, -0.069858515509096331, 0.026078545801715234, 0.15187671992451371, -0.18847286765989998, 0.10093554741293342, -0.07033643840539533, 0.0096143263026675224, -0.012459354660760008, 0.0056713349742295643], [1.041640475752901, -0.2622997656101137, -0.057991713864180304, 0.065952395944858216, -0.0036403487891237827, 0.14261259240468879, -0.13799774704346268, -0.018232472330099708, 0.14055995655557119, -0.13874410519054081, 0.11460502912130427, -0.11181926431257196, 0.071327248598502216, -0.011657991236407901], [0.76151469440600628, -0.44947745884421786, 0.16673640507896365, -0.050649628724502078, 0.0043420885117476434, 0.23050167941347652, -0.20784144292322995, 0.18583020544643472, -0.13835458935797812, 0.14476881798479743, -0.019258445866276137, 0.0097258120809215285, -0.01643810029549652, 0.020179244919404597], [0.47188986444661474, -0.24962724818123555, 0.0050657510579159267, 0.070614334195551381, -0.01716310862802228, -0.25312260458192543, 0.22263245739879248, 0.019920958340300728, -0.2231489561609358, 0.2909316359110305, -0.25772656701887642, 0.16766180785360635, -0.07166032832519767, 0.0061548400856427082]], [[0.38615667034174916, 1.0749052747681906, -0.40869136643115844, -0.27892578199611567, 0.0005873484169833694, -0.055792311791106525, -0.014852173921883691, 0.1679778196401201, -0.15681282477408026, 0.029025587459997719, -0.023909293190481525, -0.0420535888233394, 0.018157167396497472, -0.008400121375369168], [0.12365099564002921, 0.82140522732566801, -0.34325603788956388, -0.016289551764132, 0.16525829750034962, 0.067399044798666763, -0.059858798339790575, -0.049438878593341083, 0.10431664081371292, -0.013062124061398547, -0.11350253887234865, 0.077979684797494356, 0.05344006271618925, -0.036747437765909191], [-0.1234405067359071, 0.6455350164347915, -0.40603446989993447, 0.22726401268182916, 0.22150999674186209, -0.28092170918200066, 0.0852599116148159, 0.038199165844874823, -0.030257495795726091, 0.12270498920332751, -0.2891090123844467, 0.24198113233332719, -0.11360453885826026, -0.0038953847069604789], [-0.15125661979318977, 0.87672650757608173, -0.39500228012156108, -0.2198632690169918, 0.23727245669083699, -0.12063236183649403, -0.11633470997555048, 0.076519315215910488, -0.16981340185918578, 0.068624172744804313, 0.011135074434339653, 0.014399352420622447, -0.01187791468135042, -0.0007991984567737192]], [[0.38056713264679665, 0.16198533879951801, 0.40051242445004348, -0.29014938805249835, 0.037358657477993856, -0.080363718559745306, -0.0076661325351312353, -0.059621570574975122, 0.19857916175552853, -0.19417110456606207, 0.17079103089006437, -0.23709335946889173, 0.15630986466035524, -0.022181445568639987], [0.062176066619150663, -0.2337607546626255, 0.86618284513321109, -0.13924058686431029, -0.12382593904317644, 0.23818138430738517, -0.11018727905276876, -0.057144751073845826, 0.22706166605913966, -0.23168400116463964, -0.080462325883288818, -0.01601168294377453, 0.1217022358921554, -0.07292859051086735], [0.14822286345994395, -0.35861824485633492, 0.78283382277264035, 0.31485799540752069, 0.074309339426473636, -0.39335336895591294, -0.16938604999561199, 0.12493705907449419, -0.21797998679847275, 0.11905149635035359, -0.23701535225400239, -0.17769694580618345, 0.28375651171907368, -0.19337189277220512], [-0.051706735073708467, -0.15708474387887761, 0.93288532136736735, -0.18329981336849827, -0.27272940004606006, 0.19279188593490712, 0.31092817091371366, -0.036775813166443308, -0.088117845963163396, 0.033882995416137277, -0.055828225257193831, -0.18467374064134157, 0.32770312960081144, -0.23085140151792133]], [[0.41734458883518261, 0.14079551297094417, -0.13460211191468463, 0.3379208747170736, -0.11149929108485201, 0.13951001156134799, -0.74220497611520964, 0.21949559627497456, 0.12669515707776607, -0.083916199376603787, 0.17384109477878448, -0.22297498206359306, 0.096353363475536052, 0.049923498842446651], [-0.10542252727858081, 0.069959880566612787, -0.064116913465692954, 0.80927006952669345, -0.026365992593774118, -0.31370335376149483, -0.24451502080151305, 0.22827107672980129, -0.00031751205686835989, -0.12628831099636678, 0.028046722760658029, -0.112558909856805, -0.064291298519310272, 0.065861239491405307], [-0.049584114259166541, -0.048218427601099727, -0.088030909999796042, 1.0020904738215977, 0.046560441092645476, -0.31672134083974796, -0.22841507227797053, 0.33891298309414886, 0.10159423771740762, -0.29642853874030212, 0.059988527900024076, 0.0015535623735841568, 0.0033624384766442628, -0.11503245057839437], [-0.015189718611745291, 0.016557534693940647, -0.1294233424828615, 0.99674142122755072, 0.11552493916485564, -0.067567732266801669, 0.19091118514562397, 0.054447861883307212, -0.28466877284127523, 0.30826720001240848, 0.1108112342089171, -0.35595818730266926, 0.21716922167817734, -0.073612214286720698]], [[0.14858364591879536, 0.055402776436874433, -0.21675731742234758, -0.22686953807615984, 0.91239201338795128, 0.11413321145845125, -0.38834129177694043, -0.4475588926732722, 0.4474956425057921, -0.23469636114868256, 0.14977446218721255, 0.14109778831741446, -0.15096403269321537, 0.019665121955353717], [0.0022359132427669311, -0.065521912507220989, -0.11166665686814044, -0.082716109671792201, 0.95268978628519041, -0.2180890436287741, -0.28287709113201959, 0.032805956398680038, -0.13224982494729823, -0.22594140119597109, 0.20377006212820026, -0.25263080222646822, -0.10517277954436748, 0.073816081556237978], [-0.0052155736388473156, 0.13565147473041655, 0.082058095594356631, -0.29564978930277741, 0.82833603052059479, -0.11759809911157031, -0.27468497284352983, 0.42009276703941761, 0.19644932965562784, -0.50759866314185764, 0.27037982471364047, 0.22432099233088926, -0.29345676298771561, 0.014456730469051757], [0.05977159716202244, 0.060714461434051771, 0.036787210565824555, -0.031243000082203518, 0.91572407434584369, -0.28472070479427986, -0.43594691614543668, 0.0090964624999098995, 0.11278899303343798, -0.182021520721309, 0.16466745462319132, -0.031920470993463651, -0.26317151683480261, 0.13107179630626725]], [[0.074119362264691679, 0.037178187935606254, 0.12251088085902349, -0.056156575157450879, -0.022327447345844451, 1.1571962565235165, -0.14749602357266864, -0.16923695650985021, 0.0025060027632587672, 0.033329461567001117, -0.24216952108506712, 0.38490035505858156, -0.11423332340102836, -0.12813210932408148], [-0.0031983394224652617, 0.039713677104258327, -0.003119441567690302, -0.055535247058138358, 0.022908589175646039, 0.90083416557956375, -0.37607938904522131, -0.17868333643871684, 0.059856504389776764, -0.33540366205838512, -0.32600777138629528, 0.18295395687889834, -0.12047885972148573, -0.016399986216771013], [-0.0028655998531674966, -0.052887903567906361, -0.12355153287892719, 0.087012611628073083, 0.079216634802006219, 0.94333727188803396, 0.12780279664303759, -0.22656008479243497, -0.29099840254432319, 0.38171794776123213, 0.096684440909563185, -0.23771671577236569, 0.15795968008864025, -0.01834159579800437], [0.011221147136361805, 0.0068342536178090619, -0.0095284017168241145, -0.066877168619282959, -0.0589275277097627, 0.97609321434087415, -0.13219514051985923, -0.18653202118083603, -0.19497538078571078, -0.1624923335381819, 0.1131201353249484, 0.063948810140382589, -0.18855766913153338, -0.038109129033501318]]], prehc: 0, lambdahc: 0, rcut: 6.5, dcut: 0.01, rcut_in: 0, dcut_in: 0, inner_cutoff_type: distance}
functions:
  0:
    - {mu0: 0, rank: 1, ndensity: 1, num_ms_combs: 1, mus: [0], ns: [1], ls: [0], ms_combs: [0], ctildes: [-0.71132547356334774]}
    - {mu0: 0, rank: 1, ndensity: 1, num_ms_combs: 1, mus: [0], ns: [2], ls: [0], ms_combs: [0], ctildes: [-0.50512635723320853]}
    - {mu0: 0, rank: 1, ndensity: 1, num_ms_combs: 1, mus: [0], ns: [3], ls: [0], ms_combs: [0], ctildes: [0.41654187988267177]}
    - {mu0: 0, rank: 1, ndensity: 1, num_ms_combs: 1, mus: [0], ns: [4], ls: [0], ms_combs: [0], ctildes: [-0.18708279249256587]}
    - {mu0: 0, rank: 1, ndensity: 1, num_ms_combs: 1, mus: [0], ns: [5], ls: [0], ms_combs: [0], ctildes: [-0.30364898025110654]}
    - {mu0: 0, rank: 1, ndensity: 1, num_ms_combs: 1, mus: [0], ns: [6], ls: [0], ms_combs: [0], ctildes: [0.41823980697500096]}
    - {mu0: 0, rank: 1, ndensity: 1, num_ms_combs: 1, mus: [0], ns: [7], ls: [0], ms_combs: [0], ctildes: [-0.17737650483608203]}
    - {mu0: 0, rank: 1, ndensity: 1, num_ms_combs: 1, mus: [0], ns: [8], ls: [0], ms_combs: [0], ctildes: [-0.049590453159561752]}
    - {mu0: 0, rank: 1, ndensity: 1, num_ms_combs: 1, mus: [0], ns: [9], ls: [0], ms_combs: [0], ctildes: [0.12381783743745983]}
    - {mu0: 0, rank: 1, ndensity: 1, num_ms_combs: 1, mus: [0], ns: [10], ls: [0], ms_combs: [0], ctildes: [-0.2145671346505828]}
    - {mu0: 0, rank: 1, ndensity: 1, num_ms_combs: 1, mus: [0], ns: [11], ls: [0], ms_combs: [0], ctildes: [0.13434462968600619]}
    - {mu0: 0, rank: 1, ndensity: 1, num_ms_combs: 1, mus: [0], ns: [12], ls: [0], ms_combs: [0], ctildes: [0.067537041245463933]}
    - {mu0: 0, rank: 1, ndensity: 1, num_ms_combs: 1, mus: [0], ns: [13], ls: [0], ms_combs: [0], ctildes: [-0.089208572637825639]}
    - {mu0: 0, rank: 1, ndensity: 1, num_ms_combs: 1, mus: [0], ns: [14], ls: [0], ms_combs: [0], ctildes: [-0.0048349239100198187]}
    - {mu0: 0, rank: 2, ndensity: 1, num_ms_combs: 1, mus: [0, 0], ns: [1, 1], ls: [0, 0], ms_combs: [0, 0], ctildes: [-0.23959616178573617]}
    - {mu0: 0, rank: 2, ndensity: 1, num_ms_combs: 2, mus: [0, 0], ns: [1, 1], ls: [1, 1], ms_combs: [0, 0, 1, -1], ctildes: [-0.16716234900940599, 0.33432469801881193]}
    - {mu0: 0, rank: 2, ndensity: 1, num_ms_combs: 3, mus: [0, 0], ns: [1, 1], ls: [2, 2], ms_combs: [0, 0, 1, -1, 2, -2], ctildes: [-0.034437002289095811, 0.068874004578191636, -0.06887400457819165]}
    - {mu0: 0, rank: 2, ndensity: 1, num_ms_combs: 4, mus: [0, 0], ns: [1, 1], ls: [3, 3], ms_combs: [0, 0, 1, -1, 2, -2, 3, -3], ctildes: [0.01438367575386861, -0.02876735150773722, 0.028767351507737217, -0.028767351507737217]}
    - {mu0: 0, rank: 2, ndensity: 1, num_ms_combs: 1, mus: [0, 0], ns: [1, 2], ls: [0, 0], ms_combs: [0, 0], ctildes: [-0.39665117160754193]}
    - {mu0: 0, rank: 2, ndensity: 1, num_ms_combs: 2, mus: [0, 0], ns: [1, 2], ls: [1, 1], ms_combs: [0, 0, 1, -1], ctildes: [0.015722374858562333, -0.031444749717124659]}
    - {mu0: 0, rank: 2, ndensity: 1, num_ms_combs: 3, mus: [0, 0], ns: [1, 2], ls: [2, 2], ms_combs: [0, 0, 1, -1, 2, -2], ctildes: [-0.094529981891553594, 0.18905996378310722, -0.18905996378310727]}
    - {mu0: 0, rank: 2, ndensity: 1, num_ms_combs: 4, mus: [0, 0], ns: [1, 2], ls: [3, 3], ms_combs: [0, 0, 1, -1, 2, -2, 3, -3], ctildes: [-0.02017545172755272, 0.04035090345510544, -0.040350903455105433, 0.040350903455105433]}
    - {mu0: 0, rank: 2, ndensity: 1, num_ms_combs: 1, mus: [0, 0], ns: [1, 3], ls: [0, 0], ms_combs: [0, 0], ctildes: [0.35353016473370169]}
    - {mu0: 0, rank: 2, ndensity: 1, num_ms_combs: 2, mus: [0, 0], ns: [1, 3], ls: [1, 1], ms_combs: [0, 0, 1, -1], ctildes: [0.045833909462337653, -0.091667818924675279]}
    - {mu0: 0, rank: 2, ndensity: 1, num_ms_combs: 3, mus: [0, 0], ns: [1, 3], ls: [2, 2], ms_combs: [0, 0, 1, -1, 2, -2], ctildes: [0.083644815771630632, -0.16728963154326129, 0.16728963154326132]}
    - {mu0: 0, rank: 2, ndensity: 1, num_ms_combs: 4, mus: [0, 0], ns: [1, 3], ls: [3, 3], ms_combs: [0, 0, 1, -1, 2, -2, 3, -3], ctildes: [-0.035473651070561774, 0.070947302141123547, -0.070947302141123547, 0.070947302141123547]}
    - {mu0: 0, rank: 2, ndensity: 1, num_ms_combs: 1, mus: [0, 0], ns: [1, 4], ls: [0, 0], ms_combs: [0, 0], ctildes: [-0.024351862552679543]}
    - {mu0: 0, rank: 2, ndensity: 1, num_ms_combs: 2, mus: [0, 0], ns: [1, 4], ls: [1, 1], ms_combs: [0, 0, 1, -1], ctildes: [-0.1048454333173478, 0.20969086663469555]}
    - {mu0: 0, rank: 2, ndensity: 1, num_ms_combs: 3, mus: [0, 0], ns: [1, 4], ls: [2, 2], ms_combs: [0, 0, 1, -1, 2, -2], ctildes: [0.17895804576341037, -0.3579160915268208, 0.35791609152682086]}
    - {mu0: 0, rank: 2, ndensity: 1, num_ms_combs: 4, mus: [0, 0], ns: [1, 4], ls: [3, 3], ms_combs: [0, 0, 1, -1, 2, -2, 3, -3], ctildes: [0.010751255697554914, -0.021502511395109829, 0.021502511395109825, -0.021502511395109825]}
    - {mu0: 0, rank: 2, ndensity: 1, num_ms_combs: 1, mus: [0, 0], ns: [1, 5], ls: [0, 0], ms_combs: [0, 0], ctildes: [-0.03181289584018035]}
    - {mu0: 0, rank: 2, ndensity: 1, num_ms_combs: 2, mus: [0, 0], ns: [1, 5], ls: [1, 1], ms_combs: [0, 0, 1, -1], ctildes: [0.078098780137541277, -0.15619756027508253]}
    - {mu0: 0, rank: 2, ndensity: 1, num_ms_combs: 3, mus: [0, 0], ns: [1, 5], ls: [2, 2], ms_combs: [0, 0, 1, -1, 2, -2], ctildes: [-0.07213982289813381, 0.14427964579626762, -0.14427964579626767]}
    - {mu0: 0, rank: 2, ndensity: 1, num_ms_combs: 4, mus: [0, 0], ns: [1, 5], ls: [3, 3], ms_combs: [0, 0, 1, -1, 2, -2, 3, -3], ctildes: [-0.02149690146238244, 0.04299380292476488, -0.042993802924764873, 0.042993802924764873]}
    - {mu0: 0, rank: 2, ndensity: 1, num_ms_combs: 1, mus: [0, 0], ns: [1, 6], ls: [0, 0], ms_combs: [0, 0], ctildes: [0.023813251499206149]}
    - {mu0: 0, rank: 2, ndensity: 1, num_ms_combs: 2, mus: [0, 0], ns: [1, 6], ls: [1, 1], ms_combs: [0, 0, 1, -1], ctildes: [-0.12433763545708389, 0.24867527091416772]}
    - {mu0: 0, rank: 2, ndensity: 1, num_ms_combs: 3, mus: [0, 0], ns: [1, 6], ls: [2, 2], ms_combs: [0, 0, 1, -1, 2, -2], ctildes: [-0.0024647079407593914, 0.0049294158815187837, -0.0049294158815187845]}
    - {mu0: 0, rank: 2, ndensity: 1, num_ms_combs: 4, mus: [0, 0], ns: [1, 6], ls: [3, 3], ms_combs: [0, 0, 1, -1, 2, -2, 3, -3], ctildes: [-0.0073814789436316688, 0.014762957887263338, -0.014762957887263336, 0.014762957887263336]}
    - {mu0: 0, rank: 2, ndensity: 1, num_ms_combs: 1, mus: [0, 0], ns: [2, 2], ls: [0, 0], ms_combs: [0, 0], ctildes: [-0.40951023051826008]}
    - {mu0: 0, rank: 2, ndensity: 1, num_ms_combs: 2, mus: [0, 0], ns: [2, 2], ls: [1, 1], ms_combs: [0, 0, 1, -1], ctildes: [0.043934455686916847, -0.08786891137383368]}
    - {mu0: 0, rank: 2, ndensity: 1, num_ms_combs: 3, mus: [0, 0], ns: [2, 2], ls: [2, 2], ms_combs: [0, 0, 1, -1, 2, -2], ctildes: [-0.0030646575767583188, 0.0061293151535166384, -0.0061293151535166401]}
    - {mu0: 0, rank: 2, ndensity: 1, num_ms_combs: 4, mus: [0, 0], ns: [2, 2], ls: [3, 3], ms_combs: [0, 0, 1, -1, 2, -2, 3, -3], ctildes: [-0.022190325541165547, 0.044380651082331093, -0.044380651082331087, 0.044380651082331087]}
    - {mu0: 0, rank: 2, ndensity: 1, num_ms_combs: 1, mus: [0, 0], ns: [2, 3], ls: [0, 0], ms_combs: [0, 0], ctildes: [0.35339948568175156]}
    - {mu0: 0, rank: 2, ndensity: 1, num_ms_combs: 2, mus: [0, 0], ns: [2, 3], ls: [1, 1], ms_combs: [0, 0, 1, -1], ctildes: [-0.11200939731334413, 0.22401879462668822]}
    - {mu0: 0, rank: 2, ndensity: 1, num_ms_combs: 3, mus: [0, 0], ns: [2, 3], ls: [2, 2], ms_combs: [0, 0, 1, -1, 2, -2], ctildes: [-0.039584176466264269, 0.079168352932528552, -0.079168352932528566]}
    - {mu0: 0, rank: 2, ndensity: 1, num_ms_combs: 4, mus: [0, 0], ns: [2, 3], ls: [3, 3], ms_combs: [0, 0, 1, -1, 2, -2, 3, -3], ctildes: [-0.05152079096056203, 0.10304158192112406, -0.10304158192112405, 0.10304158192112405]}
    - {mu0: 0, rank: 2, ndensity: 1, num_ms_combs: 1, mus: [0, 0], ns: [2, 4], ls: [0, 0], ms_combs: [0, 0], ctildes: [-0.10922451802981961]}
    - {mu0: 0, rank: 2, ndensity: 1, num_ms_combs: 2, mus: [0, 0], ns: [2, 4], ls: [1, 1], ms_combs: [0, 0, 1, -1], ctildes: [0.10279148703575168, -0.2055829740715033]}
    - {mu0: 0, rank: 2, ndensity: 1, num_ms_combs: 3, mus: [0, 0], ns: [2, 4], ls: [2, 2], ms_combs: [0, 0, 1, -1, 2, -2], ctildes: [0.047079110461181115, -0.094158220922362243, 0.094158220922362271]}
    - {mu0: 0, rank: 2, ndensity: 1, num_ms_combs: 4, mus: [0, 0], ns: [2, 4], ls: [3, 3], ms_combs: [0, 0, 1, -1, 2, -2, 3, -3], ctildes: [0.0015595772942385341, -0.0031191545884770681, 0.0031191545884770673, -0.0031191545884770673]}
    - {mu0: 0, rank: 2, ndensity: 1, num_ms_combs: 1, mus: [0, 0], ns: [2, 5], ls: [0, 0], ms_combs: [0, 0], ctildes: [0.12965066352633356]}
    - {mu0: 0, rank: 2, ndensity: 1, num_ms_combs: 2, mus: [0, 0], ns: [2, 5], ls: [1, 1], ms_combs: [0, 0, 1, -1], ctildes: [-0.076210526124616831, 0.15242105224923364]}
    - {mu0: 0, rank: 2, ndensity: 1, num_ms_combs: 3, mus: [0, 0], ns: [2, 5], ls: [2, 2], ms_combs: [0, 0, 1, -1, 2, -2], ctildes: [-0.068562697745173637, 0.13712539549034727, -0.13712539549034733]}
    - {mu0: 0, rank: 2, ndensity: 1, num_ms_combs: 4, mus: [0, 0], ns: [2, 5], ls: [3, 3], ms_combs: [0, 0, 1, -1, 2, -2, 3, -3], ctildes: [-0.026590190406353728, 0.053180380812707456, -0.053180380812707449, 0.053180380812707449]}
    - {mu0: 0, rank: 2, ndensity: 1, num_ms_combs: 1, mus: [0, 0], ns: [2, 6], ls: [0, 0], ms_combs: [0, 0], ctildes: [-0.041169389855834751]}
    - {mu0: 0, rank: 2, ndensity: 1, num_ms_combs: 2, mus: [0, 0], ns: [2, 6], ls: [1, 1], ms_combs: [0, 0, 1, -1], ctildes: [0.115426624640644, -0.23085324928128795]}
    - {mu0: 0, rank: 2, ndensity: 1, num_ms_combs: 3, mus: [0, 0], ns: [2, 6], ls: [2, 2], ms_combs: [0, 0, 1, -1, 2, -2], ctildes: [0.024148846303902041, -0.048297692607804088, 0.048297692607804095]}
    - {mu0: 0, rank: 2, ndensity: 1, num_ms_combs: 1, mus: [0, 0], ns: [3, 3], ls: [0, 0], ms_combs: [0, 0], ctildes: [0.1636595799416557]}
    - {mu0: 0, rank: 2, ndensity: 1, num_ms_combs: 2, mus: [0, 0], ns: [3, 3], ls: [1, 1], ms_combs: [0, 0, 1, -1], ctildes: [-0.05735990248387373, 0.11471980496774743]}
    - {mu0: 0, rank: 2, ndensity: 1, num_ms_combs: 3, mus: [0, 0], ns: [3, 3], ls: [2, 2], ms_combs: [0, 0, 1, -1, 2, -2], ctildes: [-0.021238471830801624, 0.042476943661603254, -0.042476943661603261]}
    - {mu0: 0, rank: 2, ndensity: 1, num_ms_combs: 4, mus: [0, 0], ns: [3, 3], ls: [3, 3], ms_combs: [0, 0, 1, -1, 2, -2, 3, -3], ctildes: [0.00019136419676782265, -0.0003827283935356453, 0.00038272839353564525, -0.00038272839353564525]}
    - {mu0: 0, rank: 2, ndensity: 1, num_ms_combs: 1, mus: [0, 0], ns: [3, 4], ls: [0, 0], ms_combs: [0, 0], ctildes: [0.1240261892019377]}
    - {mu0: 0, rank: 2, ndensity: 1, num_ms_combs: 2, mus: [0, 0], ns: [3, 4], ls: [1, 1], ms_combs: [0, 0, 1, -1], ctildes: [0.02550785818125112, -0.051015716362502225]}
    - {mu0: 0, rank: 2, ndensity: 1, num_ms_combs: 3, mus: [0, 0], ns: [3, 4], ls: [2, 2], ms_combs: [0, 0, 1, -1, 2, -2], ctildes: [0.054503845661835595, -0.1090076913236712, 0.10900769132367123]}
    - {mu0: 0, rank: 2, ndensity: 1, num_ms_combs: 4, mus: [0, 0], ns: [3, 4], ls: [3, 3], ms_combs: [0, 0, 1, -1, 2, -2, 3, -3], ctildes: [-0.0090630038529739641, 0.018126007705947928, -0.018126007705947925, 0.018126007705947925]}
    - {mu0: 0, rank: 2, ndensity: 1, num_ms_combs: 1, mus: [0, 0], ns: [3, 5], ls: [0, 0], ms_combs: [0, 0], ctildes: [-0.03941298805187704]}
    - {mu0: 0, rank: 2, ndensity: 1, num_ms_combs: 2, mus: [0, 0], ns: [3, 5], ls: [1, 1], ms_combs: [0, 0, 1, -1], ctildes: [-0.065332056728159629, 0.13066411345631926]}
    - {mu0: 0, rank: 2, ndensity: 1, num_ms_combs: 3, mus: [0, 0], ns: [3, 5], ls: [2, 2], ms_combs: [0, 0, 1, -1, 2, -2], ctildes: [-0.037939851507914998, 0.075879703015830011, -0.075879703015830025]}
    - {mu0: 0, rank: 2, ndensity: 1, num_ms_combs: 1, mus: [0, 0], ns: [3, 6], ls: [0, 0], ms_combs: [0, 0], ctildes: [-0.17111944778035845]}
    - {mu0: 0, rank: 2, ndensity: 1, num_ms_combs: 2, mus: [0, 0], ns: [3, 6], ls: [1, 1], ms_combs: [0, 0, 1, -1], ctildes: [-0.01311911274445, 0.026238225488899997]}
    - {mu0: 0, rank: 2, ndensity: 1, num_ms_combs: 3, mus: [0, 0], ns: [3, 6], ls: [2, 2], ms_combs: [0, 0, 1, -1, 2, -2], ctildes: [0.005316713380375742, -0.010633426760751486, 0.010633426760751487]}
    - {mu0: 0, rank: 2, ndensity: 1, num_ms_combs: 1, mus: [0, 0], ns: [4, 4], ls: [0, 0], ms_combs: [0, 0], ctildes: [-0.028569542391045075]}
    - {mu0: 0, rank: 2, ndensity: 1, num_ms_combs: 2, mus: [0, 0], ns: [4, 4], ls: [1, 1], ms_combs: [0, 0, 1, -1], ctildes: [0.0011379865835471348, -0.0022759731670942691]}
    - {mu0: 0, rank: 2, ndensity: 1, num_ms_combs: 3, mus: [0, 0], ns: [4, 4], ls: [2, 2], ms_combs: [0, 0, 1, -1, 2, -2], ctildes: [-0.025110567927328447, 0.050221135854656901, -0.050221135854656908]}
    - {mu0: 0, rank: 2, ndensity: 1, num_ms_combs: 1, mus: [0, 0], ns: [4, 5], ls: [0, 0], ms_combs: [0, 0], ctildes: [-0.049847374430377928]}
    - {mu0: 0, rank: 2, ndensity: 1, num_ms_combs: 2, mus: [0, 0], ns: [4, 5], ls: [1, 1], ms_combs: [0, 0, 1, -1], ctildes: [0.070460103699529195, -0.14092020739905836]}
    - {mu0: 0, rank: 2, ndensity: 1, num_ms_combs: 3, mus: [0, 0], ns: [4, 5], ls: [2, 2], ms_combs: [0, 0, 1, -1, 2, -2], ctildes: [0.032194383663069988, -0.064388767326139976, 0.064388767326140003]}
    - {mu0: 0, rank: 2, ndensity: 1, num_ms_combs: 1, mus: [0, 0], ns: [4, 6], ls: [0, 0], ms_combs: [0, 0], ctildes: [0.17914989997211364]}
    - {mu0: 0, rank: 2, ndensity: 1, num_ms_combs: 2, mus: [0, 0], ns: [4, 6], ls: [1, 1], ms_combs: [0, 0, 1, -1], ctildes: [-0.024268465433656308, 0.04853693086731261]}
    - {mu0: 0, rank: 2, ndensity: 1, num_ms_combs: 1, mus: [0, 0], ns: [5, 5], ls: [0, 0], ms_combs: [0, 0], ctildes: [0.061420980211121079]}
    - {mu0: 0, rank: 2, ndensity: 1, num_ms_combs: 2, mus: [0, 0], ns: [5, 5], ls: [1, 1], ms_combs: [0, 0, 1, -1], ctildes: [-0.028092757246253305, 0.056185514492506604]}
    - {mu0: 0, rank: 2, ndensity: 1, num_ms_combs: 1, mus: [0, 0], ns: [5, 6], ls: [0, 0], ms_combs: [0, 0], ctildes: [-0.18439106817915393]}
    - {mu0: 0, rank: 2, ndensity: 1, num_ms_combs: 2, mus: [0, 0], ns: [5, 6], ls: [1, 1], ms_combs: [0, 0, 1, -1], ctildes: [0.021835595878000869, -0.043671191756001732]}
    - {mu0: 0, rank: 2, ndensity: 1, num_ms_combs: 1, mus: [0, 0], ns: [6, 6], ls: [0, 0], ms_combs: [0, 0], ctildes: [0.099475471566631002]}
    - {mu0: 0, rank: 3, ndensity: 1, num_ms_combs: 1, mus: [0, 0, 0], ns: [1, 1, 1], ls: [0, 0, 0], ms_combs: [0, 0, 0], ctildes: [0.26454824127737336]}
    - {mu0: 0, rank: 3, ndensity: 1, num_ms_combs: 2, mus: [0, 0, 0], ns: [1, 1, 1], ls: [0, 1, 1], ms_combs: [0, 0, 0, 0, 1, -1], ctildes: [-0.031678534531801125, 0.063357069063602237]}
    - {mu0: 0, rank: 3, ndensity: 1, num_ms_combs: 3, mus: [0, 0, 0], ns: [1, 1, 1], ls: [0, 2, 2], ms_combs: [0, 0, 0, 0, 1, -1, 0, 2, -2], ctildes: [0.057059988270149582, -0.11411997654029918, 0.11411997654029921]}
    - {mu0: 0, rank: 3, ndensity: 1, num_ms_combs: 4, mus: [0, 0, 0], ns: [1, 1, 1], ls: [0, 3, 3], ms_combs: [0, 0, 0, 0, 1, -1, 0, 2, -2, 0, 3, -3], ctildes: [-0.04386964331559106, 0.08773928663118212, -0.087739286631182106, 0.087739286631182106]}
    - {mu0: 0, rank: 3, ndensity: 1, num_ms_combs: 4, mus: [0, 0, 0], ns: [1, 1, 1], ls: [1, 1, 2], ms_combs: [-1, 1, 0, 0, 0, 0, 0, 1, -1, 1, 1, -2], ctildes: [0.01609907126183743, 0.016099071261837426, -0.055768818760348858, 0.039434509924206232]}
    - {mu0: 0, rank: 3, ndensity: 1, num_ms_combs: 8, mus: [0, 0, 0], ns: [1, 1, 1], ls: [1, 2, 3], ms_combs: [0, 0, 0, 0, 1, -1, 0, 2, -2, 1, -2, 1, 1, -1, 0, 1, 0, -1, 1, 1, -2, 1, 2, -3], ctildes: [0.0030555999738251047, -0.0057616945655604495, 0.0045550195023463394, -0.0020370666492167361, 0.0035283029348474747, -0.0049897738626220938, 0.0064417703570921392, -0.0078895252075309626]}
    - {mu0: 0, rank: 3, ndensity: 1, num_ms_combs: 5, mus: [0, 0, 0], ns: [1, 1, 1], ls: [2, 2, 2], ms_combs: [-2, 0, 2, -2, 1, 1, -1, -1, 2, -1, 0, 1, 0, 0, 0], ctildes: [0.046702592263460338, -0.038132506903577029, -0.019066253451788515, 0.023351296131730162, -0.0077837653772433865]}
    - {mu0: 0, rank: 3, ndensity: 1, num_ms_combs: 9, mus: [0, 0, 0], ns: [1, 1, 1], ls: [2, 3, 3], ms_combs: [0, -3, 3, 0, -1, 1, 0, 0, 0, 1, -3, 2, 1, -2, 1, 1, -1, 0, 2, -3, 1, 2, -2, 0, 2, -1, -1], ctildes: [0.045268325529049185, -0.027160995317429507, 0.018107330211619675, -0.090536651058098369, 0.070129388353881425, -0.025607631963640628, 0.057260405813496854, -0.080978442488434499, 0.044353719622550344]}
    - {mu0: 0, rank: 3, ndensity: 1, num_ms_combs: 1, mus: [0, 0, 0], ns: [1, 1, 2], ls: [0, 0, 0], ms_combs: [0, 0, 0], ctildes: [0.038466216352795367]}
    - {mu0: 0, rank: 3, ndensity: 1, num_ms_combs: 2, mus: [0, 0, 0], ns: [1, 1, 2], ls: [0, 1, 1], ms_combs: [0, 0, 0, 0, 1, -1], ctildes: [0.060788352895072707, -0.12157670579014539]}
    - {mu0: 0, rank: 3, ndensity: 1, num_ms_combs: 3, mus: [0, 0, 0], ns: [1, 1, 2], ls: [0, 2, 2], ms_combs: [0, 0, 0, 0, 1, -1, 0, 2, -2], ctildes: [0.061683549416953358, -0.12336709883390673, 0.12336709883390677]}
    - {mu0: 0, rank: 3, ndensity: 1, num_ms_combs: 4, mus: [0, 0, 0], ns: [1, 1, 2], ls: [0, 3, 3], ms_combs: [0, 0, 0, 0, 1, -1, 0, 2, -2, 0, 3, -3], ctildes: [0.0021797676494397303, -0.0043595352988794606, 0.0043595352988794597, -0.0043595352988794597]}
    - {mu0: 0, rank: 3, ndensity: 1, num_ms_combs: 2, mus: [0, 0, 0], ns: [1, 1, 2], ls: [1, 1, 0], ms_combs: [0, 0, 0, 1, -1, 0], ctildes: [-0.16470047398353282, 0.32940094796706559]}
    - {mu0: 0, rank: 3, ndensity: 1, num_ms_combs: 4, mus: [0, 0, 0], ns: [1, 1, 2], ls: [1, 1, 2], ms_combs: [-1, 1, 0, 0, 0, 0, 0, 1, -1, 1, 1, -2], ctildes: [0.0034159463684350819, 0.0034159463684350815, -0.011833185332119916, 0.0083673255913791818]}
    - {mu0: 0, rank: 3, ndensity: 1, num_ms_combs: 5, mus: [0, 0, 0], ns: [1, 1, 2], ls: [1, 2, 1], ms_combs: [0, 0, 0, 0, 1, -1, 1, -2, 1, 1, -1, 0, 1, 0, -1], ctildes: [0.0053188797208414251, -0.0092125699158451153, 0.013028541319298523, -0.0092125699158451153, 0.0053188797208414242]}
    - {mu0: 0, rank: 3, ndensity: 1, num_ms_combs: 8, mus: [0, 0, 0], ns: [1, 1, 2], ls: [1, 2, 3], ms_combs: [0, 0, 0, 0, 1, -1, 0, 2, -2, 1, -2, 1, 1, -1, 0, 1, 0, -1, 1, 1, -2, 1, 2, -3], ctildes: [-0.026534111791379027, 0.050033201014522771, -0.039554718458734803, 0.017689407860919347, -0.030638953170920604, 0.043330023111230069, -0.055938819300192157, 0.068510782049611182]}
    - {mu0: 0, rank: 3, ndensity: 1, num_ms_combs: 8, mus: [0, 0, 0], ns: [1, 1, 2], ls: [1, 3, 2], ms_combs: [0, 0, 0, 0, 1, -1, 0, 2, -2, 1, -3, 2, 1, -2, 1, 1, -1, 0, 1, 0, -1, 1, 1, -2], ctildes: [-0.058288059809914278, 0.10990901961012657, -0.086890709341027925, 0.15049912328435999, -0.12288201959430023, 0.095184003087411651, -0.067305254043590057, 0.038858706539942875]}
    - {mu0: 0, rank: 3, ndensity: 1, num_ms_combs: 3, mus: [0, 0, 0], ns: [1, 1, 2], ls: [2, 2, 0], ms_combs: [0, 0, 0, 1, -1, 0, 2, -2, 0], ctildes: [-0.021078013430412504, 0.042156026860825015, -0.042156026860825022]}
    - {mu0: 0, rank: 3, ndensity: 1, num_ms_combs: 8, mus: [0, 0, 0], ns: [1, 1, 2], ls: [2, 2, 2], ms_combs: [-2, 1, 1, -2, 2, 0, -1, 1, 0, -1, 2, -1, 0, 0, 0, 0, 1, -1, 0, 2, -2, 1, 1, -2], ctildes: [-0.03558725427661235, 0.029056871441459572, 0.014528435720729786, -0.03558725427661235, -0.014528435720729786, 0.029056871441459572, 0.058113742882919171, -0.03558725427661235]}
    - {mu0: 0, rank: 3, ndensity: 1, num_ms_combs: 8, mus: [0, 0, 0], ns: [1, 1, 2], ls: [2, 3, 1], ms_combs: [0, 0, 0, 0, 1, -1, 1, -2, 1, 1, -1, 0, 1, 0, -1, 2, -3, 1, 2, -2, 0, 2, -1, -1], ctildes: [-0.038871596546508784, 0.063477051350852826, -0.081948520916068676, 0.073296985369557172, -0.044885053459914726, 0.10036603071008147, -0.057946354847959791, 0.025914397697672512]}
    - {mu0: 0, rank: 3, ndensity: 1, num_ms_combs: 14, mus: [0, 0, 0], ns: [1, 1, 2], ls: [2, 3, 3], ms_combs: [0, 0, 0, 0, 1, -1, 0, 3, -3, 1, -3, 2, 1, -2, 1, 1, -1, 0, 1, 0, -1, 1, 1, -2, 1, 2, -3, 2, -3, 1, 2, -2, 0, 2, -1, -1, 2, 0, -2, 2, 1, -3], ctildes: [0.029270701247189019, -0.043906051870783516, 0.073176753117972546, -0.073176753117972546, 0.056682469231087863, -0.020697511341972879, -0.020697511341972896, 0.056682469231087877, -0.073176753117972546, 0.046281042325724275, -0.06545127773780253, 0.071698282469060279, -0.065451277737802516, 0.046281042325724261]}
    - {mu0: 0, rank: 3, ndensity: 1, num_ms_combs: 4, mus: [0, 0, 0], ns: [1, 1, 2], ls: [3, 3, 0], ms_combs: [0, 0, 0, 1, -1, 0, 2, -2, 0, 3, -3, 0], ctildes: [0.045424162086464062, -0.090848324172928124, 0.09084832417292811, -0.09084832417292811]}
    - {mu0: 0, rank: 3, ndensity: 1, num_ms_combs: 12, mus: [0, 0, 0], ns: [1, 1, 2], ls: [3, 3, 2], ms_combs: [-3, 1, 2, -3, 2, 1, -3, 3, 0, -2, 1, 1, -2, 3, -1, -1, 1, 0, -1, 2, -1, -1, 3, -2, 0, 0, 0, 0, 1, -1, 0, 2, -2, 1, 1, -2], ctildes: [0.0028463203449841743, -0.0045004276203131034, 0.0045004276203131034, 0.0034860162448569067, -0.0045004276203131034, -0.0027002565721878612, 0.0034860162448569067, 0.0028463203449841743, 0.0018001710481252414, -0.0025458263108501071, -0.0080506096694701757, 0.0044095005176380238]}
    - {mu0: 0, rank: 3, ndensity: 1, num_ms_combs: 1, mus: [0, 0, 0], ns: [1, 1, 3], ls: [0, 0, 0], ms_combs: [0, 0, 0], ctildes: [-0.047264314610447195]}
    - {mu0: 0, rank: 3, ndensity: 1, num_ms_combs: 2, mus: [0, 0, 0], ns: [1, 1, 3], ls: [0, 1, 1], ms_combs: [0, 0, 0, 0, 1, -1], ctildes: [0.0014499246505299149, -0.0028998493010598293]}
    - {mu0: 0, rank: 3, ndensity: 1, num_ms_combs: 3, mus: [0, 0, 0], ns: [1, 1, 3], ls: [0, 2, 2], ms_combs: [0, 0, 0, 0, 1, -1, 0, 2, -2], ctildes: [-0.11852427798675659, 0.23704855597351321, -0.23704855597351326]}
    - {mu0: 0, rank: 3, ndensity: 1, num_ms_combs: 4, mus: [0, 0, 0], ns: [1, 1, 3], ls: [0, 3, 3], ms_combs: [0, 0, 0, 0, 1, -1, 0, 2, -2, 0, 3, -3], ctildes: [0.012098268963887659, -0.024196537927775319, 0.024196537927775316, -0.024196537927775316]}
    - {mu0: 0, rank: 3, ndensity: 1, num_ms_combs: 2, mus: [0, 0, 0], ns: [1, 1, 3], ls: [1, 1, 0], ms_combs: [0, 0, 0, 1, -1, 0], ctildes: [-0.097303097407852326, 0.1946061948157046]}
    - {mu0: 0, rank: 3, ndensity: 1, num_ms_combs: 4, mus: [0, 0, 0], ns: [1, 1, 3], ls: [1, 1, 2], ms_combs: [-1, 1, 0, 0, 0, 0, 0, 1, -1, 1, 1, -2], ctildes: [0.020689297201331679, 0.020689297201331676, -0.071669827851198104, 0.050678221280054676]}
    - {mu0: 0, rank: 3, ndensity: 1, num_ms_combs: 5, mus: [0, 0, 0], ns: [1, 1, 3], ls: [1, 2, 1], ms_combs: [0, 0, 0, 0, 1, -1, 1, -2, 1, 1, -1, 0, 1, 0, -1], ctildes: [-0.048920524711670951, 0.084732834333542895, -0.11983032349280898, 0.084732834333542895, -0.048920524711670944]}
    - {mu0: 0, rank: 3, ndensity: 1, num_ms_combs: 8, mus: [0, 0, 0], ns: [1, 1, 3], ls: [1, 2, 3], ms_combs: [0, 0, 0, 0, 1, -1, 0, 2, -2, 1, -2, 1, 1, -1, 0, 1, 0, -1, 1, 1, -2, 1, 2, -3], ctildes: [-0.03343933291753793, 0.063053810838254953, -0.049848414350574105, 0.022292888611691951, -0.038612415722924072, 0.054606201991347365, -0.07049630363737551, 0.0863399863319399]}
    - {mu0: 0, rank: 3, ndensity: 1, num_ms_combs: 8, mus: [0, 0, 0], ns: [1, 1, 3], ls: [1, 3, 2], ms_combs: [0, 0, 0, 0, 1, -1, 0, 2, -2, 1, -3, 2, 1, -2, 1, 1, -1, 0, 1, 0, -1, 1, 1, -2], ctildes: [0.018790395704180653, -0.035431509929612574, 0.028011068079111998, -0.048516593087292725, 0.039613632374036249, -0.030684587693485078, 0.021697280035976582, -0.012526930469453775]}
    - {mu0: 0, rank: 3, ndensity: 1, num_ms_combs: 3, mus: [0, 0, 0], ns: [1, 1, 3], ls: [2, 2, 0], ms_combs: [0, 0, 0, 1, -1, 0, 2, -2, 0], ctildes: [0.044204578359342883, -0.08840915671868578, 0.088409156718685794]}
    - {mu0: 0, rank: 3, ndensity: 1, num_ms_combs: 8, mus: [0, 0, 0], ns: [1, 1, 3], ls: [2, 2, 2], ms_combs: [-2, 1, 1, -2, 2, 0, -1, 1, 0, -1, 2, -1, 0, 0, 0, 0, 1, -1, 0, 2, -2, 1, 1, -2], ctildes: [0.0046107633094007684, -0.0037646724775927333, -0.0018823362387963667, 0.0046107633094007684, 0.0018823362387963667, -0.0037646724775927333, -0.007529344955185471, 0.0046107633094007684]}
    - {mu0: 0, rank: 3, ndensity: 1, num_ms_combs: 8, mus: [0, 0, 0], ns: [1, 1, 3], ls: [2, 3, 1], ms_combs: [0, 0, 0, 0, 1, -1, 1, -2, 1, 1, -1, 0, 1, 0, -1, 2, -3, 1, 2, -2, 0, 2, -1, -1], ctildes: [0.0017591272435540965, -0.0028726427595574685, 0.0037085658557897984, -0.0033170421410322693, 0.0020312651752095231, -0.0045420470120965143, 0.0026223520651058587, -0.0011727514957027305]}
    - {mu0: 0, rank: 3, ndensity: 1, num_ms_combs: 4, mus: [0, 0, 0], ns: [1, 1, 3], ls: [3, 3, 0], ms_combs: [0, 0, 0, 1, -1, 0, 2, -2, 0, 3, -3, 0], ctildes: [-0.045782502814377811, 0.091565005628755622, -0.091565005628755608, 0.091565005628755608]}
    - {mu0: 0, rank: 3, ndensity: 1, num_ms_combs: 1, mus: [0, 0, 0], ns: [1, 1, 4], ls: [0, 0, 0], ms_combs: [0, 0, 0], ctildes: [0.077856607532270014]}
    - {mu0: 0, rank: 3, ndensity: 1, num_ms_combs: 2, mus: [0, 0, 0], ns: [1, 1, 4], ls: [0, 1, 1], ms_combs: [0, 0, 0, 0, 1, -1], ctildes: [0.065263436922572957, -0.13052687384514589]}
    - {mu0: 0, rank: 3, ndensity: 1, num_ms_combs: 3, mus: [0, 0, 0], ns: [1, 1, 4], ls: [0, 2, 2], ms_combs: [0, 0, 0, 0, 1, -1, 0, 2, -2], ctildes: [0.070309740730761378, -0.14061948146152278, 0.14061948146152281]}
    - {mu0: 0, rank: 3, ndensity: 1, num_ms_combs: 4, mus: [0, 0, 0], ns: [1, 1, 4], ls: [0, 3, 3], ms_combs: [0, 0, 0, 0, 1, -1, 0, 2, -2, 0, 3, -3], ctildes: [0.0041184822547946877, -0.0082369645095893753, 0.0082369645095893736, -0.0082369645095893736]}
    - {mu0: 0, rank: 3, ndensity: 1, num_ms_combs: 2, mus: [0, 0, 0], ns: [1, 1, 4], ls: [1, 1, 0], ms_combs: [0, 0, 0, 1, -1, 0], ctildes: [0.063739672085038335, -0.12747934417007664]}
    - {mu0: 0, rank: 3, ndensity: 1, num_ms_combs: 4, mus: [0, 0, 0], ns: [1, 1, 4], ls: [1, 1, 2], ms_combs: [-1, 1, 0, 0, 0, 0, 0, 1, -1, 1, 1, -2], ctildes: [0.03152415536893264, 0.031524155368932633, -0.10920287752937309, 0.077218095226103775]}
    - {mu0: 0, rank: 3, ndensity: 1, num_ms_combs: 5, mus: [0, 0, 0], ns: [1, 1, 4], ls: [1, 2, 1], ms_combs: [0, 0, 0, 0, 1, -1, 1, -2, 1, 1, -1, 0, 1, 0, -1], ctildes: [0.008674012669085171, -0.015023830648351645, 0.021246905061695461, -0.015023830648351645, 0.0086740126690851693]}
    - {mu0: 0, rank: 3, ndensity: 1, num_ms_combs: 8, mus: [0, 0, 0], ns: [1, 1, 4], ls: [1, 2, 3], ms_combs: [0, 0, 0, 0, 1, -1, 0, 2, -2, 1, -2, 1, 1, -1, 0, 1, 0, -1, 1, 1, -2, 1, 2, -3], ctildes: [-0.0046287355666585909, 0.0087280274866763895, -0.0069001115846130763, 0.0030858237111057269, -0.0053448034508358638, 0.0075586935283905995, -0.0097582313848475193, 0.011951343842444445]}
    - {mu0: 0, rank: 3, ndensity: 1, num_ms_combs: 8, mus: [0, 0, 0], ns: [1, 1, 4], ls: [1, 3, 2], ms_combs: [0, 0, 0, 0, 1, -1, 0, 2, -2, 1, -3, 2, 1, -2, 1, 1, -1, 0, 1, 0, -1, 1, 1, -2], ctildes: [-5.7673370917542484e-05, 0.00010874995111915018, -8.5974385242122993e-05, 0.00014891200338885686, -0.00012158614162609957, 9.4180220329500002e-05, -6.6595472448632593e-05, 3.8448913945028343e-05]}
    - {mu0: 0, rank: 3, ndensity: 1, num_ms_combs: 3, mus: [0, 0, 0], ns: [1, 1, 4], ls: [2, 2, 0], ms_combs: [0, 0, 0, 1, -1, 0, 2, -2, 0], ctildes: [0.038702166487747103, -0.077404332975494219, 0.077404332975494233]}
    - {mu0: 0, rank: 3, ndensity: 1, num_ms_combs: 8, mus: [0, 0, 0], ns: [1, 1, 4], ls: [2, 2, 2], ms_combs: [-2, 1, 1, -2, 2, 0, -1, 1, 0, -1, 2, -1, 0, 0, 0, 0, 1, -1, 0, 2, -2, 1, 1, -2], ctildes: [0.0021779540727992087, -0.0017782920538581693, -0.00088914602692908467, 0.0021779540727992087, 0.00088914602692908467, -0.0017782920538581693, -0.0035565841077163404, 0.0021779540727992087]}
    - {mu0: 0, rank: 3, ndensity: 1, num_ms_combs: 8, mus: [0, 0, 0], ns: [1, 1, 4], ls: [2, 3, 1], ms_combs: [0, 0, 0, 0, 1, -1, 1, -2, 1, 1, -1, 0, 1, 0, -1, 2, -3, 1, 2, -2, 0, 2, -1, -1], ctildes: [0.0051593429161811656, -0.0084251717017912071, 0.01087684989665845, -0.0097285502999959455, 0.0059574960429975669, -0.013321366127828572, 0.0076910943198753899, -0.0034395619441207758]}
    - {mu0: 0, rank: 3, ndensity: 1, num_ms_combs: 4, mus: [0, 0, 0], ns: [1, 1, 4], ls: [3, 3, 0], ms_combs: [0, 0, 0, 1, -1, 0, 2, -2, 0, 3, -3, 0], ctildes: [0.015771442586546152, -0.031542885173092304, 0.031542885173092304, -0.031542885173092304]}
    - {mu0: 0, rank: 3, ndensity: 1, num_ms_combs: 1, mus: [0, 0, 0], ns: [1, 2, 2], ls: [0, 0, 0], ms_combs: [0, 0, 0], ctildes: [0.031312540875108791]}
    - {mu0: 0, rank: 3, ndensity: 1, num_ms_combs: 2, mus: [0, 0, 0], ns: [1, 2, 2], ls: [0, 1, 1], ms_combs: [0, 0, 0, 0, 1, -1], ctildes: [0.093467617444898163, -0.1869352348897963]}
    - {mu0: 0, rank: 3, ndensity: 1, num_ms_combs: 3, mus: [0, 0, 0], ns: [1, 2, 2], ls: [0, 2, 2], ms_combs: [0, 0, 0, 0, 1, -1, 0, 2, -2], ctildes: [0.022497380110096284, -0.044994760220192574, 0.044994760220192581]}
    - {mu0: 0, rank: 3, ndensity: 1, num_ms_combs: 4, mus: [0, 0, 0], ns: [1, 2, 2], ls: [0, 3, 3], ms_combs: [0, 0, 0, 0, 1, -1, 0, 2, -2, 0, 3, -3], ctildes: [0.0069356980567074136, -0.013871396113414827, 0.013871396113414826, -0.013871396113414826]}
    - {mu0: 0, rank: 3, ndensity: 1, num_ms_combs: 2, mus: [0, 0, 0], ns: [1, 2, 2], ls: [1, 0, 1], ms_combs: [0, 0, 0, 1, 0, -1], ctildes: [0.093907352802247587, -0.18781470560449515]}
    - {mu0: 0, rank: 3, ndensity: 1, num_ms_combs: 5, mus: [0, 0, 0], ns: [1, 2, 2], ls: [1, 1, 2], ms_combs: [0, 0, 0, 0, 1, -1, 1, -1, 0, 1, 0, -1, 1, 1, -2], ctildes: [0.015315465717750264, -0.026527164764722808, 0.015315465717750268, -0.026527164764722808, 0.037515076181576693]}
    - {mu0: 0, rank: 3, ndensity: 1, num_ms_combs: 8, mus: [0, 0, 0], ns: [1, 2, 2], ls: [1, 2, 3], ms_combs: [0, 0, 0, 0, 1, -1, 0, 2, -2, 1, -2, 1, 1, -1, 0, 1, 0, -1, 1, 1, -2, 1, 2, -3], ctildes: [-0.063275754998300654, 0.1193139078506586, -0.094325926335881549, 0.042183836665533769, -0.073064548362891377, 0.10332887522346591, -0.13339700430760917, 0.16337729688474606]}
    - {mu0: 0, rank: 3, ndensity: 1, num_ms_combs: 3, mus: [0, 0, 0], ns: [1, 2, 2], ls: [2, 0, 2], ms_combs: [0, 0, 0, 1, 0, -1, 2, 0, -2], ctildes: [-0.12328647869843486, 0.24657295739686977, -0.24657295739686982]}
    - {mu0: 0, rank: 3, ndensity: 1, num_ms_combs: 4, mus: [0, 0, 0], ns: [1, 2, 2], ls: [2, 1, 1], ms_combs: [0, -1, 1, 0, 0, 0, 1, -1, 0, 2, -1, -1], ctildes: [0.049367433187950789, 0.049367433187950796, -0.17101380504158556, 0.12092502122141932]}
    - {mu0: 0, rank: 3, ndensity: 1, num_ms_combs: 8, mus: [0, 0, 0], ns: [1, 2, 2], ls: [2, 1, 3], ms_combs: [0, 0, 0, 0, 1, -1, 1, -1, 0, 1, 0, -1, 1, 1, -2, 2, -1, -1, 2, 0, -2, 2, 1, -3], ctildes: [-0.028565657038430076, 0.046647522607664374, -0.032984779561432261, 0.053863919469128357, -0.060221692733772675, 0.019043771358953382, -0.042583167306583299, 0.073756209322208222]}
    - {mu0: 0, rank: 3, ndensity: 1, num_ms_combs: 7, mus: [0, 0, 0], ns: [1, 2, 2], ls: [2, 2, 2], ms_combs: [0, -2, 2, 0, -1, 1, 0, 0, 0, 1, -2, 1, 1, -1, 0, 2, -2, 0, 2, -1, -1], ctildes: [-0.064985048898189415, -0.032492524449094687, 0.032492524449094687, 0.15918021071037819, -0.064985048898189374, -0.1299700977963788, 0.079590105355189095]}
    - {mu0: 0, rank: 3, ndensity: 1, num_ms_combs: 4, mus: [0, 0, 0], ns: [1, 2, 2], ls: [3, 0, 3], ms_combs: [0, 0, 0, 1, 0, -1, 2, 0, -2, 3, 0, -3], ctildes: [0.023962690757027907, -0.047925381514055815, 0.047925381514055808, -0.047925381514055808]}
    - {mu0: 0, rank: 3, ndensity: 1, num_ms_combs: 8, mus: [0, 0, 0], ns: [1, 2, 2], ls: [3, 1, 2], ms_combs: [0, 0, 0, 0, 1, -1, 1, -1, 0, 1, 0, -1, 1, 1, -2, 2, -1, -1, 2, 0, -2, 3, -1, -2], ctildes: [0.02128113137576711, 0.024573333856917873, -0.034751942013175212, -0.040128086152337948, -0.014187420917178081, 0.044864564221797819, 0.031724037596212611, -0.054947644937865463]}
    - {mu0: 0, rank: 3, ndensity: 1, num_ms_combs: 1, mus: [0, 0, 0], ns: [1, 2, 3], ls: [0, 0, 0], ms_combs: [0, 0, 0], ctildes: [-0.050375451594037009]}
    - {mu0: 0, rank: 3, ndensity: 1, num_ms_combs: 2, mus: [0, 0, 0], ns: [1, 2, 3], ls: [0, 1, 1], ms_combs: [0, 0, 0, 0, 1, -1], ctildes: [0.02651001809658414, -0.053020036193168266]}
    - {mu0: 0, rank: 3, ndensity: 1, num_ms_combs: 3, mus: [0, 0, 0], ns: [1, 2, 3], ls: [0, 2, 2], ms_combs: [0, 0, 0, 0, 1, -1, 0, 2, -2], ctildes: [0.03114454623813067, -0.062289092476261347, 0.062289092476261361]}
    - {mu0: 0, rank: 3, ndensity: 1, num_ms_combs: 4, mus: [0, 0, 0], ns: [1, 2, 3], ls: [0, 3, 3], ms_combs: [0, 0, 0, 0, 1, -1, 0, 2, -2, 0, 3, -3], ctildes: [0.0039604847861893569, -0.0079209695723787138, 0.0079209695723787138, -0.0079209695723787138]}
    - {mu0: 0, rank: 3, ndensity: 1, num_ms_combs: 2, mus: [0, 0, 0], ns: [1, 2, 3], ls: [1, 0, 1], ms_combs: [0, 0, 0, 1, 0, -1], ctildes: [0.10277535266400971, -0.20555070532801939]}
    - {mu0: 0, rank: 3, ndensity: 1, num_ms_combs: 2, mus: [0, 0, 0], ns: [1, 2, 3], ls: [1, 1, 0], ms_combs: [0, 0, 0, 1, -1, 0], ctildes: [-0.059765806750047765, 0.1195316135000955]}
    - {mu0: 0, rank: 3, ndensity: 1, num_ms_combs: 5, mus: [0, 0, 0], ns: [1, 2, 3], ls: [1, 1, 2], ms_combs: [0, 0, 0, 0, 1, -1, 1, -1, 0, 1, 0, -1, 1, 1, -2], ctildes: [0.0037627242679203979, -0.0065172296069105394, 0.0037627242679203984, -0.0065172296069105394, 0.0092167544991923617]}
    - {mu0: 0, rank: 3, ndensity: 1, num_ms_combs: 5, mus: [0, 0, 0], ns: [1, 2, 3], ls: [1, 2, 1], ms_combs: [0, 0, 0, 0, 1, -1, 1, -2, 1, 1, -1, 0, 1, 0, -1], ctildes: [0.033210432879605553, -0.0575221570888328, 0.081348614691983012, -0.0575221570888328, 0.033210432879605553]}
    - {mu0: 0, rank: 3, ndensity: 1, num_ms_combs: 8, mus: [0, 0, 0], ns: [1, 2, 3], ls: [1, 2, 3], ms_combs: [0, 0, 0, 0, 1, -1, 0, 2, -2, 1, -2, 1, 1, -1, 0, 1, 0, -1, 1, 1, -2, 1, 2, -3], ctildes: [-0.0075754571310750491, 0.014284418954589748, -0.011292824737146226, 0.0050503047540500319, -0.008747384427721298, 0.012370669692974675, -0.015970465900774573, 0.019559746205707915]}
    - {mu0: 0, rank: 3, ndensity: 1, num_ms_combs: 8, mus: [0, 0, 0], ns: [1, 2, 3], ls: [1, 3, 2], ms_combs: [0, 0, 0, 0, 1, -1, 0, 2, -2, 1, -3, 2, 1, -2, 1, 1, -1, 0, 1, 0, -1, 1, 1, -2], ctildes: [0.031295413450651052, -0.059011197522645484, 0.046652447906411376, -0.080804410071364782, 0.06597652454715125, -0.051105196162352325, 0.036136830760268052, -0.020863608967100711]}
    - {mu0: 0, rank: 3, ndensity: 1, num_ms_combs: 3, mus: [0, 0, 0], ns: [1, 2, 3], ls: [2, 0, 2], ms_combs: [0, 0, 0, 1, 0, -1, 2, 0, -2], ctildes: [0.027392250127066545, -0.054784500254133096, 0.05478450025413311]}
    - {mu0: 0, rank: 3, ndensity: 1, num_ms_combs: 5, mus: [0, 0, 0], ns: [1, 2, 3], ls: [2, 1, 1], ms_combs: [0, 0, 0, 0, 1, -1, 1, -1, 0, 1, 0, -1, 2, -1, -1], ctildes: [-0.022818635511403191, -0.022818635511403187, 0.039523036065145761, 0.039523036065145761, -0.055894013629490098]}
    - {mu0: 0, rank: 3, ndensity: 1, num_ms_combs: 8, mus: [0, 0, 0], ns: [1, 2, 3], ls: [2, 1, 3], ms_combs: [0, 0, 0, 0, 1, -1, 1, -1, 0, 1, 0, -1, 1, 1, -2, 2, -1, -1, 2, 0, -2, 2, 1, -3], ctildes: [0.0014463750290184265, -0.0023619205318655711, 0.0016701300247058822, -0.0027273109097541832, 0.0030492262949935729, -0.00096425001934561749, 0.0021561285905622877, -0.0037345242665057553]}
    - {mu0: 0, rank: 3, ndensity: 1, num_ms_combs: 3, mus: [0, 0, 0], ns: [1, 2, 3], ls: [2, 2, 0], ms_combs: [0, 0, 0, 1, -1, 0, 2, -2, 0], ctildes: [-0.071795508582983808, 0.14359101716596764, -0.14359101716596767]}
    - {mu0: 0, rank: 3, ndensity: 1, num_ms_combs: 10, mus: [0, 0, 0], ns: [1, 2, 3], ls: [2, 2, 2], ms_combs: [0, 0, 0, 0, 1, -1, 0, 2, -2, 1, -2, 1, 1, -1, 0, 1, 0, -1, 1, 1, -2, 2, -2, 0, 2, -1, -1, 2, 0, -2], ctildes: [-0.0085264765396586232, 0.0085264765396586232, 0.017052953079317257, -0.020885516825975208, 0.0085264765396586232, 0.0085264765396586232, -0.020885516825975208, 0.017052953079317246, -0.020885516825975208, 0.017052953079317257]}
    - {mu0: 0, rank: 3, ndensity: 1, num_ms_combs: 8, mus: [0, 0, 0], ns: [1, 2, 3], ls: [2, 3, 1], ms_combs: [0, 0, 0, 0, 1, -1, 1, -2, 1, 1, -1, 0, 1, 0, -1, 2, -3, 1, 2, -2, 0, 2, -1, -1], ctildes: [0.016237601380909912, -0.026515892019960522, 0.034231869401047089, -0.030617914791054527, 0.018749567056524346, -0.041925306487079088, 0.024205586986172679, -0.010825067587273272]}
    - {mu0: 0, rank: 3, ndensity: 1, num_ms_combs: 4, mus: [0, 0, 0], ns: [1, 2, 3], ls: [3, 0, 3], ms_combs: [0, 0, 0, 1, 0, -1, 2, 0, -2, 3, 0, -3], ctildes: [-0.0059958773546095146, 0.011991754709219029, -0.011991754709219028, 0.011991754709219028]}
    - {mu0: 0, rank: 3, ndensity: 1, num_ms_combs: 8, mus: [0, 0, 0], ns: [1, 2, 3], ls: [3, 1, 2], ms_combs: [0, 0, 0, 0, 1, -1, 1, -1, 0, 1, 0, -1, 1, 1, -2, 2, -1, -1, 2, 0, -2, 3, -1, -2], ctildes: [-0.0017492623329372877, -0.0020198741576092326, 0.0028565334279779071, 0.003298440687184418, 0.0011661748886248591, -0.003687768798147739, -0.0026076463246184314, 0.0045165759224093686]}
    - {mu0: 0, rank: 3, ndensity: 1, num_ms_combs: 8, mus: [0, 0, 0], ns: [1, 2, 3], ls: [3, 2, 1], ms_combs: [0, 0, 0, 0, 1, -1, 1, -2, 1, 1, -1, 0, 1, 0, -1, 2, -2, 0, 2, -1, -1, 3, -2, -1], ctildes: [0.0048341859423694129, 0.0055820371102793679, -0.0032227906282462741, -0.0091154284303095797, -0.0078941925870270029, 0.0072063789220079243, 0.01019135880710321, -0.012481814431511159]}
    - {mu0: 0, rank: 3, ndensity: 1, num_ms_combs: 4, mus: [0, 0, 0], ns: [1, 2, 3], ls: [3, 3, 0], ms_combs: [0, 0, 0, 1, -1, 0, 2, -2, 0, 3, -3, 0], ctildes: [-0.035686442173667628, 0.071372884347335255, -0.071372884347335241, 0.071372884347335241]}
    - {mu0: 0, rank: 3, ndensity: 1, num_ms_combs: 1, mus: [0, 0, 0], ns: [1, 2, 4], ls: [0, 0, 0], ms_combs: [0, 0, 0], ctildes: [-0.1434746048440329]}
    - {mu0: 0, rank: 3, ndensity: 1, num_ms_combs: 2, mus: [0, 0, 0], ns: [1, 2, 4], ls: [0, 1, 1], ms_combs: [0, 0, 0, 0, 1, -1], ctildes: [-0.042623756517391476, 0.085247513034782924]}
    - {mu0: 0, rank: 3, ndensity: 1, num_ms_combs: 3, mus: [0, 0, 0], ns: [1, 2, 4], ls: [0, 2, 2], ms_combs: [0, 0, 0, 0, 1, -1, 0, 2, -2], ctildes: [-0.0066477372258705921, 0.013295474451741186, -0.013295474451741189]}
    - {mu0: 0, rank: 3, ndensity: 1, num_ms_combs: 2, mus: [0, 0, 0], ns: [1, 2, 4], ls: [1, 0, 1], ms_combs: [0, 0, 0, 1, 0, -1], ctildes: [-0.074297228910175039, 0.14859445782035002]}
    - {mu0: 0, rank: 3, ndensity: 1, num_ms_combs: 2, mus: [0, 0, 0], ns: [1, 2, 4], ls: [1, 1, 0], ms_combs: [0, 0, 0, 1, -1, 0], ctildes: [-0.085204513790329658, 0.17040902758065929]}
    - {mu0: 0, rank: 3, ndensity: 1, num_ms_combs: 5, mus: [0, 0, 0], ns: [1, 2, 4], ls: [1, 1, 2], ms_combs: [0, 0, 0, 0, 1, -1, 1, -1, 0, 1, 0, -1, 1, 1, -2], ctildes: [-0.011407919135769547, 0.019759095551790097, -0.011407919135769549, 0.019759095551790097, -0.027943580909567455]}
    - {mu0: 0, rank: 3, ndensity: 1, num_ms_combs: 5, mus: [0, 0, 0], ns: [1, 2, 4], ls: [1, 2, 1], ms_combs: [0, 0, 0, 0, 1, -1, 1, -2, 1, 1, -1, 0, 1, 0, -1], ctildes: [0.0044252928477690259, -0.0076648320507071181, 0.010839709439421988, -0.0076648320507071181, 0.0044252928477690251]}
    - {mu0: 0, rank: 3, ndensity: 1, num_ms_combs: 3, mus: [0, 0, 0], ns: [1, 2, 4], ls: [2, 0, 2], ms_combs: [0, 0, 0, 1, 0, -1, 2, 0, -2], ctildes: [-0.114042927494215, 0.22808585498843004, -0.22808585498843009]}
    - {mu0: 0, rank: 3, ndensity: 1, num_ms_combs: 5, mus: [0, 0, 0], ns: [1, 2, 4], ls: [2, 1, 1], ms_combs: [0, 0, 0, 0, 1, -1, 1, -1, 0, 1, 0, -1, 2, -1, -1], ctildes: [0.020009098351006845, 0.020009098351006841, -0.034656774957586498, -0.034656774957586498, 0.049012081173131064]}
    - {mu0: 0, rank: 3, ndensity: 1, num_ms_combs: 3, mus: [0, 0, 0], ns: [1, 2, 4], ls: [2, 2, 0], ms_combs: [0, 0, 0, 1, -1, 0, 2, -2, 0], ctildes: [0.02909601549283277, -0.058192030985665548, 0.058192030985665562]}
    - {mu0: 0, rank: 3, ndensity: 1, num_ms_combs: 1, mus: [0, 0, 0], ns: [1, 3, 3], ls: [0, 0, 0], ms_combs: [0, 0, 0], ctildes: [0.0082045660984746641]}
    - {mu0: 0, rank: 3, ndensity: 1, num_ms_combs: 2, mus: [0, 0, 0], ns: [1, 3, 3], ls: [0, 1, 1], ms_combs: [0, 0, 0, 0, 1, -1], ctildes: [0.038514656855062702, -0.077029313710125391]}
    - {mu0: 0, rank: 3, ndensity: 1, num_ms_combs: 3, mus: [0, 0, 0], ns: [1, 3, 3], ls: [0, 2, 2], ms_combs: [0, 0, 0, 0, 1, -1, 0, 2, -2], ctildes: [-0.003542472601678867, 0.0070849452033577348, -0.0070849452033577365]}
    - {mu0: 0, rank: 3, ndensity: 1, num_ms_combs: 2, mus: [0, 0, 0], ns: [1, 3, 3], ls: [1, 0, 1], ms_combs: [0, 0, 0, 1, 0, -1], ctildes: [-0.1474381183771557, 0.29487623675431135]}
    - {mu0: 0, rank: 3, ndensity: 1, num_ms_combs: 5, mus: [0, 0, 0], ns: [1, 3, 3], ls: [1, 1, 2], ms_combs: [0, 0, 0, 0, 1, -1, 1, -1, 0, 1, 0, -1, 1, 1, -2], ctildes: [-0.020412072669249857, 0.035354746950928835, -0.02041207266924986, 0.035354746950928835, -0.049999162632272394]}
    - {mu0: 0, rank: 3, ndensity: 1, num_ms_combs: 3, mus: [0, 0, 0], ns: [1, 3, 3], ls: [2, 0, 2], ms_combs: [0, 0, 0, 1, 0, -1, 2, 0, -2], ctildes: [0.0294875087707153, -0.058975017541430606, 0.05897501754143062]}
    - {mu0: 0, rank: 3, ndensity: 1, num_ms_combs: 4, mus: [0, 0, 0], ns: [1, 3, 3], ls: [2, 1, 1], ms_combs: [0, -1, 1, 0, 0, 0, 1, -1, 0, 2, -1, -1], ctildes: [-0.001012216121717002, -0.001012216121717002, 0.0035064195021083412, -0.0024794130076255653]}
    - {mu0: 0, rank: 3, ndensity: 1, num_ms_combs: 1, mus: [0, 0, 0], ns: [1, 3, 4], ls: [0, 0, 0], ms_combs: [0, 0, 0], ctildes: [0.080410069124785127]}
    - {mu0: 0, rank: 3, ndensity: 1, num_ms_combs: 2, mus: [0, 0, 0], ns: [1, 3, 4], ls: [0, 1, 1], ms_combs: [0, 0, 0, 0, 1, -1], ctildes: [0.049569753178893748, -0.099139506357787482]}
    - {mu0: 0, rank: 3, ndensity: 1, num_ms_combs: 3, mus: [0, 0, 0], ns: [1, 3, 4], ls: [0, 2, 2], ms_combs: [0, 0, 0, 0, 1, -1, 0, 2, -2], ctildes: [0.0048664712286939872, -0.0097329424573879744, 0.0097329424573879778]}
    - {mu0: 0, rank: 3, ndensity: 1, num_ms_combs: 2, mus: [0, 0, 0], ns: [1, 3, 4], ls: [1, 0, 1], ms_combs: [0, 0, 0, 1, 0, -1], ctildes: [0.056777565183450236, -0.11355513036690044]}
    - {mu0: 0, rank: 3, ndensity: 1, num_ms_combs: 2, mus: [0, 0, 0], ns: [1, 3, 4], ls: [1, 1, 0], ms_combs: [0, 0, 0, 1, -1, 0], ctildes: [0.035335096854144488, -0.070670193708288961]}
    - {mu0: 0, rank: 3, ndensity: 1, num_ms_combs: 5, mus: [0, 0, 0], ns: [1, 3, 4], ls: [1, 1, 2], ms_combs: [0, 0, 0, 0, 1, -1, 1, -1, 0, 1, 0, -1, 1, 1, -2], ctildes: [0.022304226781388648, -0.038632054008903599, 0.022304226781388652, -0.038632054008903599, 0.054633974721721372]}
    - {mu0: 0, rank: 3, ndensity: 1, num_ms_combs: 5, mus: [0, 0, 0], ns: [1, 3, 4], ls: [1, 2, 1], ms_combs: [0, 0, 0, 0, 1, -1, 1, -2, 1, 1, -1, 0, 1, 0, -1], ctildes: [-0.0024612346082379315, 0.004262983390814979, -0.0060287689274617865, 0.004262983390814979, -0.002461234608237931]}
    - {mu0: 0, rank: 3, ndensity: 1, num_ms_combs: 3, mus: [0, 0, 0], ns: [1, 3, 4], ls: [2, 0, 2], ms_combs: [0, 0, 0, 1, 0, -1, 2, 0, -2], ctildes: [0.075269624725272558, -0.15053924945054514, 0.15053924945054517]}
    - {mu0: 0, rank: 3, ndensity: 1, num_ms_combs: 1, mus: [0, 0, 0], ns: [1, 4, 4], ls: [0, 0, 0], ms_combs: [0, 0, 0], ctildes: [-0.01010062553422446]}
    - {mu0: 0, rank: 3, ndensity: 1, num_ms_combs: 2, mus: [0, 0, 0], ns: [1, 4, 4], ls: [0, 1, 1], ms_combs: [0, 0, 0, 0, 1, -1], ctildes: [-0.0094189118237828495, 0.018837823647565696]}
    - {mu0: 0, rank: 3, ndensity: 1, num_ms_combs: 2, mus: [0, 0, 0], ns: [1, 4, 4], ls: [1, 0, 1], ms_combs: [0, 0, 0, 1, 0, -1], ctildes: [-0.016943405907882444, 0.033886811815764882]}
    - {mu0: 0, rank: 3, ndensity: 1, num_ms_combs: 1, mus: [0, 0, 0], ns: [2, 2, 2], ls: [0, 0, 0], ms_combs: [0, 0, 0], ctildes: [0.1158659186179741]}
    - {mu0: 0, rank: 3, ndensity: 1, num_ms_combs: 2, mus: [0, 0, 0], ns: [2, 2, 2], ls: [0, 1, 1], ms_combs: [0, 0, 0, 0, 1, -1], ctildes: [-0.037672684323666265, 0.075345368647332517]}
    - {mu0: 0, rank: 3, ndensity: 1, num_ms_combs: 3, mus: [0, 0, 0], ns: [2, 2, 2], ls: [0, 2, 2], ms_combs: [0, 0, 0, 0, 1, -1, 0, 2, -2], ctildes: [-0.013696095945736253, 0.02739219189147251, -0.027392191891472517]}
    - {mu0: 0, rank: 3, ndensity: 1, num_ms_combs: 4, mus: [0, 0, 0], ns: [2, 2, 2], ls: [1, 1, 2], ms_combs: [-1, 1, 0, 0, 0, 0, 0, 1, -1, 1, 1, -2], ctildes: [0.018954204189714399, 0.018954204189714396, -0.065659289347240454, 0.046428128745323372]}
    - {mu0: 0, rank: 3, ndensity: 1, num_ms_combs: 1, mus: [0, 0, 0], ns: [2, 2, 3], ls: [0, 0, 0], ms_combs: [0, 0, 0], ctildes: [0.046951522354664321]}
    - {mu0: 0, rank: 3, ndensity: 1, num_ms_combs: 2, mus: [0, 0, 0], ns: [2, 2, 3], ls: [0, 1, 1], ms_combs: [0, 0, 0, 0, 1, -1], ctildes: [-0.093720384292852538, 0.18744076858570505]}
    - {mu0: 0, rank: 3, ndensity: 1, num_ms_combs: 3, mus: [0, 0, 0], ns: [2, 2, 3], ls: [0, 2, 2], ms_combs: [0, 0, 0, 0, 1, -1, 0, 2, -2], ctildes: [-0.032112145927392415, 0.064224291854784829, -0.064224291854784843]}
    - {mu0: 0, rank: 3, ndensity: 1, num_ms_combs: 2, mus: [0, 0, 0], ns: [2, 2, 3], ls: [1, 1, 0], ms_combs: [0, 0, 0, 1, -1, 0], ctildes: [-0.076538033319922746, 0.15307606663984547]}
    - {mu0: 0, rank: 3, ndensity: 1, num_ms_combs: 4, mus: [0, 0, 0], ns: [2, 2, 3], ls: [1, 1, 2], ms_combs: [-1, 1, 0, 0, 0, 0, 0, 1, -1, 1, 1, -2], ctildes: [0.0054833630431384171, 0.0054833630431384162, -0.018994926774122466, 0.013431441530123911]}
    - {mu0: 0, rank: 3, ndensity: 1, num_ms_combs: 5, mus: [0, 0, 0], ns: [2, 2, 3], ls: [1, 2, 1], ms_combs: [0, 0, 0, 0, 1, -1, 1, -2, 1, 1, -1, 0, 1, 0, -1], ctildes: [-0.03416201225656694, 0.059170340917164652, -0.083679498615293918, 0.059170340917164652, -0.034162012256566933]}
    - {mu0: 0, rank: 3, ndensity: 1, num_ms_combs: 3, mus: [0, 0, 0], ns: [2, 2, 3], ls: [2, 2, 0], ms_combs: [0, 0, 0, 1, -1, 0, 2, -2, 0], ctildes: [0.029354257454232559, -0.058708514908465126, 0.05870851490846514]}
    - {mu0: 0, rank: 3, ndensity: 1, num_ms_combs: 1, mus: [0, 0, 0], ns: [2, 2, 4], ls: [0, 0, 0], ms_combs: [0, 0, 0], ctildes: [0.06371202123301048]}
    - {mu0: 0, rank: 3, ndensity: 1, num_ms_combs: 2, mus: [0, 0, 0], ns: [2, 2, 4], ls: [0, 1, 1], ms_combs: [0, 0, 0, 0, 1, -1], ctildes: [0.01471861879301883, -0.029437237586037654]}
    - {mu0: 0, rank: 3, ndensity: 1, num_ms_combs: 2, mus: [0, 0, 0], ns: [2, 2, 4], ls: [1, 1, 0], ms_combs: [0, 0, 0, 1, -1, 0], ctildes: [0.013760397091244519, -0.027520794182489032]}
    - {mu0: 0, rank: 3, ndensity: 1, num_ms_combs: 1, mus: [0, 0, 0], ns: [2, 3, 3], ls: [0, 0, 0], ms_combs: [0, 0, 0], ctildes: [-0.11985392474886446]}
    - {mu0: 0, rank: 3, ndensity: 1, num_ms_combs: 2, mus: [0, 0, 0], ns: [2, 3, 3], ls: [0, 1, 1], ms_combs: [0, 0, 0, 0, 1, -1], ctildes: [0.028628365216926892, -0.057256730433853778]}
    - {mu0: 0, rank: 3, ndensity: 1, num_ms_combs: 2, mus: [0, 0, 0], ns: [2, 3, 3], ls: [1, 0, 1], ms_combs: [0, 0, 0, 1, 0, -1], ctildes: [0.026031291574324458, -0.052062583148648901]}
    - {mu0: 0, rank: 3, ndensity: 1, num_ms_combs: 1, mus: [0, 0, 0], ns: [2, 3, 4], ls: [0, 0, 0], ms_combs: [0, 0, 0], ctildes: [-0.069244213882383221]}
    - {mu0: 0, rank: 3, ndensity: 1, num_ms_combs: 2, mus: [0, 0, 0], ns: [2, 3, 4], ls: [0, 1, 1], ms_combs: [0, 0, 0, 0, 1, -1], ctildes: [-0.039835160322616074, 0.079670320645232134]}
    - {mu0: 0, rank: 3, ndensity: 1, num_ms_combs: 2, mus: [0, 0, 0], ns: [2, 3, 4], ls: [1, 0, 1], ms_combs: [0, 0, 0, 1, 0, -1], ctildes: [0.029183970826157479, -0.058367941652314952]}
    - {mu0: 0, rank: 3, ndensity: 1, num_ms_combs: 2, mus: [0, 0, 0], ns: [2, 3, 4], ls: [1, 1, 0], ms_combs: [0, 0, 0, 1, -1, 0], ctildes: [-0.0065209976440650467, 0.013041995288130092]}
    - {mu0: 0, rank: 3, ndensity: 1, num_ms_combs: 1, mus: [0, 0, 0], ns: [2, 4, 4], ls: [0, 0, 0], ms_combs: [0, 0, 0], ctildes: [-0.0010164139952642489]}
    - {mu0: 0, rank: 3, ndensity: 1, num_ms_combs: 1, mus: [0, 0, 0], ns: [3, 3, 3], ls: [0, 0, 0], ms_combs: [0, 0, 0], ctildes: [-0.020882237466300139]}
    - {mu0: 0, rank: 3, ndensity: 1, num_ms_combs: 2, mus: [0, 0, 0], ns: [3, 3, 3], ls: [0, 1, 1], ms_combs: [0, 0, 0, 0, 1, -1], ctildes: [-0.038231215198657312, 0.076462430397314596]}
    - {mu0: 0, rank: 3, ndensity: 1, num_ms_combs: 1, mus: [0, 0, 0], ns: [3, 3, 4], ls: [0, 0, 0], ms_combs: [0, 0, 0], ctildes: [0.064341960986468813]}
    - {mu0: 0, rank: 3, ndensity: 1, num_ms_combs: 1, mus: [0, 0, 0], ns: [3, 4, 4], ls: [0, 0, 0], ms_combs: [0, 0, 0], ctildes: [-0.015849572570691934]}
    - {mu0: 0, rank: 4, ndensity: 1, num_ms_combs: 1, mus: [0, 0, 0, 0], ns: [1, 1, 1, 1], ls: [0, 0, 0, 0], ms_combs: [0, 0, 0, 0], ctildes: [0.011879618628318871]}
    - {mu0: 0, rank: 4, ndensity: 1, num_ms_combs: 2, mus: [0, 0, 0, 0], ns: [1, 1, 1, 1], ls: [0, 0, 1, 1], ms_combs: [0, 0, 0, 0, 0, 0, 1, -1], ctildes: [0.27649981754242892, -0.55299963508485772]}
    - {mu0: 0, rank: 4, ndensity: 1, num_ms_combs: 3, mus: [0, 0, 0, 0], ns: [1, 1, 1, 1], ls: [0, 0, 2, 2], ms_combs: [0, 0, 0, 0, 0, 0, 1, -1, 0, 0, 2, -2], ctildes: [0.020528330308301913, -0.041056660616603825, 0.041056660616603839]}
    - {mu0: 0, rank: 4, ndensity: 1, num_ms_combs: 4, mus: [0, 0, 0, 0], ns: [1, 1, 1, 1], ls: [0, 1, 1, 2], ms_combs: [0, -1, 1, 0, 0, 0, 0, 0, 0, 0, 1, -1, 0, 1, 1, -2], ctildes: [-0.041610576989056215, -0.041610576989056222, 0.14414326695460355, -0.10192468152598295]}
    - {mu0: 0, rank: 4, ndensity: 1, num_ms_combs: 5, mus: [0, 0, 0, 0], ns: [1, 1, 1, 1], ls: [0, 2, 2, 2], ms_combs: [0, -2, 0, 2, 0, -2, 1, 1, 0, -1, -1, 2, 0, -1, 0, 1, 0, 0, 0, 0], ctildes: [-0.016549692270998801, 0.013512767154676534, 0.006756383577338267, -0.0082748461354993988, 0.002758282045166466]}
    - {mu0: 0, rank: 4, ndensity: 1, num_ms_combs: 3, mus: [0, 0, 0, 0], ns: [1, 1, 1, 1], ls: [1, 1, 1, 1], ms_combs: [-1, -1, 1, 1, -1, 0, 0, 1, 0, 0, 0, 0], ctildes: [-0.4197115390745772, 0.41971153907457726, -0.10492788476864436]}
    - {mu0: 0, rank: 4, ndensity: 1, num_ms_combs: 10, mus: [0, 0, 0, 0], ns: [1, 1, 1, 1], ls: [1, 1, 2, 2], ms_combs: [-1, 1, -2, 2, -1, 1, -1, 1, -1, 1, 0, 0, 0, 0, -2, 2, 0, 0, -1, 1, 0, 0, 0, 0, 0, 1, -2, 1, 0, 1, -1, 0, 1, 1, -2, 0, 1, 1, -1, -1], ctildes: [-0.10968016794028196, 0.10036994501078551, -0.048633268683810002, 0.045529861040644562, -0.054840083970140979, 0.02897174580665322, 0.026333287071221619, -0.010750519429120371, -0.015203530379217499, 0.0093102229294964242]}
    - {mu0: 0, rank: 4, ndensity: 1, num_ms_combs: 1, mus: [0, 0, 0, 0], ns: [1, 1, 1, 2], ls: [0, 0, 0, 0], ms_combs: [0, 0, 0, 0], ctildes: [-0.12466248109131299]}
    - {mu0: 0, rank: 4, ndensity: 1, num_ms_combs: 2, mus: [0, 0, 0, 0], ns: [1, 1, 1, 2], ls: [0, 0, 1, 1], ms_combs: [0, 0, 0, 0, 0, 0, 1, -1], ctildes: [-0.13339098237889863, 0.2667819647577972]}
    - {mu0: 0, rank: 4, ndensity: 1, num_ms_combs: 3, mus: [0, 0, 0, 0], ns: [1, 1, 1, 2], ls: [0, 0, 2, 2], ms_combs: [0, 0, 0, 0, 0, 0, 1, -1, 0, 0, 2, -2], ctildes: [-0.039705808735603525, 0.079411617471207063, -0.079411617471207077]}
    - {mu0: 0, rank: 4, ndensity: 1, num_ms_combs: 2, mus: [0, 0, 0, 0], ns: [1, 1, 1, 2], ls: [0, 1, 1, 0], ms_combs: [0, 0, 0, 0, 0, 1, -1, 0], ctildes: [0.061157102600749816, -0.12231420520149962]}
    - {mu0: 0, rank: 4, ndensity: 1, num_ms_combs: 4, mus: [0, 0, 0, 0], ns: [1, 1, 1, 2], ls: [0, 1, 1, 2], ms_combs: [0, -1, 1, 0, 0, 0, 0, 0, 0, 0, 1, -1, 0, 1, 1, -2], ctildes: [0.025806330551020804, 0.025806330551020808, -0.089395751342569968, 0.063212341983597625]}
    - {mu0: 0, rank: 4, ndensity: 1, num_ms_combs: 5, mus: [0, 0, 0, 0], ns: [1, 1, 1, 2], ls: [0, 1, 2, 1], ms_combs: [0, 0, 0, 0, 0, 0, 1, -1, 0, 1, -2, 1, 0, 1, -1, 0, 0, 1, 0, -1], ctildes: [0.017169117400833236, -0.029737783659358072, 0.042055576965981188, -0.029737783659358072, 0.017169117400833232]}
    - {mu0: 0, rank: 4, ndensity: 1, num_ms_combs: 3, mus: [0, 0, 0, 0], ns: [1, 1, 1, 2], ls: [0, 2, 2, 0], ms_combs: [0, 0, 0, 0, 0, 1, -1, 0, 0, 2, -2, 0], ctildes: [-0.055914391090348778, 0.11182878218069757, -0.1118287821806976]}
    - {mu0: 0, rank: 4, ndensity: 1, num_ms_combs: 5, mus: [0, 0, 0, 0], ns: [1, 1, 1, 2], ls: [1, 1, 1, 1], ms_combs: [0, 0, 0, 0, 0, 0, 1, -1, 1, -1, -1, 1, 1, -1, 0, 0, 1, -1, 1, -1], ctildes: [0.070690479633798251, -0.14138095926759645, 0.14138095926759645, -0.14138095926759645, 0.14138095926759645]}
    - {mu0: 0, rank: 4, ndensity: 1, num_ms_combs: 4, mus: [0, 0, 0, 0], ns: [1, 1, 1, 2], ls: [1, 1, 2, 0], ms_combs: [-1, 1, 0, 0, 0, 0, 0, 0, 0, 1, -1, 0, 1, 1, -2, 0], ctildes: [0.075713486416517123, 0.075713486416517109, -0.26227921058316744, 0.18545940836761224]}
    - {mu0: 0, rank: 4, ndensity: 1, num_ms_combs: 1, mus: [0, 0, 0, 0], ns: [1, 1, 1, 3], ls: [0, 0, 0, 0], ms_combs: [0, 0, 0, 0], ctildes: [-0.031755219789219233]}
    - {mu0: 0, rank: 4, ndensity: 1, num_ms_combs: 2, mus: [0, 0, 0, 0], ns: [1, 1, 1, 3], ls: [0, 0, 1, 1], ms_combs: [0, 0, 0, 0, 0, 0, 1, -1], ctildes: [-0.071227194498787116, 0.14245438899757421]}
    - {mu0: 0, rank: 4, ndensity: 1, num_ms_combs: 3, mus: [0, 0, 0, 0], ns: [1, 1, 1, 3], ls: [0, 0, 2, 2], ms_combs: [0, 0, 0, 0, 0, 0, 1, -1, 0, 0, 2, -2], ctildes: [0.0084925201949524447, -0.016985040389904893, 0.016985040389904896]}
    - {mu0: 0, rank: 4, ndensity: 1, num_ms_combs: 2, mus: [0, 0, 0, 0], ns: [1, 1, 1, 3], ls: [0, 1, 1, 0], ms_combs: [0, 0, 0, 0, 0, 1, -1, 0], ctildes: [0.035914518951588349, -0.071829037903176685]}
    - {mu0: 0, rank: 4, ndensity: 1, num_ms_combs: 4, mus: [0, 0, 0, 0], ns: [1, 1, 1, 3], ls: [0, 1, 1, 2], ms_combs: [0, -1, 1, 0, 0, 0, 0, 0, 0, 0, 1, -1, 0, 1, 1, -2], ctildes: [-0.0053407130991207537, -0.0053407130991207545, 0.018500772872651571, -0.013082021955444046]}
    - {mu0: 0, rank: 4, ndensity: 1, num_ms_combs: 5, mus: [0, 0, 0, 0], ns: [1, 1, 1, 3], ls: [0, 1, 2, 1], ms_combs: [0, 0, 0, 0, 0, 0, 1, -1, 0, 1, -2, 1, 0, 1, -1, 0, 0, 1, 0, -1], ctildes: [0.039858346854621418, -0.069036681857907456, 0.097632611784689308, -0.069036681857907456, 0.039858346854621411]}
    - {mu0: 0, rank: 4, ndensity: 1, num_ms_combs: 3, mus: [0, 0, 0, 0], ns: [1, 1, 1, 3], ls: [0, 2, 2, 0], ms_combs: [0, 0, 0, 0, 0, 1, -1, 0, 0, 2, -2, 0], ctildes: [-0.022344416003574376, 0.044688832007148759, -0.044688832007148765]}
    - {mu0: 0, rank: 4, ndensity: 1, num_ms_combs: 5, mus: [0, 0, 0, 0], ns: [1, 1, 1, 3], ls: [1, 1, 1, 1], ms_combs: [0, 0, 0, 0, 0, 0, 1, -1, 1, -1, -1, 1, 1, -1, 0, 0, 1, -1, 1, -1], ctildes: [0.0012829663003719142, -0.0025659326007438274, 0.002565932600743827, -0.0025659326007438274, 0.002565932600743827]}
    - {mu0: 0, rank: 4, ndensity: 1, num_ms_combs: 4, mus: [0, 0, 0, 0], ns: [1, 1, 1, 3], ls: [1, 1, 2, 0], ms_combs: [-1, 1, 0, 0, 0, 0, 0, 0, 0, 1, -1, 0, 1, 1, -2, 0], ctildes: [0.089477113106768272, 0.089477113106768258, -0.30995781203101958, 0.21917327076887921]}
    - {mu0: 0, rank: 4, ndensity: 1, num_ms_combs: 1, mus: [0, 0, 0, 0], ns: [1, 1, 2, 2], ls: [0, 0, 0, 0], ms_combs: [0, 0, 0, 0], ctildes: [0.029237457961993531]}
    - {mu0: 0, rank: 4, ndensity: 1, num_ms_combs: 2, mus: [0, 0, 0, 0], ns: [1, 1, 2, 2], ls: [0, 0, 1, 1], ms_combs: [0, 0, 0, 0, 0, 0, 1, -1], ctildes: [0.0079530214040290648, -0.015906042808058126]}
    - {mu0: 0, rank: 4, ndensity: 1, num_ms_combs: 3, mus: [0, 0, 0, 0], ns: [1, 1, 2, 2], ls: [0, 0, 2, 2], ms_combs: [0, 0, 0, 0, 0, 0, 1, -1, 0, 0, 2, -2], ctildes: [-0.00022093261967773856, 0.00044186523935547717, -0.00044186523935547728]}
    - {mu0: 0, rank: 4, ndensity: 1, num_ms_combs: 2, mus: [0, 0, 0, 0], ns: [1, 1, 2, 2], ls: [0, 1, 0, 1], ms_combs: [0, 0, 0, 0, 0, 1, 0, -1], ctildes: [-0.010859774154967968, 0.021719548309935933]}
    - {mu0: 0, rank: 4, ndensity: 1, num_ms_combs: 5, mus: [0, 0, 0, 0], ns: [1, 1, 2, 2], ls: [0, 1, 1, 2], ms_combs: [0, 0, 0, 0, 0, 0, 1, -1, 0, 1, -1, 0, 0, 1, 0, -1, 0, 1, 1, -2], ctildes: [-0.020144050481766238, 0.034890518904651446, -0.020144050481766238, 0.034890518904651446, -0.049342645033192939]}
    - {mu0: 0, rank: 4, ndensity: 1, num_ms_combs: 3, mus: [0, 0, 0, 0], ns: [1, 1, 2, 2], ls: [0, 2, 0, 2], ms_combs: [0, 0, 0, 0, 0, 1, 0, -1, 0, 2, 0, -2], ctildes: [0.048552427575505423, -0.09710485515101086, 0.097104855151010888]}
    - {mu0: 0, rank: 4, ndensity: 1, num_ms_combs: 4, mus: [0, 0, 0, 0], ns: [1, 1, 2, 2], ls: [0, 2, 1, 1], ms_combs: [0, 0, -1, 1, 0, 0, 0, 0, 0, 1, -1, 0, 0, 2, -1, -1], ctildes: [-0.0028646333525147389, -0.0028646333525147384, 0.0099233810232237894, -0.0070168900138194426]}
    - {mu0: 0, rank: 4, ndensity: 1, num_ms_combs: 2, mus: [0, 0, 0, 0], ns: [1, 1, 2, 2], ls: [1, 1, 0, 0], ms_combs: [0, 0, 0, 0, 1, -1, 0, 0], ctildes: [-0.10123383883547245, 0.20246767767094484]}
    - {mu0: 0, rank: 4, ndensity: 1, num_ms_combs: 4, mus: [0, 0, 0, 0], ns: [1, 1, 2, 2], ls: [1, 1, 0, 2], ms_combs: [-1, 1, 0, 0, 0, 0, 0, 0, 0, 1, 0, -1, 1, 1, 0, -2], ctildes: [-0.027885610701321815, -0.027885610701321811, 0.096598589069551571, -0.068305517384132625]}
    - {mu0: 0, rank: 4, ndensity: 1, num_ms_combs: 6, mus: [0, 0, 0, 0], ns: [1, 1, 2, 2], ls: [1, 1, 1, 1], ms_combs: [-1, 1, -1, 1, -1, 1, 0, 0, 0, 0, -1, 1, 0, 0, 0, 0, 0, 1, -1, 0, 1, 1, -1, -1], ctildes: [-0.045453205481238358, 0.023973749453090231, 0.023973749453090231, -0.010739728014074072, -0.004988586849884194, 0.002494293424942097]}
    - {mu0: 0, rank: 4, ndensity: 1, num_ms_combs: 5, mus: [0, 0, 0, 0], ns: [1, 1, 2, 2], ls: [1, 2, 0, 1], ms_combs: [0, 0, 0, 0, 0, 1, 0, -1, 1, -2, 0, 1, 1, -1, 0, 0, 1, 0, 0, -1], ctildes: [-0.069451461578168561, 0.12029346011330573, -0.17012064275702393, 0.12029346011330573, -0.069451461578168561]}
    - {mu0: 0, rank: 4, ndensity: 1, num_ms_combs: 3, mus: [0, 0, 0, 0], ns: [1, 1, 2, 2], ls: [2, 2, 0, 0], ms_combs: [0, 0, 0, 0, 1, -1, 0, 0, 2, -2, 0, 0], ctildes: [0.024401634161007362, -0.048803268322014731, 0.048803268322014745]}
    - {mu0: 0, rank: 4, ndensity: 1, num_ms_combs: 1, mus: [0, 0, 0, 0], ns: [1, 1, 2, 3], ls: [0, 0, 0, 0], ms_combs: [0, 0, 0, 0], ctildes: [0.043336840293272443]}
    - {mu0: 0, rank: 4, ndensity: 1, num_ms_combs: 2, mus: [0, 0, 0, 0], ns: [1, 1, 2, 3], ls: [0, 0, 1, 1], ms_combs: [0, 0, 0, 0, 0, 0, 1, -1], ctildes: [-0.0042612779121564536, 0.0085225558243129055]}
    - {mu0: 0, rank: 4, ndensity: 1, num_ms_combs: 2, mus: [0, 0, 0, 0], ns: [1, 1, 2, 3], ls: [0, 1, 0, 1], ms_combs: [0, 0, 0, 0, 0, 1, 0, -1], ctildes: [0.13889783231974848, -0.2777956646394969]}
    - {mu0: 0, rank: 4, ndensity: 1, num_ms_combs: 2, mus: [0, 0, 0, 0], ns: [1, 1, 2, 3], ls: [0, 1, 1, 0], ms_combs: [0, 0, 0, 0, 0, 1, -1, 0], ctildes: [-0.03677178670887201, 0.073543573417743993]}
    - {mu0: 0, rank: 4, ndensity: 1, num_ms_combs: 2, mus: [0, 0, 0, 0], ns: [1, 1, 2, 3], ls: [1, 1, 0, 0], ms_combs: [0, 0, 0, 0, 1, -1, 0, 0], ctildes: [-0.056025529107569937, 0.11205105821513986]}
    - {mu0: 0, rank: 4, ndensity: 1, num_ms_combs: 1, mus: [0, 0, 0, 0], ns: [1, 1, 3, 3], ls: [0, 0, 0, 0], ms_combs: [0, 0, 0, 0], ctildes: [0.014048030639618686]}
    - {mu0: 0, rank: 4, ndensity: 1, num_ms_combs: 2, mus: [0, 0, 0, 0], ns: [1, 1, 3, 3], ls: [0, 0, 1, 1], ms_combs: [0, 0, 0, 0, 0, 0, 1, -1], ctildes: [-0.0063498135159469017, 0.012699627031893802]}
    - {mu0: 0, rank: 4, ndensity: 1, num_ms_combs: 2, mus: [0, 0, 0, 0], ns: [1, 1, 3, 3], ls: [0, 1, 0, 1], ms_combs: [0, 0, 0, 0, 0, 1, 0, -1], ctildes: [0.014318964227468013, -0.028637928454936019]}
    - {mu0: 0, rank: 4, ndensity: 1, num_ms_combs: 2, mus: [0, 0, 0, 0], ns: [1, 1, 3, 3], ls: [1, 1, 0, 0], ms_combs: [0, 0, 0, 0, 1, -1, 0, 0], ctildes: [0.020583721700661257, -0.041167443401322508]}
    - {mu0: 0, rank: 4, ndensity: 1, num_ms_combs: 1, mus: [0, 0, 0, 0], ns: [1, 2, 2, 2], ls: [0, 0, 0, 0], ms_combs: [0, 0, 0, 0], ctildes: [0.040740189546494374]}
    - {mu0: 0, rank: 4, ndensity: 1, num_ms_combs: 2, mus: [0, 0, 0, 0], ns: [1, 2, 2, 2], ls: [0, 0, 1, 1], ms_combs: [0, 0, 0, 0, 0, 0, 1, -1], ctildes: [-0.052031618541340044, 0.10406323708268007]}
    - {mu0: 0, rank: 4, ndensity: 1, num_ms_combs: 2, mus: [0, 0, 0, 0], ns: [1, 2, 2, 2], ls: [1, 0, 0, 1], ms_combs: [0, 0, 0, 0, 1, 0, 0, -1], ctildes: [0.056203251851397032, -0.11240650370279404]}
    - {mu0: 0, rank: 4, ndensity: 1, num_ms_combs: 1, mus: [0, 0, 0, 0], ns: [1, 2, 2, 3], ls: [0, 0, 0, 0], ms_combs: [0, 0, 0, 0], ctildes: [0.029644996135869826]}
    - {mu0: 0, rank: 4, ndensity: 1, num_ms_combs: 2, mus: [0, 0, 0, 0], ns: [1, 2, 2, 3], ls: [0, 0, 1, 1], ms_combs: [0, 0, 0, 0, 0, 0, 1, -1], ctildes: [0.01320530931142427, -0.026410618622848533]}
    - {mu0: 0, rank: 4, ndensity: 1, num_ms_combs: 2, mus: [0, 0, 0, 0], ns: [1, 2, 2, 3], ls: [0, 1, 1, 0], ms_combs: [0, 0, 0, 0, 0, 1, -1, 0], ctildes: [0.016678614716207088, -0.033357229432414169]}
    - {mu0: 0, rank: 4, ndensity: 1, num_ms_combs: 2, mus: [0, 0, 0, 0], ns: [1, 2, 2, 3], ls: [1, 0, 0, 1], ms_combs: [0, 0, 0, 0, 1, 0, 0, -1], ctildes: [-0.075137024509864495, 0.15027404901972896]}
    - {mu0: 0, rank: 4, ndensity: 1, num_ms_combs: 2, mus: [0, 0, 0, 0], ns: [1, 2, 2, 3], ls: [1, 0, 1, 0], ms_combs: [0, 0, 0, 0, 1, 0, -1, 0], ctildes: [0.073821520911810587, -0.14764304182362115]}
    - {mu0: 0, rank: 4, ndensity: 1, num_ms_combs: 1, mus: [0, 0, 0, 0], ns: [1, 2, 3, 3], ls: [0, 0, 0, 0], ms_combs: [0, 0, 0, 0], ctildes: [-0.03534181042221033]}
    - {mu0: 0, rank: 4, ndensity: 1, num_ms_combs: 1, mus: [0, 0, 0, 0], ns: [1, 3, 3, 3], ls: [0, 0, 0, 0], ms_combs: [0, 0, 0, 0], ctildes: [-0.011730467766431855]}
    - {mu0: 0, rank: 4, ndensity: 1, num_ms_combs: 1, mus: [0, 0, 0, 0], ns: [2, 2, 2, 2], ls: [0, 0, 0, 0], ms_combs: [0, 0, 0, 0], ctildes: [-0.035039719665950153]}
    - {mu0: 0, rank: 4, ndensity: 1, num_ms_combs: 2, mus: [0, 0, 0, 0], ns: [2, 2, 2, 2], ls: [0, 0, 1, 1], ms_combs: [0, 0, 0, 0, 0, 0, 1, -1], ctildes: [0.02507714223075724, -0.050154284461514466]}
    - {mu0: 0, rank: 4, ndensity: 1, num_ms_combs: 1, mus: [0, 0, 0, 0], ns: [2, 2, 2, 3], ls: [0, 0, 0, 0], ms_combs: [0, 0, 0, 0], ctildes: [-0.046708393819633251]}
    - {mu0: 0, rank: 4, ndensity: 1, num_ms_combs: 1, mus: [0, 0, 0, 0], ns: [2, 2, 3, 3], ls: [0, 0, 0, 0], ms_combs: [0, 0, 0, 0], ctildes: [0.044962927316861488]}
    - {mu0: 0, rank: 5, ndensity: 1, num_ms_combs: 1, mus: [0, 0, 0, 0, 0], ns: [1, 1, 1, 1, 1], ls: [0, 0, 0, 0, 0], ms_combs: [0, 0, 0, 0, 0], ctildes: [0.010473488207400265]}
    - {mu0: 0, rank: 5, ndensity: 1, num_ms_combs: 2, mus: [0, 0, 0, 0, 0], ns: [1, 1, 1, 1, 1], ls: [0, 0, 0, 1, 1], ms_combs: [0, 0, 0, 0, 0, 0, 0, 0, 1, -1], ctildes: [-0.091752597715034412, 0.1835051954300688]}
    - {mu0: 0, rank: 5, ndensity: 1, num_ms_combs: 3, mus: [0, 0, 0, 0, 0], ns: [1, 1, 1, 1, 1], ls: [0, 0, 0, 2, 2], ms_combs: [0, 0, 0, 0, 0, 0, 0, 0, 1, -1, 0, 0, 0, 2, -2], ctildes: [0.0011823152418376872, -0.0023646304836753749, 0.0023646304836753753]}
    - {mu0: 0, rank: 5, ndensity: 1, num_ms_combs: 4, mus: [0, 0, 0, 0, 0], ns: [1, 1, 1, 1, 1], ls: [0, 0, 1, 1, 2], ms_combs: [0, 0, -1, 1, 0, 0, 0, 0, 0, 0, 0, 0, 0, 1, -1, 0, 0, 1, 1, -2], ctildes: [-0.0083239902839400449, -0.0083239902839400432, 0.028835148186987691, -0.02038952881953798]}
    - {mu0: 0, rank: 5, ndensity: 1, num_ms_combs: 3, mus: [0, 0, 0, 0, 0], ns: [1, 1, 1, 1, 1], ls: [0, 1, 1, 1, 1], ms_combs: [0, -1, -1, 1, 1, 0, -1, 0, 0, 1, 0, 0, 0, 0, 0], ctildes: [0.06244382240692458, -0.062443822406924601, 0.015610955601731154]}
    - {mu0: 0, rank: 5, ndensity: 1, num_ms_combs: 1, mus: [0, 0, 0, 0, 0], ns: [1, 1, 1, 1, 2], ls: [0, 0, 0, 0, 0], ms_combs: [0, 0, 0, 0, 0], ctildes: [-0.052080856908470564]}
    - {mu0: 0, rank: 5, ndensity: 1, num_ms_combs: 2, mus: [0, 0, 0, 0, 0], ns: [1, 1, 1, 1, 2], ls: [0, 0, 0, 1, 1], ms_combs: [0, 0, 0, 0, 0, 0, 0, 0, 1, -1], ctildes: [0.038918914671299557, -0.077837829342599099]}
    - {mu0: 0, rank: 5, ndensity: 1, num_ms_combs: 2, mus: [0, 0, 0, 0, 0], ns: [1, 1, 1, 1, 2], ls: [0, 0, 1, 1, 0], ms_combs: [0, 0, 0, 0, 0, 0, 0, 1, -1, 0], ctildes: [0.041548371582940349, -0.083096743165880685]}
    - {mu0: 0, rank: 5, ndensity: 1, num_ms_combs: 1, mus: [0, 0, 0, 0, 0], ns: [1, 1, 1, 2, 2], ls: [0, 0, 0, 0, 0], ms_combs: [0, 0, 0, 0, 0], ctildes: [0.11472281953369622]}
    - {mu0: 0, rank: 5, ndensity: 1, num_ms_combs: 2, mus: [0, 0, 0, 0, 0], ns: [1, 1, 1, 2, 2], ls: [0, 0, 0, 1, 1], ms_combs: [0, 0, 0, 0, 0, 0, 0, 0, 1, -1], ctildes: [0.00081646241767408445, -0.0016329248353481687]}
    - {mu0: 0, rank: 5, ndensity: 1, num_ms_combs: 2, mus: [0, 0, 0, 0, 0], ns: [1, 1, 1, 2, 2], ls: [0, 0, 1, 0, 1], ms_combs: [0, 0, 0, 0, 0, 0, 0, 1, 0, -1], ctildes: [-0.030457459111565853, 0.060914918223131692]}
    - {mu0: 0, rank: 5, ndensity: 1, num_ms_combs: 2, mus: [0, 0, 0, 0, 0], ns: [1, 1, 1, 2, 2], ls: [0, 1, 1, 0, 0], ms_combs: [0, 0, 0, 0, 0, 0, 1, -1, 0, 0], ctildes: [-0.00083107528629286064, 0.0016621505725857209]}
    - {mu0: 0, rank: 5, ndensity: 1, num_ms_combs: 1, mus: [0, 0, 0, 0, 0], ns: [1, 1, 2, 2, 2], ls: [0, 0, 0, 0, 0], ms_combs: [0, 0, 0, 0, 0], ctildes: [-0.096810875502066976]}
    - {mu0: 0, rank: 5, ndensity: 1, num_ms_combs: 1, mus: [0, 0, 0, 0, 0], ns: [1, 2, 2, 2, 2], ls: [0, 0, 0, 0, 0], ms_combs: [0, 0, 0, 0, 0], ctildes: [0.029904462992889728]}
    - {mu0: 0, rank: 6, ndensity: 1, num_ms_combs: 1, mus: [0, 0, 0, 0, 0, 0], ns: [1, 1, 1, 1, 1, 1], ls: [0, 0, 0, 0, 0, 0], ms_combs: [0, 0, 0, 0, 0, 0], ctildes: [0.00039624630584815453]}
    - {mu0: 0, rank: 6, ndensity: 1, num_ms_combs: 2, mus: [0, 0, 0, 0, 0, 0], ns: [1, 1, 1, 1, 1, 1], ls: [0, 0, 0, 0, 1, 1], ms_combs: [0, 0, 0, 0, 0, 0, 0, 0, 0, 0, 1, -1], ctildes: [0.0033791588510055288, -0.0067583177020110567]}
    - {mu0: 0, rank: 6, ndensity: 1, num_ms_combs: 1, mus: [0, 0, 0, 0, 0, 0], ns: [1, 1, 1, 1, 1, 2], ls: [0, 0, 0, 0, 0, 0], ms_combs: [0, 0, 0, 0, 0, 0], ctildes: [-0.001127543685446291]}
    - {mu0: 0, rank: 6, ndensity: 1, num_ms_combs: 1, mus: [0, 0, 0, 0, 0, 0], ns: [1, 1, 1, 1, 2, 2], ls: [0, 0, 0, 0, 0, 0], ms_combs: [0, 0, 0, 0, 0, 0], ctildes: [0.00055747384194886724]}
