elements: [Fe]
E0: [0]
deltaSplineBins: 0.001
embeddings:
  0: {ndensity: 2, FS_parameters: [1, 1, 1, 0.5], npoti: FinnisSinclairShiftedScaled, rho_core_cutoff: 100000, drho_core_cutoff: 250}
bonds:
  [0, 0]: {nradmax: 6, lmax: 3, nradbasemax: 11, radbasename: SBessel, radparameters: [5.25], radcoefficients: [[[1.344665376518813, -0.38736561009963633, 0.040835440793878387, -0.25092517196670983, 0.69884189394083573, -0.43384111681155019, 0.15339590936156564, 0.16145458569899718, -0.26970724813234581, 0.35115789475309833, -0.19717992541932394], [0.8664470180943844, -0.50920841529724048, -0.080168525761936213, 0.31252731633300113, -0.22993710265426603, -0.014456919273393558, 0.090596651698320554, 0.074935742646257575, -0.21621686356637812, 0.19125751332398794, -0.074645355151016557], [0.069332573822134924, 0.34317038907058839, -0.32739965913262348, -0.036837330578382635, 0.44455116823580021, -0.65889328258360658, 0.80340444717417592, -0.80645877935663324, 0.60768216231531036, -0.29658436342696287, 0.06739371505493881], [1.16286433450426, 0.190795863177844, -0.45389305355263276, 0.20676169107740675, 0.089374318565766123, -0.47038926457436042, 0.76777820231051719, -0.75617288542522165, -0.12747568010183466, 0.68317531304744239, -0.11834137888326396]], [[0.42521604119092082, 0.80945349695727575, -1.0606021791318421, 0.57986791365598211, 0.044516468441893775, 0.062602527295629803, -0.37866053343361189, 0.60636100070852128, -0.59663151771881329, 0.49589212603008753, -0.23208348310972871], [-0.35432099865955768, 0.31219874218047744, -0.17885451302775188, 0.4783601097906377, -0.29564621912950201, -0.54443566094099483, 0.71504385157898254, 0.093436947916922294, -0.38902090110434501, 0.34215323076648013, -0.0057772300437537102], [-0.19627649309859335, 0.62379284818751579, -0.49031344083748396, -0.36490900597008158, 0.12190449740275207, 0.051299640170036742, -0.41819234130361893, 0.45322619584715096, 0.43687219004800276, -0.61747911439512237, 0.284078871776547], [0.010077449070008602, 0.9192107272787835, -0.056747539917342181, -0.58148725970002646, -0.17865606597904554, 0.75010508917195762, -0.28189176890770623, -0.2962406886754354, 0.051823370035213132, 0.058208391261295692, 0.29740154518098699]], [[0.8230878402484223, -0.36026258122003896, 0.64743313534751146, -0.79619557023084098, 0.6820403662765987, -0.23382289770420553, -0.24158292311961363, 0.28036239907201926, -0.18484271698792298, 0.094718347817984758, -0.014505809555467248], [-0.45749038411668791, -0.14627438993255271, 0.96988302004058269, -0.23979214088905129, -0.3039695332514587, -0.2152450911402535, 0.42172332878878505, 0.32719213836240424, -0.47641490236407069, 0.37414965010087925, -0.053785206955203294], [-0.31435397026276318, -1.0117546314331436, 0.21848529991723042, 0.060662277066515717, -0.28384982775509182, -0.59947479515736801, 0.24191390127127776, 0.43882573951066733, 0.1935136424451942, -0.0013383461934603313, -0.25332578493736874], [-0.19207139022900108, -0.14478161420277236, 0.57099536045805299, -0.34979527463405607, 0.21574992942361587, 0.077654198826556539, 0.16227687614581096, -0.2581009070450806, -0.73017778509270992, 1.2250160703049247, -0.32641574659591377]], [[0.51078031091578646, 0.36966923678780444, -0.35911645638475165, 0.48200894766451147, -0.17065194598958264, 0.026893073320794249, -0.21232741005193004, 0.065857074833136284, 0.084747230106692051, -0.027799391170867344, -0.046300811303274236], [-0.3373781370266753, -0.1330643120534461, -0.085157183803497433, 0.73777640144038437, -0.065777710896916822, -0.33676826442844093, -0.078479328033214779, 0.47323599725051591, -0.43823614938703698, 0.37172741265191084, 0.01655578033058221], [0.37693293749808876, -0.53045518571963113, -0.16779471051186984, 0.63285266633737014, -0.63122626280937655, 0.18405419156346628, -0.27019113219998891, 0.40356895186736824, -0.054350603547462711, 0.085976223830120019, -0.1251133871852606], [0, 0, 0, 1, 0, 0, 0, 0, 0, 0, 0]], [[0.47143446802336009, 0.64865781084754648, 0.053747633995864831, -0.44025920724534096, 0.68394830169370202, 0.11170290749454968, -0.29964590633682348, -0.25824832835964628, 0.7340707803396852, -0.45460578553350861, 0.20989131353753562], [-0.011477288130383624, 0.18412903658035626, -0.19138636614531937, -0.31307548949750147, 1.0349853078955016, -0.089190190026883914, -0.10567278371235368, -0.0363617180645293, -0.14279801725396252, 0.04603486185273608, 0.13381296238800475], [0.05448409183950733, -0.016132948809097547, -0.219089144487779, -0.26958433959731204, 0.95363001475756992, -0.16516978192706713, -0.34037830545255876, 0.093507651538298528, 0.41420056255710191, 0.36642024355354985, -0.68259612418524873], [0, 0, 0, 0, 1, 0, 0, 0, 0, 0, 0]], [[-0.19751443924158804, -0.17534305512645232, -0.22987290688037701, 0.13433219322806189, 0.18846349044295907, 0.84147517167991004, -0.10895252498224486, -0.065544972337157698, -0.045068702506181446, 0.35573823984327718, -0.11910981895296445], [-0.093200795738307612, 0.03612626582957059, 0.035114504499509196, -0.1705274206720169, -0.043533916703998435, 0.80357705955807002, -0.049268758547785951, 0.18437469351923291, -0.76546106312686613, 0.41805604021062359, -0.077041846475069384], [0, 0, 0, 0, 0, 1, 0, 0, 0, 0, 0], [0, 0, 0, 0, 0, 1, 0, 0, 0, 0, 0]]], prehc: 0, lambdahc: 0, rcut: 6.5, dcut: 0.01, rcut_in: 0, dcut_in: 0, inner_cutoff_type: distance}
functions:
  0:
    - {mu0: 0, rank: 1, ndensity: 2, num_ms_combs: 1, mus: [0], ns: [1], ls: [0], ms_combs: [0], ctildes: [-0.71377423864874912, -0.15805693406696594]}
    - {mu0: 0, rank: 1, ndensity: 2, num_ms_combs: 1, mus: [0], ns: [2], ls: [0], ms_combs: [0], ctildes: [-0.36762044312133746, -0.23660384644937307]}
    - {mu0: 0, rank: 1, ndensity: 2, num_ms_combs: 1, mus: [0], ns: [3], ls: [0], ms_combs: [0], ctildes: [0.46678038027200364, 0.26446651855033182]}
    - {mu0: 0, rank: 1, ndensity: 2, num_ms_combs: 1, mus: [0], ns: [4], ls: [0], ms_combs: [0], ctildes: [-0.32743760058917432, -0.39118774371147463]}
    - {mu0: 0, rank: 1, ndensity: 2, num_ms_combs: 1, mus: [0], ns: [5], ls: [0], ms_combs: [0], ctildes: [0.35720798068168108, -1.017876983380217]}
    - {mu0: 0, rank: 1, ndensity: 2, num_ms_combs: 1, mus: [0], ns: [6], ls: [0], ms_combs: [0], ctildes: [-0.077761729899274462, -0.064764130600946851]}
    - {mu0: 0, rank: 1, ndensity: 2, num_ms_combs: 1, mus: [0], ns: [7], ls: [0], ms_combs: [0], ctildes: [-0.29365445652553135, 0.24193921796315471]}
    - {mu0: 0, rank: 1, ndensity: 2, num_ms_combs: 1, mus: [0], ns: [8], ls: [0], ms_combs: [0], ctildes: [0.46989059507928144, -0.58590831136835309]}
    - {mu0: 0, rank: 1, ndensity: 2, num_ms_combs: 1, mus: [0], ns: [9], ls: [0], ms_combs: [0], ctildes: [-0.33045252087684096, -0.18458956091378287]}
    - {mu0: 0, rank: 1, ndensity: 2, num_ms_combs: 1, mus: [0], ns: [10], ls: [0], ms_combs: [0], ctildes: [0.24440250607016423, -0.46544771465577861]}
    - {mu0: 0, rank: 1, ndensity: 2, num_ms_combs: 1, mus: [0], ns: [11], ls: [0], ms_combs: [0], ctildes: [-0.11249135933673077, 0.34820015426903528]}
    - {mu0: 0, rank: 2, ndensity: 2, num_ms_combs: 1, mus: [0, 0], ns: [1, 1], ls: [0, 0], ms_combs: [0, 0], ctildes: [0.70150071407051573, -0.13965713420907069]}
    - {mu0: 0, rank: 2, ndensity: 2, num_ms_combs: 2, mus: [0, 0], ns: [1, 1], ls: [1, 1], ms_combs: [0, 0, 1, -1], ctildes: [-0.20971470276486368, -0.072444545256791879, 0.41942940552972729, 0.14488909051358373]}
    - {mu0: 0, rank: 2, ndensity: 2, num_ms_combs: 3, mus: [0, 0], ns: [1, 1], ls: [2, 2], ms_combs: [0, 0, 1, -1, 2, -2], ctildes: [0.064520907129633723, -0.0025478101754322483, -0.12904181425926747, 0.0050956203508644975, 0.1290418142592675, -0.0050956203508644993]}
    - {mu0: 0, rank: 2, ndensity: 2, num_ms_combs: 4, mus: [0, 0], ns: [1, 1], ls: [3, 3], ms_combs: [0, 0, 1, -1, 2, -2, 3, -3], ctildes: [0.042951064847066733, -0.32461720411201067, -0.085902129694133467, 0.64923440822402134, 0.085902129694133453, -0.64923440822402123, -0.085902129694133453, 0.64923440822402123]}
    - {mu0: 0, rank: 2, ndensity: 2, num_ms_combs: 1, mus: [0, 0], ns: [1, 2], ls: [0, 0], ms_combs: [0, 0], ctildes: [-0.011709417176600713, -0.63674684365222145]}
    - {mu0: 0, rank: 2, ndensity: 2, num_ms_combs: 2, mus: [0, 0], ns: [1, 2], ls: [1, 1], ms_combs: [0, 0, 1, -1], ctildes: [0.19726002589857136, 0.092872042673240937, -0.39452005179714267, -0.18574408534648185]}
    - {mu0: 0, rank: 2, ndensity: 2, num_ms_combs: 3, mus: [0, 0], ns: [1, 2], ls: [2, 2], ms_combs: [0, 0, 1, -1, 2, -2], ctildes: [-0.054142726495766159, 0.00057771439881591281, 0.10828545299153233, -0.0011554287976318258, -0.10828545299153236, 0.0011554287976318261]}
    - {mu0: 0, rank: 2, ndensity: 2, num_ms_combs: 4, mus: [0, 0], ns: [1, 2], ls: [3, 3], ms_combs: [0, 0, 1, -1, 2, -2, 3, -3], ctildes: [-0.0068552844806123179, 0.020994969795740268, 0.013710568961224636, -0.041989939591480535, -0.013710568961224632, 0.041989939591480528, 0.013710568961224632, -0.041989939591480528]}
    - {mu0: 0, rank: 2, ndensity: 2, num_ms_combs: 1, mus: [0, 0], ns: [1, 3], ls: [0, 0], ms_combs: [0, 0], ctildes: [0.35968518440492858, -0.062000560173984538]}
    - {mu0: 0, rank: 2, ndensity: 2, num_ms_combs: 2, mus: [0, 0], ns: [1, 3], ls: [1, 1], ms_combs: [0, 0, 1, -1], ctildes: [0.18709628787586177, 0.18409583734643467, -0.37419257575172343, -0.36819167469286929]}
    - {mu0: 0, rank: 2, ndensity: 2, num_ms_combs: 3, mus: [0, 0], ns: [1, 3], ls: [2, 2], ms_combs: [0, 0, 1, -1, 2, -2], ctildes: [0.052170763939476991, 0.049816769622024297, -0.104341527878954, -0.099633539244048608, 0.10434152787895402, 0.099633539244048636]}
    - {mu0: 0, rank: 2, ndensity: 2, num_ms_combs: 4, mus: [0, 0], ns: [1, 3], ls: [3, 3], ms_combs: [0, 0, 1, -1, 2, -2, 3, -3], ctildes: [-0.036646175223850448, 0.30559390203379733, 0.073292350447700896, -0.61118780406759465, -0.073292350447700882, 0.61118780406759454, 0.073292350447700882, -0.61118780406759454]}
    - {mu0: 0, rank: 2, ndensity: 2, num_ms_combs: 1, mus: [0, 0], ns: [1, 4], ls: [0, 0], ms_combs: [0, 0], ctildes: [0.1453007887818778, 0.056145918489722724]}
    - {mu0: 0, rank: 2, ndensity: 2, num_ms_combs: 2, mus: [0, 0], ns: [1, 4], ls: [1, 1], ms_combs: [0, 0, 1, -1], ctildes: [-0.12373708958097626, 0.060503263329060593, 0.2474741791619525, -0.12100652665812117]}
    - {mu0: 0, rank: 2, ndensity: 2, num_ms_combs: 3, mus: [0, 0], ns: [1, 4], ls: [2, 2], ms_combs: [0, 0, 1, -1, 2, -2], ctildes: [-0.03410933105446208, -0.032616100648074596, 0.068218662108924175, 0.065232201296149206, -0.068218662108924188, -0.06523220129614922]}
    - {mu0: 0, rank: 2, ndensity: 2, num_ms_combs: 1, mus: [0, 0], ns: [1, 5], ls: [0, 0], ms_combs: [0, 0], ctildes: [-0.02680863494378094, 0.12659263463662312]}
    - {mu0: 0, rank: 2, ndensity: 2, num_ms_combs: 2, mus: [0, 0], ns: [1, 5], ls: [1, 1], ms_combs: [0, 0, 1, -1], ctildes: [0.26836142186152889, 0.105150235714752, -0.53672284372305767, -0.21030047142950398]}
    - {mu0: 0, rank: 2, ndensity: 2, num_ms_combs: 3, mus: [0, 0], ns: [1, 5], ls: [2, 2], ms_combs: [0, 0, 1, -1, 2, -2], ctildes: [-0.069413076373555163, 0.34159575665683656, 0.13882615274711033, -0.68319151331367323, -0.13882615274711038, 0.68319151331367345]}
    - {mu0: 0, rank: 2, ndensity: 2, num_ms_combs: 1, mus: [0, 0], ns: [1, 6], ls: [0, 0], ms_combs: [0, 0], ctildes: [-0.22530380455324445, 0.12141707734590541]}
    - {mu0: 0, rank: 2, ndensity: 2, num_ms_combs: 2, mus: [0, 0], ns: [1, 6], ls: [1, 1], ms_combs: [0, 0, 1, -1], ctildes: [-0.24237053165446892, 0.0072217395547673592, 0.48474106330893779, -0.014443479109534717]}
    - {mu0: 0, rank: 2, ndensity: 2, num_ms_combs: 1, mus: [0, 0], ns: [2, 2], ls: [0, 0], ms_combs: [0, 0], ctildes: [-0.39629119289503462, -1.0558988812162282]}
    - {mu0: 0, rank: 2, ndensity: 2, num_ms_combs: 2, mus: [0, 0], ns: [2, 2], ls: [1, 1], ms_combs: [0, 0, 1, -1], ctildes: [-0.10544233131393939, 0.19866417083541477, 0.21088466262787872, -0.39732834167082948]}
    - {mu0: 0, rank: 2, ndensity: 2, num_ms_combs: 3, mus: [0, 0], ns: [2, 2], ls: [2, 2], ms_combs: [0, 0, 1, -1, 2, -2], ctildes: [0.00049678639118393934, -0.016509963343589434, -0.00099357278236787889, 0.033019926687178874, 0.00099357278236787911, -0.033019926687178881]}
    - {mu0: 0, rank: 2, ndensity: 2, num_ms_combs: 4, mus: [0, 0], ns: [2, 2], ls: [3, 3], ms_combs: [0, 0, 1, -1, 2, -2, 3, -3], ctildes: [0.0094070205863437586, -0.056862042994450863, -0.018814041172687517, 0.11372408598890173, 0.018814041172687514, -0.1137240859889017, -0.018814041172687514, 0.1137240859889017]}
    - {mu0: 0, rank: 2, ndensity: 2, num_ms_combs: 1, mus: [0, 0], ns: [2, 3], ls: [0, 0], ms_combs: [0, 0], ctildes: [-0.099841238080333711, -0.449234908601711]}
    - {mu0: 0, rank: 2, ndensity: 2, num_ms_combs: 2, mus: [0, 0], ns: [2, 3], ls: [1, 1], ms_combs: [0, 0, 1, -1], ctildes: [-0.024192629806253692, 0.24564181834593646, 0.048385259612507371, -0.4912836366918728]}
    - {mu0: 0, rank: 2, ndensity: 2, num_ms_combs: 3, mus: [0, 0], ns: [2, 3], ls: [2, 2], ms_combs: [0, 0, 1, -1, 2, -2], ctildes: [0.020669943845843416, 0.0049784384184746577, -0.041339887691686839, -0.0099568768369493171, 0.041339887691686852, 0.0099568768369493188]}
    - {mu0: 0, rank: 2, ndensity: 2, num_ms_combs: 1, mus: [0, 0], ns: [2, 4], ls: [0, 0], ms_combs: [0, 0], ctildes: [-0.23963871034061909, -0.54897606208117178]}
    - {mu0: 0, rank: 2, ndensity: 2, num_ms_combs: 2, mus: [0, 0], ns: [2, 4], ls: [1, 1], ms_combs: [0, 0, 1, -1], ctildes: [-0.064624059331069128, -0.093205494688966453, 0.12924811866213826, 0.18641098937793288]}
    - {mu0: 0, rank: 2, ndensity: 2, num_ms_combs: 3, mus: [0, 0], ns: [2, 4], ls: [2, 2], ms_combs: [0, 0, 1, -1, 2, -2], ctildes: [-0.085707105497988101, 0.20301412275600322, 0.1714142109959762, -0.4060282455120065, -0.17141421099597626, 0.40602824551200661]}
    - {mu0: 0, rank: 2, ndensity: 2, num_ms_combs: 1, mus: [0, 0], ns: [2, 5], ls: [0, 0], ms_combs: [0, 0], ctildes: [-0.17645677710794044, 0.5917975606375786]}
    - {mu0: 0, rank: 2, ndensity: 2, num_ms_combs: 2, mus: [0, 0], ns: [2, 5], ls: [1, 1], ms_combs: [0, 0, 1, -1], ctildes: [0.029838620635469083, -0.045456767104613764, -0.059677241270938153, 0.090913534209227514]}
    - {mu0: 0, rank: 2, ndensity: 2, num_ms_combs: 1, mus: [0, 0], ns: [2, 6], ls: [0, 0], ms_combs: [0, 0], ctildes: [0.27245756601095672, 0.01753924305260016]}
    - {mu0: 0, rank: 2, ndensity: 2, num_ms_combs: 2, mus: [0, 0], ns: [2, 6], ls: [1, 1], ms_combs: [0, 0, 1, -1], ctildes: [0.048513019574966031, 0.019478861602974008, -0.097026039149932047, -0.038957723205948008]}
    - {mu0: 0, rank: 2, ndensity: 2, num_ms_combs: 1, mus: [0, 0], ns: [3, 3], ls: [0, 0], ms_combs: [0, 0], ctildes: [0.49295766330913593, 0.15943391811471247]}
    - {mu0: 0, rank: 2, ndensity: 2, num_ms_combs: 2, mus: [0, 0], ns: [3, 3], ls: [1, 1], ms_combs: [0, 0, 1, -1], ctildes: [-0.021989594064660958, 0.039898823270576006, 0.043979188129321903, -0.079797646541151984]}
    - {mu0: 0, rank: 2, ndensity: 2, num_ms_combs: 3, mus: [0, 0], ns: [3, 3], ls: [2, 2], ms_combs: [0, 0, 1, -1, 2, -2], ctildes: [0.0082642217357781524, -0.053253217794391579, -0.016528443471556308, 0.10650643558878316, 0.016528443471556312, -0.10650643558878319]}
    - {mu0: 0, rank: 2, ndensity: 2, num_ms_combs: 1, mus: [0, 0], ns: [3, 4], ls: [0, 0], ms_combs: [0, 0], ctildes: [-0.054432285485872575, -0.028672671153843827]}
    - {mu0: 0, rank: 2, ndensity: 2, num_ms_combs: 2, mus: [0, 0], ns: [3, 4], ls: [1, 1], ms_combs: [0, 0, 1, -1], ctildes: [0.11017238960413149, -0.13830445096377714, -0.22034477920826293, 0.27660890192755422]}
    - {mu0: 0, rank: 2, ndensity: 2, num_ms_combs: 1, mus: [0, 0], ns: [3, 5], ls: [0, 0], ms_combs: [0, 0], ctildes: [0.042326633592071526, 0.039070095255258099]}
    - {mu0: 0, rank: 2, ndensity: 2, num_ms_combs: 2, mus: [0, 0], ns: [3, 5], ls: [1, 1], ms_combs: [0, 0, 1, -1], ctildes: [-0.096487893657985407, 0.19159984274788894, 0.19297578731597079, -0.38319968549577776]}
    - {mu0: 0, rank: 2, ndensity: 2, num_ms_combs: 1, mus: [0, 0], ns: [3, 6], ls: [0, 0], ms_combs: [0, 0], ctildes: [-0.15571558038673489, -0.47703884529281865]}
    - {mu0: 0, rank: 2, ndensity: 2, num_ms_combs: 1, mus: [0, 0], ns: [4, 4], ls: [0, 0], ms_combs: [0, 0], ctildes: [0.13307397322361025, 0.13850820300500169]}
    - {mu0: 0, rank: 2, ndensity: 2, num_ms_combs: 2, mus: [0, 0], ns: [4, 4], ls: [1, 1], ms_combs: [0, 0, 1, -1], ctildes: [0.047722658750910772, -0.23751069686974327, -0.095445317501821531, 0.47502139373948643]}
    - {mu0: 0, rank: 2, ndensity: 2, num_ms_combs: 1, mus: [0, 0], ns: [4, 5], ls: [0, 0], ms_combs: [0, 0], ctildes: [-0.10147752883339621, 0.07905962552756271]}
    - {mu0: 0, rank: 2, ndensity: 2, num_ms_combs: 1, mus: [0, 0], ns: [4, 6], ls: [0, 0], ms_combs: [0, 0], ctildes: [0.10884113152073979, -0.30539051363751318]}
    - {mu0: 0, rank: 3, ndensity: 2, num_ms_combs: 1, mus: [0, 0, 0], ns: [1, 1, 1], ls: [0, 0, 0], ms_combs: [0, 0, 0], ctildes: [0.22441770028181654, 0.39124592463808805]}
    - {mu0: 0, rank: 3, ndensity: 2, num_ms_combs: 2, mus: [0, 0, 0], ns: [1, 1, 1], ls: [0, 1, 1], ms_combs: [0, 0, 0, 0, 1, -1], ctildes: [0.14464761186194683, -0.022440960842722769, -0.2892952237238936, 0.044881921685445532]}
    - {mu0: 0, rank: 3, ndensity: 2, num_ms_combs: 3, mus: [0, 0, 0], ns: [1, 1, 1], ls: [0, 2, 2], ms_combs: [0, 0, 0, 0, 1, -1, 0, 2, -2], ctildes: [-0.17992875385275794, -0.10867684879413658, 0.35985750770551594, 0.21735369758827319, -0.35985750770551606, -0.21735369758827325]}
    - {mu0: 0, rank: 3, ndensity: 2, num_ms_combs: 4, mus: [0, 0, 0], ns: [1, 1, 1], ls: [1, 1, 2], ms_combs: [-1, 1, 0, 0, 0, 0, 0, 1, -1, 1, 1, -2], ctildes: [0.061498296440128622, 0.062638980488897281, 0.061498296440128615, 0.062638980488897267, -0.21303634802647001, -0.2169877934821714, 0.15063944632873433, 0.15343354020594954]}
    - {mu0: 0, rank: 3, ndensity: 2, num_ms_combs: 1, mus: [0, 0, 0], ns: [1, 1, 2], ls: [0, 0, 0], ms_combs: [0, 0, 0], ctildes: [-0.52175936841931225, 0.18190648515748439]}
    - {mu0: 0, rank: 3, ndensity: 2, num_ms_combs: 2, mus: [0, 0, 0], ns: [1, 1, 2], ls: [0, 1, 1], ms_combs: [0, 0, 0, 0, 1, -1], ctildes: [-0.22444323046645479, 0.096593864322956927, 0.44888646093290946, -0.19318772864591383]}
    - {mu0: 0, rank: 3, ndensity: 2, num_ms_combs: 3, mus: [0, 0, 0], ns: [1, 1, 2], ls: [0, 2, 2], ms_combs: [0, 0, 0, 0, 1, -1, 0, 2, -2], ctildes: [0.0090639546170657413, -0.029459158133193022, -0.018127909234131486, 0.05891831626638605, 0.01812790923413149, -0.058918316266386064]}
    - {mu0: 0, rank: 3, ndensity: 2, num_ms_combs: 2, mus: [0, 0, 0], ns: [1, 1, 2], ls: [1, 1, 0], ms_combs: [0, 0, 0, 1, -1, 0], ctildes: [0.10080051761353412, -0.063650912001802812, -0.20160103522706821, 0.1273018240036056]}
    - {mu0: 0, rank: 3, ndensity: 2, num_ms_combs: 4, mus: [0, 0, 0], ns: [1, 1, 2], ls: [1, 1, 2], ms_combs: [-1, 1, 0, 0, 0, 0, 0, 1, -1, 1, 1, -2], ctildes: [-0.015964712541916323, 0.18187985608959575, -0.01596471254191632, 0.18187985608959573, 0.055303386501662312, -0.63005030324099109, -0.039105399617906003, 0.44551284191034546]}
    - {mu0: 0, rank: 3, ndensity: 2, num_ms_combs: 5, mus: [0, 0, 0], ns: [1, 1, 2], ls: [1, 2, 1], ms_combs: [0, 0, 0, 0, 1, -1, 1, -2, 1, 1, -1, 0, 1, 0, -1], ctildes: [-0.047133969031119279, 0.049710366743722478, 0.081638429124276601, -0.086100880863009585, -0.11545417367838663, 0.12176503344873821, 0.081638429124276601, -0.086100880863009585, -0.047133969031119272, 0.049710366743722464]}
    - {mu0: 0, rank: 3, ndensity: 2, num_ms_combs: 3, mus: [0, 0, 0], ns: [1, 1, 2], ls: [2, 2, 0], ms_combs: [0, 0, 0, 1, -1, 0, 2, -2, 0], ctildes: [0.22638974098495823, -0.1088207935038031, -0.45277948196991652, 0.21764158700760622, 0.45277948196991663, -0.21764158700760627]}
    - {mu0: 0, rank: 3, ndensity: 2, num_ms_combs: 1, mus: [0, 0, 0], ns: [1, 1, 3], ls: [0, 0, 0], ms_combs: [0, 0, 0], ctildes: [-0.11434287006237244, 0.1551998580450844]}
    - {mu0: 0, rank: 3, ndensity: 2, num_ms_combs: 2, mus: [0, 0, 0], ns: [1, 1, 3], ls: [0, 1, 1], ms_combs: [0, 0, 0, 0, 1, -1], ctildes: [-0.035940598845103228, 0.039049130929793653, 0.071881197690206441, -0.078098261859587292]}
    - {mu0: 0, rank: 3, ndensity: 2, num_ms_combs: 2, mus: [0, 0, 0], ns: [1, 1, 3], ls: [1, 1, 0], ms_combs: [0, 0, 0, 1, -1, 0], ctildes: [0.0037066791474854427, -0.055661498306381653, -0.0074133582949708846, 0.11132299661276328]}
    - {mu0: 0, rank: 3, ndensity: 2, num_ms_combs: 1, mus: [0, 0, 0], ns: [1, 1, 4], ls: [0, 0, 0], ms_combs: [0, 0, 0], ctildes: [-0.05663807596301567, -0.15763065893373179]}
    - {mu0: 0, rank: 3, ndensity: 2, num_ms_combs: 2, mus: [0, 0, 0], ns: [1, 1, 4], ls: [0, 1, 1], ms_combs: [0, 0, 0, 0, 1, -1], ctildes: [-0.010315313629666225, 0.061847454317969439, 0.020630627259332446, -0.12369490863593885]}
    - {mu0: 0, rank: 3, ndensity: 2, num_ms_combs: 2, mus: [0, 0, 0], ns: [1, 1, 4], ls: [1, 1, 0], ms_combs: [0, 0, 0, 1, -1, 0], ctildes: [-0.007150242805063615, -0.10514190628181085, 0.014300485610127228, 0.21028381256362164]}
    - {mu0: 0, rank: 3, ndensity: 2, num_ms_combs: 1, mus: [0, 0, 0], ns: [1, 2, 2], ls: [0, 0, 0], ms_combs: [0, 0, 0], ctildes: [-0.15233843907658873, 0.27502414213067911]}
    - {mu0: 0, rank: 3, ndensity: 2, num_ms_combs: 2, mus: [0, 0, 0], ns: [1, 2, 2], ls: [0, 1, 1], ms_combs: [0, 0, 0, 0, 1, -1], ctildes: [0.06595857099446116, -0.040496294289894701, -0.13191714198892229, 0.080992588579789387]}
    - {mu0: 0, rank: 3, ndensity: 2, num_ms_combs: 2, mus: [0, 0, 0], ns: [1, 2, 2], ls: [1, 0, 1], ms_combs: [0, 0, 0, 1, 0, -1], ctildes: [0.088911222909978563, 0.024601004265863209, -0.1778224458199571, -0.049202008531726411]}
    - {mu0: 0, rank: 3, ndensity: 2, num_ms_combs: 1, mus: [0, 0, 0], ns: [1, 2, 3], ls: [0, 0, 0], ms_combs: [0, 0, 0], ctildes: [0.41449821199787817, 0.024760780674775724]}
    - {mu0: 0, rank: 3, ndensity: 2, num_ms_combs: 2, mus: [0, 0, 0], ns: [1, 2, 3], ls: [0, 1, 1], ms_combs: [0, 0, 0, 0, 1, -1], ctildes: [-0.0081351367071752449, -0.091489321612416741, 0.016270273414350486, 0.18297864322483345]}
    - {mu0: 0, rank: 3, ndensity: 2, num_ms_combs: 2, mus: [0, 0, 0], ns: [1, 2, 3], ls: [1, 0, 1], ms_combs: [0, 0, 0, 1, 0, -1], ctildes: [0.048445190211195421, 0.18082087053613374, -0.096890380422390829, -0.36164174107226743]}
    - {mu0: 0, rank: 3, ndensity: 2, num_ms_combs: 2, mus: [0, 0, 0], ns: [1, 2, 3], ls: [1, 1, 0], ms_combs: [0, 0, 0, 1, -1, 0], ctildes: [0.00073836863977252043, -0.1926830883323675, -0.0014767372795450404, 0.38536617666473494]}
    - {mu0: 0, rank: 3, ndensity: 2, num_ms_combs: 1, mus: [0, 0, 0], ns: [1, 2, 4], ls: [0, 0, 0], ms_combs: [0, 0, 0], ctildes: [0.087664207958292564, 0.16025492662587562]}
    - {mu0: 0, rank: 3, ndensity: 2, num_ms_combs: 1, mus: [0, 0, 0], ns: [1, 3, 3], ls: [0, 0, 0], ms_combs: [0, 0, 0], ctildes: [0.055817036722209126, 0.46815668307239428]}
    - {mu0: 0, rank: 3, ndensity: 2, num_ms_combs: 1, mus: [0, 0, 0], ns: [1, 3, 4], ls: [0, 0, 0], ms_combs: [0, 0, 0], ctildes: [0.0042372448082589106, -0.40673718542194931]}
    - {mu0: 0, rank: 3, ndensity: 2, num_ms_combs: 1, mus: [0, 0, 0], ns: [2, 2, 2], ls: [0, 0, 0], ms_combs: [0, 0, 0], ctildes: [0.29157917753249385, -0.076477282621957521]}
    - {mu0: 0, rank: 3, ndensity: 2, num_ms_combs: 2, mus: [0, 0, 0], ns: [2, 2, 2], ls: [0, 1, 1], ms_combs: [0, 0, 0, 0, 1, -1], ctildes: [-0.035844129670017669, 0.059030668375393613, 0.071688259340035324, -0.1180613367507872]}
    - {mu0: 0, rank: 3, ndensity: 2, num_ms_combs: 1, mus: [0, 0, 0], ns: [2, 2, 3], ls: [0, 0, 0], ms_combs: [0, 0, 0], ctildes: [-0.16921735047892483, -0.4765085432499333]}
    - {mu0: 0, rank: 3, ndensity: 2, num_ms_combs: 1, mus: [0, 0, 0], ns: [2, 2, 4], ls: [0, 0, 0], ms_combs: [0, 0, 0], ctildes: [-0.017735115691865869, 0.13528990899134413]}
    - {mu0: 0, rank: 3, ndensity: 2, num_ms_combs: 1, mus: [0, 0, 0], ns: [2, 3, 3], ls: [0, 0, 0], ms_combs: [0, 0, 0], ctildes: [-0.073177534249685927, -0.65365917814578567]}
    - {mu0: 0, rank: 4, ndensity: 2, num_ms_combs: 1, mus: [0, 0, 0, 0], ns: [1, 1, 1, 1], ls: [0, 0, 0, 0], ms_combs: [0, 0, 0, 0], ctildes: [0.021208860197069898, -0.068905876205560448]}
    - {mu0: 0, rank: 4, ndensity: 2, num_ms_combs: 2, mus: [0, 0, 0, 0], ns: [1, 1, 1, 1], ls: [0, 0, 1, 1], ms_combs: [0, 0, 0, 0, 0, 0, 1, -1], ctildes: [0.029022434153394963, 0.0067666439234435067, -0.058044868306789912, -0.013533287846887012]}
    - {mu0: 0, rank: 4, ndensity: 2, num_ms_combs: 1, mus: [0, 0, 0, 0], ns: [1, 1, 1, 2], ls: [0, 0, 0, 0], ms_combs: [0, 0, 0, 0], ctildes: [-0.031936836751737009, -0.27533614593025879]}
    - {mu0: 0, rank: 4, ndensity: 2, num_ms_combs: 2, mus: [0, 0, 0, 0], ns: [1, 1, 1, 2], ls: [0, 0, 1, 1], ms_combs: [0, 0, 0, 0, 0, 0, 1, -1], ctildes: [0.0031711336212402394, -0.011007102149721662, -0.0063422672424804779, 0.02201420429944332]}
    - {mu0: 0, rank: 4, ndensity: 2, num_ms_combs: 2, mus: [0, 0, 0, 0], ns: [1, 1, 1, 2], ls: [0, 1, 1, 0], ms_combs: [0, 0, 0, 0, 0, 1, -1, 0], ctildes: [-0.032623084406074733, -0.065575372762452011, 0.065246168812149466, 0.13115074552490399]}
    - {mu0: 0, rank: 4, ndensity: 2, num_ms_combs: 1, mus: [0, 0, 0, 0], ns: [1, 1, 1, 3], ls: [0, 0, 0, 0], ms_combs: [0, 0, 0, 0], ctildes: [-0.0089891008985446552, 0.00029556529675137675]}
    - {mu0: 0, rank: 4, ndensity: 2, num_ms_combs: 1, mus: [0, 0, 0, 0], ns: [1, 1, 2, 2], ls: [0, 0, 0, 0], ms_combs: [0, 0, 0, 0], ctildes: [0.064467314610047746, 0.43273104958124481]}
    - {mu0: 0, rank: 4, ndensity: 2, num_ms_combs: 1, mus: [0, 0, 0, 0], ns: [1, 1, 2, 3], ls: [0, 0, 0, 0], ms_combs: [0, 0, 0, 0], ctildes: [-0.0017387712213914803, 0.057216110064137286]}
    - {mu0: 0, rank: 4, ndensity: 2, num_ms_combs: 1, mus: [0, 0, 0, 0], ns: [1, 2, 2, 2], ls: [0, 0, 0, 0], ms_combs: [0, 0, 0, 0], ctildes: [-0.037563195012305026, -0.17596564389576061]}
    - {mu0: 0, rank: 5, ndensity: 2, num_ms_combs: 1, mus: [0, 0, 0, 0, 0], ns: [1, 1, 1, 1, 1], ls: [0, 0, 0, 0, 0], ms_combs: [0, 0, 0, 0, 0], ctildes: [-0.0015659066344950292, 0.01293111326016963]}
    - {mu0: 0, rank: 5, ndensity: 2, num_ms_combs: 1, mus: [0, 0, 0, 0, 0], ns: [1, 1, 1, 1, 2], ls: [0, 0, 0, 0, 0], ms_combs: [0, 0, 0, 0, 0], ctildes: [0.0011230003373229331, -0.010935347170017143]}
