elements: [Fe]
E0: [0]
deltaSplineBins: 0.001
embeddings:
  0: {ndensity: 2, FS_parameters: [1, 1, 1, 0.5], npoti: FinnisSinclairShiftedScaled, rho_core_cutoff: 100000, drho_core_cutoff: 250}
bonds:
  [0, 0]: {nradmax: 6, lmax: 3, nradbasemax: 13, radbasename: SBessel, radparameters: [5.25], radcoefficients: [[[1.1793234282386964, -0.21268498603979269, -0.014129117140999122, -0.050226694202134853, -0.17774755691522559, 0.15742221971863257, -0.11050797157605027, 0.21496121415868241, -0.22946263013669119, 0.17674485860707681, -0.13472566842582451, 0.082387111017199102, -0.040109480610861024], [1.0001643857129587, -0.53807339746572047, 0.066323691020568759, 0.20166323974183176, -0.14079582561906201, 0.26191934046575138, -0.24348104447281244, 0.015190071622414571, 0.079363873428185572, -0.10611195544605656, 0.062239096253778742, -0.087838205431646527, 0.02509531233862734], [0.85203762303597697, -0.14165732558714744, -0.12845691743837928, 0.072808262773641469, 0.033441455243410835, -0.30082059344003909, 0.12864929942279155, 0.14965171956323356, -0.14074318591687179, 0.18220440604568258, -0.2713951602691993, 0.15330810922777963, -0.037943173388881007], [0.99784201831933927, -0.019546026287928262, -0.20104678726749597, 0.058150432269085041, 0.01557520480388869, -0.23313553827516206, 0.24465966039225751, -0.012635771725687707, -0.10039276615526246, 0.18971495873224412, -0.33517762376086946, 0.32451348095043092, -0.088800835007888115]], [[0.14825126721699108, 0.84369264475029215, -0.55590710556535272, 0.024347573801692498, 0.16055719683968223, -0.2547453372275375, 0.2372389835017881, -0.10472014193014578, 0.042918607918358567, -0.0089689594866799796, -0.045325063600744765, 0.058650308856242547, -0.04205996299224693], [-0.52546004098970223, 0.63822395375856167, -0.25477444631727458, -0.013220290696725871, 0.12466017941717561, -0.048621173392573332, 0.08746908132387976, -0.21602018018782426, 0.28722409273943722, -0.29903342843533276, 0.21709736486906317, -0.11480010975515444, 0.015638348179000304], [-0.2039617541729529, 0.78569890470089354, -0.50129975860475406, 0.090144101506929752, -0.032506433547341521, -0.39851460388920373, 0.30024421846700799, -0.057074323016165864, 0.18083309598890582, -0.17581582141477922, -0.06472696922926828, 0.11565910903683614, -0.047399149591676022], [0.018162818942032435, 0.92035817983833479, -0.02486298293903335, -0.08227158725933334, -0.10376195311115415, 0.10087871486756392, -0.064934533656596641, -0.008197097924746417, 0.17026147929474927, -0.25328316055448302, -0.15282540323756219, 0.33428618112904318, -0.14880229356002084]], [[0.37700913155896371, -0.35835942969198675, 0.70660502507630774, 0.066207657549921056, -0.12090392273397982, 0.2005444767290615, -0.0077228280646988176, 0.10221205581272776, -0.041623404667360003, -0.17034160152354122, 0.28033308965271952, -0.2680458493368576, 0.094075598867532959], [-0.115641302153059, -0.29122668120112477, 0.85212680416472475, -0.098912374311356202, -0.36158461143067938, -0.18967275890877766, 0.1818232788066696, 0.23024648103916084, 0.0044516084910197077, 0.10414187342095618, -0.15813223460540307, 0.14809630480640898, -0.029198520190739027], [-0.011305492536694273, -0.36814144620266442, 0.59168163564498122, -0.21154287521124035, -0.097580130236120069, -0.32417262342458059, -0.043316848642817304, 0.57148196334432777, -0.26061271091803784, -0.090482915244083015, 0.15028563889713689, -0.21648853777905006, 0.10705141781884593], [0.048983738117229093, 0.053589762791783499, 1.0212095561763197, 0.035001033453912186, 0.078366529655796796, -0.010688178087934664, -0.076582865568493752, 0.0067601327898927626, -0.029997919757329825, 0.097519355337849598, 0.15422736255230163, -0.18414117499679236, 0.11269152952503829]], [[-0.018360870850078467, -0.059058701451131915, -0.31549351207247517, 0.71332170696467667, 0.14150869878115341, -0.068378896873168477, 0.0039973093305698728, 0.27181653737909606, -0.19895991123682172, 0.039678490458378575, 0.13921790518090468, -0.23380875193037556, 0.055762272902399608], [0.090073277381282263, -0.088033634775128586, -0.16991165948710371, 0.78355988842946278, -0.67835817485565908, -0.29070198191534513, 0.49236471803361803, -0.10109869973185917, 0.086846222046592217, 0.19242656288933749, -0.295388162645079, 0.22900665641490253, -0.028210769999691937], [-0.2128396004335085, -0.26213169298913835, -0.2571151375567422, 0.77970846819285222, -0.23067565346971869, -0.28958639412008913, 0.27305384193271454, 0.15120556847681257, -0.40964890021501271, 0.3454172864750365, -0.010095304117931034, -0.27729706305755719, 0.14973034009807018], [0.057880470962124703, 0.16509753305411634, 0.0028601653734843914, 0.81475355406297489, -0.33035081449224774, -0.50280986722995824, -0.15226416327319447, 0.04720043776635359, -0.24069958175282982, 0.13724284300906298, 0.22928150710452133, -0.36517814789708375, 0.040170970037963799]], [[0.014280022099673014, -0.072735670110665229, -0.016474978514801328, 0.036832487570257075, 1.0133624640837353, -0.048348810451514269, -0.10450518123058378, 0.192002738525961, -0.012714349919567594, -0.033152802149928703, 0.12089217837124025, -0.13012474252582612, -0.099483579368206315], [0.015012483684159809, 0.027365041357733978, -0.13398247908931465, -0.35839803337620751, 0.74535410537145874, -0.0071540049111272243, -0.17888303705990849, -0.14763093487356421, 0.42868713632570904, 0.2351989464461825, -0.1983372744696888, 0.37054300912114901, 0.18024862672644099], [0.12992502273455939, 0.31888196125965845, -0.030245845424402895, -0.39461511046890235, 0.89905908950082702, 0.066312937943544314, -0.13474054525172527, -0.16343793982519048, -0.078176522395069073, 0.12655063802959932, 0.14116640753756085, -0.30592171839571392, 0.20159806500820682], [0.067327322837440626, 0.23523641029524969, -0.04144273939666742, -0.18074035540074945, 1.0748527891206299, -0.043792044198571925, 0.043392368619506475, 0.23522372076672793, -0.041782143318247991, 0.084021078925272233, 0.10081161556946643, -0.18910792622278499, 0.15867558540069407]], [[0.067366136572150445, 0.029502772296553882, 0.035724346260907945, 0.10099099320976962, -0.0078110711898106231, 0.91276846192900529, -0.073063109599538309, -0.060555627751933697, 0.12443991771126929, -0.073711650738013917, -0.013779291237465661, 0.17544862368161362, -0.34974235892052147], [0.0062254877610826154, -0.016275847507504063, -0.0042949986206787631, -0.10963755321384726, -0.20792388578654974, 0.93621287665377118, -0.27271935958590349, -0.43606341044401153, 0.073399946332369834, -0.068690448133699372, -0.42799325363341201, 0.34556632841384705, -0.15065945318714966], [-0.05748728606063485, 0.086709127265240965, 0.19066165548672598, 0.043111130438963211, -0.036350368163186063, 0.87945842322162671, -0.36365721711906468, -0.31885596443810488, 0.15546408929758793, 0.19981733737453244, -0.27995173443742549, 0.16585961341693065, 0.016756005741577505], [0, 0, 0, 0, 0, 1, 0, 0, 0, 0, 0, 0, 0]]], prehc: 0, lambdahc: 0, rcut: 6.5, dcut: 0.01, rcut_in: 0, dcut_in: 0, inner_cutoff_type: distance}
functions:
  0:
    - {mu0: 0, rank: 1, ndensity: 2, num_ms_combs: 1, mus: [0], ns: [1], ls: [0], ms_combs: [0], ctildes: [-0.48849458339252549, -0.40063006550359964]}
    - {mu0: 0, rank: 1, ndensity: 2, num_ms_combs: 1, mus: [0], ns: [2], ls: [0], ms_combs: [0], ctildes: [-0.24624772605444417, -0.028788231120433744]}
    - {mu0: 0, rank: 1, ndensity: 2, num_ms_combs: 1, mus: [0], ns: [3], ls: [0], ms_combs: [0], ctildes: [0.50073207754528926, 0.20019220732193477]}
    - {mu0: 0, rank: 1, ndensity: 2, num_ms_combs: 1, mus: [0], ns: [4], ls: [0], ms_combs: [0], ctildes: [-0.34267032223226018, -0.26869768624179058]}
    - {mu0: 0, rank: 1, ndensity: 2, num_ms_combs: 1, mus: [0], ns: [5], ls: [0], ms_combs: [0], ctildes: [-0.35152660598445906, -0.10520178544462139]}
    - {mu0: 0, rank: 1, ndensity: 2, num_ms_combs: 1, mus: [0], ns: [6], ls: [0], ms_combs: [0], ctildes: [0.48844975378878452, -0.066246516989912158]}
    - {mu0: 0, rank: 1, ndensity: 2, num_ms_combs: 1, mus: [0], ns: [7], ls: [0], ms_combs: [0], ctildes: [-0.33799987147562499, -0.26308033118222807]}
    - {mu0: 0, rank: 1, ndensity: 2, num_ms_combs: 1, mus: [0], ns: [8], ls: [0], ms_combs: [0], ctildes: [0.018134660146740512, 0.15303029113009939]}
    - {mu0: 0, rank: 1, ndensity: 2, num_ms_combs: 1, mus: [0], ns: [9], ls: [0], ms_combs: [0], ctildes: [0.13474948431316863, -0.26264078476099728]}
    - {mu0: 0, rank: 1, ndensity: 2, num_ms_combs: 1, mus: [0], ns: [10], ls: [0], ms_combs: [0], ctildes: [-0.073745922583477216, 0.07717280845457801]}
    - {mu0: 0, rank: 1, ndensity: 2, num_ms_combs: 1, mus: [0], ns: [11], ls: [0], ms_combs: [0], ctildes: [-0.12608302590133003, 0.18945781047849239]}
    - {mu0: 0, rank: 1, ndensity: 2, num_ms_combs: 1, mus: [0], ns: [12], ls: [0], ms_combs: [0], ctildes: [0.24043144214238635, -0.25266381893988954]}
    - {mu0: 0, rank: 1, ndensity: 2, num_ms_combs: 1, mus: [0], ns: [13], ls: [0], ms_combs: [0], ctildes: [-0.10877097615678524, 0.215672803858771]}
    - {mu0: 0, rank: 2, ndensity: 2, num_ms_combs: 1, mus: [0, 0], ns: [1, 1], ls: [0, 0], ms_combs: [0, 0], ctildes: [-0.088381502917315419, -0.2858459945885321]}
    - {mu0: 0, rank: 2, ndensity: 2, num_ms_combs: 2, mus: [0, 0], ns: [1, 1], ls: [1, 1], ms_combs: [0, 0, 1, -1], ctildes: [-0.10135266148074638, -0.014883982743640587, 0.20270532296149271, 0.029767965487281167]}
    - {mu0: 0, rank: 2, ndensity: 2, num_ms_combs: 3, mus: [0, 0], ns: [1, 1], ls: [2, 2], ms_combs: [0, 0, 1, -1, 2, -2], ctildes: [-0.0025504289047837687, 0.0079490155416925244, 0.0051008578095675383, -0.015898031083385049, -0.0051008578095675392, 0.015898031083385056]}
    - {mu0: 0, rank: 2, ndensity: 2, num_ms_combs: 4, mus: [0, 0], ns: [1, 1], ls: [3, 3], ms_combs: [0, 0, 1, -1, 2, -2, 3, -3], ctildes: [0.0023076281172621214, 0.058071970066195515, -0.0046152562345242428, -0.11614394013239103, 0.0046152562345242419, 0.116143940132391, -0.0046152562345242419, -0.116143940132391]}
    - {mu0: 0, rank: 2, ndensity: 2, num_ms_combs: 1, mus: [0, 0], ns: [1, 2], ls: [0, 0], ms_combs: [0, 0], ctildes: [-0.3375847854127918, -0.24458237783968431]}
    - {mu0: 0, rank: 2, ndensity: 2, num_ms_combs: 2, mus: [0, 0], ns: [1, 2], ls: [1, 1], ms_combs: [0, 0, 1, -1], ctildes: [-0.12148439235756962, -0.044741222963066443, 0.24296878471513919, 0.089482445926132873]}
    - {mu0: 0, rank: 2, ndensity: 2, num_ms_combs: 3, mus: [0, 0], ns: [1, 2], ls: [2, 2], ms_combs: [0, 0, 1, -1, 2, -2], ctildes: [-0.16038168647551504, -0.10477197239897749, 0.32076337295103008, 0.20954394479795502, -0.32076337295103019, -0.20954394479795507]}
    - {mu0: 0, rank: 2, ndensity: 2, num_ms_combs: 4, mus: [0, 0], ns: [1, 2], ls: [3, 3], ms_combs: [0, 0, 1, -1, 2, -2, 3, -3], ctildes: [-0.047496322086793726, -0.14055766255192831, 0.094992644173587451, 0.28111532510385662, -0.094992644173587437, -0.28111532510385656, 0.094992644173587437, 0.28111532510385656]}
    - {mu0: 0, rank: 2, ndensity: 2, num_ms_combs: 1, mus: [0, 0], ns: [1, 3], ls: [0, 0], ms_combs: [0, 0], ctildes: [0.18703521863392891, 0.02258532791112346]}
    - {mu0: 0, rank: 2, ndensity: 2, num_ms_combs: 2, mus: [0, 0], ns: [1, 3], ls: [1, 1], ms_combs: [0, 0, 1, -1], ctildes: [0.11190877109668053, 0.078529187791831587, -0.223817542193361, -0.15705837558366312]}
    - {mu0: 0, rank: 2, ndensity: 2, num_ms_combs: 3, mus: [0, 0], ns: [1, 3], ls: [2, 2], ms_combs: [0, 0, 1, -1, 2, -2], ctildes: [-0.037142936676500843, -0.000494695398366617, 0.074285873353001686, 0.00098939079673323422, -0.074285873353001713, -0.00098939079673323444]}
    - {mu0: 0, rank: 2, ndensity: 2, num_ms_combs: 4, mus: [0, 0], ns: [1, 3], ls: [3, 3], ms_combs: [0, 0, 1, -1, 2, -2, 3, -3], ctildes: [0.033520568223198974, -0.04411469182300741, -0.067041136446397948, 0.08822938364601482, 0.067041136446397948, -0.088229383646014806, -0.067041136446397948, 0.088229383646014806]}
    - {mu0: 0, rank: 2, ndensity: 2, num_ms_combs: 1, mus: [0, 0], ns: [1, 4], ls: [0, 0], ms_combs: [0, 0], ctildes: [0.27480320463321528, 0.033956786765873326]}
    - {mu0: 0, rank: 2, ndensity: 2, num_ms_combs: 2, mus: [0, 0], ns: [1, 4], ls: [1, 1], ms_combs: [0, 0, 1, -1], ctildes: [0.1530123122028309, 0.11138734514054047, -0.30602462440566175, -0.22277469028108091]}
    - {mu0: 0, rank: 2, ndensity: 2, num_ms_combs: 3, mus: [0, 0], ns: [1, 4], ls: [2, 2], ms_combs: [0, 0, 1, -1, 2, -2], ctildes: [0.15592152163387635, 0.10948830155859124, -0.31184304326775275, -0.21897660311718251, 0.31184304326775281, 0.21897660311718256]}
    - {mu0: 0, rank: 2, ndensity: 2, num_ms_combs: 4, mus: [0, 0], ns: [1, 4], ls: [3, 3], ms_combs: [0, 0, 1, -1, 2, -2, 3, -3], ctildes: [-0.0026115445436521926, -0.014237006001421523, 0.0052230890873043853, 0.028474012002843045, -0.0052230890873043844, -0.028474012002843042, 0.0052230890873043844, 0.028474012002843042]}
    - {mu0: 0, rank: 2, ndensity: 2, num_ms_combs: 1, mus: [0, 0], ns: [1, 5], ls: [0, 0], ms_combs: [0, 0], ctildes: [0.2091138474352553, -0.023615094268950157]}
    - {mu0: 0, rank: 2, ndensity: 2, num_ms_combs: 2, mus: [0, 0], ns: [1, 5], ls: [1, 1], ms_combs: [0, 0, 1, -1], ctildes: [0.07468474667982454, -0.14122568574357353, -0.14936949335964905, 0.282451371487147]}
    - {mu0: 0, rank: 2, ndensity: 2, num_ms_combs: 3, mus: [0, 0], ns: [1, 5], ls: [2, 2], ms_combs: [0, 0, 1, -1, 2, -2], ctildes: [0.028543130253756804, -0.19151328010742055, -0.057086260507513614, 0.38302656021484116, 0.057086260507513628, -0.38302656021484127]}
    - {mu0: 0, rank: 2, ndensity: 2, num_ms_combs: 4, mus: [0, 0], ns: [1, 5], ls: [3, 3], ms_combs: [0, 0, 1, -1, 2, -2, 3, -3], ctildes: [0.053639250822549125, -0.1249289290596972, -0.10727850164509825, 0.2498578581193944, 0.10727850164509824, -0.24985785811939434, -0.10727850164509824, 0.24985785811939434]}
    - {mu0: 0, rank: 2, ndensity: 2, num_ms_combs: 1, mus: [0, 0], ns: [1, 6], ls: [0, 0], ms_combs: [0, 0], ctildes: [-0.078478167149380995, -0.18055406651131439]}
    - {mu0: 0, rank: 2, ndensity: 2, num_ms_combs: 2, mus: [0, 0], ns: [1, 6], ls: [1, 1], ms_combs: [0, 0, 1, -1], ctildes: [-0.098379272955326488, 0.045802009011334348, 0.19675854591065292, -0.091604018022668682]}
    - {mu0: 0, rank: 2, ndensity: 2, num_ms_combs: 3, mus: [0, 0], ns: [1, 6], ls: [2, 2], ms_combs: [0, 0, 1, -1, 2, -2], ctildes: [0.066793328314455391, -0.027242132707753504, -0.13358665662891078, 0.054484265415507015, 0.13358665662891084, -0.054484265415507029]}
    - {mu0: 0, rank: 2, ndensity: 2, num_ms_combs: 1, mus: [0, 0], ns: [2, 2], ls: [0, 0], ms_combs: [0, 0], ctildes: [-0.28721597066437271, -0.11333478595210698]}
    - {mu0: 0, rank: 2, ndensity: 2, num_ms_combs: 2, mus: [0, 0], ns: [2, 2], ls: [1, 1], ms_combs: [0, 0, 1, -1], ctildes: [-0.065137394682853164, 0.024443963577114116, 0.1302747893657063, -0.048887927154228225]}
    - {mu0: 0, rank: 2, ndensity: 2, num_ms_combs: 3, mus: [0, 0], ns: [2, 2], ls: [2, 2], ms_combs: [0, 0, 1, -1, 2, -2], ctildes: [0.1067139191324548, 0.055064650615627063, -0.21342783826490963, -0.11012930123125414, 0.21342783826490969, 0.11012930123125417]}
    - {mu0: 0, rank: 2, ndensity: 2, num_ms_combs: 4, mus: [0, 0], ns: [2, 2], ls: [3, 3], ms_combs: [0, 0, 1, -1, 2, -2, 3, -3], ctildes: [0.014413821845388031, -0.016635940046371513, -0.028827643690776061, 0.033271880092743025, 0.028827643690776058, -0.033271880092743018, -0.028827643690776058, 0.033271880092743018]}
    - {mu0: 0, rank: 2, ndensity: 2, num_ms_combs: 1, mus: [0, 0], ns: [2, 3], ls: [0, 0], ms_combs: [0, 0], ctildes: [0.024445866836316322, 0.093516645116349911]}
    - {mu0: 0, rank: 2, ndensity: 2, num_ms_combs: 2, mus: [0, 0], ns: [2, 3], ls: [1, 1], ms_combs: [0, 0, 1, -1], ctildes: [0.040349651657395652, -0.040806771107172492, -0.08069930331479129, 0.08161354221434497]}
    - {mu0: 0, rank: 2, ndensity: 2, num_ms_combs: 3, mus: [0, 0], ns: [2, 3], ls: [2, 2], ms_combs: [0, 0, 1, -1, 2, -2], ctildes: [-0.1066390207534058, 0.041512940139943402, 0.21327804150681162, -0.083025880279886818, -0.21327804150681165, 0.083025880279886832]}
    - {mu0: 0, rank: 2, ndensity: 2, num_ms_combs: 4, mus: [0, 0], ns: [2, 3], ls: [3, 3], ms_combs: [0, 0, 1, -1, 2, -2, 3, -3], ctildes: [-0.022425215050707312, 0.030322894752935863, 0.044850430101414623, -0.060645789505871725, -0.044850430101414616, 0.060645789505871718, 0.044850430101414616, -0.060645789505871718]}
    - {mu0: 0, rank: 2, ndensity: 2, num_ms_combs: 1, mus: [0, 0], ns: [2, 4], ls: [0, 0], ms_combs: [0, 0], ctildes: [-0.12121737103432818, 0.093623040150638298]}
    - {mu0: 0, rank: 2, ndensity: 2, num_ms_combs: 2, mus: [0, 0], ns: [2, 4], ls: [1, 1], ms_combs: [0, 0, 1, -1], ctildes: [0.01721879450983136, -0.065567916723979686, -0.034437589019662714, 0.13113583344795934]}
    - {mu0: 0, rank: 2, ndensity: 2, num_ms_combs: 3, mus: [0, 0], ns: [2, 4], ls: [2, 2], ms_combs: [0, 0, 1, -1, 2, -2], ctildes: [-0.050891473174952448, -0.094935282806448001, 0.10178294634990491, 0.18987056561289603, -0.10178294634990492, -0.18987056561289606]}
    - {mu0: 0, rank: 2, ndensity: 2, num_ms_combs: 4, mus: [0, 0], ns: [2, 4], ls: [3, 3], ms_combs: [0, 0, 1, -1, 2, -2, 3, -3], ctildes: [0.019624674241490461, -0.046292782081173496, -0.039249348482980922, 0.092585564162346992, 0.039249348482980922, -0.092585564162346978, -0.039249348482980922, 0.092585564162346978]}
    - {mu0: 0, rank: 2, ndensity: 2, num_ms_combs: 1, mus: [0, 0], ns: [2, 5], ls: [0, 0], ms_combs: [0, 0], ctildes: [-0.10283466755463419, 0.07022214861589901]}
    - {mu0: 0, rank: 2, ndensity: 2, num_ms_combs: 2, mus: [0, 0], ns: [2, 5], ls: [1, 1], ms_combs: [0, 0, 1, -1], ctildes: [-0.033554761962138906, 0.034347658610279969, 0.067109523924277797, -0.068695317220559923]}
    - {mu0: 0, rank: 2, ndensity: 2, num_ms_combs: 3, mus: [0, 0], ns: [2, 5], ls: [2, 2], ms_combs: [0, 0, 1, -1, 2, -2], ctildes: [0.0062802470561374845, 0.10579613661267859, -0.012560494112274971, -0.2115922732253572, 0.012560494112274974, 0.21159227322535726]}
    - {mu0: 0, rank: 2, ndensity: 2, num_ms_combs: 1, mus: [0, 0], ns: [2, 6], ls: [0, 0], ms_combs: [0, 0], ctildes: [0.010937293416433508, 0.27198307796725396]}
    - {mu0: 0, rank: 2, ndensity: 2, num_ms_combs: 2, mus: [0, 0], ns: [2, 6], ls: [1, 1], ms_combs: [0, 0, 1, -1], ctildes: [0.23310164844672346, 0.16626735977014157, -0.46620329689344681, -0.33253471954028307]}
    - {mu0: 0, rank: 2, ndensity: 2, num_ms_combs: 3, mus: [0, 0], ns: [2, 6], ls: [2, 2], ms_combs: [0, 0, 1, -1, 2, -2], ctildes: [-0.050270718067828374, 0.082946150791587986, 0.10054143613565675, -0.165892301583176, -0.10054143613565678, 0.16589230158317603]}
    - {mu0: 0, rank: 2, ndensity: 2, num_ms_combs: 1, mus: [0, 0], ns: [3, 3], ls: [0, 0], ms_combs: [0, 0], ctildes: [0.039595333318651192, -0.012144247923475822]}
    - {mu0: 0, rank: 2, ndensity: 2, num_ms_combs: 2, mus: [0, 0], ns: [3, 3], ls: [1, 1], ms_combs: [0, 0, 1, -1], ctildes: [0.076757002864939416, -0.040666406309519947, -0.15351400572987881, 0.081332812619039879]}
    - {mu0: 0, rank: 2, ndensity: 2, num_ms_combs: 3, mus: [0, 0], ns: [3, 3], ls: [2, 2], ms_combs: [0, 0, 1, -1, 2, -2], ctildes: [0.030975652543803051, 0.0049300275162371824, -0.061951305087606108, -0.0098600550324743665, 0.061951305087606122, 0.0098600550324743682]}
    - {mu0: 0, rank: 2, ndensity: 2, num_ms_combs: 4, mus: [0, 0], ns: [3, 3], ls: [3, 3], ms_combs: [0, 0, 1, -1, 2, -2, 3, -3], ctildes: [0.015028409368476141, -0.045338159116913315, -0.030056818736952283, 0.09067631823382663, 0.030056818736952279, -0.090676318233826617, -0.030056818736952279, 0.090676318233826617]}
    - {mu0: 0, rank: 2, ndensity: 2, num_ms_combs: 1, mus: [0, 0], ns: [3, 4], ls: [0, 0], ms_combs: [0, 0], ctildes: [0.011786000048147553, -0.034166215207842673]}
    - {mu0: 0, rank: 2, ndensity: 2, num_ms_combs: 2, mus: [0, 0], ns: [3, 4], ls: [1, 1], ms_combs: [0, 0, 1, -1], ctildes: [-0.059833283409961857, -0.071880982510028404, 0.1196665668199237, 0.14376196502005678]}
    - {mu0: 0, rank: 2, ndensity: 2, num_ms_combs: 3, mus: [0, 0], ns: [3, 4], ls: [2, 2], ms_combs: [0, 0, 1, -1, 2, -2], ctildes: [-0.024864472918186456, 0.11225566255501246, 0.049728945836372919, -0.22451132511002495, -0.049728945836372933, 0.224511325110025]}
    - {mu0: 0, rank: 2, ndensity: 2, num_ms_combs: 1, mus: [0, 0], ns: [3, 5], ls: [0, 0], ms_combs: [0, 0], ctildes: [0.06225511120802707, -0.31777918890163576]}
    - {mu0: 0, rank: 2, ndensity: 2, num_ms_combs: 2, mus: [0, 0], ns: [3, 5], ls: [1, 1], ms_combs: [0, 0, 1, -1], ctildes: [0.032978874522393238, -0.053409486620650357, -0.065957749044786462, 0.1068189732413007]}
    - {mu0: 0, rank: 2, ndensity: 2, num_ms_combs: 3, mus: [0, 0], ns: [3, 5], ls: [2, 2], ms_combs: [0, 0, 1, -1, 2, -2], ctildes: [-0.010377652222590343, 0.025546198808234003, 0.02075530444518069, -0.051092397616468013, -0.020755304445180693, 0.051092397616468027]}
    - {mu0: 0, rank: 2, ndensity: 2, num_ms_combs: 1, mus: [0, 0], ns: [3, 6], ls: [0, 0], ms_combs: [0, 0], ctildes: [0.0027583277645074782, -0.00049519596709988621]}
    - {mu0: 0, rank: 2, ndensity: 2, num_ms_combs: 2, mus: [0, 0], ns: [3, 6], ls: [1, 1], ms_combs: [0, 0, 1, -1], ctildes: [-0.11491666985759683, -0.026182799169192725, 0.2298333397151936, 0.052365598338385437]}
    - {mu0: 0, rank: 2, ndensity: 2, num_ms_combs: 1, mus: [0, 0], ns: [4, 4], ls: [0, 0], ms_combs: [0, 0], ctildes: [-0.04956675179755083, -0.066257708181959724]}
    - {mu0: 0, rank: 2, ndensity: 2, num_ms_combs: 2, mus: [0, 0], ns: [4, 4], ls: [1, 1], ms_combs: [0, 0, 1, -1], ctildes: [-0.028062905619673, -0.002269449858895818, 0.056125811239345985, 0.004538899717791635]}
    - {mu0: 0, rank: 2, ndensity: 2, num_ms_combs: 3, mus: [0, 0], ns: [4, 4], ls: [2, 2], ms_combs: [0, 0, 1, -1, 2, -2], ctildes: [-0.016427532153380907, -0.081272337947730894, 0.032855064306761821, 0.16254467589546182, -0.032855064306761828, -0.16254467589546184]}
    - {mu0: 0, rank: 2, ndensity: 2, num_ms_combs: 1, mus: [0, 0], ns: [4, 5], ls: [0, 0], ms_combs: [0, 0], ctildes: [0.12580736608188961, 0.37858511011476947]}
    - {mu0: 0, rank: 2, ndensity: 2, num_ms_combs: 2, mus: [0, 0], ns: [4, 5], ls: [1, 1], ms_combs: [0, 0, 1, -1], ctildes: [-0.011811231743827063, 0.025491920319057754, 0.023622463487654118, -0.0509838406381155]}
    - {mu0: 0, rank: 2, ndensity: 2, num_ms_combs: 1, mus: [0, 0], ns: [4, 6], ls: [0, 0], ms_combs: [0, 0], ctildes: [-0.038285864888462889, -0.12951531642932446]}
    - {mu0: 0, rank: 2, ndensity: 2, num_ms_combs: 2, mus: [0, 0], ns: [4, 6], ls: [1, 1], ms_combs: [0, 0, 1, -1], ctildes: [0.15836501872872569, 0.053596272972373918, -0.31673003745745132, -0.10719254594474781]}
    - {mu0: 0, rank: 2, ndensity: 2, num_ms_combs: 1, mus: [0, 0], ns: [5, 5], ls: [0, 0], ms_combs: [0, 0], ctildes: [0.0020648799370727852, -0.20704046366648193]}
    - {mu0: 0, rank: 2, ndensity: 2, num_ms_combs: 2, mus: [0, 0], ns: [5, 5], ls: [1, 1], ms_combs: [0, 0, 1, -1], ctildes: [0.00036945458431959831, -0.0081881344113930096, -0.00073890916863919652, 0.016376268822786016]}
    - {mu0: 0, rank: 2, ndensity: 2, num_ms_combs: 1, mus: [0, 0], ns: [5, 6], ls: [0, 0], ms_combs: [0, 0], ctildes: [-0.020433108922100839, 0.1580711658237382]}
    - {mu0: 0, rank: 2, ndensity: 2, num_ms_combs: 1, mus: [0, 0], ns: [6, 6], ls: [0, 0], ms_combs: [0, 0], ctildes: [0.0063445430271923927, -0.030530112981431563]}
    - {mu0: 0, rank: 3, ndensity: 2, num_ms_combs: 1, mus: [0, 0, 0], ns: [1, 1, 1], ls: [0, 0, 0], ms_combs: [0, 0, 0], ctildes: [0.46272077703957015, -0.18509031821808322]}
    - {mu0: 0, rank: 3, ndensity: 2, num_ms_combs: 2, mus: [0, 0, 0], ns: [1, 1, 1], ls: [0, 1, 1], ms_combs: [0, 0, 0, 0, 1, -1], ctildes: [0.068205131050124296, 0.044759954861802738, -0.13641026210024859, -0.089519909723605462]}
    - {mu0: 0, rank: 3, ndensity: 2, num_ms_combs: 3, mus: [0, 0, 0], ns: [1, 1, 1], ls: [0, 2, 2], ms_combs: [0, 0, 0, 0, 1, -1, 0, 2, -2], ctildes: [-0.016454632565257473, 0.051304405372244781, 0.032909265130514953, -0.10260881074448958, -0.03290926513051496, 0.1026088107444896]}
    - {mu0: 0, rank: 3, ndensity: 2, num_ms_combs: 4, mus: [0, 0, 0], ns: [1, 1, 1], ls: [0, 3, 3], ms_combs: [0, 0, 0, 0, 1, -1, 0, 2, -2, 0, 3, -3], ctildes: [0.037342236852478325, -0.13716481819918552, -0.07468447370495665, 0.27432963639837105, 0.074684473704956636, -0.27432963639837099, -0.074684473704956636, 0.27432963639837099]}
    - {mu0: 0, rank: 3, ndensity: 2, num_ms_combs: 4, mus: [0, 0, 0], ns: [1, 1, 1], ls: [1, 1, 2], ms_combs: [-1, 1, 0, 0, 0, 0, 0, 1, -1, 1, 1, -2], ctildes: [-0.016074164304622982, -0.021656649618958419, -0.016074164304622978, -0.021656649618958416, 0.055682538529634118, 0.075020834923506308, -0.039373500587985499, -0.053047741104687886]}
    - {mu0: 0, rank: 3, ndensity: 2, num_ms_combs: 8, mus: [0, 0, 0], ns: [1, 1, 1], ls: [1, 2, 3], ms_combs: [0, 0, 0, 0, 1, -1, 0, 2, -2, 1, -2, 1, 1, -1, 0, 1, 0, -1, 1, 1, -2, 1, 2, -3], ctildes: [-0.0034608606661645112, 0.033256623407596643, 0.0065258614554312483, -0.06270929048234361, -0.0051591464734660336, 0.04957604709433118, 0.0023072404441096738, -0.022171082271731094, -0.0039962576744757353, 0.038401440953427859, 0.005651561801981151, -0.054307838611007284, -0.0072961349130449896, 0.070111118169650419, 0.0089359038157329693, -0.085868232405809014]}
    - {mu0: 0, rank: 3, ndensity: 2, num_ms_combs: 5, mus: [0, 0, 0], ns: [1, 1, 1], ls: [2, 2, 2], ms_combs: [-2, 0, 2, -2, 1, 1, -1, -1, 2, -1, 0, 1, 0, 0, 0], ctildes: [0.07846932056771351, -0.19068333697929099, -0.064069931951259762, 0.1556922926834805, -0.032034965975629881, 0.077846146341740252, 0.039234660283856741, -0.095341668489645467, -0.013078220094618913, 0.031780556163215151]}
    - {mu0: 0, rank: 3, ndensity: 2, num_ms_combs: 1, mus: [0, 0, 0], ns: [1, 1, 2], ls: [0, 0, 0], ms_combs: [0, 0, 0], ctildes: [-0.01833243379333168, -0.1396676565450207]}
    - {mu0: 0, rank: 3, ndensity: 2, num_ms_combs: 2, mus: [0, 0, 0], ns: [1, 1, 2], ls: [0, 1, 1], ms_combs: [0, 0, 0, 0, 1, -1], ctildes: [0.050987294001489158, -0.02201143066233233, -0.10197458800297829, 0.044022861324664653]}
    - {mu0: 0, rank: 3, ndensity: 2, num_ms_combs: 3, mus: [0, 0, 0], ns: [1, 1, 2], ls: [0, 2, 2], ms_combs: [0, 0, 0, 0, 1, -1, 0, 2, -2], ctildes: [0.037880953186579823, -0.076950896403697927, -0.075761906373159646, 0.15390179280739588, 0.075761906373159674, -0.15390179280739591]}
    - {mu0: 0, rank: 3, ndensity: 2, num_ms_combs: 4, mus: [0, 0, 0], ns: [1, 1, 2], ls: [0, 3, 3], ms_combs: [0, 0, 0, 0, 1, -1, 0, 2, -2, 0, 3, -3], ctildes: [0.016621668033604924, 0.0090169755268649215, -0.033243336067209847, -0.018033951053729843, 0.03324333606720984, 0.018033951053729839, -0.03324333606720984, -0.018033951053729839]}
    - {mu0: 0, rank: 3, ndensity: 2, num_ms_combs: 2, mus: [0, 0, 0], ns: [1, 1, 2], ls: [1, 1, 0], ms_combs: [0, 0, 0, 1, -1, 0], ctildes: [-0.010883324033681816, 0.0036993304471297306, 0.021766648067363628, -0.0073986608942594604]}
    - {mu0: 0, rank: 3, ndensity: 2, num_ms_combs: 4, mus: [0, 0, 0], ns: [1, 1, 2], ls: [1, 1, 2], ms_combs: [-1, 1, 0, 0, 0, 0, 0, 1, -1, 1, 1, -2], ctildes: [-0.039105077835678591, -0.016128760992046912, -0.039105077835678584, -0.016128760992046912, 0.13546396329066185, 0.055871667002720532, -0.095787487049232539, -0.039507234613820365]}
    - {mu0: 0, rank: 3, ndensity: 2, num_ms_combs: 5, mus: [0, 0, 0], ns: [1, 1, 2], ls: [1, 2, 1], ms_combs: [0, 0, 0, 0, 1, -1, 1, -2, 1, 1, -1, 0, 1, 0, -1], ctildes: [0.012335203661821047, 0.038098964327372496, -0.021365199463983721, -0.06598934193076339, 0.030214954844772154, 0.093323022330561139, -0.021365199463983721, -0.06598934193076339, 0.012335203661821045, 0.038098964327372496]}
    - {mu0: 0, rank: 3, ndensity: 2, num_ms_combs: 8, mus: [0, 0, 0], ns: [1, 1, 2], ls: [1, 2, 3], ms_combs: [0, 0, 0, 0, 1, -1, 0, 2, -2, 1, -2, 1, 1, -1, 0, 1, 0, -1, 1, 1, -2, 1, 2, -3], ctildes: [0.016489181428653674, -0.036467487403347362, -0.031092298678443452, 0.068763753695311791, 0.024580620378531131, -0.054362520535001312, -0.010992787619102447, 0.02431165826889824, 0.01904006667309955, -0.042109027337983766, -0.026926720517585361, 0.059551157559716079, 0.034762246710863205, -0.076880213825384736, -0.042574883377178852, 0.094158647594128703]}
    - {mu0: 0, rank: 3, ndensity: 2, num_ms_combs: 8, mus: [0, 0, 0], ns: [1, 1, 2], ls: [1, 3, 2], ms_combs: [0, 0, 0, 0, 1, -1, 0, 2, -2, 1, -3, 2, 1, -2, 1, 1, -1, 0, 1, 0, -1, 1, 1, -2], ctildes: [-0.0094603461417676997, -0.010141177164286143, 0.017838599757909159, 0.019122387045549059, -0.014102651375780302, -0.015117574340808257, 0.024426508704282607, 0.026184406845479475, -0.019944160841048084, -0.021379478662954532, 0.015448680558292268, 0.016560472962443944, -0.010923866783153243, -0.011710022731400586, 0.0063068974278451366, 0.0067607847761907659]}
    - {mu0: 0, rank: 3, ndensity: 2, num_ms_combs: 3, mus: [0, 0, 0], ns: [1, 1, 2], ls: [2, 2, 0], ms_combs: [0, 0, 0, 1, -1, 0, 2, -2, 0], ctildes: [-0.022964140845603328, 0.045419052502131407, 0.045928281691206656, -0.090838105004262815, -0.04592828169120667, 0.090838105004262842]}
    - {mu0: 0, rank: 3, ndensity: 2, num_ms_combs: 8, mus: [0, 0, 0], ns: [1, 1, 2], ls: [2, 2, 2], ms_combs: [-2, 1, 1, -2, 2, 0, -1, 1, 0, -1, 2, -1, 0, 0, 0, 0, 1, -1, 0, 2, -2, 1, 1, -2], ctildes: [0.050707695466222176, -0.11462175417259238, -0.04140265997489475, 0.093588270381859961, -0.020701329987447375, 0.046794135190929981, 0.050707695466222176, -0.11462175417259238, 0.020701329987447375, -0.046794135190929981, -0.04140265997489475, 0.093588270381859961, -0.082805319949789541, 0.18717654076372003, 0.050707695466222176, -0.11462175417259238]}
    - {mu0: 0, rank: 3, ndensity: 2, num_ms_combs: 8, mus: [0, 0, 0], ns: [1, 1, 2], ls: [2, 3, 1], ms_combs: [0, 0, 0, 0, 1, -1, 1, -2, 1, 1, -1, 0, 1, 0, -1, 2, -3, 1, 2, -2, 0, 2, -1, -1], ctildes: [-0.0386304030827311, 0.093425397056447534, 0.063083184073819645, -0.15256303453680925, -0.081440040447880155, 0.19695803066930975, 0.072842186612716991, -0.17616461811642603, -0.04460654723743708, 0.10787835627937527, 0.099743271864464786, -0.24122333794162443, -0.057586804860802775, 0.13927035909541693, 0.025753602055154059, -0.062283598037631664]}
    - {mu0: 0, rank: 3, ndensity: 2, num_ms_combs: 4, mus: [0, 0, 0], ns: [1, 1, 2], ls: [3, 3, 0], ms_combs: [0, 0, 0, 1, -1, 0, 2, -2, 0, 3, -3, 0], ctildes: [-0.039625164235296495, 0.13271695657090343, 0.07925032847059299, -0.26543391314180687, -0.079250328470592976, 0.26543391314180687, 0.079250328470592976, -0.26543391314180687]}
    - {mu0: 0, rank: 3, ndensity: 2, num_ms_combs: 1, mus: [0, 0, 0], ns: [1, 1, 3], ls: [0, 0, 0], ms_combs: [0, 0, 0], ctildes: [0.031626434423118764, -0.11596466256058494]}
    - {mu0: 0, rank: 3, ndensity: 2, num_ms_combs: 2, mus: [0, 0, 0], ns: [1, 1, 3], ls: [0, 1, 1], ms_combs: [0, 0, 0, 0, 1, -1], ctildes: [0.097939409231520017, 0.10527959983603992, -0.19587881846304001, -0.21055919967207981]}
    - {mu0: 0, rank: 3, ndensity: 2, num_ms_combs: 3, mus: [0, 0, 0], ns: [1, 1, 3], ls: [0, 2, 2], ms_combs: [0, 0, 0, 0, 1, -1, 0, 2, -2], ctildes: [0.055812645143544205, -0.0017857609242798865, -0.11162529028708842, 0.0035715218485597735, 0.11162529028708845, -0.0035715218485597743]}
    - {mu0: 0, rank: 3, ndensity: 2, num_ms_combs: 2, mus: [0, 0, 0], ns: [1, 1, 3], ls: [1, 1, 0], ms_combs: [0, 0, 0, 1, -1, 0], ctildes: [-0.010039520716169792, 0.06070648205223074, 0.02007904143233958, -0.12141296410446145]}
    - {mu0: 0, rank: 3, ndensity: 2, num_ms_combs: 4, mus: [0, 0, 0], ns: [1, 1, 3], ls: [1, 1, 2], ms_combs: [-1, 1, 0, 0, 0, 0, 0, 1, -1, 1, 1, -2], ctildes: [-0.091241129279432537, -0.0053097898592656878, -0.091241129279432523, -0.0053097898592656878, 0.31606854330387496, 0.018393651627524342, -0.22349421028992397, -0.013006275796605441]}
    - {mu0: 0, rank: 3, ndensity: 2, num_ms_combs: 5, mus: [0, 0, 0], ns: [1, 1, 3], ls: [1, 2, 1], ms_combs: [0, 0, 0, 0, 1, -1, 1, -2, 1, 1, -1, 0, 1, 0, -1], ctildes: [0.019196597452531872, 0.099541554688195491, -0.033249482120232481, -0.17241103018435058, 0.047021868556314503, 0.24382601718942562, -0.033249482120232481, -0.17241103018435058, 0.019196597452531869, 0.099541554688195477]}
    - {mu0: 0, rank: 3, ndensity: 2, num_ms_combs: 3, mus: [0, 0, 0], ns: [1, 1, 3], ls: [2, 2, 0], ms_combs: [0, 0, 0, 1, -1, 0, 2, -2, 0], ctildes: [0.078011721318102134, -0.18840081897399236, -0.1560234426362043, 0.37680163794798477, 0.15602344263620435, -0.37680163794798482]}
    - {mu0: 0, rank: 3, ndensity: 2, num_ms_combs: 1, mus: [0, 0, 0], ns: [1, 1, 4], ls: [0, 0, 0], ms_combs: [0, 0, 0], ctildes: [-0.054571969947378771, 0.1686656464374035]}
    - {mu0: 0, rank: 3, ndensity: 2, num_ms_combs: 2, mus: [0, 0, 0], ns: [1, 1, 4], ls: [0, 1, 1], ms_combs: [0, 0, 0, 0, 1, -1], ctildes: [-0.099298749876607612, 0.056569421290148192, 0.19859749975321517, -0.11313884258029636]}
    - {mu0: 0, rank: 3, ndensity: 2, num_ms_combs: 3, mus: [0, 0, 0], ns: [1, 1, 4], ls: [0, 2, 2], ms_combs: [0, 0, 0, 0, 1, -1, 0, 2, -2], ctildes: [0.0049228923766537159, -0.030686939209391712, -0.0098457847533074336, 0.061373878418783431, 0.0098457847533074353, -0.061373878418783445]}
    - {mu0: 0, rank: 3, ndensity: 2, num_ms_combs: 2, mus: [0, 0, 0], ns: [1, 1, 4], ls: [1, 1, 0], ms_combs: [0, 0, 0, 1, -1, 0], ctildes: [0.032567178551401017, -0.072972238543566437, -0.065134357102802021, 0.14594447708713285]}
    - {mu0: 0, rank: 3, ndensity: 2, num_ms_combs: 4, mus: [0, 0, 0], ns: [1, 1, 4], ls: [1, 1, 2], ms_combs: [-1, 1, 0, 0, 0, 0, 0, 1, -1, 1, 1, -2], ctildes: [0.045890954631881989, 0.085818540594597148, 0.045890954631881982, 0.085818540594597134, -0.15897093006051585, -0.297284145082509, 0.11240942265732315, 0.21021163492708755]}
    - {mu0: 0, rank: 3, ndensity: 2, num_ms_combs: 5, mus: [0, 0, 0], ns: [1, 1, 4], ls: [1, 2, 1], ms_combs: [0, 0, 0, 0, 1, -1, 1, -2, 1, 1, -1, 0, 1, 0, -1], ctildes: [-0.046667849255489266, 0.024133277027101243, 0.080831085990472812, -0.041800061964074146, -0.11431241806907252, 0.059114214537629405, 0.080831085990472812, -0.041800061964074146, -0.046667849255489259, 0.02413327702710124]}
    - {mu0: 0, rank: 3, ndensity: 2, num_ms_combs: 3, mus: [0, 0, 0], ns: [1, 1, 4], ls: [2, 2, 0], ms_combs: [0, 0, 0, 1, -1, 0, 2, -2, 0], ctildes: [-0.029853682267538841, 0.060407127461006092, 0.059707364535077689, -0.1208142549220122, -0.059707364535077703, 0.12081425492201223]}
    - {mu0: 0, rank: 3, ndensity: 2, num_ms_combs: 1, mus: [0, 0, 0], ns: [1, 2, 2], ls: [0, 0, 0], ms_combs: [0, 0, 0], ctildes: [-0.12754443794153866, -0.010538874658536932]}
    - {mu0: 0, rank: 3, ndensity: 2, num_ms_combs: 2, mus: [0, 0, 0], ns: [1, 2, 2], ls: [0, 1, 1], ms_combs: [0, 0, 0, 0, 1, -1], ctildes: [0.0030347328117738548, 0.093620291772651729, -0.0060694656235477087, -0.18724058354530343]}
    - {mu0: 0, rank: 3, ndensity: 2, num_ms_combs: 3, mus: [0, 0, 0], ns: [1, 2, 2], ls: [0, 2, 2], ms_combs: [0, 0, 0, 0, 1, -1, 0, 2, -2], ctildes: [-0.028014388342755048, -0.0066720988507542262, 0.056028776685510102, 0.013344197701508454, -0.056028776685510116, -0.013344197701508456]}
    - {mu0: 0, rank: 3, ndensity: 2, num_ms_combs: 2, mus: [0, 0, 0], ns: [1, 2, 2], ls: [1, 0, 1], ms_combs: [0, 0, 0, 1, 0, -1], ctildes: [0.042760236163537781, 0.0012080264021786958, -0.085520472327075547, -0.0024160528043573912]}
    - {mu0: 0, rank: 3, ndensity: 2, num_ms_combs: 5, mus: [0, 0, 0], ns: [1, 2, 2], ls: [1, 1, 2], ms_combs: [0, 0, 0, 0, 1, -1, 1, -1, 0, 1, 0, -1, 1, 1, -2], ctildes: [-0.037826805240245759, 0.021512115976306565, 0.065517948564118314, -0.037260077849277144, -0.037826805240245766, 0.021512115976306569, 0.065517948564118314, -0.037260077849277144, -0.092656371438238988, 0.052693707429525088]}
    - {mu0: 0, rank: 3, ndensity: 2, num_ms_combs: 3, mus: [0, 0, 0], ns: [1, 2, 2], ls: [2, 0, 2], ms_combs: [0, 0, 0, 1, 0, -1, 2, 0, -2], ctildes: [0.12588559344761047, -0.16133785414763904, -0.25177118689522099, 0.32267570829527814, 0.25177118689522104, -0.3226757082952782]}
    - {mu0: 0, rank: 3, ndensity: 2, num_ms_combs: 4, mus: [0, 0, 0], ns: [1, 2, 2], ls: [2, 1, 1], ms_combs: [0, -1, 1, 0, 0, 0, 1, -1, 0, 2, -1, -1], ctildes: [-0.0030985620712260476, -0.021501972687623449, -0.0030985620712260481, -0.021501972687623452, 0.010733733875538739, 0.074485018315844295, -0.0075898960108452037, -0.052668861547937693]}
    - {mu0: 0, rank: 3, ndensity: 2, num_ms_combs: 1, mus: [0, 0, 0], ns: [1, 2, 3], ls: [0, 0, 0], ms_combs: [0, 0, 0], ctildes: [-0.096246204048698297, 0.013727243182961237]}
    - {mu0: 0, rank: 3, ndensity: 2, num_ms_combs: 2, mus: [0, 0, 0], ns: [1, 2, 3], ls: [0, 1, 1], ms_combs: [0, 0, 0, 0, 1, -1], ctildes: [0.0063844423443740264, -0.078532664403815539, -0.012768884688748049, 0.15706532880763105]}
    - {mu0: 0, rank: 3, ndensity: 2, num_ms_combs: 3, mus: [0, 0, 0], ns: [1, 2, 3], ls: [0, 2, 2], ms_combs: [0, 0, 0, 0, 1, -1, 0, 2, -2], ctildes: [-0.01091183216587029, 0.0015480692198134483, 0.021823664331740582, -0.003096138439626897, -0.021823664331740586, 0.0030961384396268978]}
    - {mu0: 0, rank: 3, ndensity: 2, num_ms_combs: 2, mus: [0, 0, 0], ns: [1, 2, 3], ls: [1, 0, 1], ms_combs: [0, 0, 0, 1, 0, -1], ctildes: [-0.019636529211787074, 0.060073124403017195, 0.039273058423574141, -0.12014624880603436]}
    - {mu0: 0, rank: 3, ndensity: 2, num_ms_combs: 2, mus: [0, 0, 0], ns: [1, 2, 3], ls: [1, 1, 0], ms_combs: [0, 0, 0, 1, -1, 0], ctildes: [-0.073238474314898466, 0.013516737881619679, 0.1464769486297969, -0.027033475763239355]}
    - {mu0: 0, rank: 3, ndensity: 2, num_ms_combs: 5, mus: [0, 0, 0], ns: [1, 2, 3], ls: [1, 1, 2], ms_combs: [0, 0, 0, 0, 1, -1, 1, -1, 0, 1, 0, -1, 1, 1, -2], ctildes: [0.062724884190733105, -0.049885608763603373, -0.1086426863172236, 0.086404408945064307, 0.062724884190733105, -0.04988560876360338, -0.1086426863172236, 0.086404408945064307, 0.15364396044246351, -0.12219428697894114]}
    - {mu0: 0, rank: 3, ndensity: 2, num_ms_combs: 5, mus: [0, 0, 0], ns: [1, 2, 3], ls: [1, 2, 1], ms_combs: [0, 0, 0, 0, 1, -1, 1, -2, 1, 1, -1, 0, 1, 0, -1], ctildes: [0.019854894545532693, -0.029986174995176855, -0.034389686131784801, 0.051937578616297754, 0.048634360533324004, -0.073450828075987115, -0.034389686131784801, 0.051937578616297754, 0.019854894545532693, -0.029986174995176852]}
    - {mu0: 0, rank: 3, ndensity: 2, num_ms_combs: 3, mus: [0, 0, 0], ns: [1, 2, 3], ls: [2, 0, 2], ms_combs: [0, 0, 0, 1, 0, -1, 2, 0, -2], ctildes: [-0.062807545493462361, 0.035415296530693523, 0.12561509098692475, -0.070830593061387045, -0.12561509098692478, 0.070830593061387073]}
    - {mu0: 0, rank: 3, ndensity: 2, num_ms_combs: 5, mus: [0, 0, 0], ns: [1, 2, 3], ls: [2, 1, 1], ms_combs: [0, 0, 0, 0, 1, -1, 1, -1, 0, 1, 0, -1, 2, -1, -1], ctildes: [0.0067310834478547217, -0.0046488496116258047, 0.0067310834478547209, -0.0046488496116258039, -0.011658578521670274, 0.0080520437240827365, -0.011658578521670274, 0.0080520437240827365, 0.016487719863337771, -0.011387309439418968]}
    - {mu0: 0, rank: 3, ndensity: 2, num_ms_combs: 3, mus: [0, 0, 0], ns: [1, 2, 3], ls: [2, 2, 0], ms_combs: [0, 0, 0, 1, -1, 0, 2, -2, 0], ctildes: [-0.041069176336563908, 0.12374002571690859, 0.082138352673127829, -0.24748005143381721, -0.082138352673127843, 0.24748005143381727]}
    - {mu0: 0, rank: 3, ndensity: 2, num_ms_combs: 1, mus: [0, 0, 0], ns: [1, 2, 4], ls: [0, 0, 0], ms_combs: [0, 0, 0], ctildes: [-0.015834312177575735, -0.11544308322082086]}
    - {mu0: 0, rank: 3, ndensity: 2, num_ms_combs: 2, mus: [0, 0, 0], ns: [1, 2, 4], ls: [0, 1, 1], ms_combs: [0, 0, 0, 0, 1, -1], ctildes: [-0.11872164806156964, -0.070786950655352371, 0.23744329612313922, 0.14157390131070471]}
    - {mu0: 0, rank: 3, ndensity: 2, num_ms_combs: 2, mus: [0, 0, 0], ns: [1, 2, 4], ls: [1, 0, 1], ms_combs: [0, 0, 0, 1, 0, -1], ctildes: [-0.20252967195295948, -0.053165116703432443, 0.40505934390591891, 0.10633023340686487]}
    - {mu0: 0, rank: 3, ndensity: 2, num_ms_combs: 2, mus: [0, 0, 0], ns: [1, 2, 4], ls: [1, 1, 0], ms_combs: [0, 0, 0, 1, -1, 0], ctildes: [-0.081824830124224743, 0.1705710591502807, 0.16364966024844946, -0.34114211830056135]}
    - {mu0: 0, rank: 3, ndensity: 2, num_ms_combs: 1, mus: [0, 0, 0], ns: [1, 3, 3], ls: [0, 0, 0], ms_combs: [0, 0, 0], ctildes: [0.081571251765200165, 0.055129809007331623]}
    - {mu0: 0, rank: 3, ndensity: 2, num_ms_combs: 2, mus: [0, 0, 0], ns: [1, 3, 3], ls: [0, 1, 1], ms_combs: [0, 0, 0, 0, 1, -1], ctildes: [-0.077937401962097697, 0.22907016992730764, 0.15587480392419537, -0.45814033985461516]}
    - {mu0: 0, rank: 3, ndensity: 2, num_ms_combs: 2, mus: [0, 0, 0], ns: [1, 3, 3], ls: [1, 0, 1], ms_combs: [0, 0, 0, 1, 0, -1], ctildes: [-0.11218732668564342, -0.024486177643399578, 0.22437465337128681, 0.048972355286799142]}
    - {mu0: 0, rank: 3, ndensity: 2, num_ms_combs: 1, mus: [0, 0, 0], ns: [1, 3, 4], ls: [0, 0, 0], ms_combs: [0, 0, 0], ctildes: [-0.092805095295678056, 0.28199679498281116]}
    - {mu0: 0, rank: 3, ndensity: 2, num_ms_combs: 2, mus: [0, 0, 0], ns: [1, 3, 4], ls: [0, 1, 1], ms_combs: [0, 0, 0, 0, 1, -1], ctildes: [0.039690254003862384, -0.1148268471640288, -0.079380508007724754, 0.22965369432805757]}
    - {mu0: 0, rank: 3, ndensity: 2, num_ms_combs: 2, mus: [0, 0, 0], ns: [1, 3, 4], ls: [1, 0, 1], ms_combs: [0, 0, 0, 1, 0, -1], ctildes: [0.073086311465890494, 0.10158014305087093, -0.14617262293178096, -0.2031602861017418]}
    - {mu0: 0, rank: 3, ndensity: 2, num_ms_combs: 2, mus: [0, 0, 0], ns: [1, 3, 4], ls: [1, 1, 0], ms_combs: [0, 0, 0, 1, -1, 0], ctildes: [-0.010541047616650213, 0.02054223193916338, 0.021082095233300423, -0.041084463878326753]}
    - {mu0: 0, rank: 3, ndensity: 2, num_ms_combs: 1, mus: [0, 0, 0], ns: [1, 4, 4], ls: [0, 0, 0], ms_combs: [0, 0, 0], ctildes: [0.082998972326750978, -0.1898226722577567]}
    - {mu0: 0, rank: 3, ndensity: 2, num_ms_combs: 1, mus: [0, 0, 0], ns: [2, 2, 2], ls: [0, 0, 0], ms_combs: [0, 0, 0], ctildes: [0.2467906132251261, 0.27467015679715412]}
    - {mu0: 0, rank: 3, ndensity: 2, num_ms_combs: 2, mus: [0, 0, 0], ns: [2, 2, 2], ls: [0, 1, 1], ms_combs: [0, 0, 0, 0, 1, -1], ctildes: [-0.015398539532952392, 0.084536366432564874, 0.030797079065904776, -0.16907273286512972]}
    - {mu0: 0, rank: 3, ndensity: 2, num_ms_combs: 3, mus: [0, 0, 0], ns: [2, 2, 2], ls: [0, 2, 2], ms_combs: [0, 0, 0, 0, 1, -1, 0, 2, -2], ctildes: [0.0047687667532872379, 0.10517020198602857, -0.0095375335065744776, -0.21034040397205717, 0.0095375335065744794, 0.21034040397205722]}
    - {mu0: 0, rank: 3, ndensity: 2, num_ms_combs: 4, mus: [0, 0, 0], ns: [2, 2, 2], ls: [1, 1, 2], ms_combs: [-1, 1, 0, 0, 0, 0, 0, 1, -1, 1, 1, -2], ctildes: [0.051927877610052672, -0.032216898682472156, 0.051927877610052658, -0.032216898682472149, -0.17988344469965911, 0.1116026107606812, 0.12719680357032431, -0.078914962867000449]}
    - {mu0: 0, rank: 3, ndensity: 2, num_ms_combs: 1, mus: [0, 0, 0], ns: [2, 2, 3], ls: [0, 0, 0], ms_combs: [0, 0, 0], ctildes: [-0.06297047102190835, 0.24610164865773826]}
    - {mu0: 0, rank: 3, ndensity: 2, num_ms_combs: 2, mus: [0, 0, 0], ns: [2, 2, 3], ls: [0, 1, 1], ms_combs: [0, 0, 0, 0, 1, -1], ctildes: [-0.086038253039385823, -0.12431708537038937, 0.17207650607877159, 0.24863417074077868]}
    - {mu0: 0, rank: 3, ndensity: 2, num_ms_combs: 2, mus: [0, 0, 0], ns: [2, 2, 3], ls: [1, 1, 0], ms_combs: [0, 0, 0, 1, -1, 0], ctildes: [0.054506893811250685, -0.1089634543630202, -0.10901378762250136, 0.21792690872604034]}
    - {mu0: 0, rank: 3, ndensity: 2, num_ms_combs: 1, mus: [0, 0, 0], ns: [2, 2, 4], ls: [0, 0, 0], ms_combs: [0, 0, 0], ctildes: [0.021744708439476224, -0.033007216190563259]}
    - {mu0: 0, rank: 3, ndensity: 2, num_ms_combs: 2, mus: [0, 0, 0], ns: [2, 2, 4], ls: [0, 1, 1], ms_combs: [0, 0, 0, 0, 1, -1], ctildes: [0.13649433773796893, -0.0058394455512377399, -0.2729886754759378, 0.011678891102475476]}
    - {mu0: 0, rank: 3, ndensity: 2, num_ms_combs: 2, mus: [0, 0, 0], ns: [2, 2, 4], ls: [1, 1, 0], ms_combs: [0, 0, 0, 1, -1, 0], ctildes: [0.071203060103167015, -0.163915666975123, -0.142406120206334, 0.32783133395024594]}
    - {mu0: 0, rank: 3, ndensity: 2, num_ms_combs: 1, mus: [0, 0, 0], ns: [2, 3, 3], ls: [0, 0, 0], ms_combs: [0, 0, 0], ctildes: [-0.16126350036401121, -0.13722402585230994]}
    - {mu0: 0, rank: 3, ndensity: 2, num_ms_combs: 2, mus: [0, 0, 0], ns: [2, 3, 3], ls: [0, 1, 1], ms_combs: [0, 0, 0, 0, 1, -1], ctildes: [0.033266480832858665, -0.092367904299190215, -0.066532961665717316, 0.1847358085983804]}
    - {mu0: 0, rank: 3, ndensity: 2, num_ms_combs: 2, mus: [0, 0, 0], ns: [2, 3, 3], ls: [1, 0, 1], ms_combs: [0, 0, 0, 1, 0, -1], ctildes: [0.0085498332321754696, -0.028739405574635252, -0.017099666464350939, 0.057478811149270496]}
    - {mu0: 0, rank: 3, ndensity: 2, num_ms_combs: 1, mus: [0, 0, 0], ns: [2, 3, 4], ls: [0, 0, 0], ms_combs: [0, 0, 0], ctildes: [0.13512702727766771, -0.22228658953484279]}
    - {mu0: 0, rank: 3, ndensity: 2, num_ms_combs: 1, mus: [0, 0, 0], ns: [2, 4, 4], ls: [0, 0, 0], ms_combs: [0, 0, 0], ctildes: [-0.11257059861397674, 0.16780901063086537]}
    - {mu0: 0, rank: 3, ndensity: 2, num_ms_combs: 1, mus: [0, 0, 0], ns: [3, 3, 3], ls: [0, 0, 0], ms_combs: [0, 0, 0], ctildes: [0.027622877553421774, 0.046731812705466218]}
    - {mu0: 0, rank: 3, ndensity: 2, num_ms_combs: 1, mus: [0, 0, 0], ns: [3, 3, 4], ls: [0, 0, 0], ms_combs: [0, 0, 0], ctildes: [-0.030060553613976412, 0.0099420108557923027]}
    - {mu0: 0, rank: 4, ndensity: 2, num_ms_combs: 1, mus: [0, 0, 0, 0], ns: [1, 1, 1, 1], ls: [0, 0, 0, 0], ms_combs: [0, 0, 0, 0], ctildes: [-0.079828396525856216, -0.023334895925912282]}
    - {mu0: 0, rank: 4, ndensity: 2, num_ms_combs: 2, mus: [0, 0, 0, 0], ns: [1, 1, 1, 1], ls: [0, 0, 1, 1], ms_combs: [0, 0, 0, 0, 0, 0, 1, -1], ctildes: [0.073853564408966316, 0.073533043964533862, -0.1477071288179326, -0.1470660879290677]}
    - {mu0: 0, rank: 4, ndensity: 2, num_ms_combs: 3, mus: [0, 0, 0, 0], ns: [1, 1, 1, 1], ls: [0, 0, 2, 2], ms_combs: [0, 0, 0, 0, 0, 0, 1, -1, 0, 0, 2, -2], ctildes: [-0.014077574946498805, 0.048362623128092926, 0.028155149892997614, -0.096725246256185865, -0.028155149892997621, 0.096725246256185893]}
    - {mu0: 0, rank: 4, ndensity: 2, num_ms_combs: 4, mus: [0, 0, 0, 0], ns: [1, 1, 1, 1], ls: [0, 1, 1, 2], ms_combs: [0, -1, 1, 0, 0, 0, 0, 0, 0, 0, 1, -1, 0, 1, 1, -2], ctildes: [-0.07057461673088912, -0.088566999164821567, -0.070574616730889134, -0.088566999164821567, 0.24447764380520107, 0.3068050848547626, -0.172871799783167, -0.21694395600331673]}
    - {mu0: 0, rank: 4, ndensity: 2, num_ms_combs: 3, mus: [0, 0, 0, 0], ns: [1, 1, 1, 1], ls: [1, 1, 1, 1], ms_combs: [-1, -1, 1, 1, -1, 0, 0, 1, 0, 0, 0, 0], ctildes: [-0.19270130131605587, -0.018144368067702997, 0.1927013013160559, 0.018144368067703, -0.048175325329013988, -0.0045360920169257518]}
    - {mu0: 0, rank: 4, ndensity: 2, num_ms_combs: 1, mus: [0, 0, 0, 0], ns: [1, 1, 1, 2], ls: [0, 0, 0, 0], ms_combs: [0, 0, 0, 0], ctildes: [-0.0276726891212296, 0.1095206937756102]}
    - {mu0: 0, rank: 4, ndensity: 2, num_ms_combs: 2, mus: [0, 0, 0, 0], ns: [1, 1, 1, 2], ls: [0, 0, 1, 1], ms_combs: [0, 0, 0, 0, 0, 0, 1, -1], ctildes: [0.026682911227164225, -0.090802489805008116, -0.053365822454328436, 0.1816049796100162]}
    - {mu0: 0, rank: 4, ndensity: 2, num_ms_combs: 3, mus: [0, 0, 0, 0], ns: [1, 1, 1, 2], ls: [0, 0, 2, 2], ms_combs: [0, 0, 0, 0, 0, 0, 1, -1, 0, 0, 2, -2], ctildes: [0.0018378436992053206, -0.016939276946211588, -0.0036756873984106417, 0.033878553892423183, 0.0036756873984106425, -0.03387855389242319]}
    - {mu0: 0, rank: 4, ndensity: 2, num_ms_combs: 2, mus: [0, 0, 0, 0], ns: [1, 1, 1, 2], ls: [0, 1, 1, 0], ms_combs: [0, 0, 0, 0, 0, 1, -1, 0], ctildes: [0.024614173630329986, 0.028594440202447811, -0.049228347260659965, -0.057188880404895608]}
    - {mu0: 0, rank: 4, ndensity: 2, num_ms_combs: 4, mus: [0, 0, 0, 0], ns: [1, 1, 1, 2], ls: [0, 1, 1, 2], ms_combs: [0, -1, 1, 0, 0, 0, 0, 0, 0, 0, 1, -1, 0, 1, 1, -2], ctildes: [0.044213693824089711, 0.064334577193240872, 0.044213693824089711, 0.064334577193240886, -0.15316072818723536, -0.22286151276431032, 0.1083009895126637, 0.15758688694113612]}
    - {mu0: 0, rank: 4, ndensity: 2, num_ms_combs: 5, mus: [0, 0, 0, 0], ns: [1, 1, 1, 2], ls: [0, 1, 2, 1], ms_combs: [0, 0, 0, 0, 0, 0, 1, -1, 0, 1, -2, 1, 0, 1, -1, 0, 0, 1, 0, -1], ctildes: [-0.061269909423573514, 0.086043721657849681, 0.10612259609677248, -0.14903209758371025, -0.15008001467429771, 0.21076321363179359, 0.10612259609677248, -0.14903209758371025, -0.061269909423573507, 0.086043721657849681]}
    - {mu0: 0, rank: 4, ndensity: 2, num_ms_combs: 3, mus: [0, 0, 0, 0], ns: [1, 1, 1, 2], ls: [0, 2, 2, 0], ms_combs: [0, 0, 0, 0, 0, 1, -1, 0, 0, 2, -2, 0], ctildes: [0.0039580224236501968, -0.030422605836458585, -0.0079160448473003936, 0.060845211672917177, 0.0079160448473003953, -0.060845211672917197]}
    - {mu0: 0, rank: 4, ndensity: 2, num_ms_combs: 5, mus: [0, 0, 0, 0], ns: [1, 1, 1, 2], ls: [1, 1, 1, 1], ms_combs: [0, 0, 0, 0, 0, 0, 1, -1, 1, -1, -1, 1, 1, -1, 0, 0, 1, -1, 1, -1], ctildes: [0.12186832271278167, 0.035184150460688762, -0.24373664542556325, -0.070368300921377497, 0.24373664542556323, 0.070368300921377483, -0.24373664542556325, -0.070368300921377497, 0.24373664542556323, 0.070368300921377483]}
    - {mu0: 0, rank: 4, ndensity: 2, num_ms_combs: 4, mus: [0, 0, 0, 0], ns: [1, 1, 1, 2], ls: [1, 1, 2, 0], ms_combs: [-1, 1, 0, 0, 0, 0, 0, 0, 0, 1, -1, 0, 1, 1, -2, 0], ctildes: [0.10443925411667998, 0.0089816308714629027, 0.10443925411667995, 0.0089816308714629027, -0.36178818886937353, -0.031113282008405765, 0.25582288170273348, 0.022000412693113126]}
    - {mu0: 0, rank: 4, ndensity: 2, num_ms_combs: 1, mus: [0, 0, 0, 0], ns: [1, 1, 1, 3], ls: [0, 0, 0, 0], ms_combs: [0, 0, 0, 0], ctildes: [0.028690445300969439, -0.050309747750607578]}
    - {mu0: 0, rank: 4, ndensity: 2, num_ms_combs: 2, mus: [0, 0, 0, 0], ns: [1, 1, 1, 3], ls: [0, 0, 1, 1], ms_combs: [0, 0, 0, 0, 0, 0, 1, -1], ctildes: [-0.0095017597333812206, 0.0397733003779712, 0.019003519466762438, -0.079546600755942387]}
    - {mu0: 0, rank: 4, ndensity: 2, num_ms_combs: 2, mus: [0, 0, 0, 0], ns: [1, 1, 1, 3], ls: [0, 1, 1, 0], ms_combs: [0, 0, 0, 0, 0, 1, -1, 0], ctildes: [-0.00070641192173511163, -0.017090885337161767, 0.001412823843470223, 0.034181770674323528]}
    - {mu0: 0, rank: 4, ndensity: 2, num_ms_combs: 1, mus: [0, 0, 0, 0], ns: [1, 1, 2, 2], ls: [0, 0, 0, 0], ms_combs: [0, 0, 0, 0], ctildes: [0.011989986714698874, 0.083761577613132798]}
    - {mu0: 0, rank: 4, ndensity: 2, num_ms_combs: 2, mus: [0, 0, 0, 0], ns: [1, 1, 2, 2], ls: [0, 0, 1, 1], ms_combs: [0, 0, 0, 0, 0, 0, 1, -1], ctildes: [-0.037045167833552946, 0.079948520188264843, 0.074090335667105878, -0.15989704037652966]}
    - {mu0: 0, rank: 4, ndensity: 2, num_ms_combs: 2, mus: [0, 0, 0, 0], ns: [1, 1, 2, 2], ls: [0, 1, 0, 1], ms_combs: [0, 0, 0, 0, 0, 1, 0, -1], ctildes: [-0.17247408269432676, -0.082644791488466207, 0.34494816538865347, 0.16528958297693239]}
    - {mu0: 0, rank: 4, ndensity: 2, num_ms_combs: 2, mus: [0, 0, 0, 0], ns: [1, 1, 2, 2], ls: [1, 1, 0, 0], ms_combs: [0, 0, 0, 0, 1, -1, 0, 0], ctildes: [-0.030788533562934293, -0.090286946675661825, 0.061577067125868572, 0.18057389335132359]}
    - {mu0: 0, rank: 4, ndensity: 2, num_ms_combs: 1, mus: [0, 0, 0, 0], ns: [1, 1, 2, 3], ls: [0, 0, 0, 0], ms_combs: [0, 0, 0, 0], ctildes: [0.04089445817845086, 0.12794265525892121]}
    - {mu0: 0, rank: 4, ndensity: 2, num_ms_combs: 2, mus: [0, 0, 0, 0], ns: [1, 1, 2, 3], ls: [0, 0, 1, 1], ms_combs: [0, 0, 0, 0, 0, 0, 1, -1], ctildes: [0.003594442798558637, 0.043668123257140722, -0.0071888855971172722, -0.087336246514281429]}
    - {mu0: 0, rank: 4, ndensity: 2, num_ms_combs: 2, mus: [0, 0, 0, 0], ns: [1, 1, 2, 3], ls: [0, 1, 0, 1], ms_combs: [0, 0, 0, 0, 0, 1, 0, -1], ctildes: [0.022518591524262992, -0.048048664237492975, -0.045037183048525976, 0.096097328474985921]}
    - {mu0: 0, rank: 4, ndensity: 2, num_ms_combs: 2, mus: [0, 0, 0, 0], ns: [1, 1, 2, 3], ls: [0, 1, 1, 0], ms_combs: [0, 0, 0, 0, 0, 1, -1, 0], ctildes: [0.049940520523887547, 0.050601784946539385, -0.099881041047775079, -0.10120356989307876]}
    - {mu0: 0, rank: 4, ndensity: 2, num_ms_combs: 2, mus: [0, 0, 0, 0], ns: [1, 1, 2, 3], ls: [1, 1, 0, 0], ms_combs: [0, 0, 0, 0, 1, -1, 0, 0], ctildes: [-0.040357075599843723, 0.070499084028985026, 0.080714151199687431, -0.14099816805797002]}
    - {mu0: 0, rank: 4, ndensity: 2, num_ms_combs: 1, mus: [0, 0, 0, 0], ns: [1, 1, 3, 3], ls: [0, 0, 0, 0], ms_combs: [0, 0, 0, 0], ctildes: [-0.05400279085631448, -0.060730953456312582]}
    - {mu0: 0, rank: 4, ndensity: 2, num_ms_combs: 1, mus: [0, 0, 0, 0], ns: [1, 2, 2, 2], ls: [0, 0, 0, 0], ms_combs: [0, 0, 0, 0], ctildes: [-0.015070374656567506, -0.019400906943303896]}
    - {mu0: 0, rank: 4, ndensity: 2, num_ms_combs: 2, mus: [0, 0, 0, 0], ns: [1, 2, 2, 2], ls: [0, 0, 1, 1], ms_combs: [0, 0, 0, 0, 0, 0, 1, -1], ctildes: [0.0085684604057908176, -0.052678948112268455, -0.017136920811581632, 0.1053578962245369]}
    - {mu0: 0, rank: 4, ndensity: 2, num_ms_combs: 2, mus: [0, 0, 0, 0], ns: [1, 2, 2, 2], ls: [1, 0, 0, 1], ms_combs: [0, 0, 0, 0, 1, 0, 0, -1], ctildes: [-0.014466826426145447, 0.046873468007494916, 0.028933652852290888, -0.093746936014989818]}
    - {mu0: 0, rank: 4, ndensity: 2, num_ms_combs: 1, mus: [0, 0, 0, 0], ns: [1, 2, 2, 3], ls: [0, 0, 0, 0], ms_combs: [0, 0, 0, 0], ctildes: [-0.14863868289999763, -0.041018461273946143]}
    - {mu0: 0, rank: 4, ndensity: 2, num_ms_combs: 1, mus: [0, 0, 0, 0], ns: [1, 2, 3, 3], ls: [0, 0, 0, 0], ms_combs: [0, 0, 0, 0], ctildes: [0.071130304539983924, 0.046401919373789596]}
    - {mu0: 0, rank: 4, ndensity: 2, num_ms_combs: 1, mus: [0, 0, 0, 0], ns: [2, 2, 2, 2], ls: [0, 0, 0, 0], ms_combs: [0, 0, 0, 0], ctildes: [-0.048652392924861586, -0.026316568970649355]}
    - {mu0: 0, rank: 4, ndensity: 2, num_ms_combs: 1, mus: [0, 0, 0, 0], ns: [2, 2, 2, 3], ls: [0, 0, 0, 0], ms_combs: [0, 0, 0, 0], ctildes: [0.092352339215360943, -0.05791065871059968]}
    - {mu0: 0, rank: 5, ndensity: 2, num_ms_combs: 1, mus: [0, 0, 0, 0, 0], ns: [1, 1, 1, 1, 1], ls: [0, 0, 0, 0, 0], ms_combs: [0, 0, 0, 0, 0], ctildes: [-0.007311817419749617, 0.014482526319516039]}
    - {mu0: 0, rank: 5, ndensity: 2, num_ms_combs: 2, mus: [0, 0, 0, 0, 0], ns: [1, 1, 1, 1, 1], ls: [0, 0, 0, 1, 1], ms_combs: [0, 0, 0, 0, 0, 0, 0, 0, 1, -1], ctildes: [-0.0098960164766413519, -0.055640738782448115, 0.0197920329532827, 0.1112814775648962]}
    - {mu0: 0, rank: 5, ndensity: 2, num_ms_combs: 1, mus: [0, 0, 0, 0, 0], ns: [1, 1, 1, 1, 2], ls: [0, 0, 0, 0, 0], ms_combs: [0, 0, 0, 0, 0], ctildes: [0.03053392626165994, 0.0025438490415154893]}
    - {mu0: 0, rank: 5, ndensity: 2, num_ms_combs: 2, mus: [0, 0, 0, 0, 0], ns: [1, 1, 1, 1, 2], ls: [0, 0, 0, 1, 1], ms_combs: [0, 0, 0, 0, 0, 0, 0, 0, 1, -1], ctildes: [0.0026647535001050157, 0.0411142689696299, -0.0053295070002100306, -0.082228537939259785]}
    - {mu0: 0, rank: 5, ndensity: 2, num_ms_combs: 2, mus: [0, 0, 0, 0, 0], ns: [1, 1, 1, 1, 2], ls: [0, 0, 1, 1, 0], ms_combs: [0, 0, 0, 0, 0, 0, 0, 1, -1, 0], ctildes: [-0.00011502665214418257, 0.048253029515356378, 0.0002300533042883651, -0.096506059030712729]}
    - {mu0: 0, rank: 5, ndensity: 2, num_ms_combs: 1, mus: [0, 0, 0, 0, 0], ns: [1, 1, 1, 2, 2], ls: [0, 0, 0, 0, 0], ms_combs: [0, 0, 0, 0, 0], ctildes: [-0.020015919024138015, -0.071520968809204902]}
    - {mu0: 0, rank: 5, ndensity: 2, num_ms_combs: 1, mus: [0, 0, 0, 0, 0], ns: [1, 1, 2, 2, 2], ls: [0, 0, 0, 0, 0], ms_combs: [0, 0, 0, 0, 0], ctildes: [0.017199971492944114, 0.026362559860572534]}
    - {mu0: 0, rank: 6, ndensity: 2, num_ms_combs: 1, mus: [0, 0, 0, 0, 0, 0], ns: [1, 1, 1, 1, 1, 1], ls: [0, 0, 0, 0, 0, 0], ms_combs: [0, 0, 0, 0, 0, 0], ctildes: [0.0012014840383623216, -0.0034436385518958191]}
    - {mu0: 0, rank: 6, ndensity: 2, num_ms_combs: 1, mus: [0, 0, 0, 0, 0, 0], ns: [1, 1, 1, 1, 1, 2], ls: [0, 0, 0, 0, 0, 0], ms_combs: [0, 0, 0, 0, 0, 0], ctildes: [-0.002201055885987584, 0.0054571780642154533]}
