<GAP_2022_11_25_60_12_25_20_600>
<Potential label="GAP_2022_11_25_60_12_25_20_600" init_args="IP GAP label=GAP_2022_11_25_60_12_25_20_600"/>
<GAP_params label="GAP_2022_11_25_60_12_25_20_600" gap_version="1663247896">
  <GAP_data do_core="F">
    <e0 Z="1" value=".00000000000000000E+000"/>
    <e0 Z="2" value=".00000000000000000E+000"/>
    <e0 Z="3" value=".00000000000000000E+000"/>
    <e0 Z="4" value=".00000000000000000E+000"/>
    <e0 Z="5" value=".00000000000000000E+000"/>
    <e0 Z="6" value=".00000000000000000E+000"/>
    <e0 Z="7" value=".00000000000000000E+000"/>
    <e0 Z="8" value=".00000000000000000E+000"/>
    <e0 Z="9" value=".00000000000000000E+000"/>
    <e0 Z="10" value=".00000000000000000E+000"/>
    <e0 Z="11" value=".00000000000000000E+000"/>
    <e0 Z="12" value=".00000000000000000E+000"/>
    <e0 Z="13" value=".00000000000000000E+000"/>
    <e0 Z="14" value=".00000000000000000E+000"/>
    <e0 Z="15" value=".00000000000000000E+000"/>
    <e0 Z="16" value=".00000000000000000E+000"/>
    <e0 Z="17" value=".00000000000000000E+000"/>
    <e0 Z="18" value=".00000000000000000E+000"/>
    <e0 Z="19" value=".00000000000000000E+000"/>
    <e0 Z="20" value=".00000000000000000E+000"/>
    <e0 Z="21" value=".00000000000000000E+000"/>
    <e0 Z="22" value=".00000000000000000E+000"/>
    <e0 Z="23" value=".00000000000000000E+000"/>
    <e0 Z="24" value=".00000000000000000E+000"/>
    <e0 Z="25" value=".00000000000000000E+000"/>
    <e0 Z="26" value="-3455.6995339000000"/>
    <e0 Z="27" value=".00000000000000000E+000"/>
    <e0 Z="28" value=".00000000000000000E+000"/>
    <e0 Z="29" value=".00000000000000000E+000"/>
    <e0 Z="30" value=".00000000000000000E+000"/>
    <e0 Z="31" value=".00000000000000000E+000"/>
    <e0 Z="32" value=".00000000000000000E+000"/>
    <e0 Z="33" value=".00000000000000000E+000"/>
    <e0 Z="34" value=".00000000000000000E+000"/>
    <e0 Z="35" value=".00000000000000000E+000"/>
    <e0 Z="36" value=".00000000000000000E+000"/>
    <e0 Z="37" value=".00000000000000000E+000"/>
    <e0 Z="38" value=".00000000000000000E+000"/>
    <e0 Z="39" value=".00000000000000000E+000"/>
    <e0 Z="40" value=".00000000000000000E+000"/>
    <e0 Z="41" value=".00000000000000000E+000"/>
    <e0 Z="42" value=".00000000000000000E+000"/>
    <e0 Z="43" value=".00000000000000000E+000"/>
    <e0 Z="44" value=".00000000000000000E+000"/>
    <e0 Z="45" value=".00000000000000000E+000"/>
    <e0 Z="46" value=".00000000000000000E+000"/>
    <e0 Z="47" value=".00000000000000000E+000"/>
    <e0 Z="48" value=".00000000000000000E+000"/>
    <e0 Z="49" value=".00000000000000000E+000"/>
    <e0 Z="50" value=".00000000000000000E+000"/>
    <e0 Z="51" value=".00000000000000000E+000"/>
    <e0 Z="52" value=".00000000000000000E+000"/>
    <e0 Z="53" value=".00000000000000000E+000"/>
    <e0 Z="54" value=".00000000000000000E+000"/>
    <e0 Z="55" value=".00000000000000000E+000"/>
    <e0 Z="56" value=".00000000000000000E+000"/>
    <e0 Z="57" value=".00000000000000000E+000"/>
    <e0 Z="58" value=".00000000000000000E+000"/>
    <e0 Z="59" value=".00000000000000000E+000"/>
    <e0 Z="60" value=".00000000000000000E+000"/>
    <e0 Z="61" value=".00000000000000000E+000"/>
    <e0 Z="62" value=".00000000000000000E+000"/>
    <e0 Z="63" value=".00000000000000000E+000"/>
    <e0 Z="64" value=".00000000000000000E+000"/>
    <e0 Z="65" value=".00000000000000000E+000"/>
    <e0 Z="66" value=".00000000000000000E+000"/>
    <e0 Z="67" value=".00000000000000000E+000"/>
    <e0 Z="68" value=".00000000000000000E+000"/>
    <e0 Z="69" value=".00000000000000000E+000"/>
    <e0 Z="70" value=".00000000000000000E+000"/>
    <e0 Z="71" value=".00000000000000000E+000"/>
    <e0 Z="72" value=".00000000000000000E+000"/>
    <e0 Z="73" value=".00000000000000000E+000"/>
    <e0 Z="74" value=".00000000000000000E+000"/>
    <e0 Z="75" value=".00000000000000000E+000"/>
    <e0 Z="76" value=".00000000000000000E+000"/>
    <e0 Z="77" value=".00000000000000000E+000"/>
    <e0 Z="78" value=".00000000000000000E+000"/>
    <e0 Z="79" value=".00000000000000000E+000"/>
    <e0 Z="80" value=".00000000000000000E+000"/>
    <e0 Z="81" value=".00000000000000000E+000"/>
    <e0 Z="82" value=".00000000000000000E+000"/>
    <e0 Z="83" value=".00000000000000000E+000"/>
    <e0 Z="84" value=".00000000000000000E+000"/>
    <e0 Z="85" value=".00000000000000000E+000"/>
    <e0 Z="86" value=".00000000000000000E+000"/>
    <e0 Z="87" value=".00000000000000000E+000"/>
    <e0 Z="88" value=".00000000000000000E+000"/>
    <e0 Z="89" value=".00000000000000000E+000"/>
    <e0 Z="90" value=".00000000000000000E+000"/>
    <e0 Z="91" value=".00000000000000000E+000"/>
    <e0 Z="92" value=".00000000000000000E+000"/>
    <e0 Z="93" value=".00000000000000000E+000"/>
    <e0 Z="94" value=".00000000000000000E+000"/>
    <e0 Z="95" value=".00000000000000000E+000"/>
    <e0 Z="96" value=".00000000000000000E+000"/>
    <e0 Z="97" value=".00000000000000000E+000"/>
    <e0 Z="98" value=".00000000000000000E+000"/>
    <e0 Z="99" value=".00000000000000000E+000"/>
    <e0 Z="100" value=".00000000000000000E+000"/>
    <e0 Z="101" value=".00000000000000000E+000"/>
    <e0 Z="102" value=".00000000000000000E+000"/>
    <e0 Z="103" value=".00000000000000000E+000"/>
    <e0 Z="104" value=".00000000000000000E+000"/>
    <e0 Z="105" value=".00000000000000000E+000"/>
    <e0 Z="106" value=".00000000000000000E+000"/>
    <e0 Z="107" value=".00000000000000000E+000"/>
    <e0 Z="108" value=".00000000000000000E+000"/>
    <e0 Z="109" value=".00000000000000000E+000"/>
    <e0 Z="110" value=".00000000000000000E+000"/>
    <e0 Z="111" value=".00000000000000000E+000"/>
    <e0 Z="112" value=".00000000000000000E+000"/>
    <e0 Z="113" value=".00000000000000000E+000"/>
    <e0 Z="114" value=".00000000000000000E+000"/>
    <e0 Z="115" value=".00000000000000000E+000"/>
    <e0 Z="116" value=".00000000000000000E+000"/>
    <e0 Z="117" value=".00000000000000000E+000"/>
    <e0 Z="118" value=".00000000000000000E+000"/>
  </GAP_data>
  <gpSparse label="GAP_2022_11_25_60_12_25_20_600" n_coordinate="3" fitted="T">
    <gpCoordinates label="GAP_2022_11_25_60_12_25_20_6001" dimensions="1" signal_variance="1.0000000000000000" signal_mean=".00000000000000000E+000" sparsified="T" n_permutations="2" covariance_type="1" n_sparseX="25" sparseX_filename="gap_Fe_test.xml.sparseX.GAP_2022_11_25_60_12_25_20_6001" sparseX_md5sum="0253436b038d00575d3024c3a1663d12">
      <theta>  0.25000000000000000E+001 </theta>
      <descriptor> distance_Nb order=2 cutoff=6.5 n_sparse=25 covariance_type=ard_se delta=1.0 theta_uniform=2.5 sparse_method=uniform compact_clusters=True Z={26 26 }</descriptor>
      <permutation i="1">1  </permutation>
      <permutation i="2">1  </permutation>
      <sparseX i="1" alpha="81012.661993978443" sparseCutoff=".66021411362658644"/>
      <sparseX i="2" alpha="-563532.27934030746" sparseCutoff="1.0000000000000000"/>
      <sparseX i="3" alpha="92953.637361881221" sparseCutoff="1.0000000000000000"/>
      <sparseX i="4" alpha="263293.00964568299" sparseCutoff="1.0000000000000000"/>
      <sparseX i="5" alpha="-205608.02023597603" sparseCutoff="1.0000000000000000"/>
      <sparseX i="6" alpha="274579.75683279918" sparseCutoff="1.0000000000000000"/>
      <sparseX i="7" alpha="-49712.711126911308" sparseCutoff="1.0000000000000000"/>
      <sparseX i="8" alpha="-809.97297344045774" sparseCutoff=".46087313377185524E-004"/>
      <sparseX i="9" alpha="-76440.203057003077" sparseCutoff="1.0000000000000000"/>
      <sparseX i="10" alpha="257537.31345507584" sparseCutoff="1.0000000000000000"/>
      <sparseX i="11" alpha="-34168.876556868156" sparseCutoff="1.0000000000000000"/>
      <sparseX i="12" alpha="-172757.49492948258" sparseCutoff=".87989292877846648"/>
      <sparseX i="13" alpha="313195.46569867770" sparseCutoff="1.0000000000000000"/>
      <sparseX i="14" alpha="-507257.92352884234" sparseCutoff="1.0000000000000000"/>
      <sparseX i="15" alpha="-121033.66152941040" sparseCutoff="1.0000000000000000"/>
      <sparseX i="16" alpha="175249.72867683519" sparseCutoff="1.0000000000000000"/>
      <sparseX i="17" alpha="-20534.787359835678" sparseCutoff="1.0000000000000000"/>
      <sparseX i="18" alpha="-15388.985051636182" sparseCutoff="1.0000000000000000"/>
      <sparseX i="19" alpha="-19394.715108641729" sparseCutoff="1.0000000000000000"/>
      <sparseX i="20" alpha="-153280.00071323069" sparseCutoff="1.0000000000000000"/>
      <sparseX i="21" alpha="645399.45157760382" sparseCutoff="1.0000000000000000"/>
      <sparseX i="22" alpha="26501.845684951950" sparseCutoff="1.0000000000000000"/>
      <sparseX i="23" alpha="-273961.93092358165" sparseCutoff="1.0000000000000000"/>
      <sparseX i="24" alpha="124741.44744950478" sparseCutoff="1.0000000000000000"/>
      <sparseX i="25" alpha="-34609.471369530722" sparseCutoff="1.0000000000000000"/>
    </gpCoordinates>
    <gpCoordinates label="GAP_2022_11_25_60_12_25_20_6002" dimensions="72" signal_variance="1.0000000000000000" signal_mean=".00000000000000000E+000" sparsified="T" n_permutations="1" covariance_type="2" zeta="4.0000000000000000" n_sparseX="2200" sparseX_filename="gap_Fe_test.xml.sparseX.GAP_2022_11_25_60_12_25_20_6002" sparseX_md5sum="baedb2029c0494e3187690c5e0fb753e">
      <descriptor>soap_turbo l_max=8 alpha_max={8} atom_sigma_r={0.25} atom_sigma_t={0.25} atom_sigma_r_scaling={ 0.0} atom_sigma_t_scaling={0.0} zeta=4 rcut_hard=3.0 rcut_soft=2.5 delta=1.0 basis=poly3 scaling_mode=polynomial amplitude_scaling={1.0} n_species=1 species_Z=26 add_species=F compress_mode=trivial radial_enhancement=1 central_weight={1.0} covariance_type=dot_product config_type_n_sparse=slice_sample_high:200:phonons_54_high:200:phonons_128_high:200:prim_random:100:default:1500 sparse_method=cur_points</descriptor>
      <permutation i="1">1  </permutation>
      <sparseX i="1" alpha="-188381.64162681441" sparseCutoff="1.0000000000000000"/>
      <sparseX i="2" alpha="2395830.7796615725" sparseCutoff="1.0000000000000000"/>
      <sparseX i="3" alpha="1538792.1618723685" sparseCutoff="1.0000000000000000"/>
      <sparseX i="4" alpha="300448.91748584167" sparseCutoff="1.0000000000000000"/>
      <sparseX i="5" alpha="-1293087.0251087709" sparseCutoff="1.0000000000000000"/>
      <sparseX i="6" alpha="-1936966.2298882247" sparseCutoff="1.0000000000000000"/>
      <sparseX i="7" alpha="2850653.8353043594" sparseCutoff="1.0000000000000000"/>
      <sparseX i="8" alpha="174849.00390824993" sparseCutoff="1.0000000000000000"/>
      <sparseX i="9" alpha="523741.45560872450" sparseCutoff="1.0000000000000000"/>
      <sparseX i="10" alpha="-8475213.9931055810" sparseCutoff="1.0000000000000000"/>
      <sparseX i="11" alpha="2075706.2400499487" sparseCutoff="1.0000000000000000"/>
      <sparseX i="12" alpha="2238582.2540768106" sparseCutoff="1.0000000000000000"/>
      <sparseX i="13" alpha="3009789.8498185920" sparseCutoff="1.0000000000000000"/>
      <sparseX i="14" alpha="-1055200.5186302380" sparseCutoff="1.0000000000000000"/>
      <sparseX i="15" alpha="911722.10070800001" sparseCutoff="1.0000000000000000"/>
      <sparseX i="16" alpha="2668592.6069292147" sparseCutoff="1.0000000000000000"/>
      <sparseX i="17" alpha="-1957051.0832786199" sparseCutoff="1.0000000000000000"/>
      <sparseX i="18" alpha="-1956693.3613119365" sparseCutoff="1.0000000000000000"/>
      <sparseX i="19" alpha="1949081.4255531852" sparseCutoff="1.0000000000000000"/>
      <sparseX i="20" alpha="16089640.679488357" sparseCutoff="1.0000000000000000"/>
      <sparseX i="21" alpha="-11697035.491181694" sparseCutoff="1.0000000000000000"/>
      <sparseX i="22" alpha="-3155323.3349809921" sparseCutoff="1.0000000000000000"/>
      <sparseX i="23" alpha="-6673645.8738412950" sparseCutoff="1.0000000000000000"/>
      <sparseX i="24" alpha="804888.10516974423" sparseCutoff="1.0000000000000000"/>
      <sparseX i="25" alpha="6824091.2949332716" sparseCutoff="1.0000000000000000"/>
      <sparseX i="26" alpha="-11577572.869448960" sparseCutoff="1.0000000000000000"/>
      <sparseX i="27" alpha="1114235.0184580684" sparseCutoff="1.0000000000000000"/>
      <sparseX i="28" alpha="4594564.7248483663" sparseCutoff="1.0000000000000000"/>
      <sparseX i="29" alpha="7719664.9908341784" sparseCutoff="1.0000000000000000"/>
      <sparseX i="30" alpha="868782.82921732508" sparseCutoff="1.0000000000000000"/>
      <sparseX i="31" alpha="1836274.8625670902" sparseCutoff="1.0000000000000000"/>
      <sparseX i="32" alpha="4122942.6373045947" sparseCutoff="1.0000000000000000"/>
      <sparseX i="33" alpha="7829262.4518234720" sparseCutoff="1.0000000000000000"/>
      <sparseX i="34" alpha="151906.68063352420" sparseCutoff="1.0000000000000000"/>
      <sparseX i="35" alpha="2725219.6911627650" sparseCutoff="1.0000000000000000"/>
      <sparseX i="36" alpha="1638535.1836406256" sparseCutoff="1.0000000000000000"/>
      <sparseX i="37" alpha="1192412.2950214483" sparseCutoff="1.0000000000000000"/>
      <sparseX i="38" alpha="4085443.4612194286" sparseCutoff="1.0000000000000000"/>
      <sparseX i="39" alpha="1128927.7737146332" sparseCutoff="1.0000000000000000"/>
      <sparseX i="40" alpha="-5834131.3214578424" sparseCutoff="1.0000000000000000"/>
      <sparseX i="41" alpha="-4687176.6685073460" sparseCutoff="1.0000000000000000"/>
      <sparseX i="42" alpha="-1142412.8476292288" sparseCutoff="1.0000000000000000"/>
      <sparseX i="43" alpha="-3595072.8110281597" sparseCutoff="1.0000000000000000"/>
      <sparseX i="44" alpha="2741564.4396197698" sparseCutoff="1.0000000000000000"/>
      <sparseX i="45" alpha="-352404.21861842473" sparseCutoff="1.0000000000000000"/>
      <sparseX i="46" alpha="773688.52089929150" sparseCutoff="1.0000000000000000"/>
      <sparseX i="47" alpha="-950071.91728955926" sparseCutoff="1.0000000000000000"/>
      <sparseX i="48" alpha="5303032.4980366388" sparseCutoff="1.0000000000000000"/>
      <sparseX i="49" alpha="-292324.29077071080" sparseCutoff="1.0000000000000000"/>
      <sparseX i="50" alpha="4124656.3618756863" sparseCutoff="1.0000000000000000"/>
      <sparseX i="51" alpha="575269.79565750959" sparseCutoff="1.0000000000000000"/>
      <sparseX i="52" alpha="-481794.17800388904" sparseCutoff="1.0000000000000000"/>
      <sparseX i="53" alpha="-2446900.9856839017" sparseCutoff="1.0000000000000000"/>
      <sparseX i="54" alpha="-980014.04844610544" sparseCutoff="1.0000000000000000"/>
      <sparseX i="55" alpha="-2957966.1311830580" sparseCutoff="1.0000000000000000"/>
      <sparseX i="56" alpha="-506739.77350899612" sparseCutoff="1.0000000000000000"/>
      <sparseX i="57" alpha="1799362.7975978183" sparseCutoff="1.0000000000000000"/>
      <sparseX i="58" alpha="-470778.34754270449" sparseCutoff="1.0000000000000000"/>
      <sparseX i="59" alpha="2662424.6917773709" sparseCutoff="1.0000000000000000"/>
      <sparseX i="60" alpha="1316081.6683723605" sparseCutoff="1.0000000000000000"/>
      <sparseX i="61" alpha="-328495.78098610515" sparseCutoff="1.0000000000000000"/>
      <sparseX i="62" alpha="7771625.4689711416" sparseCutoff="1.0000000000000000"/>
      <sparseX i="63" alpha="571290.57017008308" sparseCutoff="1.0000000000000000"/>
      <sparseX i="64" alpha="285112.85650590085" sparseCutoff="1.0000000000000000"/>
      <sparseX i="65" alpha="-1490791.1705371523" sparseCutoff="1.0000000000000000"/>
      <sparseX i="66" alpha="-54208.886175235886" sparseCutoff="1.0000000000000000"/>
      <sparseX i="67" alpha="674633.80129188171" sparseCutoff="1.0000000000000000"/>
      <sparseX i="68" alpha="616757.72766397672" sparseCutoff="1.0000000000000000"/>
      <sparseX i="69" alpha="-3007701.5902365716" sparseCutoff="1.0000000000000000"/>
      <sparseX i="70" alpha="-369023.82066486531" sparseCutoff="1.0000000000000000"/>
      <sparseX i="71" alpha="32133.446897102476" sparseCutoff="1.0000000000000000"/>
      <sparseX i="72" alpha="-3839858.1080331351" sparseCutoff="1.0000000000000000"/>
      <sparseX i="73" alpha="-573906.63330764649" sparseCutoff="1.0000000000000000"/>
      <sparseX i="74" alpha="-7072481.8963773027" sparseCutoff="1.0000000000000000"/>
      <sparseX i="75" alpha="-830288.93618280324" sparseCutoff="1.0000000000000000"/>
      <sparseX i="76" alpha="-3188541.9035430700" sparseCutoff="1.0000000000000000"/>
      <sparseX i="77" alpha="-5680036.4104941282" sparseCutoff="1.0000000000000000"/>
      <sparseX i="78" alpha="-896396.94615230977" sparseCutoff="1.0000000000000000"/>
      <sparseX i="79" alpha="183042.11988703843" sparseCutoff="1.0000000000000000"/>
      <sparseX i="80" alpha="-151202.93555575874" sparseCutoff="1.0000000000000000"/>
      <sparseX i="81" alpha="3921027.4998562294" sparseCutoff="1.0000000000000000"/>
      <sparseX i="82" alpha="1890784.6483825799" sparseCutoff="1.0000000000000000"/>
      <sparseX i="83" alpha="-671242.52441993053" sparseCutoff="1.0000000000000000"/>
      <sparseX i="84" alpha="7529325.6365354005" sparseCutoff="1.0000000000000000"/>
      <sparseX i="85" alpha="3348079.6658237479" sparseCutoff="1.0000000000000000"/>
      <sparseX i="86" alpha="-2536950.7192788296" sparseCutoff="1.0000000000000000"/>
      <sparseX i="87" alpha="-10666613.836963186" sparseCutoff="1.0000000000000000"/>
      <sparseX i="88" alpha="9208852.9475328363" sparseCutoff="1.0000000000000000"/>
      <sparseX i="89" alpha="-901831.39055418165" sparseCutoff="1.0000000000000000"/>
      <sparseX i="90" alpha="-1324408.2496384373" sparseCutoff="1.0000000000000000"/>
      <sparseX i="91" alpha="1482807.0848416323" sparseCutoff="1.0000000000000000"/>
      <sparseX i="92" alpha="4498495.1359175900" sparseCutoff="1.0000000000000000"/>
      <sparseX i="93" alpha="3293826.1455491628" sparseCutoff="1.0000000000000000"/>
      <sparseX i="94" alpha="995251.98521003546" sparseCutoff="1.0000000000000000"/>
      <sparseX i="95" alpha="184224.56551810403" sparseCutoff="1.0000000000000000"/>
      <sparseX i="96" alpha="-8173284.0074879657" sparseCutoff="1.0000000000000000"/>
      <sparseX i="97" alpha="7468601.2687456561" sparseCutoff="1.0000000000000000"/>
      <sparseX i="98" alpha="-929807.12798418524" sparseCutoff="1.0000000000000000"/>
      <sparseX i="99" alpha="-3330872.3958000392" sparseCutoff="1.0000000000000000"/>
      <sparseX i="100" alpha="-144806.71199874059" sparseCutoff="1.0000000000000000"/>
      <sparseX i="101" alpha="7329139.7738987543" sparseCutoff="1.0000000000000000"/>
      <sparseX i="102" alpha="-5563877.5448044194" sparseCutoff="1.0000000000000000"/>
      <sparseX i="103" alpha="1289902.7294759452" sparseCutoff="1.0000000000000000"/>
      <sparseX i="104" alpha="771112.89459160471" sparseCutoff="1.0000000000000000"/>
      <sparseX i="105" alpha="3073579.4455208960" sparseCutoff="1.0000000000000000"/>
      <sparseX i="106" alpha="-7054669.1585846189" sparseCutoff="1.0000000000000000"/>
      <sparseX i="107" alpha="-2109739.7682618313" sparseCutoff="1.0000000000000000"/>
      <sparseX i="108" alpha="1610663.9904757987" sparseCutoff="1.0000000000000000"/>
      <sparseX i="109" alpha="2807090.3453608588" sparseCutoff="1.0000000000000000"/>
      <sparseX i="110" alpha="-3210395.0400153683" sparseCutoff="1.0000000000000000"/>
      <sparseX i="111" alpha="-5233601.6321492251" sparseCutoff="1.0000000000000000"/>
      <sparseX i="112" alpha="2147784.3122683181" sparseCutoff="1.0000000000000000"/>
      <sparseX i="113" alpha="-3231229.3259192170" sparseCutoff="1.0000000000000000"/>
      <sparseX i="114" alpha="-153499.27203638683" sparseCutoff="1.0000000000000000"/>
      <sparseX i="115" alpha="1410803.5513033364" sparseCutoff="1.0000000000000000"/>
      <sparseX i="116" alpha="-446551.98510338343" sparseCutoff="1.0000000000000000"/>
      <sparseX i="117" alpha="2205115.0045178067" sparseCutoff="1.0000000000000000"/>
      <sparseX i="118" alpha="-1414769.6100942490" sparseCutoff="1.0000000000000000"/>
      <sparseX i="119" alpha="-926456.86835859553" sparseCutoff="1.0000000000000000"/>
      <sparseX i="120" alpha="1392747.6230230923" sparseCutoff="1.0000000000000000"/>
      <sparseX i="121" alpha="734561.75202148408" sparseCutoff="1.0000000000000000"/>
      <sparseX i="122" alpha="-1030998.5077450945" sparseCutoff="1.0000000000000000"/>
      <sparseX i="123" alpha="-4801093.2951587290" sparseCutoff="1.0000000000000000"/>
      <sparseX i="124" alpha="-1403710.1033580734" sparseCutoff="1.0000000000000000"/>
      <sparseX i="125" alpha="3281534.8194304416" sparseCutoff="1.0000000000000000"/>
      <sparseX i="126" alpha="3629574.4093684861" sparseCutoff="1.0000000000000000"/>
      <sparseX i="127" alpha="8039711.4150911793" sparseCutoff="1.0000000000000000"/>
      <sparseX i="128" alpha="3103028.4802046469" sparseCutoff="1.0000000000000000"/>
      <sparseX i="129" alpha="6395850.3091005413" sparseCutoff="1.0000000000000000"/>
      <sparseX i="130" alpha="-9350063.3994297497" sparseCutoff="1.0000000000000000"/>
      <sparseX i="131" alpha="2787716.6262164903" sparseCutoff="1.0000000000000000"/>
      <sparseX i="132" alpha="-2188.7641334280597" sparseCutoff="1.0000000000000000"/>
      <sparseX i="133" alpha="-1961157.1477785592" sparseCutoff="1.0000000000000000"/>
      <sparseX i="134" alpha="-1194375.8068639061" sparseCutoff="1.0000000000000000"/>
      <sparseX i="135" alpha="-1351203.6211054400" sparseCutoff="1.0000000000000000"/>
      <sparseX i="136" alpha="6314987.9539596429" sparseCutoff="1.0000000000000000"/>
      <sparseX i="137" alpha="-911948.46296590904" sparseCutoff="1.0000000000000000"/>
      <sparseX i="138" alpha="-1192189.8358586491" sparseCutoff="1.0000000000000000"/>
      <sparseX i="139" alpha="-100139.79091467104" sparseCutoff="1.0000000000000000"/>
      <sparseX i="140" alpha="-186192.42353018260" sparseCutoff="1.0000000000000000"/>
      <sparseX i="141" alpha="-220956.23897522892" sparseCutoff="1.0000000000000000"/>
      <sparseX i="142" alpha="-8962043.5561744254" sparseCutoff="1.0000000000000000"/>
      <sparseX i="143" alpha="-5239052.8966321303" sparseCutoff="1.0000000000000000"/>
      <sparseX i="144" alpha="-548119.75717735896" sparseCutoff="1.0000000000000000"/>
      <sparseX i="145" alpha="687041.62727942097" sparseCutoff="1.0000000000000000"/>
      <sparseX i="146" alpha="6899237.4245353322" sparseCutoff="1.0000000000000000"/>
      <sparseX i="147" alpha="-3490373.6276459973" sparseCutoff="1.0000000000000000"/>
      <sparseX i="148" alpha="5275066.4054940967" sparseCutoff="1.0000000000000000"/>
      <sparseX i="149" alpha="-5042068.3961857306" sparseCutoff="1.0000000000000000"/>
      <sparseX i="150" alpha="139131.90923192233" sparseCutoff="1.0000000000000000"/>
      <sparseX i="151" alpha="-6717684.9685322912" sparseCutoff="1.0000000000000000"/>
      <sparseX i="152" alpha="-562761.98026478535" sparseCutoff="1.0000000000000000"/>
      <sparseX i="153" alpha="5989974.1522523416" sparseCutoff="1.0000000000000000"/>
      <sparseX i="154" alpha="-5580331.2908860706" sparseCutoff="1.0000000000000000"/>
      <sparseX i="155" alpha="4059163.5721489922" sparseCutoff="1.0000000000000000"/>
      <sparseX i="156" alpha="3375052.8010413689" sparseCutoff="1.0000000000000000"/>
      <sparseX i="157" alpha="3232900.8175521297" sparseCutoff="1.0000000000000000"/>
      <sparseX i="158" alpha="-8969952.3203976825" sparseCutoff="1.0000000000000000"/>
      <sparseX i="159" alpha="3565418.9919440830" sparseCutoff="1.0000000000000000"/>
      <sparseX i="160" alpha="2768987.5546901040" sparseCutoff="1.0000000000000000"/>
      <sparseX i="161" alpha="-4694498.6930783158" sparseCutoff="1.0000000000000000"/>
      <sparseX i="162" alpha="1719043.4549208162" sparseCutoff="1.0000000000000000"/>
      <sparseX i="163" alpha="3208949.4836025387" sparseCutoff="1.0000000000000000"/>
      <sparseX i="164" alpha="-6739051.2268780768" sparseCutoff="1.0000000000000000"/>
      <sparseX i="165" alpha="7942878.8176700901" sparseCutoff="1.0000000000000000"/>
      <sparseX i="166" alpha="-3585992.5020849677" sparseCutoff="1.0000000000000000"/>
      <sparseX i="167" alpha="207143.51850675177" sparseCutoff="1.0000000000000000"/>
      <sparseX i="168" alpha="-7186310.8685431117" sparseCutoff="1.0000000000000000"/>
      <sparseX i="169" alpha="-342278.65891853214" sparseCutoff="1.0000000000000000"/>
      <sparseX i="170" alpha="-1686624.6070652686" sparseCutoff="1.0000000000000000"/>
      <sparseX i="171" alpha="-1568039.2419393263" sparseCutoff="1.0000000000000000"/>
      <sparseX i="172" alpha="1112048.5371576929" sparseCutoff="1.0000000000000000"/>
      <sparseX i="173" alpha="386028.46238935750" sparseCutoff="1.0000000000000000"/>
      <sparseX i="174" alpha="-955308.05825354718" sparseCutoff="1.0000000000000000"/>
      <sparseX i="175" alpha="1087904.0009389943" sparseCutoff="1.0000000000000000"/>
      <sparseX i="176" alpha="686965.36739912175" sparseCutoff="1.0000000000000000"/>
      <sparseX i="177" alpha="-107115.94147762170" sparseCutoff="1.0000000000000000"/>
      <sparseX i="178" alpha="-1544987.2627868776" sparseCutoff="1.0000000000000000"/>
      <sparseX i="179" alpha="1304797.3882014672" sparseCutoff="1.0000000000000000"/>
      <sparseX i="180" alpha="919296.30144854938" sparseCutoff="1.0000000000000000"/>
      <sparseX i="181" alpha="-1117005.4801895251" sparseCutoff="1.0000000000000000"/>
      <sparseX i="182" alpha="-1423545.4509114611" sparseCutoff="1.0000000000000000"/>
      <sparseX i="183" alpha="450346.09569987527" sparseCutoff="1.0000000000000000"/>
      <sparseX i="184" alpha="1705632.2996144493" sparseCutoff="1.0000000000000000"/>
      <sparseX i="185" alpha="1694162.3843136868" sparseCutoff="1.0000000000000000"/>
      <sparseX i="186" alpha="380389.09350066283" sparseCutoff="1.0000000000000000"/>
      <sparseX i="187" alpha="715542.04171568621" sparseCutoff="1.0000000000000000"/>
      <sparseX i="188" alpha="-347542.22793423914" sparseCutoff="1.0000000000000000"/>
      <sparseX i="189" alpha="-1270378.1855204711" sparseCutoff="1.0000000000000000"/>
      <sparseX i="190" alpha="308845.66122208023" sparseCutoff="1.0000000000000000"/>
      <sparseX i="191" alpha="-238576.60476999925" sparseCutoff="1.0000000000000000"/>
      <sparseX i="192" alpha="-2918127.6599476426" sparseCutoff="1.0000000000000000"/>
      <sparseX i="193" alpha="2270973.6606628452" sparseCutoff="1.0000000000000000"/>
      <sparseX i="194" alpha="-1779188.4017185499" sparseCutoff="1.0000000000000000"/>
      <sparseX i="195" alpha="346174.19172237749" sparseCutoff="1.0000000000000000"/>
      <sparseX i="196" alpha="1982364.8563697017" sparseCutoff="1.0000000000000000"/>
      <sparseX i="197" alpha="-954915.36329748074" sparseCutoff="1.0000000000000000"/>
      <sparseX i="198" alpha="2205400.9570905617" sparseCutoff="1.0000000000000000"/>
      <sparseX i="199" alpha="-2342114.1008091429" sparseCutoff="1.0000000000000000"/>
      <sparseX i="200" alpha="2254974.1079006647" sparseCutoff="1.0000000000000000"/>
      <sparseX i="201" alpha="215317.23784388730" sparseCutoff="1.0000000000000000"/>
      <sparseX i="202" alpha="477227.89115956886" sparseCutoff="1.0000000000000000"/>
      <sparseX i="203" alpha="408232.01086300024" sparseCutoff="1.0000000000000000"/>
      <sparseX i="204" alpha="-180352.53834817043" sparseCutoff="1.0000000000000000"/>
      <sparseX i="205" alpha="108025.94699371491" sparseCutoff="1.0000000000000000"/>
      <sparseX i="206" alpha="-346848.83354024153" sparseCutoff="1.0000000000000000"/>
      <sparseX i="207" alpha="-208951.97085574205" sparseCutoff="1.0000000000000000"/>
      <sparseX i="208" alpha="-1234307.1152804922" sparseCutoff="1.0000000000000000"/>
      <sparseX i="209" alpha="-2992842.3382954230" sparseCutoff="1.0000000000000000"/>
      <sparseX i="210" alpha="-564711.53592339810" sparseCutoff="1.0000000000000000"/>
      <sparseX i="211" alpha="-444012.92222385638" sparseCutoff="1.0000000000000000"/>
      <sparseX i="212" alpha="924306.48815435113" sparseCutoff="1.0000000000000000"/>
      <sparseX i="213" alpha="2863766.1081686676" sparseCutoff="1.0000000000000000"/>
      <sparseX i="214" alpha="-1143880.1341029059" sparseCutoff="1.0000000000000000"/>
      <sparseX i="215" alpha="-1187893.6886294386" sparseCutoff="1.0000000000000000"/>
      <sparseX i="216" alpha="28627.172073106267" sparseCutoff="1.0000000000000000"/>
      <sparseX i="217" alpha="-1449351.4365623055" sparseCutoff="1.0000000000000000"/>
      <sparseX i="218" alpha="-725042.82160255534" sparseCutoff="1.0000000000000000"/>
      <sparseX i="219" alpha="-2037177.6548481602" sparseCutoff="1.0000000000000000"/>
      <sparseX i="220" alpha="-113105.92343339403" sparseCutoff="1.0000000000000000"/>
      <sparseX i="221" alpha="-878473.77742368763" sparseCutoff="1.0000000000000000"/>
      <sparseX i="222" alpha="-276648.94867124897" sparseCutoff="1.0000000000000000"/>
      <sparseX i="223" alpha="1463989.7317639336" sparseCutoff="1.0000000000000000"/>
      <sparseX i="224" alpha="-909014.36682321853" sparseCutoff="1.0000000000000000"/>
      <sparseX i="225" alpha="-1348884.8846199566" sparseCutoff="1.0000000000000000"/>
      <sparseX i="226" alpha="-141859.60349958538" sparseCutoff="1.0000000000000000"/>
      <sparseX i="227" alpha="-1079767.7423659544" sparseCutoff="1.0000000000000000"/>
      <sparseX i="228" alpha="2042535.7162154543" sparseCutoff="1.0000000000000000"/>
      <sparseX i="229" alpha="-3009828.1770788706" sparseCutoff="1.0000000000000000"/>
      <sparseX i="230" alpha="-829553.62840755470" sparseCutoff="1.0000000000000000"/>
      <sparseX i="231" alpha="-1425949.7437118527" sparseCutoff="1.0000000000000000"/>
      <sparseX i="232" alpha="-941562.31564262079" sparseCutoff="1.0000000000000000"/>
      <sparseX i="233" alpha="1157799.2814917914" sparseCutoff="1.0000000000000000"/>
      <sparseX i="234" alpha="3035696.8703283332" sparseCutoff="1.0000000000000000"/>
      <sparseX i="235" alpha="1987154.0348273357" sparseCutoff="1.0000000000000000"/>
      <sparseX i="236" alpha="-641835.24571388518" sparseCutoff="1.0000000000000000"/>
      <sparseX i="237" alpha="-2208641.8151242281" sparseCutoff="1.0000000000000000"/>
      <sparseX i="238" alpha="220634.63198911143" sparseCutoff="1.0000000000000000"/>
      <sparseX i="239" alpha="-251841.90417685290" sparseCutoff="1.0000000000000000"/>
      <sparseX i="240" alpha="3342414.9535122854" sparseCutoff="1.0000000000000000"/>
      <sparseX i="241" alpha="-2587118.0529137426" sparseCutoff="1.0000000000000000"/>
      <sparseX i="242" alpha="-1396385.2019581620" sparseCutoff="1.0000000000000000"/>
      <sparseX i="243" alpha="-1009806.3597195763" sparseCutoff="1.0000000000000000"/>
      <sparseX i="244" alpha="-1312580.3797182208" sparseCutoff="1.0000000000000000"/>
      <sparseX i="245" alpha="-184894.17718331370" sparseCutoff="1.0000000000000000"/>
      <sparseX i="246" alpha="-531960.62044403784" sparseCutoff="1.0000000000000000"/>
      <sparseX i="247" alpha="1022187.5556893843" sparseCutoff="1.0000000000000000"/>
      <sparseX i="248" alpha="-897891.97158023668" sparseCutoff="1.0000000000000000"/>
      <sparseX i="249" alpha="645557.83712282474" sparseCutoff="1.0000000000000000"/>
      <sparseX i="250" alpha="-1962962.0090694139" sparseCutoff="1.0000000000000000"/>
      <sparseX i="251" alpha="-1206224.4838674332" sparseCutoff="1.0000000000000000"/>
      <sparseX i="252" alpha="-198968.83310596354" sparseCutoff="1.0000000000000000"/>
      <sparseX i="253" alpha="-85219.175559641415" sparseCutoff="1.0000000000000000"/>
      <sparseX i="254" alpha="708176.46557469340" sparseCutoff="1.0000000000000000"/>
      <sparseX i="255" alpha="2192333.4139713077" sparseCutoff="1.0000000000000000"/>
      <sparseX i="256" alpha="-1626735.0805490832" sparseCutoff="1.0000000000000000"/>
      <sparseX i="257" alpha="568819.94150676415" sparseCutoff="1.0000000000000000"/>
      <sparseX i="258" alpha="531278.52719087072" sparseCutoff="1.0000000000000000"/>
      <sparseX i="259" alpha="713507.43150731071" sparseCutoff="1.0000000000000000"/>
      <sparseX i="260" alpha="438006.30540549412" sparseCutoff="1.0000000000000000"/>
      <sparseX i="261" alpha="590552.71487737040" sparseCutoff="1.0000000000000000"/>
      <sparseX i="262" alpha="-23535.896477344086" sparseCutoff="1.0000000000000000"/>
      <sparseX i="263" alpha="-327280.92400481319" sparseCutoff="1.0000000000000000"/>
      <sparseX i="264" alpha="-412087.94645387225" sparseCutoff="1.0000000000000000"/>
      <sparseX i="265" alpha="-246238.08755232012" sparseCutoff="1.0000000000000000"/>
      <sparseX i="266" alpha="1229041.6871801550" sparseCutoff="1.0000000000000000"/>
      <sparseX i="267" alpha="-2445464.6877159229" sparseCutoff="1.0000000000000000"/>
      <sparseX i="268" alpha="-1342013.7058397210" sparseCutoff="1.0000000000000000"/>
      <sparseX i="269" alpha="-583655.96491841308" sparseCutoff="1.0000000000000000"/>
      <sparseX i="270" alpha="1193204.9787811076" sparseCutoff="1.0000000000000000"/>
      <sparseX i="271" alpha="-438355.65585342480" sparseCutoff="1.0000000000000000"/>
      <sparseX i="272" alpha="-2941733.2544554239" sparseCutoff="1.0000000000000000"/>
      <sparseX i="273" alpha="-296266.62673608807" sparseCutoff="1.0000000000000000"/>
      <sparseX i="274" alpha="-131095.99774481790" sparseCutoff="1.0000000000000000"/>
      <sparseX i="275" alpha="983497.55314284866" sparseCutoff="1.0000000000000000"/>
      <sparseX i="276" alpha="-594739.75660390314" sparseCutoff="1.0000000000000000"/>
      <sparseX i="277" alpha="-891494.61698772490" sparseCutoff="1.0000000000000000"/>
      <sparseX i="278" alpha="247206.28455512249" sparseCutoff="1.0000000000000000"/>
      <sparseX i="279" alpha="-43890.369731001774" sparseCutoff="1.0000000000000000"/>
      <sparseX i="280" alpha="-1254670.1880442095" sparseCutoff="1.0000000000000000"/>
      <sparseX i="281" alpha="1074371.8158148269" sparseCutoff="1.0000000000000000"/>
      <sparseX i="282" alpha="-58959.684139274221" sparseCutoff="1.0000000000000000"/>
      <sparseX i="283" alpha="-1691317.8158837038" sparseCutoff="1.0000000000000000"/>
      <sparseX i="284" alpha="1535548.2919315617" sparseCutoff="1.0000000000000000"/>
      <sparseX i="285" alpha="310558.69826728187" sparseCutoff="1.0000000000000000"/>
      <sparseX i="286" alpha="-226645.41607320996" sparseCutoff="1.0000000000000000"/>
      <sparseX i="287" alpha="-1807367.4914252271" sparseCutoff="1.0000000000000000"/>
      <sparseX i="288" alpha="2089571.2625604065" sparseCutoff="1.0000000000000000"/>
      <sparseX i="289" alpha="-282161.32812594343" sparseCutoff="1.0000000000000000"/>
      <sparseX i="290" alpha="-1141628.4513436288" sparseCutoff="1.0000000000000000"/>
      <sparseX i="291" alpha="349887.25360910146" sparseCutoff="1.0000000000000000"/>
      <sparseX i="292" alpha="760920.45772756299" sparseCutoff="1.0000000000000000"/>
      <sparseX i="293" alpha="-2457141.4652697239" sparseCutoff="1.0000000000000000"/>
      <sparseX i="294" alpha="957853.43468643760" sparseCutoff="1.0000000000000000"/>
      <sparseX i="295" alpha="1405080.2764133895" sparseCutoff="1.0000000000000000"/>
      <sparseX i="296" alpha="235112.99076357196" sparseCutoff="1.0000000000000000"/>
      <sparseX i="297" alpha="3254143.6304394198" sparseCutoff="1.0000000000000000"/>
      <sparseX i="298" alpha="-2343374.3029617202" sparseCutoff="1.0000000000000000"/>
      <sparseX i="299" alpha="1983323.0215943470" sparseCutoff="1.0000000000000000"/>
      <sparseX i="300" alpha="-2861878.1252057618" sparseCutoff="1.0000000000000000"/>
      <sparseX i="301" alpha="-653791.84935799381" sparseCutoff="1.0000000000000000"/>
      <sparseX i="302" alpha="208198.37601822359" sparseCutoff="1.0000000000000000"/>
      <sparseX i="303" alpha="-1927767.1463207689" sparseCutoff="1.0000000000000000"/>
      <sparseX i="304" alpha="409700.09988327319" sparseCutoff="1.0000000000000000"/>
      <sparseX i="305" alpha="-1343056.5066594386" sparseCutoff="1.0000000000000000"/>
      <sparseX i="306" alpha="1092782.5101408307" sparseCutoff="1.0000000000000000"/>
      <sparseX i="307" alpha="-553133.78301244020" sparseCutoff="1.0000000000000000"/>
      <sparseX i="308" alpha="-2057416.7552782111" sparseCutoff="1.0000000000000000"/>
      <sparseX i="309" alpha="1471045.7326173056" sparseCutoff="1.0000000000000000"/>
      <sparseX i="310" alpha="-142105.47510360213" sparseCutoff="1.0000000000000000"/>
      <sparseX i="311" alpha="1190372.7042680287" sparseCutoff="1.0000000000000000"/>
      <sparseX i="312" alpha="-468906.41752318543" sparseCutoff="1.0000000000000000"/>
      <sparseX i="313" alpha="426763.21734460798" sparseCutoff="1.0000000000000000"/>
      <sparseX i="314" alpha="547774.84898431262" sparseCutoff="1.0000000000000000"/>
      <sparseX i="315" alpha="320709.02429124399" sparseCutoff="1.0000000000000000"/>
      <sparseX i="316" alpha="502507.21259664401" sparseCutoff="1.0000000000000000"/>
      <sparseX i="317" alpha="868318.83541812096" sparseCutoff="1.0000000000000000"/>
      <sparseX i="318" alpha="870042.06041540019" sparseCutoff="1.0000000000000000"/>
      <sparseX i="319" alpha="459034.48048080603" sparseCutoff="1.0000000000000000"/>
      <sparseX i="320" alpha="445514.17731244356" sparseCutoff="1.0000000000000000"/>
      <sparseX i="321" alpha="409333.25151878619" sparseCutoff="1.0000000000000000"/>
      <sparseX i="322" alpha="-292798.65491177270" sparseCutoff="1.0000000000000000"/>
      <sparseX i="323" alpha="-585004.40366896009" sparseCutoff="1.0000000000000000"/>
      <sparseX i="324" alpha="-1981271.0818971323" sparseCutoff="1.0000000000000000"/>
      <sparseX i="325" alpha="-2283295.3200940029" sparseCutoff="1.0000000000000000"/>
      <sparseX i="326" alpha="1117955.6550983170" sparseCutoff="1.0000000000000000"/>
      <sparseX i="327" alpha="1386652.9419497610" sparseCutoff="1.0000000000000000"/>
      <sparseX i="328" alpha="-1449516.0170168178" sparseCutoff="1.0000000000000000"/>
      <sparseX i="329" alpha="-797882.30125835456" sparseCutoff="1.0000000000000000"/>
      <sparseX i="330" alpha="-1502467.0569939788" sparseCutoff="1.0000000000000000"/>
      <sparseX i="331" alpha="498895.97463993338" sparseCutoff="1.0000000000000000"/>
      <sparseX i="332" alpha="-5919214.8616847303" sparseCutoff="1.0000000000000000"/>
      <sparseX i="333" alpha="-1170178.2347228173" sparseCutoff="1.0000000000000000"/>
      <sparseX i="334" alpha="760304.19760907628" sparseCutoff="1.0000000000000000"/>
      <sparseX i="335" alpha="677773.29233547184" sparseCutoff="1.0000000000000000"/>
      <sparseX i="336" alpha="-1206781.3643779445" sparseCutoff="1.0000000000000000"/>
      <sparseX i="337" alpha="-1115052.5005551004" sparseCutoff="1.0000000000000000"/>
      <sparseX i="338" alpha="-171047.02579629031" sparseCutoff="1.0000000000000000"/>
      <sparseX i="339" alpha="-1533623.5934624318" sparseCutoff="1.0000000000000000"/>
      <sparseX i="340" alpha="1332989.9839361960" sparseCutoff="1.0000000000000000"/>
      <sparseX i="341" alpha="-260496.72513115071" sparseCutoff="1.0000000000000000"/>
      <sparseX i="342" alpha="-278335.19804875110" sparseCutoff="1.0000000000000000"/>
      <sparseX i="343" alpha="-139663.54898052744" sparseCutoff="1.0000000000000000"/>
      <sparseX i="344" alpha="109711.29012338586" sparseCutoff="1.0000000000000000"/>
      <sparseX i="345" alpha="-815472.24306688667" sparseCutoff="1.0000000000000000"/>
      <sparseX i="346" alpha="-1653519.2372677436" sparseCutoff="1.0000000000000000"/>
      <sparseX i="347" alpha="3115939.3398160604" sparseCutoff="1.0000000000000000"/>
      <sparseX i="348" alpha="-564409.74689124280" sparseCutoff="1.0000000000000000"/>
      <sparseX i="349" alpha="-2077839.4984772420" sparseCutoff="1.0000000000000000"/>
      <sparseX i="350" alpha="805222.01498088380" sparseCutoff="1.0000000000000000"/>
      <sparseX i="351" alpha="1733569.5923451309" sparseCutoff="1.0000000000000000"/>
      <sparseX i="352" alpha="-1712977.2554112326" sparseCutoff="1.0000000000000000"/>
      <sparseX i="353" alpha="2436097.8086631708" sparseCutoff="1.0000000000000000"/>
      <sparseX i="354" alpha="754914.54075962817" sparseCutoff="1.0000000000000000"/>
      <sparseX i="355" alpha="-426649.38300174632" sparseCutoff="1.0000000000000000"/>
      <sparseX i="356" alpha="440145.30845962494" sparseCutoff="1.0000000000000000"/>
      <sparseX i="357" alpha="164875.97542437492" sparseCutoff="1.0000000000000000"/>
      <sparseX i="358" alpha="547594.68313698017" sparseCutoff="1.0000000000000000"/>
      <sparseX i="359" alpha="287627.76903309085" sparseCutoff="1.0000000000000000"/>
      <sparseX i="360" alpha="1274415.6928178465" sparseCutoff="1.0000000000000000"/>
      <sparseX i="361" alpha="-143158.14214959374" sparseCutoff="1.0000000000000000"/>
      <sparseX i="362" alpha="-1386000.1250501885" sparseCutoff="1.0000000000000000"/>
      <sparseX i="363" alpha="-38052.052898971691" sparseCutoff="1.0000000000000000"/>
      <sparseX i="364" alpha="3253336.5807229327" sparseCutoff="1.0000000000000000"/>
      <sparseX i="365" alpha="774081.60682178149" sparseCutoff="1.0000000000000000"/>
      <sparseX i="366" alpha="301029.53451031039" sparseCutoff="1.0000000000000000"/>
      <sparseX i="367" alpha="460106.26291853841" sparseCutoff="1.0000000000000000"/>
      <sparseX i="368" alpha="990893.12293895427" sparseCutoff="1.0000000000000000"/>
      <sparseX i="369" alpha="974489.10852714221" sparseCutoff="1.0000000000000000"/>
      <sparseX i="370" alpha="-880056.47181775421" sparseCutoff="1.0000000000000000"/>
      <sparseX i="371" alpha="-841553.24326013948" sparseCutoff="1.0000000000000000"/>
      <sparseX i="372" alpha="850633.54152693506" sparseCutoff="1.0000000000000000"/>
      <sparseX i="373" alpha="-742519.53890945925" sparseCutoff="1.0000000000000000"/>
      <sparseX i="374" alpha="173461.42854243075" sparseCutoff="1.0000000000000000"/>
      <sparseX i="375" alpha="612604.28756335669" sparseCutoff="1.0000000000000000"/>
      <sparseX i="376" alpha="442345.46869997651" sparseCutoff="1.0000000000000000"/>
      <sparseX i="377" alpha="-24001.908190001308" sparseCutoff="1.0000000000000000"/>
      <sparseX i="378" alpha="-282924.70423918642" sparseCutoff="1.0000000000000000"/>
      <sparseX i="379" alpha="-834508.55464118603" sparseCutoff="1.0000000000000000"/>
      <sparseX i="380" alpha="-1342419.7357802228" sparseCutoff="1.0000000000000000"/>
      <sparseX i="381" alpha="-2243141.4842508496" sparseCutoff="1.0000000000000000"/>
      <sparseX i="382" alpha="-106322.09651079278" sparseCutoff="1.0000000000000000"/>
      <sparseX i="383" alpha="-1037864.1098654640" sparseCutoff="1.0000000000000000"/>
      <sparseX i="384" alpha="-1554245.4835773562" sparseCutoff="1.0000000000000000"/>
      <sparseX i="385" alpha="-590400.05903761694" sparseCutoff="1.0000000000000000"/>
      <sparseX i="386" alpha="-29178.739087675251" sparseCutoff="1.0000000000000000"/>
      <sparseX i="387" alpha="-1349006.8449824415" sparseCutoff="1.0000000000000000"/>
      <sparseX i="388" alpha="-830007.81094164518" sparseCutoff="1.0000000000000000"/>
      <sparseX i="389" alpha="-1725199.0630716626" sparseCutoff="1.0000000000000000"/>
      <sparseX i="390" alpha="562156.92246157664" sparseCutoff="1.0000000000000000"/>
      <sparseX i="391" alpha="228180.69331936026" sparseCutoff="1.0000000000000000"/>
      <sparseX i="392" alpha="739148.15354968223" sparseCutoff="1.0000000000000000"/>
      <sparseX i="393" alpha="-349728.08975199069" sparseCutoff="1.0000000000000000"/>
      <sparseX i="394" alpha="163590.31830777941" sparseCutoff="1.0000000000000000"/>
      <sparseX i="395" alpha="-222412.16272751911" sparseCutoff="1.0000000000000000"/>
      <sparseX i="396" alpha="-423765.05785796302" sparseCutoff="1.0000000000000000"/>
      <sparseX i="397" alpha="-506818.01480423607" sparseCutoff="1.0000000000000000"/>
      <sparseX i="398" alpha="-2164622.9697856233" sparseCutoff="1.0000000000000000"/>
      <sparseX i="399" alpha="716580.55343611073" sparseCutoff="1.0000000000000000"/>
      <sparseX i="400" alpha="728358.22438570380" sparseCutoff="1.0000000000000000"/>
      <sparseX i="401" alpha="-333626.45683275058" sparseCutoff="1.0000000000000000"/>
      <sparseX i="402" alpha="-103601.01517640510" sparseCutoff="1.0000000000000000"/>
      <sparseX i="403" alpha="507920.98544223799" sparseCutoff="1.0000000000000000"/>
      <sparseX i="404" alpha="-232141.77589609765" sparseCutoff="1.0000000000000000"/>
      <sparseX i="405" alpha="389856.28494894766" sparseCutoff="1.0000000000000000"/>
      <sparseX i="406" alpha="1910968.7629482597" sparseCutoff="1.0000000000000000"/>
      <sparseX i="407" alpha="-1308955.2752401126" sparseCutoff="1.0000000000000000"/>
      <sparseX i="408" alpha="3909799.4025987005" sparseCutoff="1.0000000000000000"/>
      <sparseX i="409" alpha="-1605688.8638920723" sparseCutoff="1.0000000000000000"/>
      <sparseX i="410" alpha="-993251.42223060993" sparseCutoff="1.0000000000000000"/>
      <sparseX i="411" alpha="351409.07019862038" sparseCutoff="1.0000000000000000"/>
      <sparseX i="412" alpha="227488.95700495288" sparseCutoff="1.0000000000000000"/>
      <sparseX i="413" alpha="1786165.9242011348" sparseCutoff="1.0000000000000000"/>
      <sparseX i="414" alpha="-522738.14318917232" sparseCutoff="1.0000000000000000"/>
      <sparseX i="415" alpha="344164.06805632939" sparseCutoff="1.0000000000000000"/>
      <sparseX i="416" alpha="-621898.38484673703" sparseCutoff="1.0000000000000000"/>
      <sparseX i="417" alpha="730543.38229076064" sparseCutoff="1.0000000000000000"/>
      <sparseX i="418" alpha="-105533.53542021605" sparseCutoff="1.0000000000000000"/>
      <sparseX i="419" alpha="-598338.93354173016" sparseCutoff="1.0000000000000000"/>
      <sparseX i="420" alpha="717304.30674771208" sparseCutoff="1.0000000000000000"/>
      <sparseX i="421" alpha="-157454.92097619508" sparseCutoff="1.0000000000000000"/>
      <sparseX i="422" alpha="874531.92643942160" sparseCutoff="1.0000000000000000"/>
      <sparseX i="423" alpha="1000470.1429084658" sparseCutoff="1.0000000000000000"/>
      <sparseX i="424" alpha="472756.66995818529" sparseCutoff="1.0000000000000000"/>
      <sparseX i="425" alpha="-718337.63073794555" sparseCutoff="1.0000000000000000"/>
      <sparseX i="426" alpha="73917.594034262453" sparseCutoff="1.0000000000000000"/>
      <sparseX i="427" alpha="1324593.5113075066" sparseCutoff="1.0000000000000000"/>
      <sparseX i="428" alpha="108205.60487840546" sparseCutoff="1.0000000000000000"/>
      <sparseX i="429" alpha="-308226.01450282871" sparseCutoff="1.0000000000000000"/>
      <sparseX i="430" alpha="723386.15280303685" sparseCutoff="1.0000000000000000"/>
      <sparseX i="431" alpha="148135.08570927169" sparseCutoff="1.0000000000000000"/>
      <sparseX i="432" alpha="405366.89231696032" sparseCutoff="1.0000000000000000"/>
      <sparseX i="433" alpha="568424.04461028625" sparseCutoff="1.0000000000000000"/>
      <sparseX i="434" alpha="1835863.3703493979" sparseCutoff="1.0000000000000000"/>
      <sparseX i="435" alpha="434529.49581864954" sparseCutoff="1.0000000000000000"/>
      <sparseX i="436" alpha="-1021090.8253696401" sparseCutoff="1.0000000000000000"/>
      <sparseX i="437" alpha="-341564.01002765686" sparseCutoff="1.0000000000000000"/>
      <sparseX i="438" alpha="-672697.21585448657" sparseCutoff="1.0000000000000000"/>
      <sparseX i="439" alpha="68700.862409881767" sparseCutoff="1.0000000000000000"/>
      <sparseX i="440" alpha="223652.94351722370" sparseCutoff="1.0000000000000000"/>
      <sparseX i="441" alpha="517512.33706958132" sparseCutoff="1.0000000000000000"/>
      <sparseX i="442" alpha="741787.12568812503" sparseCutoff="1.0000000000000000"/>
      <sparseX i="443" alpha="-1232554.3253327324" sparseCutoff="1.0000000000000000"/>
      <sparseX i="444" alpha="2096495.1806624460" sparseCutoff="1.0000000000000000"/>
      <sparseX i="445" alpha="-561214.75700943230" sparseCutoff="1.0000000000000000"/>
      <sparseX i="446" alpha="707329.82044335280" sparseCutoff="1.0000000000000000"/>
      <sparseX i="447" alpha="1594928.4863888312" sparseCutoff="1.0000000000000000"/>
      <sparseX i="448" alpha="-1018417.4722815986" sparseCutoff="1.0000000000000000"/>
      <sparseX i="449" alpha="156874.96508889648" sparseCutoff="1.0000000000000000"/>
      <sparseX i="450" alpha="556503.18776443717" sparseCutoff="1.0000000000000000"/>
      <sparseX i="451" alpha="-303705.77708128683" sparseCutoff="1.0000000000000000"/>
      <sparseX i="452" alpha="-744713.63627355220" sparseCutoff="1.0000000000000000"/>
      <sparseX i="453" alpha="-931095.47773672233" sparseCutoff="1.0000000000000000"/>
      <sparseX i="454" alpha="-135487.95551358376" sparseCutoff="1.0000000000000000"/>
      <sparseX i="455" alpha="355787.54575357639" sparseCutoff="1.0000000000000000"/>
      <sparseX i="456" alpha="620070.76723762136" sparseCutoff="1.0000000000000000"/>
      <sparseX i="457" alpha="-4727.1183366385385" sparseCutoff="1.0000000000000000"/>
      <sparseX i="458" alpha="1611412.9375642906" sparseCutoff="1.0000000000000000"/>
      <sparseX i="459" alpha="-866436.09262689599" sparseCutoff="1.0000000000000000"/>
      <sparseX i="460" alpha="-998030.97754174750" sparseCutoff="1.0000000000000000"/>
      <sparseX i="461" alpha="552366.81953509955" sparseCutoff="1.0000000000000000"/>
      <sparseX i="462" alpha="-803545.68165064277" sparseCutoff="1.0000000000000000"/>
      <sparseX i="463" alpha="-544597.73189461697" sparseCutoff="1.0000000000000000"/>
      <sparseX i="464" alpha="-362180.70851462724" sparseCutoff="1.0000000000000000"/>
      <sparseX i="465" alpha="2029645.5524814473" sparseCutoff="1.0000000000000000"/>
      <sparseX i="466" alpha="573493.93140288023" sparseCutoff="1.0000000000000000"/>
      <sparseX i="467" alpha="-4100200.2382620466" sparseCutoff="1.0000000000000000"/>
      <sparseX i="468" alpha="420585.71923431143" sparseCutoff="1.0000000000000000"/>
      <sparseX i="469" alpha="-1110674.7491686835" sparseCutoff="1.0000000000000000"/>
      <sparseX i="470" alpha="1322903.0672790750" sparseCutoff="1.0000000000000000"/>
      <sparseX i="471" alpha="-318517.16855621617" sparseCutoff="1.0000000000000000"/>
      <sparseX i="472" alpha="-1240900.0567974499" sparseCutoff="1.0000000000000000"/>
      <sparseX i="473" alpha="1308181.1248506845" sparseCutoff="1.0000000000000000"/>
      <sparseX i="474" alpha="-565293.03455596382" sparseCutoff="1.0000000000000000"/>
      <sparseX i="475" alpha="-357141.23488113831" sparseCutoff="1.0000000000000000"/>
      <sparseX i="476" alpha="-1123349.7795370007" sparseCutoff="1.0000000000000000"/>
      <sparseX i="477" alpha="-604891.10948024632" sparseCutoff="1.0000000000000000"/>
      <sparseX i="478" alpha="2267845.5626163101" sparseCutoff="1.0000000000000000"/>
      <sparseX i="479" alpha="447700.33753425215" sparseCutoff="1.0000000000000000"/>
      <sparseX i="480" alpha="-104304.89637584645" sparseCutoff="1.0000000000000000"/>
      <sparseX i="481" alpha="-1440476.6704406966" sparseCutoff="1.0000000000000000"/>
      <sparseX i="482" alpha="-521745.07631972263" sparseCutoff="1.0000000000000000"/>
      <sparseX i="483" alpha="2805641.7974556084" sparseCutoff="1.0000000000000000"/>
      <sparseX i="484" alpha="-308299.80297743523" sparseCutoff="1.0000000000000000"/>
      <sparseX i="485" alpha="-825126.45563807606" sparseCutoff="1.0000000000000000"/>
      <sparseX i="486" alpha="1384479.8669509995" sparseCutoff="1.0000000000000000"/>
      <sparseX i="487" alpha="198831.26457940976" sparseCutoff="1.0000000000000000"/>
      <sparseX i="488" alpha="-1841755.4267103157" sparseCutoff="1.0000000000000000"/>
      <sparseX i="489" alpha="-2185348.0210449914" sparseCutoff="1.0000000000000000"/>
      <sparseX i="490" alpha="-300666.68988881592" sparseCutoff="1.0000000000000000"/>
      <sparseX i="491" alpha="-1210574.9703725995" sparseCutoff="1.0000000000000000"/>
      <sparseX i="492" alpha="750104.76334143069" sparseCutoff="1.0000000000000000"/>
      <sparseX i="493" alpha="-4473658.6354931099" sparseCutoff="1.0000000000000000"/>
      <sparseX i="494" alpha="-421995.28194011335" sparseCutoff="1.0000000000000000"/>
      <sparseX i="495" alpha="-98240.683100496797" sparseCutoff="1.0000000000000000"/>
      <sparseX i="496" alpha="1854246.3255942664" sparseCutoff="1.0000000000000000"/>
      <sparseX i="497" alpha="-874206.21294268721" sparseCutoff="1.0000000000000000"/>
      <sparseX i="498" alpha="-918913.37511779543" sparseCutoff="1.0000000000000000"/>
      <sparseX i="499" alpha="-351867.34200684802" sparseCutoff="1.0000000000000000"/>
      <sparseX i="500" alpha="1959332.2265866119" sparseCutoff="1.0000000000000000"/>
      <sparseX i="501" alpha="920741.26714065834" sparseCutoff="1.0000000000000000"/>
      <sparseX i="502" alpha="571899.95836145151" sparseCutoff="1.0000000000000000"/>
      <sparseX i="503" alpha="-1629051.2844743223" sparseCutoff="1.0000000000000000"/>
      <sparseX i="504" alpha="913923.61107359093" sparseCutoff="1.0000000000000000"/>
      <sparseX i="505" alpha="-221160.81590478640" sparseCutoff="1.0000000000000000"/>
      <sparseX i="506" alpha="2083590.4102962993" sparseCutoff="1.0000000000000000"/>
      <sparseX i="507" alpha="3226866.3644560413" sparseCutoff="1.0000000000000000"/>
      <sparseX i="508" alpha="-367619.55931476387" sparseCutoff="1.0000000000000000"/>
      <sparseX i="509" alpha="-952024.82360351377" sparseCutoff="1.0000000000000000"/>
      <sparseX i="510" alpha="-1384733.3026281316" sparseCutoff="1.0000000000000000"/>
      <sparseX i="511" alpha="-70774.595724896542" sparseCutoff="1.0000000000000000"/>
      <sparseX i="512" alpha="592809.45719319466" sparseCutoff="1.0000000000000000"/>
      <sparseX i="513" alpha="-615884.34847126866" sparseCutoff="1.0000000000000000"/>
      <sparseX i="514" alpha="-623128.21218938171" sparseCutoff="1.0000000000000000"/>
      <sparseX i="515" alpha="1324679.0142296876" sparseCutoff="1.0000000000000000"/>
      <sparseX i="516" alpha="1392962.3263839064" sparseCutoff="1.0000000000000000"/>
      <sparseX i="517" alpha="-1135127.8555674581" sparseCutoff="1.0000000000000000"/>
      <sparseX i="518" alpha="-567587.49780770740" sparseCutoff="1.0000000000000000"/>
      <sparseX i="519" alpha="-1319557.1547179255" sparseCutoff="1.0000000000000000"/>
      <sparseX i="520" alpha="-484116.84076013806" sparseCutoff="1.0000000000000000"/>
      <sparseX i="521" alpha="341051.93992041849" sparseCutoff="1.0000000000000000"/>
      <sparseX i="522" alpha="-135174.05280861826" sparseCutoff="1.0000000000000000"/>
      <sparseX i="523" alpha="-1086293.5783157025" sparseCutoff="1.0000000000000000"/>
      <sparseX i="524" alpha="-177388.49304963995" sparseCutoff="1.0000000000000000"/>
      <sparseX i="525" alpha="434726.02585681638" sparseCutoff="1.0000000000000000"/>
      <sparseX i="526" alpha="-40692.809671993731" sparseCutoff="1.0000000000000000"/>
      <sparseX i="527" alpha="-1186049.5705088144" sparseCutoff="1.0000000000000000"/>
      <sparseX i="528" alpha="377905.93939410249" sparseCutoff="1.0000000000000000"/>
      <sparseX i="529" alpha="-422814.87961817649" sparseCutoff="1.0000000000000000"/>
      <sparseX i="530" alpha="849179.69637014018" sparseCutoff="1.0000000000000000"/>
      <sparseX i="531" alpha="-1096215.3110804234" sparseCutoff="1.0000000000000000"/>
      <sparseX i="532" alpha="-547553.37594189739" sparseCutoff="1.0000000000000000"/>
      <sparseX i="533" alpha="574727.62027776462" sparseCutoff="1.0000000000000000"/>
      <sparseX i="534" alpha="807602.73742971453" sparseCutoff="1.0000000000000000"/>
      <sparseX i="535" alpha="391574.34014968021" sparseCutoff="1.0000000000000000"/>
      <sparseX i="536" alpha="-17351.878059112256" sparseCutoff="1.0000000000000000"/>
      <sparseX i="537" alpha="3684665.7677719723" sparseCutoff="1.0000000000000000"/>
      <sparseX i="538" alpha="588592.63794666377" sparseCutoff="1.0000000000000000"/>
      <sparseX i="539" alpha="3046702.0271674986" sparseCutoff="1.0000000000000000"/>
      <sparseX i="540" alpha="-430280.03487931471" sparseCutoff="1.0000000000000000"/>
      <sparseX i="541" alpha="-1532417.8775682591" sparseCutoff="1.0000000000000000"/>
      <sparseX i="542" alpha="2589526.9555066288" sparseCutoff="1.0000000000000000"/>
      <sparseX i="543" alpha="-310293.07813810866" sparseCutoff="1.0000000000000000"/>
      <sparseX i="544" alpha="-126891.34782399965" sparseCutoff="1.0000000000000000"/>
      <sparseX i="545" alpha="508084.60478102550" sparseCutoff="1.0000000000000000"/>
      <sparseX i="546" alpha="1839981.9493833040" sparseCutoff="1.0000000000000000"/>
      <sparseX i="547" alpha="-1006786.6369186739" sparseCutoff="1.0000000000000000"/>
      <sparseX i="548" alpha="-1034926.0493289547" sparseCutoff="1.0000000000000000"/>
      <sparseX i="549" alpha="942220.58602634247" sparseCutoff="1.0000000000000000"/>
      <sparseX i="550" alpha="-148044.45884131920" sparseCutoff="1.0000000000000000"/>
      <sparseX i="551" alpha="346934.89637156716" sparseCutoff="1.0000000000000000"/>
      <sparseX i="552" alpha="-1269193.1972344343" sparseCutoff="1.0000000000000000"/>
      <sparseX i="553" alpha="-757446.75844016857" sparseCutoff="1.0000000000000000"/>
      <sparseX i="554" alpha="270231.08262116177" sparseCutoff="1.0000000000000000"/>
      <sparseX i="555" alpha="-1512043.3835986110" sparseCutoff="1.0000000000000000"/>
      <sparseX i="556" alpha="686761.29589690990" sparseCutoff="1.0000000000000000"/>
      <sparseX i="557" alpha="2219731.9407546734" sparseCutoff="1.0000000000000000"/>
      <sparseX i="558" alpha="2776449.8638744713" sparseCutoff="1.0000000000000000"/>
      <sparseX i="559" alpha="-1142857.8063393778" sparseCutoff="1.0000000000000000"/>
      <sparseX i="560" alpha="-310891.89347860037" sparseCutoff="1.0000000000000000"/>
      <sparseX i="561" alpha="-658326.02152990561" sparseCutoff="1.0000000000000000"/>
      <sparseX i="562" alpha="-1100355.5995321625" sparseCutoff="1.0000000000000000"/>
      <sparseX i="563" alpha="-525190.74500438094" sparseCutoff="1.0000000000000000"/>
      <sparseX i="564" alpha="-361905.11715201632" sparseCutoff="1.0000000000000000"/>
      <sparseX i="565" alpha="-1085558.8620657562" sparseCutoff="1.0000000000000000"/>
      <sparseX i="566" alpha="575192.91086182802" sparseCutoff="1.0000000000000000"/>
      <sparseX i="567" alpha="200792.20625874994" sparseCutoff="1.0000000000000000"/>
      <sparseX i="568" alpha="464589.68389331910" sparseCutoff="1.0000000000000000"/>
      <sparseX i="569" alpha="-1442.7098231079519" sparseCutoff="1.0000000000000000"/>
      <sparseX i="570" alpha="979816.75582153420" sparseCutoff="1.0000000000000000"/>
      <sparseX i="571" alpha="266942.45565974788" sparseCutoff="1.0000000000000000"/>
      <sparseX i="572" alpha="-1833683.9722903515" sparseCutoff="1.0000000000000000"/>
      <sparseX i="573" alpha="-116517.94626216777" sparseCutoff="1.0000000000000000"/>
      <sparseX i="574" alpha="753095.43667278951" sparseCutoff="1.0000000000000000"/>
      <sparseX i="575" alpha="-801343.61127540201" sparseCutoff="1.0000000000000000"/>
      <sparseX i="576" alpha="1201350.6425475434" sparseCutoff="1.0000000000000000"/>
      <sparseX i="577" alpha="-3337855.8449398652" sparseCutoff="1.0000000000000000"/>
      <sparseX i="578" alpha="3384666.9133068104" sparseCutoff="1.0000000000000000"/>
      <sparseX i="579" alpha="-749958.07883362379" sparseCutoff="1.0000000000000000"/>
      <sparseX i="580" alpha="614688.75363309111" sparseCutoff="1.0000000000000000"/>
      <sparseX i="581" alpha="-493735.89891974704" sparseCutoff="1.0000000000000000"/>
      <sparseX i="582" alpha="44619.234359171365" sparseCutoff="1.0000000000000000"/>
      <sparseX i="583" alpha="204142.62800541508" sparseCutoff="1.0000000000000000"/>
      <sparseX i="584" alpha="-163266.37550806074" sparseCutoff="1.0000000000000000"/>
      <sparseX i="585" alpha="-129906.07439895860" sparseCutoff="1.0000000000000000"/>
      <sparseX i="586" alpha="2257601.2200295147" sparseCutoff="1.0000000000000000"/>
      <sparseX i="587" alpha="364408.75764996157" sparseCutoff="1.0000000000000000"/>
      <sparseX i="588" alpha="1000403.4538240312" sparseCutoff="1.0000000000000000"/>
      <sparseX i="589" alpha="111017.24227991427" sparseCutoff="1.0000000000000000"/>
      <sparseX i="590" alpha="-190835.48165775693" sparseCutoff="1.0000000000000000"/>
      <sparseX i="591" alpha="-470971.79895525589" sparseCutoff="1.0000000000000000"/>
      <sparseX i="592" alpha="3117715.6757392799" sparseCutoff="1.0000000000000000"/>
      <sparseX i="593" alpha="-1929919.0707339062" sparseCutoff="1.0000000000000000"/>
      <sparseX i="594" alpha="-1338058.2117995133" sparseCutoff="1.0000000000000000"/>
      <sparseX i="595" alpha="100372.87059132975" sparseCutoff="1.0000000000000000"/>
      <sparseX i="596" alpha="-761452.50772811251" sparseCutoff="1.0000000000000000"/>
      <sparseX i="597" alpha="764567.28299015644" sparseCutoff="1.0000000000000000"/>
      <sparseX i="598" alpha="-1549352.2505205346" sparseCutoff="1.0000000000000000"/>
      <sparseX i="599" alpha="2427370.7017348176" sparseCutoff="1.0000000000000000"/>
      <sparseX i="600" alpha="101817.85547313823" sparseCutoff="1.0000000000000000"/>
      <sparseX i="601" alpha="519940.01216504589" sparseCutoff="1.0000000000000000"/>
      <sparseX i="602" alpha="-1042303.2003181699" sparseCutoff="1.0000000000000000"/>
      <sparseX i="603" alpha="516848.60426444386" sparseCutoff="1.0000000000000000"/>
      <sparseX i="604" alpha="580194.22301065980" sparseCutoff="1.0000000000000000"/>
      <sparseX i="605" alpha="596577.78015117394" sparseCutoff="1.0000000000000000"/>
      <sparseX i="606" alpha="-250615.59358015435" sparseCutoff="1.0000000000000000"/>
      <sparseX i="607" alpha="-716695.44644783903" sparseCutoff="1.0000000000000000"/>
      <sparseX i="608" alpha="672179.86156351143" sparseCutoff="1.0000000000000000"/>
      <sparseX i="609" alpha="309089.52846822585" sparseCutoff="1.0000000000000000"/>
      <sparseX i="610" alpha="-175385.54569922996" sparseCutoff="1.0000000000000000"/>
      <sparseX i="611" alpha="-267402.52954975388" sparseCutoff="1.0000000000000000"/>
      <sparseX i="612" alpha="-282835.88364216051" sparseCutoff="1.0000000000000000"/>
      <sparseX i="613" alpha="-425534.44690458011" sparseCutoff="1.0000000000000000"/>
      <sparseX i="614" alpha="672797.31594145775" sparseCutoff="1.0000000000000000"/>
      <sparseX i="615" alpha="-3480540.8967359229" sparseCutoff="1.0000000000000000"/>
      <sparseX i="616" alpha="5493.7412341834461" sparseCutoff="1.0000000000000000"/>
      <sparseX i="617" alpha="-261590.83703155667" sparseCutoff="1.0000000000000000"/>
      <sparseX i="618" alpha="-438671.99832217465" sparseCutoff="1.0000000000000000"/>
      <sparseX i="619" alpha="-320426.14822631469" sparseCutoff="1.0000000000000000"/>
      <sparseX i="620" alpha="491045.84359755157" sparseCutoff="1.0000000000000000"/>
      <sparseX i="621" alpha="58871.627555222927" sparseCutoff="1.0000000000000000"/>
      <sparseX i="622" alpha="902220.74924361019" sparseCutoff="1.0000000000000000"/>
      <sparseX i="623" alpha="38485.634153500898" sparseCutoff="1.0000000000000000"/>
      <sparseX i="624" alpha="111857.26521322533" sparseCutoff="1.0000000000000000"/>
      <sparseX i="625" alpha="-138185.51128348071" sparseCutoff="1.0000000000000000"/>
      <sparseX i="626" alpha="-1896772.8579509391" sparseCutoff="1.0000000000000000"/>
      <sparseX i="627" alpha="1161418.8483875475" sparseCutoff="1.0000000000000000"/>
      <sparseX i="628" alpha="40969.088789038484" sparseCutoff="1.0000000000000000"/>
      <sparseX i="629" alpha="-2097476.7004015339" sparseCutoff="1.0000000000000000"/>
      <sparseX i="630" alpha="-89423.577130769772" sparseCutoff="1.0000000000000000"/>
      <sparseX i="631" alpha="-1593342.4546796444" sparseCutoff="1.0000000000000000"/>
      <sparseX i="632" alpha="185561.70669003087" sparseCutoff="1.0000000000000000"/>
      <sparseX i="633" alpha="-801723.02650590485" sparseCutoff="1.0000000000000000"/>
      <sparseX i="634" alpha="1935691.7801726526" sparseCutoff="1.0000000000000000"/>
      <sparseX i="635" alpha="2597224.0226212409" sparseCutoff="1.0000000000000000"/>
      <sparseX i="636" alpha="-266599.25751794421" sparseCutoff="1.0000000000000000"/>
      <sparseX i="637" alpha="-1356926.2722876067" sparseCutoff="1.0000000000000000"/>
      <sparseX i="638" alpha="604006.03864387213" sparseCutoff="1.0000000000000000"/>
      <sparseX i="639" alpha="967790.99759986904" sparseCutoff="1.0000000000000000"/>
      <sparseX i="640" alpha="-2499265.6812106669" sparseCutoff="1.0000000000000000"/>
      <sparseX i="641" alpha="-1502686.1501835138" sparseCutoff="1.0000000000000000"/>
      <sparseX i="642" alpha="-74909.840635726272" sparseCutoff="1.0000000000000000"/>
      <sparseX i="643" alpha="74253.595531600557" sparseCutoff="1.0000000000000000"/>
      <sparseX i="644" alpha="-375928.73266938853" sparseCutoff="1.0000000000000000"/>
      <sparseX i="645" alpha="-589480.23118740309" sparseCutoff="1.0000000000000000"/>
      <sparseX i="646" alpha="1888706.1364580225" sparseCutoff="1.0000000000000000"/>
      <sparseX i="647" alpha="-1093298.0569195629" sparseCutoff="1.0000000000000000"/>
      <sparseX i="648" alpha="-525631.89079792646" sparseCutoff="1.0000000000000000"/>
      <sparseX i="649" alpha="-909923.01388619258" sparseCutoff="1.0000000000000000"/>
      <sparseX i="650" alpha="-502030.23081175255" sparseCutoff="1.0000000000000000"/>
      <sparseX i="651" alpha="540404.74823671777" sparseCutoff="1.0000000000000000"/>
      <sparseX i="652" alpha="-741119.55194721627" sparseCutoff="1.0000000000000000"/>
      <sparseX i="653" alpha="597375.34604383528" sparseCutoff="1.0000000000000000"/>
      <sparseX i="654" alpha="-267161.89056664862" sparseCutoff="1.0000000000000000"/>
      <sparseX i="655" alpha="-1362801.7675008895" sparseCutoff="1.0000000000000000"/>
      <sparseX i="656" alpha="514702.55384676310" sparseCutoff="1.0000000000000000"/>
      <sparseX i="657" alpha="1749836.1927427701" sparseCutoff="1.0000000000000000"/>
      <sparseX i="658" alpha="-902243.78073602787" sparseCutoff="1.0000000000000000"/>
      <sparseX i="659" alpha="-205721.82202567870" sparseCutoff="1.0000000000000000"/>
      <sparseX i="660" alpha="308357.92175037722" sparseCutoff="1.0000000000000000"/>
      <sparseX i="661" alpha="-121181.31733600024" sparseCutoff="1.0000000000000000"/>
      <sparseX i="662" alpha="-122149.64997530788" sparseCutoff="1.0000000000000000"/>
      <sparseX i="663" alpha="52055.914338758914" sparseCutoff="1.0000000000000000"/>
      <sparseX i="664" alpha="456605.53177151270" sparseCutoff="1.0000000000000000"/>
      <sparseX i="665" alpha="-3410191.5871063517" sparseCutoff="1.0000000000000000"/>
      <sparseX i="666" alpha="101709.89373082218" sparseCutoff="1.0000000000000000"/>
      <sparseX i="667" alpha="2025786.6852274286" sparseCutoff="1.0000000000000000"/>
      <sparseX i="668" alpha="-1469500.3179256313" sparseCutoff="1.0000000000000000"/>
      <sparseX i="669" alpha="-1205786.2687856974" sparseCutoff="1.0000000000000000"/>
      <sparseX i="670" alpha="-1311595.4484548285" sparseCutoff="1.0000000000000000"/>
      <sparseX i="671" alpha="-760296.68352918711" sparseCutoff="1.0000000000000000"/>
      <sparseX i="672" alpha="467906.73089551996" sparseCutoff="1.0000000000000000"/>
      <sparseX i="673" alpha="210470.55961394729" sparseCutoff="1.0000000000000000"/>
      <sparseX i="674" alpha="635066.54289157863" sparseCutoff="1.0000000000000000"/>
      <sparseX i="675" alpha="974255.95389782498" sparseCutoff="1.0000000000000000"/>
      <sparseX i="676" alpha="-1225710.3572928647" sparseCutoff="1.0000000000000000"/>
      <sparseX i="677" alpha="-409858.96692042518" sparseCutoff="1.0000000000000000"/>
      <sparseX i="678" alpha="-813593.96115360933" sparseCutoff="1.0000000000000000"/>
      <sparseX i="679" alpha="436865.84246630513" sparseCutoff="1.0000000000000000"/>
      <sparseX i="680" alpha="289330.96462278452" sparseCutoff="1.0000000000000000"/>
      <sparseX i="681" alpha="244657.31362420760" sparseCutoff="1.0000000000000000"/>
      <sparseX i="682" alpha="246067.10863869468" sparseCutoff="1.0000000000000000"/>
      <sparseX i="683" alpha="625953.60090486542" sparseCutoff="1.0000000000000000"/>
      <sparseX i="684" alpha="218986.92552468993" sparseCutoff="1.0000000000000000"/>
      <sparseX i="685" alpha="135628.61969301576" sparseCutoff="1.0000000000000000"/>
      <sparseX i="686" alpha="283008.29447693675" sparseCutoff="1.0000000000000000"/>
      <sparseX i="687" alpha="959635.83628979733" sparseCutoff="1.0000000000000000"/>
      <sparseX i="688" alpha="91713.706933571477" sparseCutoff="1.0000000000000000"/>
      <sparseX i="689" alpha="236095.37018334318" sparseCutoff="1.0000000000000000"/>
      <sparseX i="690" alpha="461385.92398129200" sparseCutoff="1.0000000000000000"/>
      <sparseX i="691" alpha="-601036.70409402787" sparseCutoff="1.0000000000000000"/>
      <sparseX i="692" alpha="319697.33938168385" sparseCutoff="1.0000000000000000"/>
      <sparseX i="693" alpha="-335349.10156224587" sparseCutoff="1.0000000000000000"/>
      <sparseX i="694" alpha="-732804.97447043017" sparseCutoff="1.0000000000000000"/>
      <sparseX i="695" alpha="-482923.68759634910" sparseCutoff="1.0000000000000000"/>
      <sparseX i="696" alpha="30743.481136421651" sparseCutoff="1.0000000000000000"/>
      <sparseX i="697" alpha="-2575590.8398797773" sparseCutoff="1.0000000000000000"/>
      <sparseX i="698" alpha="661582.41025619302" sparseCutoff="1.0000000000000000"/>
      <sparseX i="699" alpha="371419.49247880530" sparseCutoff="1.0000000000000000"/>
      <sparseX i="700" alpha="-244051.10400157116" sparseCutoff="1.0000000000000000"/>
      <sparseX i="701" alpha="201970.91576808406" sparseCutoff="1.0000000000000000"/>
      <sparseX i="702" alpha="158538.30597421728" sparseCutoff="1.0000000000000000"/>
      <sparseX i="703" alpha="-179122.75358727583" sparseCutoff="1.0000000000000000"/>
      <sparseX i="704" alpha="-344277.73118375533" sparseCutoff="1.0000000000000000"/>
      <sparseX i="705" alpha="718959.65714086674" sparseCutoff="1.0000000000000000"/>
      <sparseX i="706" alpha="524517.10297975759" sparseCutoff="1.0000000000000000"/>
      <sparseX i="707" alpha="-481420.60550404707" sparseCutoff="1.0000000000000000"/>
      <sparseX i="708" alpha="1044564.1784205604" sparseCutoff="1.0000000000000000"/>
      <sparseX i="709" alpha="-2680030.2534034154" sparseCutoff="1.0000000000000000"/>
      <sparseX i="710" alpha="-10912.031675521801" sparseCutoff="1.0000000000000000"/>
      <sparseX i="711" alpha="62417.755785286696" sparseCutoff="1.0000000000000000"/>
      <sparseX i="712" alpha="1314090.2421227519" sparseCutoff="1.0000000000000000"/>
      <sparseX i="713" alpha="-480037.54912511399" sparseCutoff="1.0000000000000000"/>
      <sparseX i="714" alpha="753692.89854382875" sparseCutoff="1.0000000000000000"/>
      <sparseX i="715" alpha="262149.58887798985" sparseCutoff="1.0000000000000000"/>
      <sparseX i="716" alpha="-3347252.5656850338" sparseCutoff="1.0000000000000000"/>
      <sparseX i="717" alpha="-1321548.9998801490" sparseCutoff="1.0000000000000000"/>
      <sparseX i="718" alpha="202714.02176674726" sparseCutoff="1.0000000000000000"/>
      <sparseX i="719" alpha="535444.76311890292" sparseCutoff="1.0000000000000000"/>
      <sparseX i="720" alpha="227432.48739370928" sparseCutoff="1.0000000000000000"/>
      <sparseX i="721" alpha="577512.68589655613" sparseCutoff="1.0000000000000000"/>
      <sparseX i="722" alpha="-669444.26144303661" sparseCutoff="1.0000000000000000"/>
      <sparseX i="723" alpha="832055.80899258098" sparseCutoff="1.0000000000000000"/>
      <sparseX i="724" alpha="-2175267.9481603294" sparseCutoff="1.0000000000000000"/>
      <sparseX i="725" alpha="-1322298.6313962992" sparseCutoff="1.0000000000000000"/>
      <sparseX i="726" alpha="-317172.96436383808" sparseCutoff="1.0000000000000000"/>
      <sparseX i="727" alpha="696232.56300780375" sparseCutoff="1.0000000000000000"/>
      <sparseX i="728" alpha="-159725.13780277310" sparseCutoff="1.0000000000000000"/>
      <sparseX i="729" alpha="-807381.65302164329" sparseCutoff="1.0000000000000000"/>
      <sparseX i="730" alpha="-468959.99089456588" sparseCutoff="1.0000000000000000"/>
      <sparseX i="731" alpha="-1585960.3877452293" sparseCutoff="1.0000000000000000"/>
      <sparseX i="732" alpha="-238280.99567089335" sparseCutoff="1.0000000000000000"/>
      <sparseX i="733" alpha="-779416.25219602103" sparseCutoff="1.0000000000000000"/>
      <sparseX i="734" alpha="-360427.42944419733" sparseCutoff="1.0000000000000000"/>
      <sparseX i="735" alpha="1610229.5293920087" sparseCutoff="1.0000000000000000"/>
      <sparseX i="736" alpha="424848.58041676471" sparseCutoff="1.0000000000000000"/>
      <sparseX i="737" alpha="2987250.1184961735" sparseCutoff="1.0000000000000000"/>
      <sparseX i="738" alpha="1487396.8142438692" sparseCutoff="1.0000000000000000"/>
      <sparseX i="739" alpha="-1504397.3575532837" sparseCutoff="1.0000000000000000"/>
      <sparseX i="740" alpha="-755989.00134545309" sparseCutoff="1.0000000000000000"/>
      <sparseX i="741" alpha="-806033.30172214541" sparseCutoff="1.0000000000000000"/>
      <sparseX i="742" alpha="-3166682.0293882159" sparseCutoff="1.0000000000000000"/>
      <sparseX i="743" alpha="1294512.3453850471" sparseCutoff="1.0000000000000000"/>
      <sparseX i="744" alpha="910650.65497941687" sparseCutoff="1.0000000000000000"/>
      <sparseX i="745" alpha="-1599406.1680658620" sparseCutoff="1.0000000000000000"/>
      <sparseX i="746" alpha="1185052.6375403244" sparseCutoff="1.0000000000000000"/>
      <sparseX i="747" alpha="634774.34194412944" sparseCutoff="1.0000000000000000"/>
      <sparseX i="748" alpha="33337.764603198295" sparseCutoff="1.0000000000000000"/>
      <sparseX i="749" alpha="295686.30342198670" sparseCutoff="1.0000000000000000"/>
      <sparseX i="750" alpha="-1377091.4327409212" sparseCutoff="1.0000000000000000"/>
      <sparseX i="751" alpha="772413.14759022370" sparseCutoff="1.0000000000000000"/>
      <sparseX i="752" alpha="344585.16062464594" sparseCutoff="1.0000000000000000"/>
      <sparseX i="753" alpha="-695000.67191419483" sparseCutoff="1.0000000000000000"/>
      <sparseX i="754" alpha="-432131.10667631566" sparseCutoff="1.0000000000000000"/>
      <sparseX i="755" alpha="-71911.620394854719" sparseCutoff="1.0000000000000000"/>
      <sparseX i="756" alpha="-1280627.6069567546" sparseCutoff="1.0000000000000000"/>
      <sparseX i="757" alpha="1513034.2596062107" sparseCutoff="1.0000000000000000"/>
      <sparseX i="758" alpha="745537.34342309844" sparseCutoff="1.0000000000000000"/>
      <sparseX i="759" alpha="-707261.25474712823" sparseCutoff="1.0000000000000000"/>
      <sparseX i="760" alpha="60721.501126540337" sparseCutoff="1.0000000000000000"/>
      <sparseX i="761" alpha="1889764.8824904170" sparseCutoff="1.0000000000000000"/>
      <sparseX i="762" alpha="1136029.5390210631" sparseCutoff="1.0000000000000000"/>
      <sparseX i="763" alpha="-36771.359767210968" sparseCutoff="1.0000000000000000"/>
      <sparseX i="764" alpha="-175256.46936628950" sparseCutoff="1.0000000000000000"/>
      <sparseX i="765" alpha="-1445917.9116514181" sparseCutoff="1.0000000000000000"/>
      <sparseX i="766" alpha="-876101.56166819867" sparseCutoff="1.0000000000000000"/>
      <sparseX i="767" alpha="-2544965.0602758825" sparseCutoff="1.0000000000000000"/>
      <sparseX i="768" alpha="-275850.49681771256" sparseCutoff="1.0000000000000000"/>
      <sparseX i="769" alpha="2212447.6185162500" sparseCutoff="1.0000000000000000"/>
      <sparseX i="770" alpha="2242279.9813142810" sparseCutoff="1.0000000000000000"/>
      <sparseX i="771" alpha="1401542.5693128672" sparseCutoff="1.0000000000000000"/>
      <sparseX i="772" alpha="821920.45139636158" sparseCutoff="1.0000000000000000"/>
      <sparseX i="773" alpha="783699.39030703437" sparseCutoff="1.0000000000000000"/>
      <sparseX i="774" alpha="-1718397.0141918326" sparseCutoff="1.0000000000000000"/>
      <sparseX i="775" alpha="-264002.21421566611" sparseCutoff="1.0000000000000000"/>
      <sparseX i="776" alpha="1123214.5098983403" sparseCutoff="1.0000000000000000"/>
      <sparseX i="777" alpha="49386.343283871502" sparseCutoff="1.0000000000000000"/>
      <sparseX i="778" alpha="219682.76596657693" sparseCutoff="1.0000000000000000"/>
      <sparseX i="779" alpha="-467417.98082103825" sparseCutoff="1.0000000000000000"/>
      <sparseX i="780" alpha="-226682.73400929867" sparseCutoff="1.0000000000000000"/>
      <sparseX i="781" alpha="66018.183299144133" sparseCutoff="1.0000000000000000"/>
      <sparseX i="782" alpha="-114017.78303640951" sparseCutoff="1.0000000000000000"/>
      <sparseX i="783" alpha="417086.24416668533" sparseCutoff="1.0000000000000000"/>
      <sparseX i="784" alpha="253100.77507255535" sparseCutoff="1.0000000000000000"/>
      <sparseX i="785" alpha="423457.70388551854" sparseCutoff="1.0000000000000000"/>
      <sparseX i="786" alpha="336341.32989811478" sparseCutoff="1.0000000000000000"/>
      <sparseX i="787" alpha="1098474.3396807550" sparseCutoff="1.0000000000000000"/>
      <sparseX i="788" alpha="115009.82793003613" sparseCutoff="1.0000000000000000"/>
      <sparseX i="789" alpha="-2004845.3126607204" sparseCutoff="1.0000000000000000"/>
      <sparseX i="790" alpha="-1755952.0691859566" sparseCutoff="1.0000000000000000"/>
      <sparseX i="791" alpha="-2490545.1150114634" sparseCutoff="1.0000000000000000"/>
      <sparseX i="792" alpha="-1384606.6086145265" sparseCutoff="1.0000000000000000"/>
      <sparseX i="793" alpha="1112827.4883778053" sparseCutoff="1.0000000000000000"/>
      <sparseX i="794" alpha="177193.77680566168" sparseCutoff="1.0000000000000000"/>
      <sparseX i="795" alpha="-266559.21141300566" sparseCutoff="1.0000000000000000"/>
      <sparseX i="796" alpha="-586457.57107538369" sparseCutoff="1.0000000000000000"/>
      <sparseX i="797" alpha="1596551.8400966930" sparseCutoff="1.0000000000000000"/>
      <sparseX i="798" alpha="-1821041.1303326872" sparseCutoff="1.0000000000000000"/>
      <sparseX i="799" alpha="-197582.39790853448" sparseCutoff="1.0000000000000000"/>
      <sparseX i="800" alpha="-490918.10543002636" sparseCutoff="1.0000000000000000"/>
      <sparseX i="801" alpha="-1478209.0490189216" sparseCutoff="1.0000000000000000"/>
      <sparseX i="802" alpha="3839547.9616592149" sparseCutoff="1.0000000000000000"/>
      <sparseX i="803" alpha="2497033.9188818876" sparseCutoff="1.0000000000000000"/>
      <sparseX i="804" alpha="1629010.6726556297" sparseCutoff="1.0000000000000000"/>
      <sparseX i="805" alpha="-1722022.1456013634" sparseCutoff="1.0000000000000000"/>
      <sparseX i="806" alpha="-121510.96470684667" sparseCutoff="1.0000000000000000"/>
      <sparseX i="807" alpha="1055208.9031834165" sparseCutoff="1.0000000000000000"/>
      <sparseX i="808" alpha="-3648869.3465701281" sparseCutoff="1.0000000000000000"/>
      <sparseX i="809" alpha="1651239.9375921858" sparseCutoff="1.0000000000000000"/>
      <sparseX i="810" alpha="-1925446.9627952049" sparseCutoff="1.0000000000000000"/>
      <sparseX i="811" alpha="-680491.22626055474" sparseCutoff="1.0000000000000000"/>
      <sparseX i="812" alpha="-2526776.0883731539" sparseCutoff="1.0000000000000000"/>
      <sparseX i="813" alpha="-1936662.0659276198" sparseCutoff="1.0000000000000000"/>
      <sparseX i="814" alpha="-1328029.5658723814" sparseCutoff="1.0000000000000000"/>
      <sparseX i="815" alpha="2232475.1764945425" sparseCutoff="1.0000000000000000"/>
      <sparseX i="816" alpha="-528148.00455094094" sparseCutoff="1.0000000000000000"/>
      <sparseX i="817" alpha="1338438.0012073833" sparseCutoff="1.0000000000000000"/>
      <sparseX i="818" alpha="-785668.00513068214" sparseCutoff="1.0000000000000000"/>
      <sparseX i="819" alpha="-318805.35739059560" sparseCutoff="1.0000000000000000"/>
      <sparseX i="820" alpha="1146431.8222682271" sparseCutoff="1.0000000000000000"/>
      <sparseX i="821" alpha="3209293.1434454205" sparseCutoff="1.0000000000000000"/>
      <sparseX i="822" alpha="-510364.60466456640" sparseCutoff="1.0000000000000000"/>
      <sparseX i="823" alpha="-1148837.5827019950" sparseCutoff="1.0000000000000000"/>
      <sparseX i="824" alpha="-4016578.8068547319" sparseCutoff="1.0000000000000000"/>
      <sparseX i="825" alpha="1321394.2574179305" sparseCutoff="1.0000000000000000"/>
      <sparseX i="826" alpha="-2472513.0113604930" sparseCutoff="1.0000000000000000"/>
      <sparseX i="827" alpha="-402226.31501938170" sparseCutoff="1.0000000000000000"/>
      <sparseX i="828" alpha="-678455.19002804998" sparseCutoff="1.0000000000000000"/>
      <sparseX i="829" alpha="867769.91581688309" sparseCutoff="1.0000000000000000"/>
      <sparseX i="830" alpha="3014365.7453384101" sparseCutoff="1.0000000000000000"/>
      <sparseX i="831" alpha="2661992.6635404220" sparseCutoff="1.0000000000000000"/>
      <sparseX i="832" alpha="2104917.4734690618" sparseCutoff="1.0000000000000000"/>
      <sparseX i="833" alpha="102564.49644261006" sparseCutoff="1.0000000000000000"/>
      <sparseX i="834" alpha="997847.62260495417" sparseCutoff="1.0000000000000000"/>
      <sparseX i="835" alpha="-151577.46495679358" sparseCutoff="1.0000000000000000"/>
      <sparseX i="836" alpha="253238.12017634948" sparseCutoff="1.0000000000000000"/>
      <sparseX i="837" alpha="164612.02807090647" sparseCutoff="1.0000000000000000"/>
      <sparseX i="838" alpha="229117.31261014118" sparseCutoff="1.0000000000000000"/>
      <sparseX i="839" alpha="8236.4846446618285" sparseCutoff="1.0000000000000000"/>
      <sparseX i="840" alpha="-51014.056896068912" sparseCutoff="1.0000000000000000"/>
      <sparseX i="841" alpha="318564.83746517904" sparseCutoff="1.0000000000000000"/>
      <sparseX i="842" alpha="-430233.51670592820" sparseCutoff="1.0000000000000000"/>
      <sparseX i="843" alpha="239694.27695657586" sparseCutoff="1.0000000000000000"/>
      <sparseX i="844" alpha="-1139527.9860144493" sparseCutoff="1.0000000000000000"/>
      <sparseX i="845" alpha="398935.99228209478" sparseCutoff="1.0000000000000000"/>
      <sparseX i="846" alpha="520836.29961276130" sparseCutoff="1.0000000000000000"/>
      <sparseX i="847" alpha="-986530.97917655448" sparseCutoff="1.0000000000000000"/>
      <sparseX i="848" alpha="-848161.95211341663" sparseCutoff="1.0000000000000000"/>
      <sparseX i="849" alpha="-1409832.3328754175" sparseCutoff="1.0000000000000000"/>
      <sparseX i="850" alpha="797117.79750510782" sparseCutoff="1.0000000000000000"/>
      <sparseX i="851" alpha="536221.33462071954" sparseCutoff="1.0000000000000000"/>
      <sparseX i="852" alpha="-398900.91031735338" sparseCutoff="1.0000000000000000"/>
      <sparseX i="853" alpha="4994478.0589336036" sparseCutoff="1.0000000000000000"/>
      <sparseX i="854" alpha="647044.74530583224" sparseCutoff="1.0000000000000000"/>
      <sparseX i="855" alpha="634605.76086927077" sparseCutoff="1.0000000000000000"/>
      <sparseX i="856" alpha="23314.937999376521" sparseCutoff="1.0000000000000000"/>
      <sparseX i="857" alpha="-267158.66558140417" sparseCutoff="1.0000000000000000"/>
      <sparseX i="858" alpha="457876.33143173013" sparseCutoff="1.0000000000000000"/>
      <sparseX i="859" alpha="520284.32432521560" sparseCutoff="1.0000000000000000"/>
      <sparseX i="860" alpha="-1476316.2331977021" sparseCutoff="1.0000000000000000"/>
      <sparseX i="861" alpha="-366026.31209664809" sparseCutoff="1.0000000000000000"/>
      <sparseX i="862" alpha="575480.29080989433" sparseCutoff="1.0000000000000000"/>
      <sparseX i="863" alpha="-242438.36280619481" sparseCutoff="1.0000000000000000"/>
      <sparseX i="864" alpha="653090.60611561639" sparseCutoff="1.0000000000000000"/>
      <sparseX i="865" alpha="431393.71569681959" sparseCutoff="1.0000000000000000"/>
      <sparseX i="866" alpha="166066.60894102833" sparseCutoff="1.0000000000000000"/>
      <sparseX i="867" alpha="573650.34909657692" sparseCutoff="1.0000000000000000"/>
      <sparseX i="868" alpha="2759816.3324833955" sparseCutoff="1.0000000000000000"/>
      <sparseX i="869" alpha="1755854.6803391203" sparseCutoff="1.0000000000000000"/>
      <sparseX i="870" alpha="-1454016.2282243664" sparseCutoff="1.0000000000000000"/>
      <sparseX i="871" alpha="802303.24526500655" sparseCutoff="1.0000000000000000"/>
      <sparseX i="872" alpha="-570646.71372635255" sparseCutoff="1.0000000000000000"/>
      <sparseX i="873" alpha="908251.89898127306" sparseCutoff="1.0000000000000000"/>
      <sparseX i="874" alpha="923695.36557260202" sparseCutoff="1.0000000000000000"/>
      <sparseX i="875" alpha="-2058952.7713373227" sparseCutoff="1.0000000000000000"/>
      <sparseX i="876" alpha="2651358.4460321693" sparseCutoff="1.0000000000000000"/>
      <sparseX i="877" alpha="-735676.26377651922" sparseCutoff="1.0000000000000000"/>
      <sparseX i="878" alpha="-201225.30525476125" sparseCutoff="1.0000000000000000"/>
      <sparseX i="879" alpha="2877190.9580830820" sparseCutoff="1.0000000000000000"/>
      <sparseX i="880" alpha="302410.13608747418" sparseCutoff="1.0000000000000000"/>
      <sparseX i="881" alpha="-971221.27031917917" sparseCutoff="1.0000000000000000"/>
      <sparseX i="882" alpha="-1900612.6776984117" sparseCutoff="1.0000000000000000"/>
      <sparseX i="883" alpha="-116023.26759093041" sparseCutoff="1.0000000000000000"/>
      <sparseX i="884" alpha="-680423.17996840714" sparseCutoff="1.0000000000000000"/>
      <sparseX i="885" alpha="368125.26556293148" sparseCutoff="1.0000000000000000"/>
      <sparseX i="886" alpha="-918964.58571788843" sparseCutoff="1.0000000000000000"/>
      <sparseX i="887" alpha="725408.12922009837" sparseCutoff="1.0000000000000000"/>
      <sparseX i="888" alpha="-978481.27275255369" sparseCutoff="1.0000000000000000"/>
      <sparseX i="889" alpha="-437012.29742245190" sparseCutoff="1.0000000000000000"/>
      <sparseX i="890" alpha="165337.22074364682" sparseCutoff="1.0000000000000000"/>
      <sparseX i="891" alpha="998412.13556119497" sparseCutoff="1.0000000000000000"/>
      <sparseX i="892" alpha="-1810948.1070566443" sparseCutoff="1.0000000000000000"/>
      <sparseX i="893" alpha="-1376324.3477496863" sparseCutoff="1.0000000000000000"/>
      <sparseX i="894" alpha="1090863.2670456525" sparseCutoff="1.0000000000000000"/>
      <sparseX i="895" alpha="-119896.09799968176" sparseCutoff="1.0000000000000000"/>
      <sparseX i="896" alpha="553508.61462410574" sparseCutoff="1.0000000000000000"/>
      <sparseX i="897" alpha="-122121.16698306829" sparseCutoff="1.0000000000000000"/>
      <sparseX i="898" alpha="-488472.24800170260" sparseCutoff="1.0000000000000000"/>
      <sparseX i="899" alpha="1502937.3832159694" sparseCutoff="1.0000000000000000"/>
      <sparseX i="900" alpha="445459.33610526670" sparseCutoff="1.0000000000000000"/>
      <sparseX i="901" alpha="-1195013.6889734895" sparseCutoff="1.0000000000000000"/>
      <sparseX i="902" alpha="1413013.3005176191" sparseCutoff="1.0000000000000000"/>
      <sparseX i="903" alpha="-338107.35743097705" sparseCutoff="1.0000000000000000"/>
      <sparseX i="904" alpha="-566436.57046632981" sparseCutoff="1.0000000000000000"/>
      <sparseX i="905" alpha="68745.506856634835" sparseCutoff="1.0000000000000000"/>
      <sparseX i="906" alpha="238826.52608794501" sparseCutoff="1.0000000000000000"/>
      <sparseX i="907" alpha="-390170.04707036540" sparseCutoff="1.0000000000000000"/>
      <sparseX i="908" alpha="-71767.054776035933" sparseCutoff="1.0000000000000000"/>
      <sparseX i="909" alpha="-163419.61149149516" sparseCutoff="1.0000000000000000"/>
      <sparseX i="910" alpha="1026619.5874723172" sparseCutoff="1.0000000000000000"/>
      <sparseX i="911" alpha="236942.27999620695" sparseCutoff="1.0000000000000000"/>
      <sparseX i="912" alpha="-578192.65928436292" sparseCutoff="1.0000000000000000"/>
      <sparseX i="913" alpha="1499320.7812079366" sparseCutoff="1.0000000000000000"/>
      <sparseX i="914" alpha="-264608.42043684924" sparseCutoff="1.0000000000000000"/>
      <sparseX i="915" alpha="2094924.6378325711" sparseCutoff="1.0000000000000000"/>
      <sparseX i="916" alpha="141793.81899009229" sparseCutoff="1.0000000000000000"/>
      <sparseX i="917" alpha="906369.91982449300" sparseCutoff="1.0000000000000000"/>
      <sparseX i="918" alpha="-286914.13375847647" sparseCutoff="1.0000000000000000"/>
      <sparseX i="919" alpha="-1091154.9657011670" sparseCutoff="1.0000000000000000"/>
      <sparseX i="920" alpha="-517252.22939971066" sparseCutoff="1.0000000000000000"/>
      <sparseX i="921" alpha="-729069.67251919163" sparseCutoff="1.0000000000000000"/>
      <sparseX i="922" alpha="2051974.9249904081" sparseCutoff="1.0000000000000000"/>
      <sparseX i="923" alpha="503178.10724344582" sparseCutoff="1.0000000000000000"/>
      <sparseX i="924" alpha="-64349.360568191332" sparseCutoff="1.0000000000000000"/>
      <sparseX i="925" alpha="-579491.64408344938" sparseCutoff="1.0000000000000000"/>
      <sparseX i="926" alpha="1723375.4819369649" sparseCutoff="1.0000000000000000"/>
      <sparseX i="927" alpha="6945.1652439516502" sparseCutoff="1.0000000000000000"/>
      <sparseX i="928" alpha="-96123.327710872327" sparseCutoff="1.0000000000000000"/>
      <sparseX i="929" alpha="392526.33977049397" sparseCutoff="1.0000000000000000"/>
      <sparseX i="930" alpha="498853.69956654025" sparseCutoff="1.0000000000000000"/>
      <sparseX i="931" alpha="-822777.40020683908" sparseCutoff="1.0000000000000000"/>
      <sparseX i="932" alpha="-850970.18032343371" sparseCutoff="1.0000000000000000"/>
      <sparseX i="933" alpha="3986659.7259320514" sparseCutoff="1.0000000000000000"/>
      <sparseX i="934" alpha="2067756.6157492066" sparseCutoff="1.0000000000000000"/>
      <sparseX i="935" alpha="534520.15134601458" sparseCutoff="1.0000000000000000"/>
      <sparseX i="936" alpha="1152615.6499715934" sparseCutoff="1.0000000000000000"/>
      <sparseX i="937" alpha="363506.73601656657" sparseCutoff="1.0000000000000000"/>
      <sparseX i="938" alpha="-3228640.9222039143" sparseCutoff="1.0000000000000000"/>
      <sparseX i="939" alpha="-2392489.2723093112" sparseCutoff="1.0000000000000000"/>
      <sparseX i="940" alpha="526153.93000833504" sparseCutoff="1.0000000000000000"/>
      <sparseX i="941" alpha="465721.43929791078" sparseCutoff="1.0000000000000000"/>
      <sparseX i="942" alpha="737085.17307440063" sparseCutoff="1.0000000000000000"/>
      <sparseX i="943" alpha="158437.67245681345" sparseCutoff="1.0000000000000000"/>
      <sparseX i="944" alpha="514800.08056260709" sparseCutoff="1.0000000000000000"/>
      <sparseX i="945" alpha="-83811.625804144656" sparseCutoff="1.0000000000000000"/>
      <sparseX i="946" alpha="-1236672.1453990452" sparseCutoff="1.0000000000000000"/>
      <sparseX i="947" alpha="985081.04075143428" sparseCutoff="1.0000000000000000"/>
      <sparseX i="948" alpha="-4918421.4265211066" sparseCutoff="1.0000000000000000"/>
      <sparseX i="949" alpha="-1100129.2251538367" sparseCutoff="1.0000000000000000"/>
      <sparseX i="950" alpha="1733150.2592550348" sparseCutoff="1.0000000000000000"/>
      <sparseX i="951" alpha="-2228308.0120546753" sparseCutoff="1.0000000000000000"/>
      <sparseX i="952" alpha="-458418.98692850571" sparseCutoff="1.0000000000000000"/>
      <sparseX i="953" alpha="-1893.0173878011008" sparseCutoff="1.0000000000000000"/>
      <sparseX i="954" alpha="431429.94145412289" sparseCutoff="1.0000000000000000"/>
      <sparseX i="955" alpha="304547.68179847853" sparseCutoff="1.0000000000000000"/>
      <sparseX i="956" alpha="532783.23268392286" sparseCutoff="1.0000000000000000"/>
      <sparseX i="957" alpha="-35854.737968468689" sparseCutoff="1.0000000000000000"/>
      <sparseX i="958" alpha="424201.04781234515" sparseCutoff="1.0000000000000000"/>
      <sparseX i="959" alpha="701432.78246742487" sparseCutoff="1.0000000000000000"/>
      <sparseX i="960" alpha="133182.44486848533" sparseCutoff="1.0000000000000000"/>
      <sparseX i="961" alpha="1247672.3537551495" sparseCutoff="1.0000000000000000"/>
      <sparseX i="962" alpha="288511.36080744135" sparseCutoff="1.0000000000000000"/>
      <sparseX i="963" alpha="146719.41153984633" sparseCutoff="1.0000000000000000"/>
      <sparseX i="964" alpha="4435.1239361138560" sparseCutoff="1.0000000000000000"/>
      <sparseX i="965" alpha="-75844.299743480384" sparseCutoff="1.0000000000000000"/>
      <sparseX i="966" alpha="484382.51754255575" sparseCutoff="1.0000000000000000"/>
      <sparseX i="967" alpha="-1093268.7318987774" sparseCutoff="1.0000000000000000"/>
      <sparseX i="968" alpha="660648.07551935606" sparseCutoff="1.0000000000000000"/>
      <sparseX i="969" alpha="-1464491.0837173427" sparseCutoff="1.0000000000000000"/>
      <sparseX i="970" alpha="5132442.9225039128" sparseCutoff="1.0000000000000000"/>
      <sparseX i="971" alpha="1211338.2316477306" sparseCutoff="1.0000000000000000"/>
      <sparseX i="972" alpha="1755107.9246270468" sparseCutoff="1.0000000000000000"/>
      <sparseX i="973" alpha="831170.44880392961" sparseCutoff="1.0000000000000000"/>
      <sparseX i="974" alpha="1392000.6733611878" sparseCutoff="1.0000000000000000"/>
      <sparseX i="975" alpha="-499774.75148877146" sparseCutoff="1.0000000000000000"/>
      <sparseX i="976" alpha="-385088.57086647040" sparseCutoff="1.0000000000000000"/>
      <sparseX i="977" alpha="-2996354.8750806423" sparseCutoff="1.0000000000000000"/>
      <sparseX i="978" alpha="-74411.614681787978" sparseCutoff="1.0000000000000000"/>
      <sparseX i="979" alpha="574552.22702522494" sparseCutoff="1.0000000000000000"/>
      <sparseX i="980" alpha="-364979.88356203545" sparseCutoff="1.0000000000000000"/>
      <sparseX i="981" alpha="-568201.31479580712" sparseCutoff="1.0000000000000000"/>
      <sparseX i="982" alpha="434414.71806041372" sparseCutoff="1.0000000000000000"/>
      <sparseX i="983" alpha="-902725.85378245590" sparseCutoff="1.0000000000000000"/>
      <sparseX i="984" alpha="-274630.76871048723" sparseCutoff="1.0000000000000000"/>
      <sparseX i="985" alpha="-497457.06951096677" sparseCutoff="1.0000000000000000"/>
      <sparseX i="986" alpha="-1747118.6497782161" sparseCutoff="1.0000000000000000"/>
      <sparseX i="987" alpha="-1228087.8128728110" sparseCutoff="1.0000000000000000"/>
      <sparseX i="988" alpha="416502.58392303227" sparseCutoff="1.0000000000000000"/>
      <sparseX i="989" alpha="300462.50837911660" sparseCutoff="1.0000000000000000"/>
      <sparseX i="990" alpha="861439.62771314848" sparseCutoff="1.0000000000000000"/>
      <sparseX i="991" alpha="255687.24993877026" sparseCutoff="1.0000000000000000"/>
      <sparseX i="992" alpha="432703.61465495097" sparseCutoff="1.0000000000000000"/>
      <sparseX i="993" alpha="289567.76859070943" sparseCutoff="1.0000000000000000"/>
      <sparseX i="994" alpha="-45652.101639386485" sparseCutoff="1.0000000000000000"/>
      <sparseX i="995" alpha="-1507686.7366176061" sparseCutoff="1.0000000000000000"/>
      <sparseX i="996" alpha="523074.13846537465" sparseCutoff="1.0000000000000000"/>
      <sparseX i="997" alpha="-648536.13582330942" sparseCutoff="1.0000000000000000"/>
      <sparseX i="998" alpha="-547045.73045987880" sparseCutoff="1.0000000000000000"/>
      <sparseX i="999" alpha="-815020.73414559069" sparseCutoff="1.0000000000000000"/>
      <sparseX i="1000" alpha="362546.55337792891" sparseCutoff="1.0000000000000000"/>
      <sparseX i="1001" alpha="3024660.2276529972" sparseCutoff="1.0000000000000000"/>
      <sparseX i="1002" alpha="407165.20818071155" sparseCutoff="1.0000000000000000"/>
      <sparseX i="1003" alpha="-1974378.4371089777" sparseCutoff="1.0000000000000000"/>
      <sparseX i="1004" alpha="-120988.64703021283" sparseCutoff="1.0000000000000000"/>
      <sparseX i="1005" alpha="1246544.6925047445" sparseCutoff="1.0000000000000000"/>
      <sparseX i="1006" alpha="-257248.04151960724" sparseCutoff="1.0000000000000000"/>
      <sparseX i="1007" alpha="-77599.845811848267" sparseCutoff="1.0000000000000000"/>
      <sparseX i="1008" alpha="-137769.98875871112" sparseCutoff="1.0000000000000000"/>
      <sparseX i="1009" alpha="234518.81486098355" sparseCutoff="1.0000000000000000"/>
      <sparseX i="1010" alpha="-98019.378431353092" sparseCutoff="1.0000000000000000"/>
      <sparseX i="1011" alpha="18430.206746841130" sparseCutoff="1.0000000000000000"/>
      <sparseX i="1012" alpha="35700.490713555286" sparseCutoff="1.0000000000000000"/>
      <sparseX i="1013" alpha="1523741.3454784919" sparseCutoff="1.0000000000000000"/>
      <sparseX i="1014" alpha="1057633.7578782481" sparseCutoff="1.0000000000000000"/>
      <sparseX i="1015" alpha="-182648.29974764417" sparseCutoff="1.0000000000000000"/>
      <sparseX i="1016" alpha="101017.61771195188" sparseCutoff="1.0000000000000000"/>
      <sparseX i="1017" alpha="-1016054.0095868394" sparseCutoff="1.0000000000000000"/>
      <sparseX i="1018" alpha="2295699.5908946474" sparseCutoff="1.0000000000000000"/>
      <sparseX i="1019" alpha="1058080.3981547072" sparseCutoff="1.0000000000000000"/>
      <sparseX i="1020" alpha="-348199.80483156239" sparseCutoff="1.0000000000000000"/>
      <sparseX i="1021" alpha="61201.428208813741" sparseCutoff="1.0000000000000000"/>
      <sparseX i="1022" alpha="305157.51032542926" sparseCutoff="1.0000000000000000"/>
      <sparseX i="1023" alpha="-1134071.6888405788" sparseCutoff="1.0000000000000000"/>
      <sparseX i="1024" alpha="1028023.0908267754" sparseCutoff="1.0000000000000000"/>
      <sparseX i="1025" alpha="3022425.6341930474" sparseCutoff="1.0000000000000000"/>
      <sparseX i="1026" alpha="-37392.282364834180" sparseCutoff="1.0000000000000000"/>
      <sparseX i="1027" alpha="-1065067.6417641868" sparseCutoff="1.0000000000000000"/>
      <sparseX i="1028" alpha="4531.9603542878322" sparseCutoff="1.0000000000000000"/>
      <sparseX i="1029" alpha="-792238.66926920239" sparseCutoff="1.0000000000000000"/>
      <sparseX i="1030" alpha="2877487.9030130249" sparseCutoff="1.0000000000000000"/>
      <sparseX i="1031" alpha="-227536.95294338567" sparseCutoff="1.0000000000000000"/>
      <sparseX i="1032" alpha="82116.379754698530" sparseCutoff="1.0000000000000000"/>
      <sparseX i="1033" alpha="66306.038887040515" sparseCutoff="1.0000000000000000"/>
      <sparseX i="1034" alpha="-759066.85092618875" sparseCutoff="1.0000000000000000"/>
      <sparseX i="1035" alpha="-2232048.8197807651" sparseCutoff="1.0000000000000000"/>
      <sparseX i="1036" alpha="143592.61889769277" sparseCutoff="1.0000000000000000"/>
      <sparseX i="1037" alpha="-1008173.7240760108" sparseCutoff="1.0000000000000000"/>
      <sparseX i="1038" alpha="234128.68068086694" sparseCutoff="1.0000000000000000"/>
      <sparseX i="1039" alpha="1955894.2128591917" sparseCutoff="1.0000000000000000"/>
      <sparseX i="1040" alpha="-991175.97515896056" sparseCutoff="1.0000000000000000"/>
      <sparseX i="1041" alpha="-577911.94960593944" sparseCutoff="1.0000000000000000"/>
      <sparseX i="1042" alpha="-950169.83210141503" sparseCutoff="1.0000000000000000"/>
