elements: [Fe]
E0: [0]
deltaSplineBins: 0.001
embeddings:
  0: {ndensity: 1, FS_parameters: [1, 1], npoti: FinnisSinclairShiftedScaled, rho_core_cutoff: 100000, drho_core_cutoff: 250}
bonds:
  [0, 0]: {nradmax: 6, lmax: 3, nradbasemax: 13, radbasename: SBessel, radparameters: [5.25], radcoefficients: [[[1.0161995887891315, 0.12522599105845869, -0.28688888737989554, -0.20618304438655147, 0.27821896922350997, -0.01256666849549571, 0.0013049400180399295, 0.21288061957611884, -0.3735773658234961, 0.33741133927734246, -0.27025125669517547, 0.18036235349731722, -0.082896967515546954], [0.82568250037074176, -0.42165089355655011, 0.10823193758739932, -0.02076048107118586, 0.019602673014832553, 0.21488989517826187, -0.32910212753701196, 0.27362891670503497, -0.11843356077098637, 0.10861091744480368, -0.059137487374067266, 0.0016187934998605773, 0.038950550122196836], [0.75395485826204089, -0.12909437123138423, 0.23031816584409437, -0.193241558545444, -0.011345687757002083, 0.24438503266048844, -0.29520666924809125, 0.17444329561235461, -0.050966955920414204, -0.11178817605677617, 0.20256583805752826, -0.13075702372671158, 0.031909794681898397], [0.81349684190550142, -0.098660153421237545, -0.099145710236395665, 0.044273633884699765, -0.037740695472288519, -0.30270518870072605, 0.23770336142803053, 0.071458640210483579, -0.25299237708267097, 0.29404086177073507, -0.18645410114092092, 0.16336676629869251, -0.083324223478267359]], [[0.33547105431730051, 0.93652306093501225, -0.77134635717489886, -0.12940274071013569, 0.42317003197641689, -0.14534209422705704, 0.15782873996436078, 0.017350983260465868, -0.19672240191836354, 0.19136272967841553, -0.16957078290236668, 0.15130991574944422, -0.082384277134012002], [-0.10372672487005685, 1.0124544553438624, -0.082176318581902066, -0.13615262765302011, 0.15977101999037854, 0.37050118234268553, 0.053494284176704189, -0.13015037388220818, 0.32834126929659885, -0.21504344741941622, 0.039274323883519487, 0.14827790848418981, -0.056751627465749195], [-0.13700684518371437, 0.75754865769921564, -0.20773211286369819, 0.020561240737311717, 0.055509286623048354, -0.020302938314540553, -0.1007307483034951, 0.033022843300818956, 0.14671205509043725, -0.44676179176269837, 0.37819936196310316, -0.17710144977451464, 0.042420524270433468], [0.11555470765554043, 1.0903916529963602, -0.077785904439594891, -0.28840060308033943, -0.16047541349546401, 0.15290412894755506, -0.040146763395815917, -0.20354766929130513, -0.16573789238554568, -0.30015291871709232, 0.051734358210429585, 0.10708572027374794, -0.13036392576025049]], [[0.58414585204668013, -0.29244817305910503, 0.49935997058888099, -0.0034608963657120633, -0.024595674842124431, 0.38171853601117911, -0.18015896959693495, -0.055377613341598887, 0.35255971850524898, -0.3545947070048262, 0.24787042945323853, -0.16464729341551926, 0.044859854441382831], [-0.050032971364937652, -0.21834896743445692, 0.95782192567674196, -0.13786137394018269, -0.12091300749376249, 0.21089521364911032, 0.047487152716373604, 0.10314106025965419, 0.076665208859843625, 0.088769720571393013, -0.42684402316588715, 0.079250483365534752, 0.064127653574582472], [0.029613951776288699, -0.26264666273984755, 0.82528195229924728, 0.15269684283415666, 0.036982369151309855, -0.18227504343156725, 0.10132383371661385, 0.25395605838300511, -0.54359658531087462, -0.32701888110902982, 0.16393636064141148, -0.20519885851601694, 0.16334480840946947], [0.0017884753970359543, 0.031160500585520633, 0.93791540482225932, -0.15036037236780309, -0.021640268779114472, 0.18868087906815453, 0.22239356505656749, -0.0017809430126519759, -0.14648429465945567, 0.1053733776955085, 0.23862820353274206, -0.30618890314637975, 0.081438365760570189]], [[0.03361528160016472, 0.10901729853839, 0.13348822215032397, 0.80068321006132948, -0.16951186500472606, 0.05395612647682177, 0.092937985376535442, 0.2625945427853838, 0.089203426515242476, -0.09280170874508098, -0.15300893861264531, 0.15020315255099734, -0.10244263576864339], [0.034239160104497915, -0.12071310794373211, -0.1296092416966875, 0.88232191787329517, -0.44938394592250364, -0.12838371607474491, 0.26539326195255736, -0.086383824475049345, 0.31148438754979935, 0.024594756696122034, -0.4735615820234978, -0.038507212605957311, 0.18669214554886907], [-0.15246952001376857, 0.11730599261583041, -0.076598686595818297, 0.72033068431002256, 0.32521611938570127, 0.14341900115145034, -0.365375585137722, -0.22879966029332999, -0.21950587213975051, -0.060754007088075115, -0.28973442354965967, -0.34161180427969379, 0.58051003401726298], [-0.027727118434663137, -0.031791286626800933, -0.0074524312318211862, 0.9999479282344792, -0.0058198442783283684, 0.17481605272253159, 0.32228077988776782, 0.111747790276628, 0.18220683603828552, 0.25075087312000083, -0.35875160144261592, -0.13551338309851252, -0.067128464581619002]], [[-0.011233123873142788, 0.062977309254845543, 0.10274341803565859, -0.044047180898195828, 0.79047322604236891, -0.12636955313798659, -0.05143983482562188, 0.064498318123687073, 0.30203272568055828, -0.099419218107082763, -0.27896577834701908, 0.27753534632231713, -0.098114924811252779], [-0.10296559468503738, -0.0063298324079961157, -0.084486846276399019, -0.15183411048584849, 0.9657685914573495, -0.1178978497302797, -0.18554803848091633, -0.062143198164865993, 0.24243903179517617, 0.15296621800677579, -0.4422471596822885, -0.089765389290048916, 0.33165050027485365], [-0.045683263384680581, 0.14584832924188024, 0.053329867328904171, -0.32467724645602725, 0.86043876740455494, 0.13079685849671652, -0.36334683239463789, -0.46582411102476773, 0.098957848159131556, 0.14063344520643278, -0.20774705068724802, -0.3702633255962659, 0.52007202860172597], [0.053994195639009909, 0.030917920314023475, 0.025137441851639925, 0.010400639041870734, 0.95541553394307166, -0.023096702982752845, -0.087433860054610554, -0.11454810162609995, 0.062160999404853659, -0.11682791272030868, -0.40374097828605437, -0.19139872947411368, 0.044243377356991812]], [[-0.043152813923758443, 0.047059879789415185, 0.087001478195444015, -0.12735775227193546, -0.20848258595925184, 0.95986733580930106, -0.11899804342287308, -0.28974435711270091, 0.064942465502385346, 0.08847643421984909, -0.29543069052792881, 0.22648171526550584, -0.12577119757077831], [-0.091597753206889815, -0.090237260697904748, 0.017650818254571883, -0.038283632865855205, -0.045806755983931233, 0.99979203100303538, -0.22391022959517737, -0.15592744213257997, 0.11183449495538277, -0.045676419129205288, -0.16596916193282896, -0.047963186028584931, 0.16886523540391934], [0.12487237456158515, 0.23750681893635123, -0.04945213775364582, -0.091287913652781244, 0.014730464395597201, 0.91674317105180059, 0.078775801818704985, -0.27014137494837465, -0.35601005094432536, 0.3074895391400756, -0.16079524064198297, -0.1825473305144816, 0.10157703932611138], [0, 0, 0, 0, 0, 1, 0, 0, 0, 0, 0, 0, 0]]], prehc: 0, lambdahc: 0, rcut: 6.5, dcut: 0.01, rcut_in: 0, dcut_in: 0, inner_cutoff_type: distance}
functions:
  0:
    - {mu0: 0, rank: 1, ndensity: 1, num_ms_combs: 1, mus: [0], ns: [1], ls: [0], ms_combs: [0], ctildes: [-0.74980586747300337]}
    - {mu0: 0, rank: 1, ndensity: 1, num_ms_combs: 1, mus: [0], ns: [2], ls: [0], ms_combs: [0], ctildes: [-0.59507463918533576]}
    - {mu0: 0, rank: 1, ndensity: 1, num_ms_combs: 1, mus: [0], ns: [3], ls: [0], ms_combs: [0], ctildes: [0.35993784024212949]}
    - {mu0: 0, rank: 1, ndensity: 1, num_ms_combs: 1, mus: [0], ns: [4], ls: [0], ms_combs: [0], ctildes: [-0.094667147002938906]}
    - {mu0: 0, rank: 1, ndensity: 1, num_ms_combs: 1, mus: [0], ns: [5], ls: [0], ms_combs: [0], ctildes: [-0.37247865001374481]}
    - {mu0: 0, rank: 1, ndensity: 1, num_ms_combs: 1, mus: [0], ns: [6], ls: [0], ms_combs: [0], ctildes: [0.17240755500680396]}
    - {mu0: 0, rank: 1, ndensity: 1, num_ms_combs: 1, mus: [0], ns: [7], ls: [0], ms_combs: [0], ctildes: [-0.22985331788728416]}
    - {mu0: 0, rank: 1, ndensity: 1, num_ms_combs: 1, mus: [0], ns: [8], ls: [0], ms_combs: [0], ctildes: [0.015026333700854438]}
    - {mu0: 0, rank: 1, ndensity: 1, num_ms_combs: 1, mus: [0], ns: [9], ls: [0], ms_combs: [0], ctildes: [0.0010467817060861833]}
    - {mu0: 0, rank: 1, ndensity: 1, num_ms_combs: 1, mus: [0], ns: [10], ls: [0], ms_combs: [0], ctildes: [-0.071287187807980226]}
    - {mu0: 0, rank: 1, ndensity: 1, num_ms_combs: 1, mus: [0], ns: [11], ls: [0], ms_combs: [0], ctildes: [0.13087115500385563]}
    - {mu0: 0, rank: 1, ndensity: 1, num_ms_combs: 1, mus: [0], ns: [12], ls: [0], ms_combs: [0], ctildes: [-0.059868685714592064]}
    - {mu0: 0, rank: 1, ndensity: 1, num_ms_combs: 1, mus: [0], ns: [13], ls: [0], ms_combs: [0], ctildes: [0.03922484333090985]}
    - {mu0: 0, rank: 2, ndensity: 1, num_ms_combs: 1, mus: [0, 0], ns: [1, 1], ls: [0, 0], ms_combs: [0, 0], ctildes: [-0.17677831571384725]}
    - {mu0: 0, rank: 2, ndensity: 1, num_ms_combs: 2, mus: [0, 0], ns: [1, 1], ls: [1, 1], ms_combs: [0, 0, 1, -1], ctildes: [-0.025003723987964927, 0.050007447975929847]}
    - {mu0: 0, rank: 2, ndensity: 1, num_ms_combs: 3, mus: [0, 0], ns: [1, 1], ls: [2, 2], ms_combs: [0, 0, 1, -1, 2, -2], ctildes: [-0.13851560524230461, 0.27703121048460927, -0.27703121048460932]}
    - {mu0: 0, rank: 2, ndensity: 1, num_ms_combs: 4, mus: [0, 0], ns: [1, 1], ls: [3, 3], ms_combs: [0, 0, 1, -1, 2, -2, 3, -3], ctildes: [0.031141993140785324, -0.062283986281570648, 0.062283986281570641, -0.062283986281570641]}
    - {mu0: 0, rank: 2, ndensity: 1, num_ms_combs: 1, mus: [0, 0], ns: [1, 2], ls: [0, 0], ms_combs: [0, 0], ctildes: [-0.4769577798203628]}
    - {mu0: 0, rank: 2, ndensity: 1, num_ms_combs: 2, mus: [0, 0], ns: [1, 2], ls: [1, 1], ms_combs: [0, 0, 1, -1], ctildes: [-0.15783010098893738, 0.3156602019778747]}
    - {mu0: 0, rank: 2, ndensity: 1, num_ms_combs: 3, mus: [0, 0], ns: [1, 2], ls: [2, 2], ms_combs: [0, 0, 1, -1, 2, -2], ctildes: [-0.18778411603601186, 0.37556823207202378, -0.37556823207202383]}
    - {mu0: 0, rank: 2, ndensity: 1, num_ms_combs: 4, mus: [0, 0], ns: [1, 2], ls: [3, 3], ms_combs: [0, 0, 1, -1, 2, -2, 3, -3], ctildes: [-0.06482347460386248, 0.12964694920772496, -0.12964694920772496, 0.12964694920772496]}
    - {mu0: 0, rank: 2, ndensity: 1, num_ms_combs: 1, mus: [0, 0], ns: [1, 3], ls: [0, 0], ms_combs: [0, 0], ctildes: [0.32876582696173984]}
    - {mu0: 0, rank: 2, ndensity: 1, num_ms_combs: 2, mus: [0, 0], ns: [1, 3], ls: [1, 1], ms_combs: [0, 0, 1, -1], ctildes: [0.1371878676109593, -0.27437573522191855]}
    - {mu0: 0, rank: 2, ndensity: 1, num_ms_combs: 3, mus: [0, 0], ns: [1, 3], ls: [2, 2], ms_combs: [0, 0, 1, -1, 2, -2], ctildes: [-0.0050626752832601618, 0.010125350566520325, -0.010125350566520327]}
    - {mu0: 0, rank: 2, ndensity: 1, num_ms_combs: 4, mus: [0, 0], ns: [1, 3], ls: [3, 3], ms_combs: [0, 0, 1, -1, 2, -2, 3, -3], ctildes: [0.024816364451070386, -0.049632728902140773, 0.049632728902140759, -0.049632728902140759]}
    - {mu0: 0, rank: 2, ndensity: 1, num_ms_combs: 1, mus: [0, 0], ns: [1, 4], ls: [0, 0], ms_combs: [0, 0], ctildes: [-0.075552670478702455]}
    - {mu0: 0, rank: 2, ndensity: 1, num_ms_combs: 2, mus: [0, 0], ns: [1, 4], ls: [1, 1], ms_combs: [0, 0, 1, -1], ctildes: [0.038137282295243338, -0.076274564590486663]}
    - {mu0: 0, rank: 2, ndensity: 1, num_ms_combs: 3, mus: [0, 0], ns: [1, 4], ls: [2, 2], ms_combs: [0, 0, 1, -1, 2, -2], ctildes: [0.11173495043844847, -0.22346990087689697, 0.22346990087689703]}
    - {mu0: 0, rank: 2, ndensity: 1, num_ms_combs: 4, mus: [0, 0], ns: [1, 4], ls: [3, 3], ms_combs: [0, 0, 1, -1, 2, -2, 3, -3], ctildes: [-0.02833026333842421, 0.05666052667684842, -0.056660526676848413, 0.056660526676848413]}
    - {mu0: 0, rank: 2, ndensity: 1, num_ms_combs: 1, mus: [0, 0], ns: [1, 5], ls: [0, 0], ms_combs: [0, 0], ctildes: [-0.033529452798945654]}
    - {mu0: 0, rank: 2, ndensity: 1, num_ms_combs: 2, mus: [0, 0], ns: [1, 5], ls: [1, 1], ms_combs: [0, 0, 1, -1], ctildes: [-0.27965936718817402, 0.55931873437634794]}
    - {mu0: 0, rank: 2, ndensity: 1, num_ms_combs: 3, mus: [0, 0], ns: [1, 5], ls: [2, 2], ms_combs: [0, 0, 1, -1, 2, -2], ctildes: [-0.072213614320179476, 0.14442722864035895, -0.14442722864035898]}
    - {mu0: 0, rank: 2, ndensity: 1, num_ms_combs: 4, mus: [0, 0], ns: [1, 5], ls: [3, 3], ms_combs: [0, 0, 1, -1, 2, -2, 3, -3], ctildes: [0.024458752208377559, -0.048917504416755117, 0.04891750441675511, -0.04891750441675511]}
    - {mu0: 0, rank: 2, ndensity: 1, num_ms_combs: 1, mus: [0, 0], ns: [1, 6], ls: [0, 0], ms_combs: [0, 0], ctildes: [0.079137308414747337]}
    - {mu0: 0, rank: 2, ndensity: 1, num_ms_combs: 2, mus: [0, 0], ns: [1, 6], ls: [1, 1], ms_combs: [0, 0, 1, -1], ctildes: [-0.074507691264172463, 0.1490153825283449]}
    - {mu0: 0, rank: 2, ndensity: 1, num_ms_combs: 3, mus: [0, 0], ns: [1, 6], ls: [2, 2], ms_combs: [0, 0, 1, -1, 2, -2], ctildes: [-0.073981383939809645, 0.14796276787961929, -0.14796276787961934]}
    - {mu0: 0, rank: 2, ndensity: 1, num_ms_combs: 1, mus: [0, 0], ns: [2, 2], ls: [0, 0], ms_combs: [0, 0], ctildes: [-0.38337476116889335]}
    - {mu0: 0, rank: 2, ndensity: 1, num_ms_combs: 2, mus: [0, 0], ns: [2, 2], ls: [1, 1], ms_combs: [0, 0, 1, -1], ctildes: [-0.10944402510801658, 0.21888805021603314]}
    - {mu0: 0, rank: 2, ndensity: 1, num_ms_combs: 3, mus: [0, 0], ns: [2, 2], ls: [2, 2], ms_combs: [0, 0, 1, -1, 2, -2], ctildes: [0.045785448655791004, -0.091570897311582009, 0.091570897311582036]}
    - {mu0: 0, rank: 2, ndensity: 1, num_ms_combs: 4, mus: [0, 0], ns: [2, 2], ls: [3, 3], ms_combs: [0, 0, 1, -1, 2, -2, 3, -3], ctildes: [-0.0043862209786777019, 0.0087724419573554039, -0.0087724419573554039, 0.0087724419573554039]}
    - {mu0: 0, rank: 2, ndensity: 1, num_ms_combs: 1, mus: [0, 0], ns: [2, 3], ls: [0, 0], ms_combs: [0, 0], ctildes: [0.1125181131952234]}
    - {mu0: 0, rank: 2, ndensity: 1, num_ms_combs: 2, mus: [0, 0], ns: [2, 3], ls: [1, 1], ms_combs: [0, 0, 1, -1], ctildes: [0.16264477086642568, -0.32528954173285124]}
    - {mu0: 0, rank: 2, ndensity: 1, num_ms_combs: 3, mus: [0, 0], ns: [2, 3], ls: [2, 2], ms_combs: [0, 0, 1, -1, 2, -2], ctildes: [0.070387195355767623, -0.14077439071153527, 0.1407743907115353]}
    - {mu0: 0, rank: 2, ndensity: 1, num_ms_combs: 4, mus: [0, 0], ns: [2, 3], ls: [3, 3], ms_combs: [0, 0, 1, -1, 2, -2, 3, -3], ctildes: [-0.0014603608169764992, 0.0029207216339529984, -0.002920721633952998, 0.002920721633952998]}
    - {mu0: 0, rank: 2, ndensity: 1, num_ms_combs: 1, mus: [0, 0], ns: [2, 4], ls: [0, 0], ms_combs: [0, 0], ctildes: [0.040921234995326426]}
    - {mu0: 0, rank: 2, ndensity: 1, num_ms_combs: 2, mus: [0, 0], ns: [2, 4], ls: [1, 1], ms_combs: [0, 0, 1, -1], ctildes: [-0.088611478944597963, 0.1772229578891959]}
    - {mu0: 0, rank: 2, ndensity: 1, num_ms_combs: 3, mus: [0, 0], ns: [2, 4], ls: [2, 2], ms_combs: [0, 0, 1, -1, 2, -2], ctildes: [-0.16450479981895841, 0.32900959963791687, -0.32900959963791693]}
    - {mu0: 0, rank: 2, ndensity: 1, num_ms_combs: 4, mus: [0, 0], ns: [2, 4], ls: [3, 3], ms_combs: [0, 0, 1, -1, 2, -2, 3, -3], ctildes: [-0.0064199292863167008, 0.012839858572633402, -0.0128398585726334, 0.0128398585726334]}
    - {mu0: 0, rank: 2, ndensity: 1, num_ms_combs: 1, mus: [0, 0], ns: [2, 5], ls: [0, 0], ms_combs: [0, 0], ctildes: [0.028779350836227124]}
    - {mu0: 0, rank: 2, ndensity: 1, num_ms_combs: 2, mus: [0, 0], ns: [2, 5], ls: [1, 1], ms_combs: [0, 0, 1, -1], ctildes: [0.065520274891752633, -0.13104054978350524]}
    - {mu0: 0, rank: 2, ndensity: 1, num_ms_combs: 3, mus: [0, 0], ns: [2, 5], ls: [2, 2], ms_combs: [0, 0, 1, -1, 2, -2], ctildes: [0.15619759698489646, -0.31239519396979298, 0.31239519396979304]}
    - {mu0: 0, rank: 2, ndensity: 1, num_ms_combs: 1, mus: [0, 0], ns: [2, 6], ls: [0, 0], ms_combs: [0, 0], ctildes: [-0.071178542275727771]}
    - {mu0: 0, rank: 2, ndensity: 1, num_ms_combs: 2, mus: [0, 0], ns: [2, 6], ls: [1, 1], ms_combs: [0, 0, 1, -1], ctildes: [0.070131644582788435, -0.14026328916557684]}
    - {mu0: 0, rank: 2, ndensity: 1, num_ms_combs: 3, mus: [0, 0], ns: [2, 6], ls: [2, 2], ms_combs: [0, 0, 1, -1, 2, -2], ctildes: [0.026729082570641563, -0.053458165141283133, 0.053458165141283147]}
    - {mu0: 0, rank: 2, ndensity: 1, num_ms_combs: 1, mus: [0, 0], ns: [3, 3], ls: [0, 0], ms_combs: [0, 0], ctildes: [0.24991122464155244]}
    - {mu0: 0, rank: 2, ndensity: 1, num_ms_combs: 2, mus: [0, 0], ns: [3, 3], ls: [1, 1], ms_combs: [0, 0, 1, -1], ctildes: [-0.13992892120982384, 0.27985784241964762]}
    - {mu0: 0, rank: 2, ndensity: 1, num_ms_combs: 3, mus: [0, 0], ns: [3, 3], ls: [2, 2], ms_combs: [0, 0, 1, -1, 2, -2], ctildes: [-0.028321652695175496, 0.056643305390350999, -0.056643305390351013]}
    - {mu0: 0, rank: 2, ndensity: 1, num_ms_combs: 4, mus: [0, 0], ns: [3, 3], ls: [3, 3], ms_combs: [0, 0, 1, -1, 2, -2, 3, -3], ctildes: [-0.0065744852716819032, 0.013148970543363806, -0.013148970543363805, 0.013148970543363805]}
    - {mu0: 0, rank: 2, ndensity: 1, num_ms_combs: 1, mus: [0, 0], ns: [3, 4], ls: [0, 0], ms_combs: [0, 0], ctildes: [-0.028512070306544249]}
    - {mu0: 0, rank: 2, ndensity: 1, num_ms_combs: 2, mus: [0, 0], ns: [3, 4], ls: [1, 1], ms_combs: [0, 0, 1, -1], ctildes: [0.032311352999240997, -0.06462270599848198]}
    - {mu0: 0, rank: 2, ndensity: 1, num_ms_combs: 3, mus: [0, 0], ns: [3, 4], ls: [2, 2], ms_combs: [0, 0, 1, -1, 2, -2], ctildes: [0.042915531080104652, -0.085831062160209318, 0.085831062160209345]}
    - {mu0: 0, rank: 2, ndensity: 1, num_ms_combs: 1, mus: [0, 0], ns: [3, 5], ls: [0, 0], ms_combs: [0, 0], ctildes: [-0.038098562044601846]}
    - {mu0: 0, rank: 2, ndensity: 1, num_ms_combs: 2, mus: [0, 0], ns: [3, 5], ls: [1, 1], ms_combs: [0, 0, 1, -1], ctildes: [-0.074045794915941446, 0.14809158983188286]}
    - {mu0: 0, rank: 2, ndensity: 1, num_ms_combs: 3, mus: [0, 0], ns: [3, 5], ls: [2, 2], ms_combs: [0, 0, 1, -1, 2, -2], ctildes: [-0.037708197146191988, 0.07541639429238399, -0.075416394292384004]}
    - {mu0: 0, rank: 2, ndensity: 1, num_ms_combs: 1, mus: [0, 0], ns: [3, 6], ls: [0, 0], ms_combs: [0, 0], ctildes: [-0.055627057828209057]}
    - {mu0: 0, rank: 2, ndensity: 1, num_ms_combs: 2, mus: [0, 0], ns: [3, 6], ls: [1, 1], ms_combs: [0, 0, 1, -1], ctildes: [-0.12433616923907428, 0.24867233847814851]}
    - {mu0: 0, rank: 2, ndensity: 1, num_ms_combs: 1, mus: [0, 0], ns: [4, 4], ls: [0, 0], ms_combs: [0, 0], ctildes: [-0.027352029256621353]}
    - {mu0: 0, rank: 2, ndensity: 1, num_ms_combs: 2, mus: [0, 0], ns: [4, 4], ls: [1, 1], ms_combs: [0, 0, 1, -1], ctildes: [0.080923651565810578, -0.16184730313162113]}
    - {mu0: 0, rank: 2, ndensity: 1, num_ms_combs: 3, mus: [0, 0], ns: [4, 4], ls: [2, 2], ms_combs: [0, 0, 1, -1, 2, -2], ctildes: [-0.0023847809705794618, 0.0047695619411589245, -0.0047695619411589254]}
    - {mu0: 0, rank: 2, ndensity: 1, num_ms_combs: 1, mus: [0, 0], ns: [4, 5], ls: [0, 0], ms_combs: [0, 0], ctildes: [0.12736108801623131]}
    - {mu0: 0, rank: 2, ndensity: 1, num_ms_combs: 2, mus: [0, 0], ns: [4, 5], ls: [1, 1], ms_combs: [0, 0, 1, -1], ctildes: [0.053555670661668033, -0.10711134132333605]}
    - {mu0: 0, rank: 2, ndensity: 1, num_ms_combs: 1, mus: [0, 0], ns: [4, 6], ls: [0, 0], ms_combs: [0, 0], ctildes: [-0.032161290780639493]}
    - {mu0: 0, rank: 2, ndensity: 1, num_ms_combs: 2, mus: [0, 0], ns: [4, 6], ls: [1, 1], ms_combs: [0, 0, 1, -1], ctildes: [0.099030461849296786, -0.19806092369859354]}
    - {mu0: 0, rank: 2, ndensity: 1, num_ms_combs: 1, mus: [0, 0], ns: [5, 5], ls: [0, 0], ms_combs: [0, 0], ctildes: [-0.049238576697528305]}
    - {mu0: 0, rank: 2, ndensity: 1, num_ms_combs: 2, mus: [0, 0], ns: [5, 5], ls: [1, 1], ms_combs: [0, 0, 1, -1], ctildes: [0.0037108488526409011, -0.0074216977052818005]}
    - {mu0: 0, rank: 2, ndensity: 1, num_ms_combs: 1, mus: [0, 0], ns: [5, 6], ls: [0, 0], ms_combs: [0, 0], ctildes: [0.064940113920487555]}
    - {mu0: 0, rank: 2, ndensity: 1, num_ms_combs: 1, mus: [0, 0], ns: [6, 6], ls: [0, 0], ms_combs: [0, 0], ctildes: [-0.0058826101599090443]}
    - {mu0: 0, rank: 3, ndensity: 1, num_ms_combs: 1, mus: [0, 0, 0], ns: [1, 1, 1], ls: [0, 0, 0], ms_combs: [0, 0, 0], ctildes: [0.38125288766084597]}
    - {mu0: 0, rank: 3, ndensity: 1, num_ms_combs: 2, mus: [0, 0, 0], ns: [1, 1, 1], ls: [0, 1, 1], ms_combs: [0, 0, 0, 0, 1, -1], ctildes: [0.16438075877014721, -0.32876151754029437]}
    - {mu0: 0, rank: 3, ndensity: 1, num_ms_combs: 3, mus: [0, 0, 0], ns: [1, 1, 1], ls: [0, 2, 2], ms_combs: [0, 0, 0, 0, 1, -1, 0, 2, -2], ctildes: [0.09845888292138856, -0.19691776584277715, 0.1969177658427772]}
    - {mu0: 0, rank: 3, ndensity: 1, num_ms_combs: 4, mus: [0, 0, 0], ns: [1, 1, 1], ls: [0, 3, 3], ms_combs: [0, 0, 0, 0, 1, -1, 0, 2, -2, 0, 3, -3], ctildes: [-0.044882149496481734, 0.089764298992963468, -0.089764298992963454, 0.089764298992963454]}
    - {mu0: 0, rank: 3, ndensity: 1, num_ms_combs: 4, mus: [0, 0, 0], ns: [1, 1, 1], ls: [1, 1, 2], ms_combs: [-1, 1, 0, 0, 0, 0, 0, 1, -1, 1, 1, -2], ctildes: [-0.017149098690388748, -0.017149098690388744, 0.05940622047153242, -0.042006541340083685]}
    - {mu0: 0, rank: 3, ndensity: 1, num_ms_combs: 8, mus: [0, 0, 0], ns: [1, 1, 1], ls: [1, 2, 3], ms_combs: [0, 0, 0, 0, 1, -1, 0, 2, -2, 1, -2, 1, 1, -1, 0, 1, 0, -1, 1, 1, -2, 1, 2, -3], ctildes: [-0.054887314917964884, 0.10349651354563873, -0.08182117817267183, 0.036591543278643252, -0.063378412085965563, 0.089630609933643399, -0.11571261986113794, 0.14171843773021323]}
    - {mu0: 0, rank: 3, ndensity: 1, num_ms_combs: 5, mus: [0, 0, 0], ns: [1, 1, 1], ls: [2, 2, 2], ms_combs: [-2, 0, 2, -2, 1, 1, -1, -1, 2, -1, 0, 1, 0, 0, 0], ctildes: [0.27934518818157694, -0.22808439104886977, -0.11404219552443488, 0.13967259409078842, -0.046557531363596139]}
    - {mu0: 0, rank: 3, ndensity: 1, num_ms_combs: 1, mus: [0, 0, 0], ns: [1, 1, 2], ls: [0, 0, 0], ms_combs: [0, 0, 0], ctildes: [-0.11221959115550585]}
    - {mu0: 0, rank: 3, ndensity: 1, num_ms_combs: 2, mus: [0, 0, 0], ns: [1, 1, 2], ls: [0, 1, 1], ms_combs: [0, 0, 0, 0, 1, -1], ctildes: [-0.046061122839266146, 0.092122245678532277]}
    - {mu0: 0, rank: 3, ndensity: 1, num_ms_combs: 3, mus: [0, 0, 0], ns: [1, 1, 2], ls: [0, 2, 2], ms_combs: [0, 0, 0, 0, 1, -1, 0, 2, -2], ctildes: [-0.041367059625735537, 0.082734119251471089, -0.082734119251471103]}
    - {mu0: 0, rank: 3, ndensity: 1, num_ms_combs: 4, mus: [0, 0, 0], ns: [1, 1, 2], ls: [0, 3, 3], ms_combs: [0, 0, 0, 0, 1, -1, 0, 2, -2, 0, 3, -3], ctildes: [0.0068701592289101754, -0.013740318457820351, 0.013740318457820349, -0.013740318457820349]}
    - {mu0: 0, rank: 3, ndensity: 1, num_ms_combs: 2, mus: [0, 0, 0], ns: [1, 1, 2], ls: [1, 1, 0], ms_combs: [0, 0, 0, 1, -1, 0], ctildes: [0.063320659113495797, -0.12664131822699157]}
    - {mu0: 0, rank: 3, ndensity: 1, num_ms_combs: 4, mus: [0, 0, 0], ns: [1, 1, 2], ls: [1, 1, 2], ms_combs: [-1, 1, 0, 0, 0, 0, 0, 1, -1, 1, 1, -2], ctildes: [-0.083252541511952882, -0.083252541511952868, 0.28839526351587896, -0.20392624649415939]}
    - {mu0: 0, rank: 3, ndensity: 1, num_ms_combs: 5, mus: [0, 0, 0], ns: [1, 1, 2], ls: [1, 2, 1], ms_combs: [0, 0, 0, 0, 1, -1, 1, -2, 1, 1, -1, 0, 1, 0, -1], ctildes: [-0.19831823351616343, 0.34349725651730406, -0.48577847880472136, 0.34349725651730406, -0.1983182335161634]}
    - {mu0: 0, rank: 3, ndensity: 1, num_ms_combs: 8, mus: [0, 0, 0], ns: [1, 1, 2], ls: [1, 2, 3], ms_combs: [0, 0, 0, 0, 1, -1, 0, 2, -2, 1, -2, 1, 1, -1, 0, 1, 0, -1, 1, 1, -2, 1, 2, -3], ctildes: [-0.012995581216141283, 0.024504702942384056, -0.019372668670940858, 0.008663720810760854, -0.015006004626829625, 0.021221695260295874, -0.027397090773804922, 0.033554446416267404]}
    - {mu0: 0, rank: 3, ndensity: 1, num_ms_combs: 8, mus: [0, 0, 0], ns: [1, 1, 2], ls: [1, 3, 2], ms_combs: [0, 0, 0, 0, 1, -1, 0, 2, -2, 1, -3, 2, 1, -2, 1, 1, -1, 0, 1, 0, -1, 1, 1, -2], ctildes: [0.0069833035194162892, -0.013167843396435048, 0.01041009425128557, -0.018030812154807296, 0.01472209647575024, -0.011403686894367916, 0.0080636243335357148, -0.0046555356796108621]}
    - {mu0: 0, rank: 3, ndensity: 1, num_ms_combs: 3, mus: [0, 0, 0], ns: [1, 1, 2], ls: [2, 2, 0], ms_combs: [0, 0, 0, 1, -1, 0, 2, -2, 0], ctildes: [0.058268420090480326, -0.11653684018096067, 0.11653684018096069]}
    - {mu0: 0, rank: 3, ndensity: 1, num_ms_combs: 8, mus: [0, 0, 0], ns: [1, 1, 2], ls: [2, 2, 2], ms_combs: [-2, 1, 1, -2, 2, 0, -1, 1, 0, -1, 2, -1, 0, 0, 0, 0, 1, -1, 0, 2, -2, 1, 1, -2], ctildes: [0.053439659810996604, -0.043633299521619526, -0.021816649760809763, 0.053439659810996604, 0.021816649760809763, -0.043633299521619526, -0.087266599043239107, 0.053439659810996604]}
    - {mu0: 0, rank: 3, ndensity: 1, num_ms_combs: 8, mus: [0, 0, 0], ns: [1, 1, 2], ls: [2, 3, 1], ms_combs: [0, 0, 0, 0, 1, -1, 1, -2, 1, 1, -1, 0, 1, 0, -1, 2, -3, 1, 2, -2, 0, 2, -1, -1], ctildes: [0.0071935077864918387, -0.011746949025095117, 0.015165245980980282, -0.013564208363590961, 0.0083063473138974605, -0.018573557238597507, 0.010723448271513194, -0.0047956718576612238]}
    - {mu0: 0, rank: 3, ndensity: 1, num_ms_combs: 4, mus: [0, 0, 0], ns: [1, 1, 2], ls: [3, 3, 0], ms_combs: [0, 0, 0, 1, -1, 0, 2, -2, 0, 3, -3, 0], ctildes: [0.044530228178438179, -0.089060456356876358, 0.089060456356876344, -0.089060456356876344]}
    - {mu0: 0, rank: 3, ndensity: 1, num_ms_combs: 1, mus: [0, 0, 0], ns: [1, 1, 3], ls: [0, 0, 0], ms_combs: [0, 0, 0], ctildes: [0.22023600670456897]}
    - {mu0: 0, rank: 3, ndensity: 1, num_ms_combs: 2, mus: [0, 0, 0], ns: [1, 1, 3], ls: [0, 1, 1], ms_combs: [0, 0, 0, 0, 1, -1], ctildes: [-0.029674628152990351, 0.059349256305980688]}
    - {mu0: 0, rank: 3, ndensity: 1, num_ms_combs: 3, mus: [0, 0, 0], ns: [1, 1, 3], ls: [0, 2, 2], ms_combs: [0, 0, 0, 0, 1, -1, 0, 2, -2], ctildes: [0.05652268319730324, -0.11304536639460649, 0.11304536639460652]}
    - {mu0: 0, rank: 3, ndensity: 1, num_ms_combs: 2, mus: [0, 0, 0], ns: [1, 1, 3], ls: [1, 1, 0], ms_combs: [0, 0, 0, 1, -1, 0], ctildes: [0.063025504767274282, -0.12605100953454856]}
    - {mu0: 0, rank: 3, ndensity: 1, num_ms_combs: 4, mus: [0, 0, 0], ns: [1, 1, 3], ls: [1, 1, 2], ms_combs: [-1, 1, 0, 0, 0, 0, 0, 1, -1, 1, 1, -2], ctildes: [0.019065489963598383, 0.01906548996359838, -0.066044794576293822, 0.046700722106969884]}
    - {mu0: 0, rank: 3, ndensity: 1, num_ms_combs: 5, mus: [0, 0, 0], ns: [1, 1, 3], ls: [1, 2, 1], ms_combs: [0, 0, 0, 0, 1, -1, 1, -2, 1, 1, -1, 0, 1, 0, -1], ctildes: [-0.044939167807151056, 0.077836921891849278, -0.11007803059282852, 0.077836921891849278, -0.044939167807151049]}
    - {mu0: 0, rank: 3, ndensity: 1, num_ms_combs: 3, mus: [0, 0, 0], ns: [1, 1, 3], ls: [2, 2, 0], ms_combs: [0, 0, 0, 1, -1, 0, 2, -2, 0], ctildes: [0.011930544132747647, -0.023861088265495298, 0.023861088265495302]}
    - {mu0: 0, rank: 3, ndensity: 1, num_ms_combs: 1, mus: [0, 0, 0], ns: [1, 1, 4], ls: [0, 0, 0], ms_combs: [0, 0, 0], ctildes: [-0.10955812965565714]}
    - {mu0: 0, rank: 3, ndensity: 1, num_ms_combs: 2, mus: [0, 0, 0], ns: [1, 1, 4], ls: [0, 1, 1], ms_combs: [0, 0, 0, 0, 1, -1], ctildes: [0.056585890969305365, -0.11317178193861072]}
    - {mu0: 0, rank: 3, ndensity: 1, num_ms_combs: 3, mus: [0, 0, 0], ns: [1, 1, 4], ls: [0, 2, 2], ms_combs: [0, 0, 0, 0, 1, -1, 0, 2, -2], ctildes: [-0.0072362812480986378, 0.014472562496197277, -0.014472562496197281]}
    - {mu0: 0, rank: 3, ndensity: 1, num_ms_combs: 2, mus: [0, 0, 0], ns: [1, 1, 4], ls: [1, 1, 0], ms_combs: [0, 0, 0, 1, -1, 0], ctildes: [0.027864744284837321, -0.055729488569674634]}
    - {mu0: 0, rank: 3, ndensity: 1, num_ms_combs: 4, mus: [0, 0, 0], ns: [1, 1, 4], ls: [1, 1, 2], ms_combs: [-1, 1, 0, 0, 0, 0, 0, 1, -1, 1, 1, -2], ctildes: [-0.012975898919916655, -0.012975898919916653, 0.044949832406347534, -0.031784331307727176]}
    - {mu0: 0, rank: 3, ndensity: 1, num_ms_combs: 5, mus: [0, 0, 0], ns: [1, 1, 4], ls: [1, 2, 1], ms_combs: [0, 0, 0, 0, 1, -1, 1, -2, 1, 1, -1, 0, 1, 0, -1], ctildes: [0.065727268299589817, -0.11384296813760082, 0.16099826952100318, -0.11384296813760082, 0.065727268299589803]}
    - {mu0: 0, rank: 3, ndensity: 1, num_ms_combs: 3, mus: [0, 0, 0], ns: [1, 1, 4], ls: [2, 2, 0], ms_combs: [0, 0, 0, 1, -1, 0, 2, -2, 0], ctildes: [0.010006573957055566, -0.020013147914111136, 0.020013147914111139]}
    - {mu0: 0, rank: 3, ndensity: 1, num_ms_combs: 1, mus: [0, 0, 0], ns: [1, 2, 2], ls: [0, 0, 0], ms_combs: [0, 0, 0], ctildes: [-0.11006048039763122]}
    - {mu0: 0, rank: 3, ndensity: 1, num_ms_combs: 2, mus: [0, 0, 0], ns: [1, 2, 2], ls: [0, 1, 1], ms_combs: [0, 0, 0, 0, 1, -1], ctildes: [-0.05257469829001768, 0.10514939658003535]}
    - {mu0: 0, rank: 3, ndensity: 1, num_ms_combs: 3, mus: [0, 0, 0], ns: [1, 2, 2], ls: [0, 2, 2], ms_combs: [0, 0, 0, 0, 1, -1, 0, 2, -2], ctildes: [-0.064041309656081999, 0.128082619312164, -0.12808261931216405]}
    - {mu0: 0, rank: 3, ndensity: 1, num_ms_combs: 2, mus: [0, 0, 0], ns: [1, 2, 2], ls: [1, 0, 1], ms_combs: [0, 0, 0, 1, 0, -1], ctildes: [0.099185608867367978, -0.19837121773473593]}
    - {mu0: 0, rank: 3, ndensity: 1, num_ms_combs: 5, mus: [0, 0, 0], ns: [1, 2, 2], ls: [1, 1, 2], ms_combs: [0, 0, 0, 0, 1, -1, 1, -1, 0, 1, 0, -1, 1, 1, -2], ctildes: [0.0061072613916507363, -0.010578087025442886, 0.0061072613916507371, -0.010578087025442886, 0.014959674135344202]}
    - {mu0: 0, rank: 3, ndensity: 1, num_ms_combs: 3, mus: [0, 0, 0], ns: [1, 2, 2], ls: [2, 0, 2], ms_combs: [0, 0, 0, 1, 0, -1, 2, 0, -2], ctildes: [-0.039903631209781819, 0.079807262419563638, -0.079807262419563665]}
    - {mu0: 0, rank: 3, ndensity: 1, num_ms_combs: 4, mus: [0, 0, 0], ns: [1, 2, 2], ls: [2, 1, 1], ms_combs: [0, -1, 1, 0, 0, 0, 1, -1, 0, 2, -1, -1], ctildes: [-0.0015615394861628268, -0.001561539486162827, 0.0054093314561180286, -0.0038249749543067591]}
    - {mu0: 0, rank: 3, ndensity: 1, num_ms_combs: 1, mus: [0, 0, 0], ns: [1, 2, 3], ls: [0, 0, 0], ms_combs: [0, 0, 0], ctildes: [-0.15478221587998364]}
    - {mu0: 0, rank: 3, ndensity: 1, num_ms_combs: 2, mus: [0, 0, 0], ns: [1, 2, 3], ls: [0, 1, 1], ms_combs: [0, 0, 0, 0, 1, -1], ctildes: [0.18993662215009138, -0.37987324430018271]}
    - {mu0: 0, rank: 3, ndensity: 1, num_ms_combs: 3, mus: [0, 0, 0], ns: [1, 2, 3], ls: [0, 2, 2], ms_combs: [0, 0, 0, 0, 1, -1, 0, 2, -2], ctildes: [0.0010351310058424976, -0.0020702620116849952, 0.0020702620116849956]}
    - {mu0: 0, rank: 3, ndensity: 1, num_ms_combs: 2, mus: [0, 0, 0], ns: [1, 2, 3], ls: [1, 0, 1], ms_combs: [0, 0, 0, 1, 0, -1], ctildes: [0.0084312132754498208, -0.016862426550899638]}
    - {mu0: 0, rank: 3, ndensity: 1, num_ms_combs: 2, mus: [0, 0, 0], ns: [1, 2, 3], ls: [1, 1, 0], ms_combs: [0, 0, 0, 1, -1, 0], ctildes: [0.055809854562063804, -0.11161970912412759]}
    - {mu0: 0, rank: 3, ndensity: 1, num_ms_combs: 5, mus: [0, 0, 0], ns: [1, 2, 3], ls: [1, 1, 2], ms_combs: [0, 0, 0, 0, 1, -1, 1, -1, 0, 1, 0, -1, 1, 1, -2], ctildes: [0.008593017953363714, -0.014883543685577488, 0.0085930179533637158, -0.014883543685577488, 0.021048509336316124]}
    - {mu0: 0, rank: 3, ndensity: 1, num_ms_combs: 5, mus: [0, 0, 0], ns: [1, 2, 3], ls: [1, 2, 1], ms_combs: [0, 0, 0, 0, 1, -1, 1, -2, 1, 1, -1, 0, 1, 0, -1], ctildes: [0.0063925735263596515, -0.011072262138774661, 0.015658543282805255, -0.011072262138774661, 0.0063925735263596507]}
    - {mu0: 0, rank: 3, ndensity: 1, num_ms_combs: 3, mus: [0, 0, 0], ns: [1, 2, 3], ls: [2, 0, 2], ms_combs: [0, 0, 0, 1, 0, -1, 2, 0, -2], ctildes: [-0.04241861542827681, 0.084837230856553619, -0.084837230856553647]}
    - {mu0: 0, rank: 3, ndensity: 1, num_ms_combs: 5, mus: [0, 0, 0], ns: [1, 2, 3], ls: [2, 1, 1], ms_combs: [0, 0, 0, 0, 1, -1, 1, -1, 0, 1, 0, -1, 2, -1, -1], ctildes: [-0.017355973321979891, -0.017355973321979887, 0.030061427608479161, 0.030061427608479161, -0.042513278628208223]}
    - {mu0: 0, rank: 3, ndensity: 1, num_ms_combs: 3, mus: [0, 0, 0], ns: [1, 2, 3], ls: [2, 2, 0], ms_combs: [0, 0, 0, 1, -1, 0, 2, -2, 0], ctildes: [-0.022311138936359904, 0.044622277872719815, -0.044622277872719822]}
    - {mu0: 0, rank: 3, ndensity: 1, num_ms_combs: 1, mus: [0, 0, 0], ns: [1, 2, 4], ls: [0, 0, 0], ms_combs: [0, 0, 0], ctildes: [0.17983873621705207]}
    - {mu0: 0, rank: 3, ndensity: 1, num_ms_combs: 2, mus: [0, 0, 0], ns: [1, 2, 4], ls: [0, 1, 1], ms_combs: [0, 0, 0, 0, 1, -1], ctildes: [-0.15967387024736679, 0.31934774049473352]}
    - {mu0: 0, rank: 3, ndensity: 1, num_ms_combs: 2, mus: [0, 0, 0], ns: [1, 2, 4], ls: [1, 0, 1], ms_combs: [0, 0, 0, 1, 0, -1], ctildes: [-0.19476035414363499, 0.38952070828726987]}
    - {mu0: 0, rank: 3, ndensity: 1, num_ms_combs: 2, mus: [0, 0, 0], ns: [1, 2, 4], ls: [1, 1, 0], ms_combs: [0, 0, 0, 1, -1, 0], ctildes: [-0.042757830693027042, 0.08551566138605407]}
    - {mu0: 0, rank: 3, ndensity: 1, num_ms_combs: 1, mus: [0, 0, 0], ns: [1, 3, 3], ls: [0, 0, 0], ms_combs: [0, 0, 0], ctildes: [-0.23469987849121762]}
    - {mu0: 0, rank: 3, ndensity: 1, num_ms_combs: 2, mus: [0, 0, 0], ns: [1, 3, 3], ls: [0, 1, 1], ms_combs: [0, 0, 0, 0, 1, -1], ctildes: [0.052539577921040186, -0.10507915584208034]}
    - {mu0: 0, rank: 3, ndensity: 1, num_ms_combs: 2, mus: [0, 0, 0], ns: [1, 3, 3], ls: [1, 0, 1], ms_combs: [0, 0, 0, 1, 0, -1], ctildes: [0.065523685294151437, -0.13104737058830285]}
    - {mu0: 0, rank: 3, ndensity: 1, num_ms_combs: 1, mus: [0, 0, 0], ns: [1, 3, 4], ls: [0, 0, 0], ms_combs: [0, 0, 0], ctildes: [-0.064859251643659702]}
    - {mu0: 0, rank: 3, ndensity: 1, num_ms_combs: 2, mus: [0, 0, 0], ns: [1, 3, 4], ls: [0, 1, 1], ms_combs: [0, 0, 0, 0, 1, -1], ctildes: [-0.060401159722125883, 0.12080231944425175]}
    - {mu0: 0, rank: 3, ndensity: 1, num_ms_combs: 2, mus: [0, 0, 0], ns: [1, 3, 4], ls: [1, 0, 1], ms_combs: [0, 0, 0, 1, 0, -1], ctildes: [0.0048260544793727964, -0.0096521089587455911]}
    - {mu0: 0, rank: 3, ndensity: 1, num_ms_combs: 2, mus: [0, 0, 0], ns: [1, 3, 4], ls: [1, 1, 0], ms_combs: [0, 0, 0, 1, -1, 0], ctildes: [0.0076615984937114965, -0.015323196987422991]}
    - {mu0: 0, rank: 3, ndensity: 1, num_ms_combs: 1, mus: [0, 0, 0], ns: [1, 4, 4], ls: [0, 0, 0], ms_combs: [0, 0, 0], ctildes: [0.069438767164668305]}
    - {mu0: 0, rank: 3, ndensity: 1, num_ms_combs: 1, mus: [0, 0, 0], ns: [2, 2, 2], ls: [0, 0, 0], ms_combs: [0, 0, 0], ctildes: [0.44559628054634148]}
    - {mu0: 0, rank: 3, ndensity: 1, num_ms_combs: 2, mus: [0, 0, 0], ns: [2, 2, 2], ls: [0, 1, 1], ms_combs: [0, 0, 0, 0, 1, -1], ctildes: [0.090768786141203678, -0.18153757228240733]}
    - {mu0: 0, rank: 3, ndensity: 1, num_ms_combs: 3, mus: [0, 0, 0], ns: [2, 2, 2], ls: [0, 2, 2], ms_combs: [0, 0, 0, 0, 1, -1, 0, 2, -2], ctildes: [0.083985206817430935, -0.1679704136348619, 0.16797041363486193]}
    - {mu0: 0, rank: 3, ndensity: 1, num_ms_combs: 4, mus: [0, 0, 0], ns: [2, 2, 2], ls: [1, 1, 2], ms_combs: [-1, 1, 0, 0, 0, 0, 0, 1, -1, 1, 1, -2], ctildes: [0.0050637747861023161, 0.0050637747861023152, -0.017541430415230874, 0.012403664398321709]}
    - {mu0: 0, rank: 3, ndensity: 1, num_ms_combs: 1, mus: [0, 0, 0], ns: [2, 2, 3], ls: [0, 0, 0], ms_combs: [0, 0, 0], ctildes: [-0.16091274578864656]}
    - {mu0: 0, rank: 3, ndensity: 1, num_ms_combs: 2, mus: [0, 0, 0], ns: [2, 2, 3], ls: [0, 1, 1], ms_combs: [0, 0, 0, 0, 1, -1], ctildes: [-0.24413883056400007, 0.48827766112800008]}
    - {mu0: 0, rank: 3, ndensity: 1, num_ms_combs: 2, mus: [0, 0, 0], ns: [2, 2, 3], ls: [1, 1, 0], ms_combs: [0, 0, 0, 1, -1, 0], ctildes: [-0.019723297652520094, 0.039446595305040182]}
    - {mu0: 0, rank: 3, ndensity: 1, num_ms_combs: 1, mus: [0, 0, 0], ns: [2, 2, 4], ls: [0, 0, 0], ms_combs: [0, 0, 0], ctildes: [-0.069392267463778134]}
    - {mu0: 0, rank: 3, ndensity: 1, num_ms_combs: 2, mus: [0, 0, 0], ns: [2, 2, 4], ls: [0, 1, 1], ms_combs: [0, 0, 0, 0, 1, -1], ctildes: [0.20346222144330281, -0.40692444288660551]}
    - {mu0: 0, rank: 3, ndensity: 1, num_ms_combs: 2, mus: [0, 0, 0], ns: [2, 2, 4], ls: [1, 1, 0], ms_combs: [0, 0, 0, 1, -1, 0], ctildes: [0.0073842448148578113, -0.014768489629715621]}
    - {mu0: 0, rank: 3, ndensity: 1, num_ms_combs: 1, mus: [0, 0, 0], ns: [2, 3, 3], ls: [0, 0, 0], ms_combs: [0, 0, 0], ctildes: [0.14900985484800272]}
    - {mu0: 0, rank: 3, ndensity: 1, num_ms_combs: 2, mus: [0, 0, 0], ns: [2, 3, 3], ls: [0, 1, 1], ms_combs: [0, 0, 0, 0, 1, -1], ctildes: [0.018293345697020021, -0.036586691394040034]}
    - {mu0: 0, rank: 3, ndensity: 1, num_ms_combs: 2, mus: [0, 0, 0], ns: [2, 3, 3], ls: [1, 0, 1], ms_combs: [0, 0, 0, 1, 0, -1], ctildes: [-0.0067861439924262511, 0.0135722879848525]}
    - {mu0: 0, rank: 3, ndensity: 1, num_ms_combs: 1, mus: [0, 0, 0], ns: [2, 3, 4], ls: [0, 0, 0], ms_combs: [0, 0, 0], ctildes: [0.10443428736943139]}
    - {mu0: 0, rank: 3, ndensity: 1, num_ms_combs: 1, mus: [0, 0, 0], ns: [2, 4, 4], ls: [0, 0, 0], ms_combs: [0, 0, 0], ctildes: [-0.078225915094290346]}
    - {mu0: 0, rank: 3, ndensity: 1, num_ms_combs: 1, mus: [0, 0, 0], ns: [3, 3, 3], ls: [0, 0, 0], ms_combs: [0, 0, 0], ctildes: [0.036253808866228684]}
    - {mu0: 0, rank: 3, ndensity: 1, num_ms_combs: 1, mus: [0, 0, 0], ns: [3, 3, 4], ls: [0, 0, 0], ms_combs: [0, 0, 0], ctildes: [-0.028132870844039391]}
    - {mu0: 0, rank: 4, ndensity: 1, num_ms_combs: 1, mus: [0, 0, 0, 0], ns: [1, 1, 1, 1], ls: [0, 0, 0, 0], ms_combs: [0, 0, 0, 0], ctildes: [-0.02312174255602124]}
    - {mu0: 0, rank: 4, ndensity: 1, num_ms_combs: 2, mus: [0, 0, 0, 0], ns: [1, 1, 1, 1], ls: [0, 0, 1, 1], ms_combs: [0, 0, 0, 0, 0, 0, 1, -1], ctildes: [0.1332836162184157, -0.26656723243683134]}
    - {mu0: 0, rank: 4, ndensity: 1, num_ms_combs: 3, mus: [0, 0, 0, 0], ns: [1, 1, 1, 1], ls: [0, 0, 2, 2], ms_combs: [0, 0, 0, 0, 0, 0, 1, -1, 0, 0, 2, -2], ctildes: [0.010898356602532241, -0.021796713205064485, 0.021796713205064489]}
    - {mu0: 0, rank: 4, ndensity: 1, num_ms_combs: 4, mus: [0, 0, 0, 0], ns: [1, 1, 1, 1], ls: [0, 1, 1, 2], ms_combs: [0, -1, 1, 0, 0, 0, 0, 0, 0, 0, 1, -1, 0, 1, 1, -2], ctildes: [-0.09006491845684339, -0.090064918456843404, 0.31199402949360144, -0.22061309394464124]}
    - {mu0: 0, rank: 4, ndensity: 1, num_ms_combs: 3, mus: [0, 0, 0, 0], ns: [1, 1, 1, 1], ls: [1, 1, 1, 1], ms_combs: [-1, -1, 1, 1, -1, 0, 0, 1, 0, 0, 0, 0], ctildes: [0.022272346293329706, -0.022272346293329713, 0.00556808657333243]}
    - {mu0: 0, rank: 4, ndensity: 1, num_ms_combs: 1, mus: [0, 0, 0, 0], ns: [1, 1, 1, 2], ls: [0, 0, 0, 0], ms_combs: [0, 0, 0, 0], ctildes: [-0.023116557578150211]}
    - {mu0: 0, rank: 4, ndensity: 1, num_ms_combs: 2, mus: [0, 0, 0, 0], ns: [1, 1, 1, 2], ls: [0, 0, 1, 1], ms_combs: [0, 0, 0, 0, 0, 0, 1, -1], ctildes: [0.033142902635107149, -0.066285805270214285]}
    - {mu0: 0, rank: 4, ndensity: 1, num_ms_combs: 3, mus: [0, 0, 0, 0], ns: [1, 1, 1, 2], ls: [0, 0, 2, 2], ms_combs: [0, 0, 0, 0, 0, 0, 1, -1, 0, 0, 2, -2], ctildes: [0.0014468984245216174, -0.0028937968490432352, 0.0028937968490432356]}
    - {mu0: 0, rank: 4, ndensity: 1, num_ms_combs: 2, mus: [0, 0, 0, 0], ns: [1, 1, 1, 2], ls: [0, 1, 1, 0], ms_combs: [0, 0, 0, 0, 0, 1, -1, 0], ctildes: [-0.026550324938344808, 0.05310064987668961]}
    - {mu0: 0, rank: 4, ndensity: 1, num_ms_combs: 4, mus: [0, 0, 0, 0], ns: [1, 1, 1, 2], ls: [0, 1, 1, 2], ms_combs: [0, -1, 1, 0, 0, 0, 0, 0, 0, 0, 1, -1, 0, 1, 1, -2], ctildes: [0.0053152329454489514, 0.0053152329454489522, -0.018412507031163122, 0.013019608580380428]}
    - {mu0: 0, rank: 4, ndensity: 1, num_ms_combs: 5, mus: [0, 0, 0, 0], ns: [1, 1, 1, 2], ls: [0, 1, 2, 1], ms_combs: [0, 0, 0, 0, 0, 0, 1, -1, 0, 1, -2, 1, 0, 1, -1, 0, 0, 1, 0, -1], ctildes: [0.041856198469126138, -0.072497062360213138, 0.10252632882202144, -0.072497062360213138, 0.041856198469126131]}
    - {mu0: 0, rank: 4, ndensity: 1, num_ms_combs: 3, mus: [0, 0, 0, 0], ns: [1, 1, 1, 2], ls: [0, 2, 2, 0], ms_combs: [0, 0, 0, 0, 0, 1, -1, 0, 0, 2, -2, 0], ctildes: [-0.020799245969649639, 0.041598491939299286, -0.041598491939299299]}
    - {mu0: 0, rank: 4, ndensity: 1, num_ms_combs: 5, mus: [0, 0, 0, 0], ns: [1, 1, 1, 2], ls: [1, 1, 1, 1], ms_combs: [0, 0, 0, 0, 0, 0, 1, -1, 1, -1, -1, 1, 1, -1, 0, 0, 1, -1, 1, -1], ctildes: [0.080119717698010962, -0.16023943539602187, 0.16023943539602184, -0.16023943539602187, 0.16023943539602184]}
    - {mu0: 0, rank: 4, ndensity: 1, num_ms_combs: 4, mus: [0, 0, 0, 0], ns: [1, 1, 1, 2], ls: [1, 1, 2, 0], ms_combs: [-1, 1, 0, 0, 0, 0, 0, 0, 0, 1, -1, 0, 1, 1, -2, 0], ctildes: [0.095596538422228705, 0.095596538422228691, -0.33115612315002091, 0.23416274031082726]}
    - {mu0: 0, rank: 4, ndensity: 1, num_ms_combs: 1, mus: [0, 0, 0, 0], ns: [1, 1, 1, 3], ls: [0, 0, 0, 0], ms_combs: [0, 0, 0, 0], ctildes: [-0.047733945045846826]}
    - {mu0: 0, rank: 4, ndensity: 1, num_ms_combs: 2, mus: [0, 0, 0, 0], ns: [1, 1, 1, 3], ls: [0, 0, 1, 1], ms_combs: [0, 0, 0, 0, 0, 0, 1, -1], ctildes: [0.016349082563469463, -0.032698165126938919]}
    - {mu0: 0, rank: 4, ndensity: 1, num_ms_combs: 2, mus: [0, 0, 0, 0], ns: [1, 1, 1, 3], ls: [0, 1, 1, 0], ms_combs: [0, 0, 0, 0, 0, 1, -1, 0], ctildes: [-0.045068266598129798, 0.090136533196259583]}
    - {mu0: 0, rank: 4, ndensity: 1, num_ms_combs: 1, mus: [0, 0, 0, 0], ns: [1, 1, 2, 2], ls: [0, 0, 0, 0], ms_combs: [0, 0, 0, 0], ctildes: [0.017080412148668022]}
    - {mu0: 0, rank: 4, ndensity: 1, num_ms_combs: 2, mus: [0, 0, 0, 0], ns: [1, 1, 2, 2], ls: [0, 0, 1, 1], ms_combs: [0, 0, 0, 0, 0, 0, 1, -1], ctildes: [-0.023061490179715351, 0.046122980359430688]}
    - {mu0: 0, rank: 4, ndensity: 1, num_ms_combs: 2, mus: [0, 0, 0, 0], ns: [1, 1, 2, 2], ls: [0, 1, 0, 1], ms_combs: [0, 0, 0, 0, 0, 1, 0, -1], ctildes: [-0.041328705181332803, 0.082657410362665593]}
    - {mu0: 0, rank: 4, ndensity: 1, num_ms_combs: 2, mus: [0, 0, 0, 0], ns: [1, 1, 2, 2], ls: [1, 1, 0, 0], ms_combs: [0, 0, 0, 0, 1, -1, 0, 0], ctildes: [-0.057530310928085533, 0.11506062185617104]}
    - {mu0: 0, rank: 4, ndensity: 1, num_ms_combs: 1, mus: [0, 0, 0, 0], ns: [1, 1, 2, 3], ls: [0, 0, 0, 0], ms_combs: [0, 0, 0, 0], ctildes: [0.042725753693020209]}
    - {mu0: 0, rank: 4, ndensity: 1, num_ms_combs: 2, mus: [0, 0, 0, 0], ns: [1, 1, 2, 3], ls: [0, 0, 1, 1], ms_combs: [0, 0, 0, 0, 0, 0, 1, -1], ctildes: [-0.0045276875830643848, 0.0090553751661287679]}
    - {mu0: 0, rank: 4, ndensity: 1, num_ms_combs: 2, mus: [0, 0, 0, 0], ns: [1, 1, 2, 3], ls: [0, 1, 0, 1], ms_combs: [0, 0, 0, 0, 0, 1, 0, -1], ctildes: [0.018718751455185225, -0.037437502910370443]}
    - {mu0: 0, rank: 4, ndensity: 1, num_ms_combs: 2, mus: [0, 0, 0, 0], ns: [1, 1, 2, 3], ls: [0, 1, 1, 0], ms_combs: [0, 0, 0, 0, 0, 1, -1, 0], ctildes: [0.00069118098007889446, -0.0013823619601577887]}
    - {mu0: 0, rank: 4, ndensity: 1, num_ms_combs: 2, mus: [0, 0, 0, 0], ns: [1, 1, 2, 3], ls: [1, 1, 0, 0], ms_combs: [0, 0, 0, 0, 1, -1, 0, 0], ctildes: [0.032272597399490004, -0.064545194798979993]}
    - {mu0: 0, rank: 4, ndensity: 1, num_ms_combs: 1, mus: [0, 0, 0, 0], ns: [1, 1, 3, 3], ls: [0, 0, 0, 0], ms_combs: [0, 0, 0, 0], ctildes: [0.053208953763394753]}
    - {mu0: 0, rank: 4, ndensity: 1, num_ms_combs: 1, mus: [0, 0, 0, 0], ns: [1, 2, 2, 2], ls: [0, 0, 0, 0], ms_combs: [0, 0, 0, 0], ctildes: [-0.08693731066866707]}
    - {mu0: 0, rank: 4, ndensity: 1, num_ms_combs: 2, mus: [0, 0, 0, 0], ns: [1, 2, 2, 2], ls: [0, 0, 1, 1], ms_combs: [0, 0, 0, 0, 0, 0, 1, -1], ctildes: [0.022615843239495507, -0.045231686478991007]}
    - {mu0: 0, rank: 4, ndensity: 1, num_ms_combs: 2, mus: [0, 0, 0, 0], ns: [1, 2, 2, 2], ls: [1, 0, 0, 1], ms_combs: [0, 0, 0, 0, 1, 0, 0, -1], ctildes: [-0.050105280653939523, 0.10021056130787902]}
    - {mu0: 0, rank: 4, ndensity: 1, num_ms_combs: 1, mus: [0, 0, 0, 0], ns: [1, 2, 2, 3], ls: [0, 0, 0, 0], ms_combs: [0, 0, 0, 0], ctildes: [-0.00093507935128614135]}
    - {mu0: 0, rank: 4, ndensity: 1, num_ms_combs: 1, mus: [0, 0, 0, 0], ns: [1, 2, 3, 3], ls: [0, 0, 0, 0], ms_combs: [0, 0, 0, 0], ctildes: [-0.052458569845305697]}
    - {mu0: 0, rank: 4, ndensity: 1, num_ms_combs: 1, mus: [0, 0, 0, 0], ns: [2, 2, 2, 2], ls: [0, 0, 0, 0], ms_combs: [0, 0, 0, 0], ctildes: [-0.014930622218723141]}
    - {mu0: 0, rank: 4, ndensity: 1, num_ms_combs: 1, mus: [0, 0, 0, 0], ns: [2, 2, 2, 3], ls: [0, 0, 0, 0], ms_combs: [0, 0, 0, 0], ctildes: [0.015757111593244687]}
    - {mu0: 0, rank: 5, ndensity: 1, num_ms_combs: 1, mus: [0, 0, 0, 0, 0], ns: [1, 1, 1, 1, 1], ls: [0, 0, 0, 0, 0], ms_combs: [0, 0, 0, 0, 0], ctildes: [-0.019818579164625386]}
    - {mu0: 0, rank: 5, ndensity: 1, num_ms_combs: 2, mus: [0, 0, 0, 0, 0], ns: [1, 1, 1, 1, 1], ls: [0, 0, 0, 1, 1], ms_combs: [0, 0, 0, 0, 0, 0, 0, 0, 1, -1], ctildes: [-0.035699524778107478, 0.071399049556214941]}
    - {mu0: 0, rank: 5, ndensity: 1, num_ms_combs: 1, mus: [0, 0, 0, 0, 0], ns: [1, 1, 1, 1, 2], ls: [0, 0, 0, 0, 0], ms_combs: [0, 0, 0, 0, 0], ctildes: [0.051224297076587412]}
    - {mu0: 0, rank: 5, ndensity: 1, num_ms_combs: 2, mus: [0, 0, 0, 0, 0], ns: [1, 1, 1, 1, 2], ls: [0, 0, 0, 1, 1], ms_combs: [0, 0, 0, 0, 0, 0, 0, 0, 1, -1], ctildes: [0.0050902555596417879, -0.010180511119283574]}
    - {mu0: 0, rank: 5, ndensity: 1, num_ms_combs: 2, mus: [0, 0, 0, 0, 0], ns: [1, 1, 1, 1, 2], ls: [0, 0, 1, 1, 0], ms_combs: [0, 0, 0, 0, 0, 0, 0, 1, -1, 0], ctildes: [0.027899640550071592, -0.055799281100143178]}
    - {mu0: 0, rank: 5, ndensity: 1, num_ms_combs: 1, mus: [0, 0, 0, 0, 0], ns: [1, 1, 1, 2, 2], ls: [0, 0, 0, 0, 0], ms_combs: [0, 0, 0, 0, 0], ctildes: [-0.0408724430679758]}
    - {mu0: 0, rank: 5, ndensity: 1, num_ms_combs: 1, mus: [0, 0, 0, 0, 0], ns: [1, 1, 2, 2, 2], ls: [0, 0, 0, 0, 0], ms_combs: [0, 0, 0, 0, 0], ctildes: [0.022449073827513186]}
    - {mu0: 0, rank: 6, ndensity: 1, num_ms_combs: 1, mus: [0, 0, 0, 0, 0, 0], ns: [1, 1, 1, 1, 1, 1], ls: [0, 0, 0, 0, 0, 0], ms_combs: [0, 0, 0, 0, 0, 0], ctildes: [0.0011252786101023466]}
    - {mu0: 0, rank: 6, ndensity: 1, num_ms_combs: 1, mus: [0, 0, 0, 0, 0, 0], ns: [1, 1, 1, 1, 1, 2], ls: [0, 0, 0, 0, 0, 0], ms_combs: [0, 0, 0, 0, 0, 0], ctildes: [-0.0016246312662277006]}
