elements: [Fe]
E0: [0]
deltaSplineBins: 0.001
embeddings:
  0: {ndensity: 2, FS_parameters: [1, 1, 1, 0.5], npoti: FinnisSinclairShiftedScaled, rho_core_cutoff: 100000, drho_core_cutoff: 250}
bonds:
  [0, 0]: {nradmax: 6, lmax: 3, nradbasemax: 14, radbasename: SBessel, radparameters: [5.25], radcoefficients: [[[0.50096300607311928, 0.1139915167630265, -0.24788207852114663, -0.0075178671649546273, 0.49505841677949458, -0.52632453411292146, 0.27517927953764509, 0.075289259183383167, -0.13750925164973082, 0.14244466832759017, -0.12097168215543043, 0.076145628835115123, -0.063005241863689165, 0.032493371659437782], [0.26757516040028434, -0.16701532500876171, -0.044092115145819108, 0.075280251665118134, 0.03786609945986856, -0.13236446900286883, 0.17886659952037745, -0.16318432639973535, 0.11529466492764705, -0.086285644028004496, 0.085747263473723759, -0.066984234979146712, 0.015098259823052608, -0.0037409376346117396], [0.73630504263237673, -0.4482021757903607, 0.020582635138623313, 0.095010988243694527, -0.15447877074788546, 0.1108037477651027, -0.071641908362163706, -0.08716614850736748, 0.13786740133413194, -0.077947383285287469, 0.035194441651964829, 0.025122849736500714, -0.049720309367496933, 0.027651424872842726], [0.75824871327044041, -0.083232785798779463, -0.014159451007414003, -0.022981327009888378, 0.052472231637189615, -0.18958839241534323, 0.067447672426388369, 0.13486181809273556, -0.23337182990078012, 0.21738008530133482, -0.18819082673776916, 0.15012125906141482, -0.057450022534037443, -0.01125789830430313]], [[0.31561891971682166, 0.37128006971754046, -0.55120517907636313, 0.34242388159306714, 0.14197888363552466, -0.11872053888041649, -0.094444769322172661, 0.37943764902834953, -0.33368191506365941, 0.23335228916402495, -0.14329000421986426, 0.074664337497813066, -0.063853513403523313, 0.034878266235471203], [-0.23786181856233601, 0.79326526175501799, -0.34022784381530935, -0.20474917086497282, 0.26217229124374514, 0.11224957084074921, -0.166406076126213, -0.018608740630279192, 0.13787352411502418, -0.032120336653935884, -0.035247852044446928, 0.048842356711169092, 0.044197895421839523, -0.015277975138735708], [-0.21546157737300953, 0.29268148348024436, -0.1558178147793518, 0.29612698312532093, -0.18036705860866878, -0.048805923204667173, 0.2296261056204533, 0.0067072462875778774, -0.073817642303335013, 0.085662019152025634, -0.050981048535186847, -0.044279751615525324, 0.095006528444466554, -0.039202417613717476], [-0.030084473692191856, 0.98177630156968176, -0.16381141913718353, 7.2809475392045432e-05, 0.17147578650069417, -0.13882746495720868, -0.068719520583717594, 0.17123376293120315, -0.046801718121905929, -0.18068936138216321, 0.039540044483348205, 0.097976666142198868, 0.0016955540882808253, -0.1093304023269316]], [[0.41557747451734767, -0.17835697301817724, 0.044049416459351266, -0.11496442343650425, 0.33438453218532654, -0.25811209625296705, -0.098925688851190199, 0.2229189183156777, -0.18283555095554804, 0.09420836986179594, -0.0033018531383926107, -0.033774525019877176, -0.0030845430288099565, 0.01282398463144672], [-0.083086755708978832, -0.36421220292650036, 0.55263519988839505, -0.18772052758159394, -0.11175523780742197, -0.053084689722374789, 0.0008598932909525235, -0.025143742943830181, 0.043389173921310975, -0.042915296820844245, -0.07186137562677801, -0.10660625354419549, 0.26029606024987889, -0.11084331180194831], [-0.1109234811379961, -0.35313090890297871, 0.6706888331955182, 0.029689348263787375, -0.091195492300367206, -0.25645133456835345, 0.24367945868896318, 0.30948501022106595, -0.18731839076296863, -0.03899204353942036, 0.23963211267094617, -0.36919957105504719, 0.2798315574878239, -0.12803652885944017], [0.13364923289873137, 0.020223846534107692, 0.7357759987818383, -0.14112793089576067, 0.42122425075841363, 0.26144401972787534, -0.36611724168377813, 0.15602146667167976, 0.39501309124862338, -0.34982484130243674, -0.0060104670274510877, 0.21189705915357265, -0.23799969300886709, 0.074653997650060255]], [[0.59838385652048309, 0.28547124369854343, -0.46230139198259179, 0.51113305621628902, -0.085632130947182514, 0.049490453752580182, 0.086160455881907877, 0.27878276319039108, -0.13647127319702596, -0.10608281855871163, 0.19397471169983502, -0.13788098201141538, 0.001704534672258952, 0.028959201929319951], [0.092155211254927677, 0.13486478587423925, -0.28812912538831337, 0.57790892647239112, -0.27820197195099444, -0.44925863022442947, -0.065171123578951315, 0.1549228883840971, -0.0070008778279054794, 0.21192134868749701, -0.2523338621855919, -0.057285041902086088, 0.32426136514708132, -0.11625391262018918], [-0.045111582582869035, 0.045827894834061522, -0.27393796662360148, 0.59612223203880332, -0.19499024527292239, -0.50439491633382916, -0.046016849375973744, 0.53929553801907759, -0.19307000469568181, -0.014513142797483839, 0.16945622775661998, -0.23932459236622566, 0.097160581107577859, -0.1031914857372747], [0.064630762140825124, 0.044219233316298352, -0.13451147543525832, 0.88371420465541883, 0.1607700683163219, 0.1113935089205195, -0.22530615603319781, -0.0453093925807189, 0.40528797906885861, 0.14185174981498724, -0.18555016516943038, -0.026798312868820985, -0.22402755260823148, 0.2017526192832749]], [[-0.38192455055522417, 0.273945601033101, 0.22954085770711377, -0.33698812682967688, 0.89006488736045397, -0.16286626060525086, 0.16630619369567834, 0.33045440697019707, -0.16719653701071008, -0.21546102626598476, 0.30525780310537587, -0.091181297891383628, -0.12105433159030769, 0.028880785705419316], [0.087126291976023576, 0.047919948943368852, -0.15339762378612917, -0.30350484186816684, 0.67896352659767445, -0.33171535903957938, -0.32800982502986342, -0.17770868303727852, -0.0056478022292071762, 0.31376159611913229, 0.29209174964527318, -0.46725242779969978, 0.066586871478002504, 0.11189452147444066], [0.2139678411112608, 0.26422155346769449, -0.21193106474256318, -0.43226821256719689, 0.78551518906281381, -0.38230141455648281, -0.2884440991264603, 0.3160552793001673, 0.1310689095535349, -0.20718290830655073, 0.095829659057992497, -0.079667238837818843, 0.10853342197663604, -0.094876658420458074], [0.024528311791599703, -0.034150135156362206, -0.073178648986082548, -0.051844973835486363, 0.9522968843278441, -0.0032673738019337933, 0.0055709054189970308, -0.058227213017466112, -0.043815323885357416, -0.02889129012178639, 0.071171664630045664, 0.34829701585741163, 0.32954874362264863, 0.18243621701719182]], [[-0.33662131549128671, -0.1730365920434685, 0.37296457384737003, 0.083235282826738297, -0.41190942381594109, 0.79961511443565603, -0.057521579971915329, 0.090049198083372445, -0.067174347582068722, -0.11722242034122361, 0.061837921812536667, 0.1773107878005056, -0.20931765036848252, -0.014742106602419518], [-0.12052032997512013, -0.14458655463785852, -0.15738182346984231, -0.14128398136907447, -0.065350568706455572, 0.86218045573150415, -0.19646398189338968, -0.26191436616473762, -0.24496780997856629, 0.11874597738300485, -0.078136491398519969, -0.29498638664902116, 0.39008447756736608, -0.20595780524070612], [-0.050645653039807184, 0.048529469518932798, 0.18712735099873598, -0.034108216831856289, -0.076310408445026387, 0.99354388170775054, -0.36782252813550681, -0.29532162960735858, 0.029986061085553305, 0.069315200208479616, 0.044384459663060878, -0.1990016191968807, 0.24442439735544372, -0.021423095238267638], [0.034061782692339518, 0.015349794649795804, -0.032446699410528919, -0.047476327986224344, -0.023965916243165259, 0.99595016701355232, 0.0055243207266942162, 0.12426274065277652, 0.22154018923578273, 0.084332974828154911, 0.06041281875019304, 0.22352642574978626, 0.079089496985053631, -0.084112266526089247]]], prehc: 0, lambdahc: 0, rcut: 6.5, dcut: 0.01, rcut_in: 0, dcut_in: 0, inner_cutoff_type: distance}
functions:
  0:
    - {mu0: 0, rank: 1, ndensity: 2, num_ms_combs: 1, mus: [0], ns: [1], ls: [0], ms_combs: [0], ctildes: [-0.38039509713847436, -0.40928172984957994]}
    - {mu0: 0, rank: 1, ndensity: 2, num_ms_combs: 1, mus: [0], ns: [2], ls: [0], ms_combs: [0], ctildes: [-0.23186600339568009, -0.33389826368170672]}
    - {mu0: 0, rank: 1, ndensity: 2, num_ms_combs: 1, mus: [0], ns: [3], ls: [0], ms_combs: [0], ctildes: [0.35013377593974349, 0.12953645372803105]}
    - {mu0: 0, rank: 1, ndensity: 2, num_ms_combs: 1, mus: [0], ns: [4], ls: [0], ms_combs: [0], ctildes: [0.024533225639705124, 0.078587255780018628]}
    - {mu0: 0, rank: 1, ndensity: 2, num_ms_combs: 1, mus: [0], ns: [5], ls: [0], ms_combs: [0], ctildes: [-0.059003956190520727, -0.2933873886672268]}
    - {mu0: 0, rank: 1, ndensity: 2, num_ms_combs: 1, mus: [0], ns: [6], ls: [0], ms_combs: [0], ctildes: [0.25053128146348752, -0.25475722092896119]}
    - {mu0: 0, rank: 1, ndensity: 2, num_ms_combs: 1, mus: [0], ns: [7], ls: [0], ms_combs: [0], ctildes: [-0.20945724510219202, 0.087300765388873894]}
    - {mu0: 0, rank: 1, ndensity: 2, num_ms_combs: 1, mus: [0], ns: [8], ls: [0], ms_combs: [0], ctildes: [0.091358305596988362, 0.043192783415557025]}
    - {mu0: 0, rank: 1, ndensity: 2, num_ms_combs: 1, mus: [0], ns: [9], ls: [0], ms_combs: [0], ctildes: [0.16589493814654238, -0.40112946279447603]}
    - {mu0: 0, rank: 1, ndensity: 2, num_ms_combs: 1, mus: [0], ns: [10], ls: [0], ms_combs: [0], ctildes: [-0.1544533453203972, -0.21498270337944414]}
    - {mu0: 0, rank: 1, ndensity: 2, num_ms_combs: 1, mus: [0], ns: [11], ls: [0], ms_combs: [0], ctildes: [0.11677272822971831, 0.35018554594660334]}
    - {mu0: 0, rank: 1, ndensity: 2, num_ms_combs: 1, mus: [0], ns: [12], ls: [0], ms_combs: [0], ctildes: [-0.16326631728313282, 0.1792743462918196]}
    - {mu0: 0, rank: 1, ndensity: 2, num_ms_combs: 1, mus: [0], ns: [13], ls: [0], ms_combs: [0], ctildes: [0.079498029696148373, -0.11100575715782227]}
    - {mu0: 0, rank: 1, ndensity: 2, num_ms_combs: 1, mus: [0], ns: [14], ls: [0], ms_combs: [0], ctildes: [-0.00011253646426348434, 0.064864652843815471]}
    - {mu0: 0, rank: 2, ndensity: 2, num_ms_combs: 1, mus: [0, 0], ns: [1, 1], ls: [0, 0], ms_combs: [0, 0], ctildes: [-0.32972871672773985, -0.32773388641067319]}
    - {mu0: 0, rank: 2, ndensity: 2, num_ms_combs: 2, mus: [0, 0], ns: [1, 1], ls: [1, 1], ms_combs: [0, 0, 1, -1], ctildes: [-0.091641154438697539, -0.03986079288829518, 0.18328230887739505, 0.079721585776590345]}
    - {mu0: 0, rank: 2, ndensity: 2, num_ms_combs: 3, mus: [0, 0], ns: [1, 1], ls: [2, 2], ms_combs: [0, 0, 1, -1, 2, -2], ctildes: [-0.033562932691442525, -0.026315075899455569, 0.06712586538288505, 0.052630151798911146, -0.067125865382885078, -0.052630151798911159]}
    - {mu0: 0, rank: 2, ndensity: 2, num_ms_combs: 4, mus: [0, 0], ns: [1, 1], ls: [3, 3], ms_combs: [0, 0, 1, -1, 2, -2, 3, -3], ctildes: [-0.011543029177546934, -0.040924345047250725, 0.023086058355093867, 0.08184869009450145, -0.023086058355093864, -0.081848690094501436, 0.023086058355093864, 0.081848690094501436]}
    - {mu0: 0, rank: 2, ndensity: 2, num_ms_combs: 1, mus: [0, 0], ns: [1, 2], ls: [0, 0], ms_combs: [0, 0], ctildes: [-0.18099047111700642, -0.2783195090081812]}
    - {mu0: 0, rank: 2, ndensity: 2, num_ms_combs: 2, mus: [0, 0], ns: [1, 2], ls: [1, 1], ms_combs: [0, 0, 1, -1], ctildes: [-0.064517824315751329, -0.023272593800551893, 0.12903564863150263, 0.04654518760110378]}
    - {mu0: 0, rank: 2, ndensity: 2, num_ms_combs: 3, mus: [0, 0], ns: [1, 2], ls: [2, 2], ms_combs: [0, 0, 1, -1, 2, -2], ctildes: [-0.11846261367416917, -0.041163143158680186, 0.23692522734833837, 0.082326286317360386, -0.23692522734833843, -0.0823262863173604]}
    - {mu0: 0, rank: 2, ndensity: 2, num_ms_combs: 4, mus: [0, 0], ns: [1, 2], ls: [3, 3], ms_combs: [0, 0, 1, -1, 2, -2, 3, -3], ctildes: [-0.117981371288294, -0.035003465275950219, 0.235962742576588, 0.070006930551900437, -0.23596274257658797, -0.070006930551900423, 0.23596274257658797, 0.070006930551900423]}
    - {mu0: 0, rank: 2, ndensity: 2, num_ms_combs: 1, mus: [0, 0], ns: [1, 3], ls: [0, 0], ms_combs: [0, 0], ctildes: [0.21761427768019767, -0.05724350543229928]}
    - {mu0: 0, rank: 2, ndensity: 2, num_ms_combs: 2, mus: [0, 0], ns: [1, 3], ls: [1, 1], ms_combs: [0, 0, 1, -1], ctildes: [0.16411174936686665, 0.040549726116413012, -0.32822349873373324, -0.081099452232826011]}
    - {mu0: 0, rank: 2, ndensity: 2, num_ms_combs: 3, mus: [0, 0], ns: [1, 3], ls: [2, 2], ms_combs: [0, 0, 1, -1, 2, -2], ctildes: [0.14239755505693122, 0.0076085975789513503, -0.28479511011386244, -0.015217195157902702, 0.28479511011386255, 0.015217195157902708]}
    - {mu0: 0, rank: 2, ndensity: 2, num_ms_combs: 4, mus: [0, 0], ns: [1, 3], ls: [3, 3], ms_combs: [0, 0, 1, -1, 2, -2, 3, -3], ctildes: [-0.026969915175636319, -0.025819205691004422, 0.053939830351272637, 0.051638411382008843, -0.05393983035127263, -0.051638411382008836, 0.05393983035127263, 0.051638411382008836]}
    - {mu0: 0, rank: 2, ndensity: 2, num_ms_combs: 1, mus: [0, 0], ns: [1, 4], ls: [0, 0], ms_combs: [0, 0], ctildes: [0.18226986591540317, -0.16798949932112958]}
    - {mu0: 0, rank: 2, ndensity: 2, num_ms_combs: 2, mus: [0, 0], ns: [1, 4], ls: [1, 1], ms_combs: [0, 0, 1, -1], ctildes: [0.0077746167645821119, 0.0013318143089226478, -0.01554923352916422, -0.0026636286178452952]}
    - {mu0: 0, rank: 2, ndensity: 2, num_ms_combs: 3, mus: [0, 0], ns: [1, 4], ls: [2, 2], ms_combs: [0, 0, 1, -1, 2, -2], ctildes: [0.0080499994192778871, 0.018777731400022743, -0.016099998838555778, -0.037555462800045486, 0.016099998838555781, 0.0375554628000455]}
    - {mu0: 0, rank: 2, ndensity: 2, num_ms_combs: 4, mus: [0, 0], ns: [1, 4], ls: [3, 3], ms_combs: [0, 0, 1, -1, 2, -2, 3, -3], ctildes: [0.00028247339017121369, -0.034598363264069419, -0.00056494678034242738, 0.069196726528138838, 0.00056494678034242727, -0.069196726528138824, -0.00056494678034242727, 0.069196726528138824]}
    - {mu0: 0, rank: 2, ndensity: 2, num_ms_combs: 1, mus: [0, 0], ns: [1, 5], ls: [0, 0], ms_combs: [0, 0], ctildes: [-0.26350403162312253, 0.069675577074248207]}
    - {mu0: 0, rank: 2, ndensity: 2, num_ms_combs: 2, mus: [0, 0], ns: [1, 5], ls: [1, 1], ms_combs: [0, 0, 1, -1], ctildes: [0.15134642621352171, 0.0089824145238350736, -0.3026928524270433, -0.017964829047670144]}
    - {mu0: 0, rank: 2, ndensity: 2, num_ms_combs: 3, mus: [0, 0], ns: [1, 5], ls: [2, 2], ms_combs: [0, 0, 1, -1, 2, -2], ctildes: [-0.081961956222551952, 0.0023723810081928264, 0.1639239124451039, -0.0047447620163856528, -0.16392391244510396, 0.0047447620163856546]}
    - {mu0: 0, rank: 2, ndensity: 2, num_ms_combs: 4, mus: [0, 0], ns: [1, 5], ls: [3, 3], ms_combs: [0, 0, 1, -1, 2, -2, 3, -3], ctildes: [0.0039927590457900239, -0.0031777456327878361, -0.0079855180915800478, 0.0063554912655756721, 0.0079855180915800461, -0.0063554912655756713, -0.0079855180915800461, 0.0063554912655756713]}
    - {mu0: 0, rank: 2, ndensity: 2, num_ms_combs: 1, mus: [0, 0], ns: [1, 6], ls: [0, 0], ms_combs: [0, 0], ctildes: [0.63757447190777228, 0.21119185347179056]}
    - {mu0: 0, rank: 2, ndensity: 2, num_ms_combs: 2, mus: [0, 0], ns: [1, 6], ls: [1, 1], ms_combs: [0, 0, 1, -1], ctildes: [-0.088137445301766759, -0.022877859107847748, 0.17627489060353349, 0.04575571821569549]}
    - {mu0: 0, rank: 2, ndensity: 2, num_ms_combs: 3, mus: [0, 0], ns: [1, 6], ls: [2, 2], ms_combs: [0, 0, 1, -1, 2, -2], ctildes: [0.11806926981803471, 0.010884868190828994, -0.23613853963606946, -0.021769736381657991, 0.23613853963606954, 0.021769736381657995]}
    - {mu0: 0, rank: 2, ndensity: 2, num_ms_combs: 4, mus: [0, 0], ns: [1, 6], ls: [3, 3], ms_combs: [0, 0, 1, -1, 2, -2, 3, -3], ctildes: [0.019655164699093359, -0.1034736835323373, -0.039310329398186718, 0.20694736706467459, 0.039310329398186711, -0.20694736706467456, -0.039310329398186711, 0.20694736706467456]}
    - {mu0: 0, rank: 2, ndensity: 2, num_ms_combs: 1, mus: [0, 0], ns: [2, 2], ls: [0, 0], ms_combs: [0, 0], ctildes: [-0.062806394621363323, -0.24739066901228757]}
    - {mu0: 0, rank: 2, ndensity: 2, num_ms_combs: 2, mus: [0, 0], ns: [2, 2], ls: [1, 1], ms_combs: [0, 0, 1, -1], ctildes: [-0.080055840791764157, -0.05862167954137476, 0.16011168158352829, 0.11724335908274949]}
    - {mu0: 0, rank: 2, ndensity: 2, num_ms_combs: 3, mus: [0, 0], ns: [2, 2], ls: [2, 2], ms_combs: [0, 0, 1, -1, 2, -2], ctildes: [0.058807486086919256, -0.010780163218926031, -0.11761497217383853, 0.021560326437852065, 0.11761497217383855, -0.021560326437852068]}
    - {mu0: 0, rank: 2, ndensity: 2, num_ms_combs: 4, mus: [0, 0], ns: [2, 2], ls: [3, 3], ms_combs: [0, 0, 1, -1, 2, -2, 3, -3], ctildes: [0.036030970902125453, -0.011416067140574426, -0.072061941804250906, 0.022832134281148851, 0.072061941804250892, -0.022832134281148851, -0.072061941804250892, 0.022832134281148851]}
    - {mu0: 0, rank: 2, ndensity: 2, num_ms_combs: 1, mus: [0, 0], ns: [2, 3], ls: [0, 0], ms_combs: [0, 0], ctildes: [0.26925964299636146, -0.040632916947188964]}
    - {mu0: 0, rank: 2, ndensity: 2, num_ms_combs: 2, mus: [0, 0], ns: [2, 3], ls: [1, 1], ms_combs: [0, 0, 1, -1], ctildes: [0.080064289050527399, 0.037142192092236577, -0.16012857810105477, -0.07428438418447314]}
    - {mu0: 0, rank: 2, ndensity: 2, num_ms_combs: 3, mus: [0, 0], ns: [2, 3], ls: [2, 2], ms_combs: [0, 0, 1, -1, 2, -2], ctildes: [0.046781962796880391, 0.0089309572512353708, -0.093563925593760783, -0.017861914502470745, 0.093563925593760811, 0.017861914502470749]}
    - {mu0: 0, rank: 2, ndensity: 2, num_ms_combs: 4, mus: [0, 0], ns: [2, 3], ls: [3, 3], ms_combs: [0, 0, 1, -1, 2, -2, 3, -3], ctildes: [0.023436718097728997, -0.0063282854696389999, -0.046873436195457995, 0.012656570939278, 0.046873436195457988, -0.012656570939277998, -0.046873436195457988, 0.012656570939277998]}
    - {mu0: 0, rank: 2, ndensity: 2, num_ms_combs: 1, mus: [0, 0], ns: [2, 4], ls: [0, 0], ms_combs: [0, 0], ctildes: [0.19677220272457754, -0.124024719404697]}
    - {mu0: 0, rank: 2, ndensity: 2, num_ms_combs: 2, mus: [0, 0], ns: [2, 4], ls: [1, 1], ms_combs: [0, 0, 1, -1], ctildes: [0.10977516388044536, 0.011499769305852644, -0.21955032776089067, -0.022999538611705284]}
    - {mu0: 0, rank: 2, ndensity: 2, num_ms_combs: 3, mus: [0, 0], ns: [2, 4], ls: [2, 2], ms_combs: [0, 0, 1, -1, 2, -2], ctildes: [-0.03677491899743289, -0.01550034270665677, 0.07354983799486578, 0.031000685413313543, -0.073549837994865808, -0.03100068541331355]}
    - {mu0: 0, rank: 2, ndensity: 2, num_ms_combs: 4, mus: [0, 0], ns: [2, 4], ls: [3, 3], ms_combs: [0, 0, 1, -1, 2, -2, 3, -3], ctildes: [-0.025329272618024444, 0.028038787541812465, 0.050658545236048888, -0.056077575083624931, -0.050658545236048881, 0.056077575083624924, 0.050658545236048881, -0.056077575083624924]}
    - {mu0: 0, rank: 2, ndensity: 2, num_ms_combs: 1, mus: [0, 0], ns: [2, 5], ls: [0, 0], ms_combs: [0, 0], ctildes: [-0.21469696494009977, 0.086667688622730554]}
    - {mu0: 0, rank: 2, ndensity: 2, num_ms_combs: 2, mus: [0, 0], ns: [2, 5], ls: [1, 1], ms_combs: [0, 0, 1, -1], ctildes: [0.028413880085403419, -0.023124653290460553, -0.056827760170806832, 0.0462493065809211]}
    - {mu0: 0, rank: 2, ndensity: 2, num_ms_combs: 3, mus: [0, 0], ns: [2, 5], ls: [2, 2], ms_combs: [0, 0, 1, -1, 2, -2], ctildes: [-0.014070464148937546, -0.092066906317852609, 0.028140928297875095, 0.18413381263570525, -0.028140928297875102, -0.18413381263570527]}
    - {mu0: 0, rank: 2, ndensity: 2, num_ms_combs: 4, mus: [0, 0], ns: [2, 5], ls: [3, 3], ms_combs: [0, 0, 1, -1, 2, -2, 3, -3], ctildes: [0.0069201483138256574, -0.057771391401061217, -0.013840296627651315, 0.11554278280212243, 0.013840296627651313, -0.11554278280212241, -0.013840296627651313, 0.11554278280212241]}
    - {mu0: 0, rank: 2, ndensity: 2, num_ms_combs: 1, mus: [0, 0], ns: [2, 6], ls: [0, 0], ms_combs: [0, 0], ctildes: [-0.30307712750023225, -0.086786905012562518]}
    - {mu0: 0, rank: 2, ndensity: 2, num_ms_combs: 2, mus: [0, 0], ns: [2, 6], ls: [1, 1], ms_combs: [0, 0, 1, -1], ctildes: [-0.02365332420855492, 0.061081728226491869, 0.047306648417109833, -0.12216345645298371]}
    - {mu0: 0, rank: 2, ndensity: 2, num_ms_combs: 3, mus: [0, 0], ns: [2, 6], ls: [2, 2], ms_combs: [0, 0, 1, -1, 2, -2], ctildes: [-0.010510749792213463, -0.015840017506186695, 0.02102149958442693, 0.031680035012373389, -0.021021499584426933, -0.031680035012373396]}
    - {mu0: 0, rank: 2, ndensity: 2, num_ms_combs: 1, mus: [0, 0], ns: [3, 3], ls: [0, 0], ms_combs: [0, 0], ctildes: [0.2988246889215731, 0.019590199929779589]}
    - {mu0: 0, rank: 2, ndensity: 2, num_ms_combs: 2, mus: [0, 0], ns: [3, 3], ls: [1, 1], ms_combs: [0, 0, 1, -1], ctildes: [-0.033042928862096851, 0.0079639190004870027, 0.066085857724193703, -0.015927838000974002]}
    - {mu0: 0, rank: 2, ndensity: 2, num_ms_combs: 3, mus: [0, 0], ns: [3, 3], ls: [2, 2], ms_combs: [0, 0, 1, -1, 2, -2], ctildes: [-0.016275932928625735, -0.018288019295957157, 0.032551865857251477, 0.036576038591914314, -0.032551865857251484, -0.036576038591914328]}
    - {mu0: 0, rank: 2, ndensity: 2, num_ms_combs: 4, mus: [0, 0], ns: [3, 3], ls: [3, 3], ms_combs: [0, 0, 1, -1, 2, -2, 3, -3], ctildes: [-0.018645935360169324, -0.015320445720665252, 0.037291870720338648, 0.030640891441330503, -0.037291870720338641, -0.0306408914413305, 0.037291870720338641, 0.0306408914413305]}
    - {mu0: 0, rank: 2, ndensity: 2, num_ms_combs: 1, mus: [0, 0], ns: [3, 4], ls: [0, 0], ms_combs: [0, 0], ctildes: [0.029352773701025806, -0.040866698978806293]}
    - {mu0: 0, rank: 2, ndensity: 2, num_ms_combs: 2, mus: [0, 0], ns: [3, 4], ls: [1, 1], ms_combs: [0, 0, 1, -1], ctildes: [0.038090180515238992, 0.017847814219620256, -0.076180361030477969, -0.035695628439240505]}
    - {mu0: 0, rank: 2, ndensity: 2, num_ms_combs: 3, mus: [0, 0], ns: [3, 4], ls: [2, 2], ms_combs: [0, 0, 1, -1, 2, -2], ctildes: [0.019143180583945506, -0.048815422743124434, -0.038286361167891018, 0.097630845486248882, 0.038286361167891025, -0.09763084548624891]}
    - {mu0: 0, rank: 2, ndensity: 2, num_ms_combs: 4, mus: [0, 0], ns: [3, 4], ls: [3, 3], ms_combs: [0, 0, 1, -1, 2, -2, 3, -3], ctildes: [0.011567535212291164, 0.021523061122128942, -0.023135070424582328, -0.043046122244257884, 0.023135070424582325, 0.043046122244257877, -0.023135070424582325, -0.043046122244257877]}
    - {mu0: 0, rank: 2, ndensity: 2, num_ms_combs: 1, mus: [0, 0], ns: [3, 5], ls: [0, 0], ms_combs: [0, 0], ctildes: [-0.1753271134943914, 0.15808654645697881]}
    - {mu0: 0, rank: 2, ndensity: 2, num_ms_combs: 2, mus: [0, 0], ns: [3, 5], ls: [1, 1], ms_combs: [0, 0, 1, -1], ctildes: [0.071870794035540128, 0.027169171686703179, -0.14374158807108023, -0.054338343373406352]}
    - {mu0: 0, rank: 2, ndensity: 2, num_ms_combs: 3, mus: [0, 0], ns: [3, 5], ls: [2, 2], ms_combs: [0, 0, 1, -1, 2, -2], ctildes: [0.03874325038181, -0.13597478261174215, -0.077486500763620014, 0.27194956522348435, 0.077486500763620028, -0.2719495652234844]}
    - {mu0: 0, rank: 2, ndensity: 2, num_ms_combs: 1, mus: [0, 0], ns: [3, 6], ls: [0, 0], ms_combs: [0, 0], ctildes: [0.14094113884879364, 0.054323904381261896]}
    - {mu0: 0, rank: 2, ndensity: 2, num_ms_combs: 2, mus: [0, 0], ns: [3, 6], ls: [1, 1], ms_combs: [0, 0, 1, -1], ctildes: [-0.049653756116017272, 0.15005344576080454, 0.099307512232034531, -0.30010689152160902]}
    - {mu0: 0, rank: 2, ndensity: 2, num_ms_combs: 3, mus: [0, 0], ns: [3, 6], ls: [2, 2], ms_combs: [0, 0, 1, -1, 2, -2], ctildes: [0.052022916023075474, -0.16900892236682938, -0.10404583204615096, 0.33801784473365876, 0.10404583204615099, -0.33801784473365887]}
    - {mu0: 0, rank: 2, ndensity: 2, num_ms_combs: 1, mus: [0, 0], ns: [4, 4], ls: [0, 0], ms_combs: [0, 0], ctildes: [0.10173748634480338, -0.11506599984960562]}
    - {mu0: 0, rank: 2, ndensity: 2, num_ms_combs: 2, mus: [0, 0], ns: [4, 4], ls: [1, 1], ms_combs: [0, 0, 1, -1], ctildes: [-0.036822699762560598, -0.032806191495690036, 0.073645399525121183, 0.065612382991380058]}
    - {mu0: 0, rank: 2, ndensity: 2, num_ms_combs: 3, mus: [0, 0], ns: [4, 4], ls: [2, 2], ms_combs: [0, 0, 1, -1, 2, -2], ctildes: [0.00670083056160585, -0.041103570830979527, -0.0134016611232117, 0.082207141661959068, 0.013401661123211703, -0.082207141661959082]}
    - {mu0: 0, rank: 2, ndensity: 2, num_ms_combs: 1, mus: [0, 0], ns: [4, 5], ls: [0, 0], ms_combs: [0, 0], ctildes: [-0.30913836119078031, -0.0097805776945167136]}
    - {mu0: 0, rank: 2, ndensity: 2, num_ms_combs: 2, mus: [0, 0], ns: [4, 5], ls: [1, 1], ms_combs: [0, 0, 1, -1], ctildes: [-0.024336292179935329, -0.011770288065579051, 0.048672584359870652, 0.023540576131158099]}
    - {mu0: 0, rank: 2, ndensity: 2, num_ms_combs: 3, mus: [0, 0], ns: [4, 5], ls: [2, 2], ms_combs: [0, 0, 1, -1, 2, -2], ctildes: [0.0032119097552263678, -0.078619937733882359, -0.0064238195104527364, 0.15723987546776474, 0.0064238195104527373, -0.1572398754677648]}
    - {mu0: 0, rank: 2, ndensity: 2, num_ms_combs: 1, mus: [0, 0], ns: [4, 6], ls: [0, 0], ms_combs: [0, 0], ctildes: [0.18105094151322343, 0.063390721591665353]}
    - {mu0: 0, rank: 2, ndensity: 2, num_ms_combs: 2, mus: [0, 0], ns: [4, 6], ls: [1, 1], ms_combs: [0, 0, 1, -1], ctildes: [-0.036356672597596951, 0.050157034492406494, 0.072713345195193888, -0.10031406898481297]}
    - {mu0: 0, rank: 2, ndensity: 2, num_ms_combs: 1, mus: [0, 0], ns: [5, 5], ls: [0, 0], ms_combs: [0, 0], ctildes: [0.1142004922861887, 0.24747930480202388]}
    - {mu0: 0, rank: 2, ndensity: 2, num_ms_combs: 2, mus: [0, 0], ns: [5, 5], ls: [1, 1], ms_combs: [0, 0, 1, -1], ctildes: [0.0066090042233212208, -0.00060682589315390334, -0.01321800844664244, 0.0012136517863078065]}
    - {mu0: 0, rank: 2, ndensity: 2, num_ms_combs: 1, mus: [0, 0], ns: [5, 6], ls: [0, 0], ms_combs: [0, 0], ctildes: [-0.141714833727482, -0.38412209122356206]}
    - {mu0: 0, rank: 2, ndensity: 2, num_ms_combs: 2, mus: [0, 0], ns: [5, 6], ls: [1, 1], ms_combs: [0, 0, 1, -1], ctildes: [-0.018176831274536003, -0.048961731967981398, 0.036353662549071998, 0.097923463935962782]}
    - {mu0: 0, rank: 2, ndensity: 2, num_ms_combs: 1, mus: [0, 0], ns: [6, 6], ls: [0, 0], ms_combs: [0, 0], ctildes: [0.098424523974296671, -0.31392951512963679]}
    - {mu0: 0, rank: 3, ndensity: 2, num_ms_combs: 1, mus: [0, 0, 0], ns: [1, 1, 1], ls: [0, 0, 0], ms_combs: [0, 0, 0], ctildes: [-0.24620222019972657, -0.21314943462160427]}
    - {mu0: 0, rank: 3, ndensity: 2, num_ms_combs: 2, mus: [0, 0, 0], ns: [1, 1, 1], ls: [0, 1, 1], ms_combs: [0, 0, 0, 0, 1, -1], ctildes: [-0.044047222127998296, -0.052702817021289192, 0.088094444255996579, 0.10540563404257836]}
    - {mu0: 0, rank: 3, ndensity: 2, num_ms_combs: 3, mus: [0, 0, 0], ns: [1, 1, 1], ls: [0, 2, 2], ms_combs: [0, 0, 0, 0, 1, -1, 0, 2, -2], ctildes: [-0.064692377976492854, -0.054480261616200731, 0.12938475595298574, 0.10896052323240148, -0.12938475595298576, -0.1089605232324015]}
    - {mu0: 0, rank: 3, ndensity: 2, num_ms_combs: 4, mus: [0, 0, 0], ns: [1, 1, 1], ls: [0, 3, 3], ms_combs: [0, 0, 0, 0, 1, -1, 0, 2, -2, 0, 3, -3], ctildes: [-0.07598017509973827, -0.0050400952528792432, 0.15196035019947654, 0.010080190505758486, -0.15196035019947651, -0.010080190505758486, 0.15196035019947651, 0.010080190505758486]}
    - {mu0: 0, rank: 3, ndensity: 2, num_ms_combs: 4, mus: [0, 0, 0], ns: [1, 1, 1], ls: [1, 1, 2], ms_combs: [-1, 1, 0, 0, 0, 0, 0, 1, -1, 1, 1, -2], ctildes: [0.027748861586749794, 0.0092233312676367387, 0.027748861586749791, 0.009223331267636737, -0.096124876240893969, -0.031950556741170984, 0.067970551830653786, 0.022592455334367566]}
    - {mu0: 0, rank: 3, ndensity: 2, num_ms_combs: 8, mus: [0, 0, 0], ns: [1, 1, 1], ls: [1, 2, 3], ms_combs: [0, 0, 0, 0, 1, -1, 0, 2, -2, 1, -2, 1, 1, -1, 0, 1, 0, -1, 1, 1, -2, 1, 2, -3], ctildes: [-0.017501996823127662, -0.01127451460880499, 0.033002081701170617, 0.021259428625260809, -0.026090436425665869, -0.016807054052401599, 0.011667997882085106, 0.0075163430725366598, -0.020209565154377458, -0.013018688088751857, 0.028580641130983315, 0.018411205259417945, -0.036897449041409687, -0.023768763784444029, 0.045189961480899016, 0.029110671544315965]}
    - {mu0: 0, rank: 3, ndensity: 2, num_ms_combs: 5, mus: [0, 0, 0], ns: [1, 1, 1], ls: [2, 2, 2], ms_combs: [-2, 0, 2, -2, 1, 1, -1, -1, 2, -1, 0, 1, 0, 0, 0], ctildes: [0.37543035151453119, 0.052942622682608367, -0.30653759838810901, -0.043227470405696397, -0.15326879919405451, -0.021613735202848199, 0.18771517575726551, 0.026471311341304173, -0.062571725252421842, -0.0088237704471013905]}
    - {mu0: 0, rank: 3, ndensity: 2, num_ms_combs: 9, mus: [0, 0, 0], ns: [1, 1, 1], ls: [2, 3, 3], ms_combs: [0, -3, 3, 0, -1, 1, 0, 0, 0, 1, -3, 2, 1, -2, 1, 1, -1, 0, 2, -3, 1, 2, -2, 0, 2, -1, -1], ctildes: [-1.8174772148467824e-05, 0.0066339335009166708, 1.0904863289080693e-05, -0.003980360100550002, -7.2699088593871302e-06, 0.0026535734003666684, 3.6349544296935648e-05, -0.013267867001833342, -2.8156235940852115e-05, 0.010277245587559094, 1.0281203706161596e-05, -0.0037527194915510332, -2.29894703775001e-05, 0.0083913358835965568, 3.251202079963517e-05, -0.011867141013010273, -1.780756718203733e-05, 0.0064999008259204339]}
    - {mu0: 0, rank: 3, ndensity: 2, num_ms_combs: 1, mus: [0, 0, 0], ns: [1, 1, 2], ls: [0, 0, 0], ms_combs: [0, 0, 0], ctildes: [0.023185671243690458, -0.058736604167377415]}
    - {mu0: 0, rank: 3, ndensity: 2, num_ms_combs: 2, mus: [0, 0, 0], ns: [1, 1, 2], ls: [0, 1, 1], ms_combs: [0, 0, 0, 0, 1, -1], ctildes: [-0.019889080882462329, -0.041107819887129617, 0.039778161764924651, 0.082215639774259219]}
    - {mu0: 0, rank: 3, ndensity: 2, num_ms_combs: 3, mus: [0, 0, 0], ns: [1, 1, 2], ls: [0, 2, 2], ms_combs: [0, 0, 0, 0, 1, -1, 0, 2, -2], ctildes: [-0.15739533727357788, -0.062089435850355021, 0.31479067454715581, 0.12417887170071006, -0.31479067454715587, -0.12417887170071008]}
    - {mu0: 0, rank: 3, ndensity: 2, num_ms_combs: 4, mus: [0, 0, 0], ns: [1, 1, 2], ls: [0, 3, 3], ms_combs: [0, 0, 0, 0, 1, -1, 0, 2, -2, 0, 3, -3], ctildes: [0.055684179185376798, 0.018278688865148336, -0.1113683583707536, -0.036557377730296672, 0.11136835837075358, 0.036557377730296665, -0.11136835837075358, -0.036557377730296665]}
    - {mu0: 0, rank: 3, ndensity: 2, num_ms_combs: 2, mus: [0, 0, 0], ns: [1, 1, 2], ls: [1, 1, 0], ms_combs: [0, 0, 0, 1, -1, 0], ctildes: [-0.057421089024490488, -0.053430578799801856, 0.11484217804898095, 0.10686115759960368]}
    - {mu0: 0, rank: 3, ndensity: 2, num_ms_combs: 4, mus: [0, 0, 0], ns: [1, 1, 2], ls: [1, 1, 2], ms_combs: [-1, 1, 0, 0, 0, 0, 0, 1, -1, 1, 1, -2], ctildes: [0.012332687726314217, 0.01658694014874279, 0.012332687726314216, 0.016586940148742787, -0.04272168347171465, -0.057458846159453167, 0.030208792086554678, 0.040629539758503953]}
    - {mu0: 0, rank: 3, ndensity: 2, num_ms_combs: 5, mus: [0, 0, 0], ns: [1, 1, 2], ls: [1, 2, 1], ms_combs: [0, 0, 0, 0, 1, -1, 1, -2, 1, 1, -1, 0, 1, 0, -1], ctildes: [-0.015025220336280632, 0.0063334064298725904, 0.02602444501735519, -0.01096978172152274, -0.036804123096776623, 0.015513614086849937, 0.02602444501735519, -0.01096978172152274, -0.015025220336280631, 0.0063334064298725895]}
    - {mu0: 0, rank: 3, ndensity: 2, num_ms_combs: 8, mus: [0, 0, 0], ns: [1, 1, 2], ls: [1, 2, 3], ms_combs: [0, 0, 0, 0, 1, -1, 0, 2, -2, 1, -2, 1, 1, -1, 0, 1, 0, -1, 1, 1, -2, 1, 2, -3], ctildes: [-0.062873948694751478, -0.011411912788395935, 0.11855625461875693, 0.021518509117291328, -0.093726948863532292, -0.017011875165434984, 0.041915965796500983, 0.0076079418589306228, -0.072600582407858966, -0.01317734184069785, 0.10267272827737969, 0.018635575547141348, -0.13254992224265691, -0.024058424580356192, 0.16233983747004799, 0.029465432118552595]}
    - {mu0: 0, rank: 3, ndensity: 2, num_ms_combs: 8, mus: [0, 0, 0], ns: [1, 1, 2], ls: [1, 3, 2], ms_combs: [0, 0, 0, 0, 1, -1, 0, 2, -2, 1, -3, 2, 1, -2, 1, 1, -1, 0, 1, 0, -1, 1, 1, -2], ctildes: [-0.036678851002703565, -0.026407641439003361, 0.069162304720380527, 0.049794726231099096, -0.05467760278575437, -0.039366187588701279, 0.094704386060996126, 0.068184237003917958, -0.07732580741766272, -0.055672196386864742, 0.059896312872129938, 0.043123497890623176, -0.042353088999954172, -0.030492917786943425, 0.024452567335135723, 0.017605094292668919]}
    - {mu0: 0, rank: 3, ndensity: 2, num_ms_combs: 3, mus: [0, 0, 0], ns: [1, 1, 2], ls: [2, 2, 0], ms_combs: [0, 0, 0, 1, -1, 0, 2, -2, 0], ctildes: [-0.099632530916830817, -0.056839828356108534, 0.19926506183366166, 0.11367965671221708, -0.19926506183366172, -0.11367965671221711]}
    - {mu0: 0, rank: 3, ndensity: 2, num_ms_combs: 8, mus: [0, 0, 0], ns: [1, 1, 2], ls: [2, 2, 2], ms_combs: [-2, 1, 1, -2, 2, 0, -1, 1, 0, -1, 2, -1, 0, 0, 0, 0, 1, -1, 0, 2, -2, 1, 1, -2], ctildes: [0.076942247661190719, 0.023728700011737713, -0.06282308214425654, -0.019374402429443532, -0.03141154107212827, -0.0096872012147217659, 0.076942247661190719, 0.023728700011737713, 0.03141154107212827, 0.0096872012147217659, -0.06282308214425654, -0.019374402429443532, -0.12564616428851313, -0.038748804858887084, 0.076942247661190719, 0.023728700011737713]}
    - {mu0: 0, rank: 3, ndensity: 2, num_ms_combs: 8, mus: [0, 0, 0], ns: [1, 1, 2], ls: [2, 3, 1], ms_combs: [0, 0, 0, 0, 1, -1, 1, -2, 1, 1, -1, 0, 1, 0, -1, 2, -3, 1, 2, -2, 0, 2, -1, -1], ctildes: [0.034420956691047666, -0.01009602568642729, -0.056209186901003488, 0.016486740907852755, 0.072565748257148871, -0.021284290989783426, -0.064904778376448716, 0.019037248602416814, 0.039745897222681625, -0.011657886295608339, -0.088874528016636228, 0.026067826230943458, 0.051311732674505867, -0.015050266491623596, -0.022947304460698436, 0.0067306837909515242]}
    - {mu0: 0, rank: 3, ndensity: 2, num_ms_combs: 14, mus: [0, 0, 0], ns: [1, 1, 2], ls: [2, 3, 3], ms_combs: [0, 0, 0, 0, 1, -1, 0, 3, -3, 1, -3, 2, 1, -2, 1, 1, -1, 0, 1, 0, -1, 1, 1, -2, 1, 2, -3, 2, -3, 1, 2, -2, 0, 2, -1, -1, 2, 0, -2, 2, 1, -3], ctildes: [0.019269979359102088, -0.00074885141753655527, -0.028904969038653128, 0.0011232771263048327, 0.04817494839775522, -0.001872128543841388, -0.04817494839775522, 0.001872128543841388, 0.037316154569781532, -0.0014501445344514477, -0.013625933078145882, 0.00052951791544125662, -0.013625933078145892, 0.00052951791544125705, 0.037316154569781539, -0.0014501445344514479, -0.04817494839775522, 0.001872128543841388, 0.030468512619597158, -0.0011840380542306359, -0.043088983771970103, 0.0016744826746588157, 0.047201616783764125, -0.001834303866124435, -0.043088983771970103, 0.0016744826746588155, 0.030468512619597151, -0.0011840380542306357]}
    - {mu0: 0, rank: 3, ndensity: 2, num_ms_combs: 4, mus: [0, 0, 0], ns: [1, 1, 2], ls: [3, 3, 0], ms_combs: [0, 0, 0, 1, -1, 0, 2, -2, 0, 3, -3, 0], ctildes: [0.069188828766565402, 0.011466488322106623, -0.1383776575331308, -0.022932976644213246, 0.13837765753313078, 0.022932976644213243, -0.13837765753313078, -0.022932976644213243]}
    - {mu0: 0, rank: 3, ndensity: 2, num_ms_combs: 12, mus: [0, 0, 0], ns: [1, 1, 2], ls: [3, 3, 2], ms_combs: [-3, 1, 2, -3, 2, 1, -3, 3, 0, -2, 1, 1, -2, 3, -1, -1, 1, 0, -1, 2, -1, -1, 3, -2, 0, 0, 0, 0, 1, -1, 0, 2, -2, 1, 1, -2], ctildes: [-0.0075941141710752069, 0.037006780316972, 0.012007348795979617, -0.05851285733555972, -0.012007348795979615, 0.058512857335559713, -0.0093008523837865495, 0.045323864399926674, 0.012007348795979617, -0.05851285733555972, 0.0072044092775877672, -0.035107714401335817, -0.0093008523837865495, 0.045323864399926674, -0.0075941141710752069, 0.037006780316972, -0.0048029395183918459, 0.023405142934223886, 0.0067923822061674534, -0.03309987056686025, 0.021479398509888552, -0.10467098124804707, -0.01176475108550881, 0.057330657545755614]}
    - {mu0: 0, rank: 3, ndensity: 2, num_ms_combs: 1, mus: [0, 0, 0], ns: [1, 1, 3], ls: [0, 0, 0], ms_combs: [0, 0, 0], ctildes: [0.11931218517291892, 0.021355611442018686]}
    - {mu0: 0, rank: 3, ndensity: 2, num_ms_combs: 2, mus: [0, 0, 0], ns: [1, 1, 3], ls: [0, 1, 1], ms_combs: [0, 0, 0, 0, 1, -1], ctildes: [0.0099906491280486818, 0.034477600623511469, -0.01998129825609736, -0.068955201247022924]}
    - {mu0: 0, rank: 3, ndensity: 2, num_ms_combs: 3, mus: [0, 0, 0], ns: [1, 1, 3], ls: [0, 2, 2], ms_combs: [0, 0, 0, 0, 1, -1, 0, 2, -2], ctildes: [0.0590869608004174, 0.0077300448955609172, -0.11817392160083481, -0.015460089791121836, 0.11817392160083484, 0.01546008979112184]}
    - {mu0: 0, rank: 3, ndensity: 2, num_ms_combs: 4, mus: [0, 0, 0], ns: [1, 1, 3], ls: [0, 3, 3], ms_combs: [0, 0, 0, 0, 1, -1, 0, 2, -2, 0, 3, -3], ctildes: [0.10422902049520361, 0.00092430414724775731, -0.20845804099040721, -0.0018486082944955146, 0.20845804099040718, 0.0018486082944955144, -0.20845804099040718, -0.0018486082944955144]}
    - {mu0: 0, rank: 3, ndensity: 2, num_ms_combs: 2, mus: [0, 0, 0], ns: [1, 1, 3], ls: [1, 1, 0], ms_combs: [0, 0, 0, 1, -1, 0], ctildes: [0.011532135674968226, -0.0055252637812969645, -0.023064271349936449, 0.011050527562593927]}
    - {mu0: 0, rank: 3, ndensity: 2, num_ms_combs: 4, mus: [0, 0, 0], ns: [1, 1, 3], ls: [1, 1, 2], ms_combs: [-1, 1, 0, 0, 0, 0, 0, 1, -1, 1, 1, -2], ctildes: [-0.072200956279804579, -0.0029699100565947212, -0.072200956279804579, -0.0029699100565947207, 0.25011144926336148, 0.010288070223863634, -0.17685550182651807, -0.0072747642206173789]}
    - {mu0: 0, rank: 3, ndensity: 2, num_ms_combs: 5, mus: [0, 0, 0], ns: [1, 1, 3], ls: [1, 2, 1], ms_combs: [0, 0, 0, 0, 1, -1, 1, -2, 1, 1, -1, 0, 1, 0, -1], ctildes: [0.020277112558879692, 0.00077229055840082658, -0.035120989182772601, -0.001337646485355971, 0.049668579226235771, 0.0018917178012511175, -0.035120989182772601, -0.001337646485355971, 0.020277112558879689, 0.00077229055840082647]}
    - {mu0: 0, rank: 3, ndensity: 2, num_ms_combs: 8, mus: [0, 0, 0], ns: [1, 1, 3], ls: [1, 2, 3], ms_combs: [0, 0, 0, 0, 1, -1, 0, 2, -2, 1, -2, 1, 1, -1, 0, 1, 0, -1, 1, 1, -2, 1, 2, -3], ctildes: [0.10007701075810951, 0.010267010189668919, -0.18870702119450214, -0.019359660073670064, 0.14918599936007371, 0.015305155139855137, -0.066718007172072991, -0.0068446734597792788, 0.11555897820177517, 0.011855322193555961, -0.16342507422692734, -0.016765957432429594, 0.21098086361120008, 0.021644757973007418, -0.25839773066958566, -0.026509306319953043]}
    - {mu0: 0, rank: 3, ndensity: 2, num_ms_combs: 8, mus: [0, 0, 0], ns: [1, 1, 3], ls: [1, 3, 2], ms_combs: [0, 0, 0, 0, 1, -1, 0, 2, -2, 1, -3, 2, 1, -2, 1, 1, -1, 0, 1, 0, -1, 1, 1, -2], ctildes: [0.069202094391999869, -0.022932165745468504, -0.13048872057838581, 0.043241306415772382, 0.10316039149724587, -0.034185254318773166, -0.17867903940192623, 0.059210597349778502, 0.14589082475512316, -0.048345250290782411, -0.11300654692821135, 0.037448069848885913, 0.079907695651414062, -0.026479784132494719, -0.046134729594666607, 0.015288110496979011]}
    - {mu0: 0, rank: 3, ndensity: 2, num_ms_combs: 3, mus: [0, 0, 0], ns: [1, 1, 3], ls: [2, 2, 0], ms_combs: [0, 0, 0, 1, -1, 0, 2, -2, 0], ctildes: [0.043624973282069067, -0.0098660999099773501, -0.087249946564138148, 0.019732199819954704, 0.087249946564138176, -0.019732199819954707]}
    - {mu0: 0, rank: 3, ndensity: 2, num_ms_combs: 8, mus: [0, 0, 0], ns: [1, 1, 3], ls: [2, 2, 2], ms_combs: [-2, 1, 1, -2, 2, 0, -1, 1, 0, -1, 2, -1, 0, 0, 0, 0, 1, -1, 0, 2, -2, 1, 1, -2], ctildes: [0.021658497178235234, 0.046630001352340876, -0.017684088894061863, -0.038073236672841557, -0.0088420444470309317, -0.019036618336420778, 0.021658497178235234, 0.046630001352340876, 0.0088420444470309317, 0.019036618336420778, -0.017684088894061863, -0.038073236672841557, -0.035368177788123747, -0.076146473345683155, 0.021658497178235234, 0.046630001352340876]}
    - {mu0: 0, rank: 3, ndensity: 2, num_ms_combs: 8, mus: [0, 0, 0], ns: [1, 1, 3], ls: [2, 3, 1], ms_combs: [0, 0, 0, 0, 1, -1, 1, -2, 1, 1, -1, 0, 1, 0, -1, 2, -3, 1, 2, -2, 0, 2, -1, -1], ctildes: [-0.07752790148490657, -0.011076364127076388, 0.12660253297785551, 0.018087626877736768, -0.16344316727030328, -0.023351025889962723, 0.14618801298970677, 0.020885792493725672, -0.089521509584035139, -0.012789883620819727, 0.20017618087830155, 0.02859904920046406, -0.11557177191543863, -0.01651166875445528, 0.051685267656604361, 0.0073842427513842552]}
    - {mu0: 0, rank: 3, ndensity: 2, num_ms_combs: 4, mus: [0, 0, 0], ns: [1, 1, 3], ls: [3, 3, 0], ms_combs: [0, 0, 0, 1, -1, 0, 2, -2, 0, 3, -3, 0], ctildes: [0.027359391350549347, 0.024204695756293148, -0.054718782701098694, -0.048409391512586296, 0.054718782701098687, 0.048409391512586289, -0.054718782701098687, -0.048409391512586289]}
    - {mu0: 0, rank: 3, ndensity: 2, num_ms_combs: 1, mus: [0, 0, 0], ns: [1, 1, 4], ls: [0, 0, 0], ms_combs: [0, 0, 0], ctildes: [-0.050600496204808623, -0.13724514041866917]}
    - {mu0: 0, rank: 3, ndensity: 2, num_ms_combs: 2, mus: [0, 0, 0], ns: [1, 1, 4], ls: [0, 1, 1], ms_combs: [0, 0, 0, 0, 1, -1], ctildes: [0.042867397698935196, 0.06241359049296711, -0.085734795397870378, -0.12482718098593419]}
    - {mu0: 0, rank: 3, ndensity: 2, num_ms_combs: 3, mus: [0, 0, 0], ns: [1, 1, 4], ls: [0, 2, 2], ms_combs: [0, 0, 0, 0, 1, -1, 0, 2, -2], ctildes: [0.1235484532733573, 0.029958521805060777, -0.24709690654671462, -0.059917043610121561, 0.24709690654671468, 0.059917043610121574]}
    - {mu0: 0, rank: 3, ndensity: 2, num_ms_combs: 4, mus: [0, 0, 0], ns: [1, 1, 4], ls: [0, 3, 3], ms_combs: [0, 0, 0, 0, 1, -1, 0, 2, -2, 0, 3, -3], ctildes: [0.0039200103465680007, 0.085285236797253652, -0.0078400206931360013, -0.1705704735945073, 0.0078400206931359996, 0.17057047359450728, -0.0078400206931359996, -0.17057047359450728]}
    - {mu0: 0, rank: 3, ndensity: 2, num_ms_combs: 2, mus: [0, 0, 0], ns: [1, 1, 4], ls: [1, 1, 0], ms_combs: [0, 0, 0, 1, -1, 0], ctildes: [-0.053036428087859189, -0.012757268962086758, 0.10607285617571835, 0.025514537924173512]}
    - {mu0: 0, rank: 3, ndensity: 2, num_ms_combs: 4, mus: [0, 0, 0], ns: [1, 1, 4], ls: [1, 1, 2], ms_combs: [-1, 1, 0, 0, 0, 0, 0, 1, -1, 1, 1, -2], ctildes: [0.070141835751916348, -0.0049204446447158349, 0.070141835751916334, -0.0049204446447158341, -0.24297844651694056, 0.017044920240956041, 0.17181170721430156, -0.01205257868716386]}
    - {mu0: 0, rank: 3, ndensity: 2, num_ms_combs: 5, mus: [0, 0, 0], ns: [1, 1, 4], ls: [1, 2, 1], ms_combs: [0, 0, 0, 0, 1, -1, 1, -2, 1, 1, -1, 0, 1, 0, -1], ctildes: [0.12141701222761836, 0.011475888591378254, -0.21030043408144664, -0.019876822102267173, 0.29740972605093086, 0.028110071393903525, -0.21030043408144664, -0.019876822102267173, 0.12141701222761835, 0.011475888591378252]}
    - {mu0: 0, rank: 3, ndensity: 2, num_ms_combs: 8, mus: [0, 0, 0], ns: [1, 1, 4], ls: [1, 2, 3], ms_combs: [0, 0, 0, 0, 1, -1, 0, 2, -2, 1, -2, 1, 1, -1, 0, 1, 0, -1, 1, 1, -2, 1, 2, -3], ctildes: [0.026605723860049082, -0.0011968603914229623, -0.050168234026179814, 0.0022568215970900324, 0.039661471427771884, -0.0017841741298658326, -0.017737149240032717, 0.00079790692761530805, 0.030721643665168368, -0.001382015338340896, -0.043446965129674588, 0.0019544648348893373, 0.056089790796827993, -0.0025232032520914761, -0.068695683615842246, 0.0030902802424776147]}
    - {mu0: 0, rank: 3, ndensity: 2, num_ms_combs: 8, mus: [0, 0, 0], ns: [1, 1, 4], ls: [1, 3, 2], ms_combs: [0, 0, 0, 0, 1, -1, 0, 2, -2, 1, -3, 2, 1, -2, 1, 1, -1, 0, 1, 0, -1, 1, 1, -2], ctildes: [-0.013322168388611447, -0.016688207851133893, 0.025120521620523247, 0.031467586499699635, -0.019859516083089366, -0.024877311451854067, 0.034397690869642041, 0.043088767390326306, -0.028085596986871578, -0.035181831250591523, 0.021755009879689369, 0.027251729304524124, -0.01538311501070869, -0.019269882590289167, 0.0088814455924076368, 0.011125471900755935]}
    - {mu0: 0, rank: 3, ndensity: 2, num_ms_combs: 3, mus: [0, 0, 0], ns: [1, 1, 4], ls: [2, 2, 0], ms_combs: [0, 0, 0, 1, -1, 0, 2, -2, 0], ctildes: [0.14005251905429525, -0.013095143747686002, -0.28010503810859055, 0.026190287495372007, 0.28010503810859061, -0.026190287495372014]}
    - {mu0: 0, rank: 3, ndensity: 2, num_ms_combs: 8, mus: [0, 0, 0], ns: [1, 1, 4], ls: [2, 2, 2], ms_combs: [-2, 1, 1, -2, 2, 0, -1, 1, 0, -1, 2, -1, 0, 0, 0, 0, 1, -1, 0, 2, -2, 1, 1, -2], ctildes: [-0.012051915239023594, 0.03356741014432621, 0.00984034758629352, -0.027407675613441009, 0.00492017379314676, -0.013703837806720505, -0.012051915239023594, 0.03356741014432621, -0.00492017379314676, 0.013703837806720505, 0.00984034758629352, -0.027407675613441009, 0.019680695172587054, -0.054815351226882053, -0.012051915239023594, 0.03356741014432621]}
    - {mu0: 0, rank: 3, ndensity: 2, num_ms_combs: 8, mus: [0, 0, 0], ns: [1, 1, 4], ls: [2, 3, 1], ms_combs: [0, 0, 0, 0, 1, -1, 1, -2, 1, 1, -1, 0, 1, 0, -1, 2, -3, 1, 2, -2, 0, 2, -1, -1], ctildes: [0.045536749567810182, 0.0095320911196343592, -0.074361200657358212, -0.015565839616545982, 0.095999897249978802, 0.02009541253487275, -0.085864918433579102, -0.017973883385550733, 0.052581309241991545, 0.011006710747721872, -0.11757538181103104, -0.02461175344058365, 0.067882178338671814, 0.014209602474149671, -0.030357833045206777, -0.0063547274130895705]}
    - {mu0: 0, rank: 3, ndensity: 2, num_ms_combs: 4, mus: [0, 0, 0], ns: [1, 1, 4], ls: [3, 3, 0], ms_combs: [0, 0, 0, 1, -1, 0, 2, -2, 0, 3, -3, 0], ctildes: [-0.026173973364588699, 0.069462955690651584, 0.052347946729177398, -0.13892591138130317, -0.052347946729177391, 0.13892591138130314, 0.052347946729177391, -0.13892591138130314]}
    - {mu0: 0, rank: 3, ndensity: 2, num_ms_combs: 1, mus: [0, 0, 0], ns: [1, 2, 2], ls: [0, 0, 0], ms_combs: [0, 0, 0], ctildes: [0.1888403554918841, 0.034905186047100238]}
    - {mu0: 0, rank: 3, ndensity: 2, num_ms_combs: 2, mus: [0, 0, 0], ns: [1, 2, 2], ls: [0, 1, 1], ms_combs: [0, 0, 0, 0, 1, -1], ctildes: [0.047784142133289249, -0.062859617026921569, -0.095568284266578485, 0.12571923405384314]}
    - {mu0: 0, rank: 3, ndensity: 2, num_ms_combs: 3, mus: [0, 0, 0], ns: [1, 2, 2], ls: [0, 2, 2], ms_combs: [0, 0, 0, 0, 1, -1, 0, 2, -2], ctildes: [0.11743516236260329, 0.0095370237227195512, -0.23487032472520661, -0.019074047445439102, 0.23487032472520666, 0.019074047445439109]}
    - {mu0: 0, rank: 3, ndensity: 2, num_ms_combs: 4, mus: [0, 0, 0], ns: [1, 2, 2], ls: [0, 3, 3], ms_combs: [0, 0, 0, 0, 1, -1, 0, 2, -2, 0, 3, -3], ctildes: [-0.019160067197721183, 0.017672560706729946, 0.038320134395442365, -0.035345121413459892, -0.038320134395442358, 0.035345121413459885, 0.038320134395442358, -0.035345121413459885]}
    - {mu0: 0, rank: 3, ndensity: 2, num_ms_combs: 2, mus: [0, 0, 0], ns: [1, 2, 2], ls: [1, 0, 1], ms_combs: [0, 0, 0, 1, 0, -1], ctildes: [-0.026215552164199359, -0.044878762100927019, 0.052431104328398703, 0.089757524201854011]}
    - {mu0: 0, rank: 3, ndensity: 2, num_ms_combs: 5, mus: [0, 0, 0], ns: [1, 2, 2], ls: [1, 1, 2], ms_combs: [0, 0, 0, 0, 1, -1, 1, -1, 0, 1, 0, -1, 1, 1, -2], ctildes: [0.085169465002630965, 0.01723339463254947, -0.14751784063801623, -0.029849115090460475, 0.085169465002630979, 0.017233394632549474, -0.14751784063801623, -0.029849115090460475, 0.20862173092227551, 0.042213023385764624]}
    - {mu0: 0, rank: 3, ndensity: 2, num_ms_combs: 8, mus: [0, 0, 0], ns: [1, 2, 2], ls: [1, 2, 3], ms_combs: [0, 0, 0, 0, 1, -1, 0, 2, -2, 1, -2, 1, 1, -1, 0, 1, 0, -1, 1, 1, -2, 1, 2, -3], ctildes: [0.057554423568487674, -0.0071222197832998954, -0.10852566184682796, 0.01342978641565957, 0.085797069003302945, -0.010617178390768254, -0.038369615712325111, 0.00474814652219993, 0.066458123880640194, -0.0082240310182317439, -0.093985980121872634, 0.011630536203360348, 0.1213353785963313, -0.015014957674359017, -0.14860488265421357, 0.018389492405832989]}
    - {mu0: 0, rank: 3, ndensity: 2, num_ms_combs: 3, mus: [0, 0, 0], ns: [1, 2, 2], ls: [2, 0, 2], ms_combs: [0, 0, 0, 1, 0, -1, 2, 0, -2], ctildes: [-0.097297528902463681, -0.052697845430719557, 0.19459505780492739, 0.10539569086143913, -0.19459505780492745, -0.10539569086143916]}
    - {mu0: 0, rank: 3, ndensity: 2, num_ms_combs: 4, mus: [0, 0, 0], ns: [1, 2, 2], ls: [2, 1, 1], ms_combs: [0, -1, 1, 0, 0, 0, 1, -1, 0, 2, -1, -1], ctildes: [0.13995747823420321, 0.0032722291701983235, 0.13995747823420324, 0.0032722291701983239, -0.48482692640171055, -0.01133533435358489, 0.3428244073604807, 0.0080152917884367056]}
    - {mu0: 0, rank: 3, ndensity: 2, num_ms_combs: 8, mus: [0, 0, 0], ns: [1, 2, 2], ls: [2, 1, 3], ms_combs: [0, 0, 0, 0, 1, -1, 1, -1, 0, 1, 0, -1, 1, 1, -2, 2, -1, -1, 2, 0, -2, 2, 1, -3], ctildes: [-0.029260110644895389, 0.0036645290623109682, 0.047781560598248091, -0.0059841509001743827, -0.033786665514697174, 0.0042314336811568876, 0.055173393747397902, -0.0069099022661740419, -0.061685729484271763, 0.0077255055925224986, 0.01950674042993026, -0.0024430193748739785, -0.043618397620767524, 0.005462757392567256, 0.075549280823910783, -0.0094617733533489713]}
    - {mu0: 0, rank: 3, ndensity: 2, num_ms_combs: 7, mus: [0, 0, 0], ns: [1, 2, 2], ls: [2, 2, 2], ms_combs: [0, -2, 2, 0, -1, 1, 0, 0, 0, 1, -2, 1, 1, -1, 0, 2, -2, 0, 2, -1, -1], ctildes: [0.0053542538697533958, -0.026979800383415742, 0.0026771269348766966, -0.013489900191707864, -0.0026771269348766966, 0.013489900191707864, -0.013115189934218079, 0.066086744301514497, 0.0053542538697533932, -0.026979800383415728, 0.010708507739506788, -0.053959600766831463, -0.0065575949671090395, 0.033043372150757248]}
    - {mu0: 0, rank: 3, ndensity: 2, num_ms_combs: 4, mus: [0, 0, 0], ns: [1, 2, 2], ls: [3, 0, 3], ms_combs: [0, 0, 0, 1, 0, -1, 2, 0, -2, 3, 0, -3], ctildes: [0.037445499182374879, 0.022619924823638449, -0.074890998364749758, -0.045239849647276897, 0.074890998364749745, 0.04523984964727689, -0.074890998364749745, -0.04523984964727689]}
    - {mu0: 0, rank: 3, ndensity: 2, num_ms_combs: 8, mus: [0, 0, 0], ns: [1, 2, 2], ls: [3, 1, 2], ms_combs: [0, 0, 0, 0, 1, -1, 1, -1, 0, 1, 0, -1, 1, 1, -2, 2, -1, -1, 2, 0, -2, 3, -1, -2], ctildes: [-0.02216224735687982, -0.0062636732633697531, -0.025590758954683282, -0.0072326668894447804, 0.036190798385133824, 0.010228535607179635, 0.041789534379688971, 0.011810895572441669, 0.01477483157125322, 0.0041757821755798374, -0.046722119810524522, -0.01320498268756543, -0.033037527749432236, -0.0093373328038284815, 0.057222676618483286, 0.016172734823410487]}
    - {mu0: 0, rank: 3, ndensity: 2, num_ms_combs: 1, mus: [0, 0, 0], ns: [1, 2, 3], ls: [0, 0, 0], ms_combs: [0, 0, 0], ctildes: [0.11755642404665377, 0.057750885043002027]}
    - {mu0: 0, rank: 3, ndensity: 2, num_ms_combs: 2, mus: [0, 0, 0], ns: [1, 2, 3], ls: [0, 1, 1], ms_combs: [0, 0, 0, 0, 1, -1], ctildes: [-0.048991287119267167, 0.049831385985803264, 0.09798257423853432, -0.099662771971606501]}
    - {mu0: 0, rank: 3, ndensity: 2, num_ms_combs: 3, mus: [0, 0, 0], ns: [1, 2, 3], ls: [0, 2, 2], ms_combs: [0, 0, 0, 0, 1, -1, 0, 2, -2], ctildes: [-0.081484662233018021, -0.004405425068167006, 0.16296932446603607, 0.0088108501363340138, -0.1629693244660361, -0.0088108501363340155]}
    - {mu0: 0, rank: 3, ndensity: 2, num_ms_combs: 4, mus: [0, 0, 0], ns: [1, 2, 3], ls: [0, 3, 3], ms_combs: [0, 0, 0, 0, 1, -1, 0, 2, -2, 0, 3, -3], ctildes: [0.015310573620873525, -0.056988434210553253, -0.030621147241747051, 0.11397686842110651, 0.030621147241747044, -0.11397686842110649, -0.030621147241747044, 0.11397686842110649]}
    - {mu0: 0, rank: 3, ndensity: 2, num_ms_combs: 2, mus: [0, 0, 0], ns: [1, 2, 3], ls: [1, 0, 1], ms_combs: [0, 0, 0, 1, 0, -1], ctildes: [0.0084362920008127576, 0.03016002913195585, -0.016872584001625515, -0.060320058263911687]}
    - {mu0: 0, rank: 3, ndensity: 2, num_ms_combs: 2, mus: [0, 0, 0], ns: [1, 2, 3], ls: [1, 1, 0], ms_combs: [0, 0, 0, 1, -1, 0], ctildes: [-0.060816304344650254, -0.0276490902099461, 0.12163260868930048, 0.055298180419892186]}
    - {mu0: 0, rank: 3, ndensity: 2, num_ms_combs: 5, mus: [0, 0, 0], ns: [1, 2, 3], ls: [1, 1, 2], ms_combs: [0, 0, 0, 0, 1, -1, 1, -1, 0, 1, 0, -1, 1, 1, -2], ctildes: [0.1668594686592148, 0.056707467483033749, -0.28900907744170684, -0.098220214849174481, 0.16685946865921483, 0.056707467483033763, -0.28900907744170684, -0.098220214849174481, 0.40872055696699799, 0.13890435993890185]}
    - {mu0: 0, rank: 3, ndensity: 2, num_ms_combs: 5, mus: [0, 0, 0], ns: [1, 2, 3], ls: [1, 2, 1], ms_combs: [0, 0, 0, 0, 1, -1, 1, -2, 1, 1, -1, 0, 1, 0, -1], ctildes: [0.047204648054867356, -0.0084417123841543772, -0.081760848784437651, 0.014621474752238784, 0.11562730122208749, -0.020677887896511874, -0.081760848784437651, 0.014621474752238784, 0.047204648054867349, -0.0084417123841543755]}
    - {mu0: 0, rank: 3, ndensity: 2, num_ms_combs: 8, mus: [0, 0, 0], ns: [1, 2, 3], ls: [1, 2, 3], ms_combs: [0, 0, 0, 0, 1, -1, 0, 2, -2, 1, -2, 1, 1, -1, 0, 1, 0, -1, 1, 1, -2, 1, 2, -3], ctildes: [-0.0017643991118532173, -0.001184685328592814, 0.0033269828712291509, 0.0022338640784538453, -0.0026302109023626985, -0.0017660246177868043, 0.0011762660745688114, 0.00078979021906187591, -0.0020373526043727828, -0.0013679567867361227, 0.0028812516844401365, 0.0019345830405425445, -0.0037196799300229042, -0.0024975359659588602, 0.0045556589175137774, 0.0030588443654241521]}
    - {mu0: 0, rank: 3, ndensity: 2, num_ms_combs: 8, mus: [0, 0, 0], ns: [1, 2, 3], ls: [1, 3, 2], ms_combs: [0, 0, 0, 0, 1, -1, 0, 2, -2, 1, -3, 2, 1, -2, 1, 1, -1, 0, 1, 0, -1, 1, 1, -2], ctildes: [-0.02352409597244216, -0.0096166770283072425, 0.044357460755725352, 0.018133380104525202, -0.03506765180240648, -0.014335695701970453, 0.06073895462390233, 0.024830153317659601, -0.04959314877954054, -0.020273735287780294, 0.038414687861829444, 0.015703967826998143, -0.027163286284264156, -0.011104382142005759, 0.015682730648294781, 0.0064111180188714985]}
    - {mu0: 0, rank: 3, ndensity: 2, num_ms_combs: 3, mus: [0, 0, 0], ns: [1, 2, 3], ls: [2, 0, 2], ms_combs: [0, 0, 0, 1, 0, -1, 2, 0, -2], ctildes: [0.028158229805042217, 0.0064476306308535675, -0.056316459610084441, -0.012895261261707137, 0.056316459610084454, 0.01289526126170714]}
    - {mu0: 0, rank: 3, ndensity: 2, num_ms_combs: 5, mus: [0, 0, 0], ns: [1, 2, 3], ls: [2, 1, 1], ms_combs: [0, 0, 0, 0, 1, -1, 1, -1, 0, 1, 0, -1, 2, -1, -1], ctildes: [-0.0032191143546680045, -0.0053137074608335536, -0.0032191143546680041, -0.0053137074608335527, 0.0055756696176592823, 0.0092036112987215254, 0.0055756696176592823, 0.0092036112987215254, -0.0078851875926053659, -0.013015871921462235]}
    - {mu0: 0, rank: 3, ndensity: 2, num_ms_combs: 8, mus: [0, 0, 0], ns: [1, 2, 3], ls: [2, 1, 3], ms_combs: [0, 0, 0, 0, 1, -1, 1, -1, 0, 1, 0, -1, 1, 1, -2, 2, -1, -1, 2, 0, -2, 2, 1, -3], ctildes: [0.03323472514153146, 0.031540986834791652, -0.054272078892266346, -0.051506215819387607, 0.038376155013812821, 0.0364203944791468, -0.062667998715861165, -0.059474255136524795, 0.070064952571267519, 0.066494238698217717, -0.022156483427687636, -0.021027324556527765, 0.049543403086657091, 0.047018527093346696, -0.085811691325954828, -0.081438477822730282]}
    - {mu0: 0, rank: 3, ndensity: 2, num_ms_combs: 3, mus: [0, 0, 0], ns: [1, 2, 3], ls: [2, 2, 0], ms_combs: [0, 0, 0, 1, -1, 0, 2, -2, 0], ctildes: [0.14358833708418772, 0.0052122162729971904, -0.2871766741683755, -0.010424432545994382, 0.28717667416837556, 0.010424432545994384]}
    - {mu0: 0, rank: 3, ndensity: 2, num_ms_combs: 10, mus: [0, 0, 0], ns: [1, 2, 3], ls: [2, 2, 2], ms_combs: [0, 0, 0, 0, 1, -1, 0, 2, -2, 1, -2, 1, 1, -1, 0, 1, 0, -1, 1, 1, -2, 2, -2, 0, 2, -1, -1, 2, 0, -2], ctildes: [0.002685144175154541, 0.016607493474424452, -0.002685144175154541, -0.016607493474424452, -0.0053702883503090855, -0.033214986948848925, 0.0065772331149350476, 0.04067988491894127, -0.002685144175154541, -0.016607493474424452, -0.002685144175154541, -0.016607493474424452, 0.0065772331149350476, 0.04067988491894127, -0.0053702883503090821, -0.033214986948848904, 0.0065772331149350476, 0.04067988491894127, -0.0053702883503090855, -0.033214986948848925]}
    - {mu0: 0, rank: 3, ndensity: 2, num_ms_combs: 8, mus: [0, 0, 0], ns: [1, 2, 3], ls: [2, 3, 1], ms_combs: [0, 0, 0, 0, 1, -1, 1, -2, 1, 1, -1, 0, 1, 0, -1, 2, -3, 1, 2, -2, 0, 2, -1, -1], ctildes: [0.016269533476358667, -0.0051355734622198744, -0.026568036913472055, 0.0083863563460113803, 0.034299188169100402, -0.010826739487820989, -0.030678126527666022, 0.0096837301877795955, 0.018786439064330602, -0.0059300494417114822, -0.042007754803000778, 0.013259993661601554, 0.024253188543564296, -0.0076556609099783894, -0.010846355650905776, 0.0034237156414799147]}
    - {mu0: 0, rank: 3, ndensity: 2, num_ms_combs: 4, mus: [0, 0, 0], ns: [1, 2, 3], ls: [3, 0, 3], ms_combs: [0, 0, 0, 1, 0, -1, 2, 0, -2, 3, 0, -3], ctildes: [-0.1188685855777928, -0.014774072420508702, 0.2377371711555856, 0.029548144841017403, -0.23773717115558557, -0.0295481448410174, 0.23773717115558557, 0.0295481448410174]}
    - {mu0: 0, rank: 3, ndensity: 2, num_ms_combs: 8, mus: [0, 0, 0], ns: [1, 2, 3], ls: [3, 1, 2], ms_combs: [0, 0, 0, 0, 1, -1, 1, -1, 0, 1, 0, -1, 1, 1, -2, 2, -1, -1, 2, 0, -2, 3, -1, -2], ctildes: [0.018708385241506212, 0.056029960248750968, 0.021602582510573676, 0.064697825264600828, -0.030550665168737116, -0.091496541945243162, -0.03527686951818499, -0.10565110624401204, -0.012472256827670815, -0.037353306832500661, 0.039440739138025947, 0.11812152772983171, 0.027888814099507827, 0.08352453326187885, -0.048304842983190814, -0.14466873528805077]}
    - {mu0: 0, rank: 3, ndensity: 2, num_ms_combs: 8, mus: [0, 0, 0], ns: [1, 2, 3], ls: [3, 2, 1], ms_combs: [0, 0, 0, 0, 1, -1, 1, -2, 1, 1, -1, 0, 1, 0, -1, 2, -2, 0, 2, -1, -1, 3, -2, -1], ctildes: [0.012466934364310393, 0.020007645426197811, 0.014395575822407997, 0.023102838945331772, -0.0083112895762069254, -0.013338430284131869, -0.023507876878963944, -0.037726778017174625, -0.020358418566219609, -0.032672348165809523, 0.018584608473084109, 0.029825636828460702, 0.02628260535402948, 0.042179820109223588, -0.032189486114156722, -0.051659518354991399]}
    - {mu0: 0, rank: 3, ndensity: 2, num_ms_combs: 4, mus: [0, 0, 0], ns: [1, 2, 3], ls: [3, 3, 0], ms_combs: [0, 0, 0, 1, -1, 0, 2, -2, 0, 3, -3, 0], ctildes: [-0.076423547445759021, 0.018699016912920873, 0.15284709489151804, -0.037398033825841746, -0.15284709489151801, 0.037398033825841739, 0.15284709489151801, -0.037398033825841739]}
    - {mu0: 0, rank: 3, ndensity: 2, num_ms_combs: 1, mus: [0, 0, 0], ns: [1, 2, 4], ls: [0, 0, 0], ms_combs: [0, 0, 0], ctildes: [0.096925003786558758, -0.039144066438738238]}
    - {mu0: 0, rank: 3, ndensity: 2, num_ms_combs: 2, mus: [0, 0, 0], ns: [1, 2, 4], ls: [0, 1, 1], ms_combs: [0, 0, 0, 0, 1, -1], ctildes: [-0.042360369612008127, -0.1136905065443807, 0.084720739224016239, 0.22738101308876135]}
    - {mu0: 0, rank: 3, ndensity: 2, num_ms_combs: 3, mus: [0, 0, 0], ns: [1, 2, 4], ls: [0, 2, 2], ms_combs: [0, 0, 0, 0, 1, -1, 0, 2, -2], ctildes: [0.043035923893782954, -0.035431687281730226, -0.086071847787565922, 0.070863374563460466, 0.086071847787565936, -0.070863374563460479]}
    - {mu0: 0, rank: 3, ndensity: 2, num_ms_combs: 2, mus: [0, 0, 0], ns: [1, 2, 4], ls: [1, 0, 1], ms_combs: [0, 0, 0, 1, 0, -1], ctildes: [-0.046765996183967463, 0.058684746860203821, 0.093531992367934913, -0.11736949372040761]}
    - {mu0: 0, rank: 3, ndensity: 2, num_ms_combs: 2, mus: [0, 0, 0], ns: [1, 2, 4], ls: [1, 1, 0], ms_combs: [0, 0, 0, 1, -1, 0], ctildes: [0.011380793385886214, -0.038573597845003152, -0.022761586771772424, 0.077147195690006276]}
    - {mu0: 0, rank: 3, ndensity: 2, num_ms_combs: 5, mus: [0, 0, 0], ns: [1, 2, 4], ls: [1, 1, 2], ms_combs: [0, 0, 0, 0, 1, -1, 1, -1, 0, 1, 0, -1, 1, 1, -2], ctildes: [-0.0037030747518965942, 0.068191179751183342, 0.0064139136145104176, -0.11811058795711163, -0.0037030747518965947, 0.068191179751183356, 0.0064139136145104176, -0.11811058795711163, -0.0090706436215300737, 0.16703359534880763]}
    - {mu0: 0, rank: 3, ndensity: 2, num_ms_combs: 5, mus: [0, 0, 0], ns: [1, 2, 4], ls: [1, 2, 1], ms_combs: [0, 0, 0, 0, 1, -1, 1, -2, 1, 1, -1, 0, 1, 0, -1], ctildes: [-0.014607516694219067, 0.0072635420805490201, 0.025300961086797993, -0.012580823926425453, -0.035780962310023638, 0.017791971822578807, 0.025300961086797993, -0.012580823926425453, -0.014607516694219065, 0.0072635420805490184]}
    - {mu0: 0, rank: 3, ndensity: 2, num_ms_combs: 3, mus: [0, 0, 0], ns: [1, 2, 4], ls: [2, 0, 2], ms_combs: [0, 0, 0, 1, 0, -1, 2, 0, -2], ctildes: [-0.11515759903392062, 0.0095630748873403483, 0.23031519806784126, -0.0191261497746807, -0.23031519806784131, 0.019126149774680704]}
    - {mu0: 0, rank: 3, ndensity: 2, num_ms_combs: 5, mus: [0, 0, 0], ns: [1, 2, 4], ls: [2, 1, 1], ms_combs: [0, 0, 0, 0, 1, -1, 1, -1, 0, 1, 0, -1, 2, -1, -1], ctildes: [0.038676618892347372, 0.030745199059420275, 0.038676618892347366, 0.030745199059420272, -0.066989868986523968, -0.05325224685973478, -0.066989868986523968, -0.05325224685973478, 0.094737981262338969, 0.075310049735876974]}
    - {mu0: 0, rank: 3, ndensity: 2, num_ms_combs: 3, mus: [0, 0, 0], ns: [1, 2, 4], ls: [2, 2, 0], ms_combs: [0, 0, 0, 1, -1, 0, 2, -2, 0], ctildes: [0.041384713599667639, -0.016942308795634634, -0.082769427199335291, 0.033884617591269268, 0.082769427199335305, -0.033884617591269282]}
    - {mu0: 0, rank: 3, ndensity: 2, num_ms_combs: 1, mus: [0, 0, 0], ns: [1, 3, 3], ls: [0, 0, 0], ms_combs: [0, 0, 0], ctildes: [-0.057024340305353118, 0.046357449423297607]}
    - {mu0: 0, rank: 3, ndensity: 2, num_ms_combs: 2, mus: [0, 0, 0], ns: [1, 3, 3], ls: [0, 1, 1], ms_combs: [0, 0, 0, 0, 1, -1], ctildes: [0.052981990175902251, 0.027267266064293753, -0.10596398035180449, -0.054534532128587498]}
    - {mu0: 0, rank: 3, ndensity: 2, num_ms_combs: 3, mus: [0, 0, 0], ns: [1, 3, 3], ls: [0, 2, 2], ms_combs: [0, 0, 0, 0, 1, -1, 0, 2, -2], ctildes: [0.036989034245587818, -0.02449935100675895, -0.07397806849117565, 0.048998702013517907, 0.073978068491175664, -0.048998702013517921]}
    - {mu0: 0, rank: 3, ndensity: 2, num_ms_combs: 2, mus: [0, 0, 0], ns: [1, 3, 3], ls: [1, 0, 1], ms_combs: [0, 0, 0, 1, 0, -1], ctildes: [-0.074542380867542626, -0.00090893009335123762, 0.14908476173508522, 0.0018178601867024748]}
    - {mu0: 0, rank: 3, ndensity: 2, num_ms_combs: 5, mus: [0, 0, 0], ns: [1, 3, 3], ls: [1, 1, 2], ms_combs: [0, 0, 0, 0, 1, -1, 1, -1, 0, 1, 0, -1, 1, 1, -2], ctildes: [-0.11368325930148078, -0.021956778766292151, 0.19690518108019192, 0.038030256393767503, -0.11368325930148079, -0.021956778766292154, 0.19690518108019192, 0.038030256393767503, -0.27846597758513764, -0.05378290437259213]}
    - {mu0: 0, rank: 3, ndensity: 2, num_ms_combs: 3, mus: [0, 0, 0], ns: [1, 3, 3], ls: [2, 0, 2], ms_combs: [0, 0, 0, 1, 0, -1, 2, 0, -2], ctildes: [-0.068689739592003043, 0.00083420083940151683, 0.13737947918400609, -0.0016684016788030339, -0.13737947918400614, 0.0016684016788030341]}
    - {mu0: 0, rank: 3, ndensity: 2, num_ms_combs: 4, mus: [0, 0, 0], ns: [1, 3, 3], ls: [2, 1, 1], ms_combs: [0, -1, 1, 0, 0, 0, 1, -1, 0, 2, -1, -1], ctildes: [0.0068808892098153494, -0.012558135081388519, 0.0068808892098153503, -0.012558135081388521, -0.023836099425305304, 0.043502656018556074, 0.016854667540670148, -0.030761023070346772]}
    - {mu0: 0, rank: 3, ndensity: 2, num_ms_combs: 1, mus: [0, 0, 0], ns: [1, 3, 4], ls: [0, 0, 0], ms_combs: [0, 0, 0], ctildes: [-0.17400487321067815, -0.11703097882084326]}
    - {mu0: 0, rank: 3, ndensity: 2, num_ms_combs: 2, mus: [0, 0, 0], ns: [1, 3, 4], ls: [0, 1, 1], ms_combs: [0, 0, 0, 0, 1, -1], ctildes: [0.00029602413855328303, 0.018555516822471023, -0.00059204827710656596, -0.037111033644942039]}
    - {mu0: 0, rank: 3, ndensity: 2, num_ms_combs: 3, mus: [0, 0, 0], ns: [1, 3, 4], ls: [0, 2, 2], ms_combs: [0, 0, 0, 0, 1, -1, 0, 2, -2], ctildes: [-0.0156588793373304, 0.040586995512432146, 0.031317758674660801, -0.081173991024864306, -0.031317758674660807, 0.08117399102486432]}
    - {mu0: 0, rank: 3, ndensity: 2, num_ms_combs: 2, mus: [0, 0, 0], ns: [1, 3, 4], ls: [1, 0, 1], ms_combs: [0, 0, 0, 1, 0, -1], ctildes: [-0.045281070274167369, 0.035643639988385448, 0.09056214054833471, -0.071287279976770881]}
    - {mu0: 0, rank: 3, ndensity: 2, num_ms_combs: 2, mus: [0, 0, 0], ns: [1, 3, 4], ls: [1, 1, 0], ms_combs: [0, 0, 0, 1, -1, 0], ctildes: [0.11161306731621011, 0.039334167738770021, -0.22322613463242019, -0.078668335477540027]}
    - {mu0: 0, rank: 3, ndensity: 2, num_ms_combs: 5, mus: [0, 0, 0], ns: [1, 3, 4], ls: [1, 1, 2], ms_combs: [0, 0, 0, 0, 1, -1, 1, -1, 0, 1, 0, -1, 1, 1, -2], ctildes: [0.058265520345011056, 0.015889236637939702, -0.10091884156699728, -0.027520965150396464, 0.058265520345011063, 0.015889236637939706, -0.10091884156699728, -0.027520965150396464, 0.14272079444302921, 0.038920522165287991]}
    - {mu0: 0, rank: 3, ndensity: 2, num_ms_combs: 5, mus: [0, 0, 0], ns: [1, 3, 4], ls: [1, 2, 1], ms_combs: [0, 0, 0, 0, 1, -1, 1, -2, 1, 1, -1, 0, 1, 0, -1], ctildes: [0.0040457509077231266, -0.012926544341906963, -0.0070074461269443609, 0.022389431566474858, 0.00991002535032353, -0.03166343777513303, -0.0070074461269443609, 0.022389431566474858, 0.0040457509077231266, -0.012926544341906961]}
    - {mu0: 0, rank: 3, ndensity: 2, num_ms_combs: 3, mus: [0, 0, 0], ns: [1, 3, 4], ls: [2, 0, 2], ms_combs: [0, 0, 0, 1, 0, -1, 2, 0, -2], ctildes: [0.073616609847094686, 0.033140827881069007, -0.1472332196941894, -0.066281655762138028, 0.14723321969418943, 0.066281655762138042]}
    - {mu0: 0, rank: 3, ndensity: 2, num_ms_combs: 1, mus: [0, 0, 0], ns: [1, 4, 4], ls: [0, 0, 0], ms_combs: [0, 0, 0], ctildes: [-0.34510260765520467, -0.051781266264381572]}
    - {mu0: 0, rank: 3, ndensity: 2, num_ms_combs: 2, mus: [0, 0, 0], ns: [1, 4, 4], ls: [0, 1, 1], ms_combs: [0, 0, 0, 0, 1, -1], ctildes: [-0.0074337790200569064, -0.011882152581202414, 0.014867558040113809, 0.023764305162404825]}
    - {mu0: 0, rank: 3, ndensity: 2, num_ms_combs: 2, mus: [0, 0, 0], ns: [1, 4, 4], ls: [1, 0, 1], ms_combs: [0, 0, 0, 1, 0, -1], ctildes: [0.040253175121083132, 0.11864160282810642, -0.08050635024216625, -0.23728320565621278]}
    - {mu0: 0, rank: 3, ndensity: 2, num_ms_combs: 1, mus: [0, 0, 0], ns: [2, 2, 2], ls: [0, 0, 0], ms_combs: [0, 0, 0], ctildes: [0.1958280948084542, 0.05938941619327507]}
    - {mu0: 0, rank: 3, ndensity: 2, num_ms_combs: 2, mus: [0, 0, 0], ns: [2, 2, 2], ls: [0, 1, 1], ms_combs: [0, 0, 0, 0, 1, -1], ctildes: [0.077982530691399835, -0.062315671576543372, -0.15596506138279964, 0.12463134315308672]}
    - {mu0: 0, rank: 3, ndensity: 2, num_ms_combs: 3, mus: [0, 0, 0], ns: [2, 2, 2], ls: [0, 2, 2], ms_combs: [0, 0, 0, 0, 1, -1, 0, 2, -2], ctildes: [-0.063863154401631247, -0.005710171657324156, 0.12772630880326249, 0.011420343314648314, -0.12772630880326252, -0.011420343314648317]}
    - {mu0: 0, rank: 3, ndensity: 2, num_ms_combs: 4, mus: [0, 0, 0], ns: [2, 2, 2], ls: [1, 1, 2], ms_combs: [-1, 1, 0, 0, 0, 0, 0, 1, -1, 1, 1, -2], ctildes: [-0.06724018200841736, 0.018387200931707873, -0.067240182008417346, 0.01838720093170787, 0.23292682309751517, -0.06369513244539167, -0.16470413613249235, 0.04503926008071174]}
    - {mu0: 0, rank: 3, ndensity: 2, num_ms_combs: 1, mus: [0, 0, 0], ns: [2, 2, 3], ls: [0, 0, 0], ms_combs: [0, 0, 0], ctildes: [0.065306095275877385, 0.065700685605256395]}
    - {mu0: 0, rank: 3, ndensity: 2, num_ms_combs: 2, mus: [0, 0, 0], ns: [2, 2, 3], ls: [0, 1, 1], ms_combs: [0, 0, 0, 0, 1, -1], ctildes: [-0.035457397100621818, 0.055359882880623483, 0.070914794201243622, -0.11071976576124694]}
    - {mu0: 0, rank: 3, ndensity: 2, num_ms_combs: 3, mus: [0, 0, 0], ns: [2, 2, 3], ls: [0, 2, 2], ms_combs: [0, 0, 0, 0, 1, -1, 0, 2, -2], ctildes: [-0.038822122432955679, -0.0076386373196370896, 0.077644244865911372, 0.015277274639274181, -0.077644244865911385, -0.015277274639274184]}
    - {mu0: 0, rank: 3, ndensity: 2, num_ms_combs: 2, mus: [0, 0, 0], ns: [2, 2, 3], ls: [1, 1, 0], ms_combs: [0, 0, 0, 1, -1, 0], ctildes: [0.080540860503058628, -0.054048906529974877, -0.16108172100611723, 0.10809781305994973]}
    - {mu0: 0, rank: 3, ndensity: 2, num_ms_combs: 4, mus: [0, 0, 0], ns: [2, 2, 3], ls: [1, 1, 2], ms_combs: [-1, 1, 0, 0, 0, 0, 0, 1, -1, 1, 1, -2], ctildes: [0.029048849029850728, 0.056276520256044155, 0.029048849029850721, 0.056276520256044148, -0.10062816484219871, -0.19494758471329515, 0.071154857738276442, 0.13784875912670994]}
    - {mu0: 0, rank: 3, ndensity: 2, num_ms_combs: 5, mus: [0, 0, 0], ns: [2, 2, 3], ls: [1, 2, 1], ms_combs: [0, 0, 0, 0, 1, -1, 1, -2, 1, 1, -1, 0, 1, 0, -1], ctildes: [-0.016402289910444234, -0.02576622135743353, 0.028409599485363785, 0.044628404510141204, -0.040177240893789164, -0.063114094925314279, 0.028409599485363785, 0.044628404510141204, -0.016402289910444231, -0.025766221357433526]}
    - {mu0: 0, rank: 3, ndensity: 2, num_ms_combs: 3, mus: [0, 0, 0], ns: [2, 2, 3], ls: [2, 2, 0], ms_combs: [0, 0, 0, 1, -1, 0, 2, -2, 0], ctildes: [0.070419608431501982, 0.01954171112972353, -0.14083921686300396, -0.039083422259447061, 0.14083921686300402, 0.039083422259447075]}
    - {mu0: 0, rank: 3, ndensity: 2, num_ms_combs: 1, mus: [0, 0, 0], ns: [2, 2, 4], ls: [0, 0, 0], ms_combs: [0, 0, 0], ctildes: [0.24310028420110841, 0.032770146622230704]}
    - {mu0: 0, rank: 3, ndensity: 2, num_ms_combs: 2, mus: [0, 0, 0], ns: [2, 2, 4], ls: [0, 1, 1], ms_combs: [0, 0, 0, 0, 1, -1], ctildes: [0.063803316449149328, -0.10318993215379683, -0.12760663289829863, 0.20637986430759364]}
    - {mu0: 0, rank: 3, ndensity: 2, num_ms_combs: 2, mus: [0, 0, 0], ns: [2, 2, 4], ls: [1, 1, 0], ms_combs: [0, 0, 0, 1, -1, 0], ctildes: [0.024568576918843624, -0.04722228623869585, -0.049137153837687242, 0.094444572477391686]}
    - {mu0: 0, rank: 3, ndensity: 2, num_ms_combs: 1, mus: [0, 0, 0], ns: [2, 3, 3], ls: [0, 0, 0], ms_combs: [0, 0, 0], ctildes: [-0.066500434604754799, 0.052050620330200109]}
    - {mu0: 0, rank: 3, ndensity: 2, num_ms_combs: 2, mus: [0, 0, 0], ns: [2, 3, 3], ls: [0, 1, 1], ms_combs: [0, 0, 0, 0, 1, -1], ctildes: [0.0065069949065884904, 0.030621118757051823, -0.013013989813176977, -0.061242237514103633]}
    - {mu0: 0, rank: 3, ndensity: 2, num_ms_combs: 2, mus: [0, 0, 0], ns: [2, 3, 3], ls: [1, 0, 1], ms_combs: [0, 0, 0, 1, 0, -1], ctildes: [-0.011726935047954018, 0.047431839181941875, 0.023453870095908033, -0.094863678363883736]}
    - {mu0: 0, rank: 3, ndensity: 2, num_ms_combs: 1, mus: [0, 0, 0], ns: [2, 3, 4], ls: [0, 0, 0], ms_combs: [0, 0, 0], ctildes: [-0.17342646232480069, -0.11181521033090534]}
    - {mu0: 0, rank: 3, ndensity: 2, num_ms_combs: 2, mus: [0, 0, 0], ns: [2, 3, 4], ls: [0, 1, 1], ms_combs: [0, 0, 0, 0, 1, -1], ctildes: [0.01754961613185315, 0.0068471567679428439, -0.035099232263706294, -0.013694313535885684]}
    - {mu0: 0, rank: 3, ndensity: 2, num_ms_combs: 2, mus: [0, 0, 0], ns: [2, 3, 4], ls: [1, 0, 1], ms_combs: [0, 0, 0, 1, 0, -1], ctildes: [-0.017447475240104912, -0.06245877044992882, 0.034894950480209817, 0.12491754089985763]}
    - {mu0: 0, rank: 3, ndensity: 2, num_ms_combs: 2, mus: [0, 0, 0], ns: [2, 3, 4], ls: [1, 1, 0], ms_combs: [0, 0, 0, 1, -1, 0], ctildes: [0.011510499935807073, 0.030704647397642962, -0.023020999871614142, -0.06140929479528591]}
    - {mu0: 0, rank: 3, ndensity: 2, num_ms_combs: 1, mus: [0, 0, 0], ns: [2, 4, 4], ls: [0, 0, 0], ms_combs: [0, 0, 0], ctildes: [0.22280869731901873, 0.030191370393305959]}
    - {mu0: 0, rank: 3, ndensity: 2, num_ms_combs: 1, mus: [0, 0, 0], ns: [3, 3, 3], ls: [0, 0, 0], ms_combs: [0, 0, 0], ctildes: [-0.06011657540203013, 0.081321256532161879]}
    - {mu0: 0, rank: 3, ndensity: 2, num_ms_combs: 2, mus: [0, 0, 0], ns: [3, 3, 3], ls: [0, 1, 1], ms_combs: [0, 0, 0, 0, 1, -1], ctildes: [-0.010541588552407492, 0.040552233571638743, 0.021083177104814981, -0.081104467143277473]}
    - {mu0: 0, rank: 3, ndensity: 2, num_ms_combs: 1, mus: [0, 0, 0], ns: [3, 3, 4], ls: [0, 0, 0], ms_combs: [0, 0, 0], ctildes: [0.11621741367477596, -0.056789292009547902]}
    - {mu0: 0, rank: 3, ndensity: 2, num_ms_combs: 1, mus: [0, 0, 0], ns: [3, 4, 4], ls: [0, 0, 0], ms_combs: [0, 0, 0], ctildes: [0.12447014596527456, -0.043028104745139156]}
    - {mu0: 0, rank: 4, ndensity: 2, num_ms_combs: 1, mus: [0, 0, 0, 0], ns: [1, 1, 1, 1], ls: [0, 0, 0, 0], ms_combs: [0, 0, 0, 0], ctildes: [-0.24554702868550723, -0.28781232200003176]}
    - {mu0: 0, rank: 4, ndensity: 2, num_ms_combs: 2, mus: [0, 0, 0, 0], ns: [1, 1, 1, 1], ls: [0, 0, 1, 1], ms_combs: [0, 0, 0, 0, 0, 0, 1, -1], ctildes: [0.054030797822168547, -0.056991502421839695, -0.10806159564433707, 0.11398300484367936]}
    - {mu0: 0, rank: 4, ndensity: 2, num_ms_combs: 3, mus: [0, 0, 0, 0], ns: [1, 1, 1, 1], ls: [0, 0, 2, 2], ms_combs: [0, 0, 0, 0, 0, 0, 1, -1, 0, 0, 2, -2], ctildes: [0.044954862667920245, -0.07159978413322092, -0.089909725335840504, 0.14319956826644187, 0.089909725335840518, -0.1431995682664419]}
    - {mu0: 0, rank: 4, ndensity: 2, num_ms_combs: 4, mus: [0, 0, 0, 0], ns: [1, 1, 1, 1], ls: [0, 1, 1, 2], ms_combs: [0, -1, 1, 0, 0, 0, 0, 0, 0, 0, 1, -1, 0, 1, 1, -2], ctildes: [0.026019905205965272, 0.015608317217557118, 0.026019905205965276, 0.01560831721755712, -0.090135595649715586, -0.05406879688292205, 0.063735490910202558, 0.038232412926512242]}
    - {mu0: 0, rank: 4, ndensity: 2, num_ms_combs: 5, mus: [0, 0, 0, 0], ns: [1, 1, 1, 1], ls: [0, 2, 2, 2], ms_combs: [0, -2, 0, 2, 0, -2, 1, 1, 0, -1, -1, 2, 0, -1, 0, 1, 0, 0, 0, 0], ctildes: [-0.11047600237958974, 0.065105587012512442, 0.090203278217498337, -0.053158489195008971, 0.045101639108749168, -0.026579244597504485, -0.055238001189794848, 0.032552793506256214, 0.018412667063264949, -0.010850931168752069]}
    - {mu0: 0, rank: 4, ndensity: 2, num_ms_combs: 3, mus: [0, 0, 0, 0], ns: [1, 1, 1, 1], ls: [1, 1, 1, 1], ms_combs: [-1, -1, 1, 1, -1, 0, 0, 1, 0, 0, 0, 0], ctildes: [0.011301670808293671, -0.053152121398450304, -0.011301670808293673, 0.053152121398450311, 0.0028254177020734191, -0.013288030349612583]}
    - {mu0: 0, rank: 4, ndensity: 2, num_ms_combs: 10, mus: [0, 0, 0, 0], ns: [1, 1, 1, 1], ls: [1, 1, 2, 2], ms_combs: [-1, 1, -2, 2, -1, 1, -1, 1, -1, 1, 0, 0, 0, 0, -2, 2, 0, 0, -1, 1, 0, 0, 0, 0, 0, 1, -2, 1, 0, 1, -1, 0, 1, 1, -2, 0, 1, 1, -1, -1], ctildes: [-0.19364096245371709, -0.0040430847769616519, 0.1263643762815789, 0.0022924044630522268, -0.051969423778766392, -0.00085442217920787572, 0.029543895054720402, 0.00027086207457140197, -0.096820481226858532, -0.0020215423884808259, 0.059623004975452282, 0.0013025512465586501, 0.19028692118960003, 0.0049516716866205915, -0.077684310273286039, -0.0020215115010011695, -0.10986220517208073, -0.0028588489812090478, 0.067276586172138164, 0.0017506803139094248]}
    - {mu0: 0, rank: 4, ndensity: 2, num_ms_combs: 1, mus: [0, 0, 0, 0], ns: [1, 1, 1, 2], ls: [0, 0, 0, 0], ms_combs: [0, 0, 0, 0], ctildes: [0.14220985702131436, 0.052845905616049349]}
    - {mu0: 0, rank: 4, ndensity: 2, num_ms_combs: 2, mus: [0, 0, 0, 0], ns: [1, 1, 1, 2], ls: [0, 0, 1, 1], ms_combs: [0, 0, 0, 0, 0, 0, 1, -1], ctildes: [0.068854841730396715, -0.063199128719763228, -0.1377096834607934, 0.12639825743952643]}
    - {mu0: 0, rank: 4, ndensity: 2, num_ms_combs: 3, mus: [0, 0, 0, 0], ns: [1, 1, 1, 2], ls: [0, 0, 2, 2], ms_combs: [0, 0, 0, 0, 0, 0, 1, -1, 0, 0, 2, -2], ctildes: [-0.11316685566382459, -0.061107344175651654, 0.22633371132764921, 0.12221468835130332, -0.22633371132764926, -0.12221468835130335]}
    - {mu0: 0, rank: 4, ndensity: 2, num_ms_combs: 2, mus: [0, 0, 0, 0], ns: [1, 1, 1, 2], ls: [0, 1, 1, 0], ms_combs: [0, 0, 0, 0, 0, 1, -1, 0], ctildes: [0.029340191832190818, -0.050775144290483805, -0.058680383664381622, 0.1015502885809676]}
    - {mu0: 0, rank: 4, ndensity: 2, num_ms_combs: 4, mus: [0, 0, 0, 0], ns: [1, 1, 1, 2], ls: [0, 1, 1, 2], ms_combs: [0, -1, 1, 0, 0, 0, 0, 0, 0, 0, 1, -1, 0, 1, 1, -2], ctildes: [-0.03181081038412694, 0.032225252126519305, -0.031810810384126947, 0.032225252126519312, 0.11019587963049503, -0.11163154793969692, -0.077920253745539569, 0.078935424542510846]}
    - {mu0: 0, rank: 4, ndensity: 2, num_ms_combs: 5, mus: [0, 0, 0, 0], ns: [1, 1, 1, 2], ls: [0, 1, 2, 1], ms_combs: [0, 0, 0, 0, 0, 0, 1, -1, 0, 1, -2, 1, 0, 1, -1, 0, 0, 1, 0, -1], ctildes: [-0.0050018195351210415, 0.01584533325636216, 0.0086634055651201875, -0.027444922262880072, -0.012251905646531515, 0.03881298128244029, 0.0086634055651201875, -0.027444922262880072, -0.0050018195351210406, 0.01584533325636216]}
    - {mu0: 0, rank: 4, ndensity: 2, num_ms_combs: 3, mus: [0, 0, 0, 0], ns: [1, 1, 1, 2], ls: [0, 2, 2, 0], ms_combs: [0, 0, 0, 0, 0, 1, -1, 0, 0, 2, -2, 0], ctildes: [-0.00025645387709497496, -0.073362667805965023, 0.00051290775418995002, 0.14672533561193005, -0.00051290775418995013, -0.1467253356119301]}
    - {mu0: 0, rank: 4, ndensity: 2, num_ms_combs: 5, mus: [0, 0, 0, 0], ns: [1, 1, 1, 2], ls: [1, 1, 1, 1], ms_combs: [0, 0, 0, 0, 0, 0, 1, -1, 1, -1, -1, 1, 1, -1, 0, 0, 1, -1, 1, -1], ctildes: [0.008112128193943479, -0.010181702858432409, -0.016224256387886955, 0.020363405716864812, 0.016224256387886951, -0.020363405716864808, -0.016224256387886955, 0.020363405716864812, 0.016224256387886951, -0.020363405716864808]}
    - {mu0: 0, rank: 4, ndensity: 2, num_ms_combs: 4, mus: [0, 0, 0, 0], ns: [1, 1, 1, 2], ls: [1, 1, 2, 0], ms_combs: [-1, 1, 0, 0, 0, 0, 0, 0, 0, 1, -1, 0, 1, 1, -2, 0], ctildes: [0.022694553204821041, 0.014497053060610846, 0.022694553204821038, 0.014497053060610844, -0.078616238411650288, -0.050219264921999768, 0.055590075292256257, 0.035510382772549753]}
    - {mu0: 0, rank: 4, ndensity: 2, num_ms_combs: 1, mus: [0, 0, 0, 0], ns: [1, 1, 1, 3], ls: [0, 0, 0, 0], ms_combs: [0, 0, 0, 0], ctildes: [0.010811491027557883, -0.064858106576864638]}
    - {mu0: 0, rank: 4, ndensity: 2, num_ms_combs: 2, mus: [0, 0, 0, 0], ns: [1, 1, 1, 3], ls: [0, 0, 1, 1], ms_combs: [0, 0, 0, 0, 0, 0, 1, -1], ctildes: [-0.03993909636403109, 0.033956941497871498, 0.079878192728062167, -0.067913882995742983]}
    - {mu0: 0, rank: 4, ndensity: 2, num_ms_combs: 3, mus: [0, 0, 0, 0], ns: [1, 1, 1, 3], ls: [0, 0, 2, 2], ms_combs: [0, 0, 0, 0, 0, 0, 1, -1, 0, 0, 2, -2], ctildes: [-0.020716403328549349, -0.035563912739994312, 0.041432806657098704, 0.071127825479988624, -0.041432806657098711, -0.071127825479988652]}
    - {mu0: 0, rank: 4, ndensity: 2, num_ms_combs: 2, mus: [0, 0, 0, 0], ns: [1, 1, 1, 3], ls: [0, 1, 1, 0], ms_combs: [0, 0, 0, 0, 0, 1, -1, 0], ctildes: [0.063854770069377911, 0.035621210457951663, -0.12770954013875579, -0.071242420915903312]}
    - {mu0: 0, rank: 4, ndensity: 2, num_ms_combs: 4, mus: [0, 0, 0, 0], ns: [1, 1, 1, 3], ls: [0, 1, 1, 2], ms_combs: [0, -1, 1, 0, 0, 0, 0, 0, 0, 0, 1, -1, 0, 1, 1, -2], ctildes: [0.041202612395174518, 0.022900994307457571, 0.041202612395174525, 0.022900994307457574, -0.14273003614601895, -0.079331371368724313, 0.10092537643785103, 0.056095750655653275]}
    - {mu0: 0, rank: 4, ndensity: 2, num_ms_combs: 5, mus: [0, 0, 0, 0], ns: [1, 1, 1, 3], ls: [0, 1, 2, 1], ms_combs: [0, 0, 0, 0, 0, 0, 1, -1, 0, 1, -2, 1, 0, 1, -1, 0, 0, 1, 0, -1], ctildes: [-0.016504552923697392, 0.0045262808840668906, 0.028586724220053344, -0.0078397484605316307, -0.040427733095818874, 0.011087078598477422, 0.028586724220053344, -0.0078397484605316307, -0.016504552923697388, 0.0045262808840668897]}
    - {mu0: 0, rank: 4, ndensity: 2, num_ms_combs: 3, mus: [0, 0, 0, 0], ns: [1, 1, 1, 3], ls: [0, 2, 2, 0], ms_combs: [0, 0, 0, 0, 0, 1, -1, 0, 0, 2, -2, 0], ctildes: [0.069113425087643621, -0.013680569895885543, -0.13822685017528724, 0.027361139791771089, 0.1382268501752873, -0.027361139791771096]}
    - {mu0: 0, rank: 4, ndensity: 2, num_ms_combs: 5, mus: [0, 0, 0, 0], ns: [1, 1, 1, 3], ls: [1, 1, 1, 1], ms_combs: [0, 0, 0, 0, 0, 0, 1, -1, 1, -1, -1, 1, 1, -1, 0, 0, 1, -1, 1, -1], ctildes: [0.056646129563622402, 0.0086688576233786546, -0.11329225912724476, -0.017337715246757302, 0.11329225912724475, 0.017337715246757302, -0.11329225912724476, -0.017337715246757302, 0.11329225912724475, 0.017337715246757302]}
    - {mu0: 0, rank: 4, ndensity: 2, num_ms_combs: 4, mus: [0, 0, 0, 0], ns: [1, 1, 1, 3], ls: [1, 1, 2, 0], ms_combs: [-1, 1, 0, 0, 0, 0, 0, 0, 0, 1, -1, 0, 1, 1, -2, 0], ctildes: [-0.04631852717204802, -0.00079769286220980607, -0.046318527172048013, -0.00079769286220980596, 0.16045208478749354, 0.0027632891323648478, -0.11345675720875559, -0.0019539404838742756]}
    - {mu0: 0, rank: 4, ndensity: 2, num_ms_combs: 1, mus: [0, 0, 0, 0], ns: [1, 1, 2, 2], ls: [0, 0, 0, 0], ms_combs: [0, 0, 0, 0], ctildes: [0.31892549825188099, 0.27722608936332088]}
    - {mu0: 0, rank: 4, ndensity: 2, num_ms_combs: 2, mus: [0, 0, 0, 0], ns: [1, 1, 2, 2], ls: [0, 0, 1, 1], ms_combs: [0, 0, 0, 0, 0, 0, 1, -1], ctildes: [-0.073495481472087218, -0.037355676346744124, 0.14699096294417441, 0.074711352693488234]}
    - {mu0: 0, rank: 4, ndensity: 2, num_ms_combs: 3, mus: [0, 0, 0, 0], ns: [1, 1, 2, 2], ls: [0, 0, 2, 2], ms_combs: [0, 0, 0, 0, 0, 0, 1, -1, 0, 0, 2, -2], ctildes: [-0.00091672583538944161, 0.0095514680897330149, 0.0018334516707788834, -0.019102936179466033, -0.0018334516707788839, 0.019102936179466037]}
    - {mu0: 0, rank: 4, ndensity: 2, num_ms_combs: 2, mus: [0, 0, 0, 0], ns: [1, 1, 2, 2], ls: [0, 1, 0, 1], ms_combs: [0, 0, 0, 0, 0, 1, 0, -1], ctildes: [0.076630306675334908, -0.070501158512229933, -0.15326061335066979, 0.14100231702445984]}
    - {mu0: 0, rank: 4, ndensity: 2, num_ms_combs: 5, mus: [0, 0, 0, 0], ns: [1, 1, 2, 2], ls: [0, 1, 1, 2], ms_combs: [0, 0, 0, 0, 0, 0, 1, -1, 0, 1, -1, 0, 0, 1, 0, -1, 0, 1, 1, -2], ctildes: [-0.082504167843047385, 0.0011767284241016489, 0.14290141054034844, -0.0020381534172545135, -0.082504167843047371, 0.0011767284241016489, 0.14290141054034844, -0.0020381534172545135, -0.20209311286840628, 0.0028823842048784024]}
    - {mu0: 0, rank: 4, ndensity: 2, num_ms_combs: 3, mus: [0, 0, 0, 0], ns: [1, 1, 2, 2], ls: [0, 2, 0, 2], ms_combs: [0, 0, 0, 0, 0, 1, 0, -1, 0, 2, 0, -2], ctildes: [0.15798292606361974, -0.017782564116624332, -0.31596585212723954, 0.035565128233248672, 0.31596585212723965, -0.035565128233248679]}
    - {mu0: 0, rank: 4, ndensity: 2, num_ms_combs: 4, mus: [0, 0, 0, 0], ns: [1, 1, 2, 2], ls: [0, 2, 1, 1], ms_combs: [0, 0, -1, 1, 0, 0, 0, 0, 0, 1, -1, 0, 0, 2, -1, -1], ctildes: [-0.028812330806309523, -0.033250670635884522, -0.02881233080630952, -0.033250670635884515, 0.099808841682020116, 0.11518370185418109, -0.070575508775730975, -0.08144717666326097]}
    - {mu0: 0, rank: 4, ndensity: 2, num_ms_combs: 2, mus: [0, 0, 0, 0], ns: [1, 1, 2, 2], ls: [1, 1, 0, 0], ms_combs: [0, 0, 0, 0, 1, -1, 0, 0], ctildes: [-0.0027650622224017402, -0.047030602597130114, 0.0055301244448034787, 0.094061205194260214]}
    - {mu0: 0, rank: 4, ndensity: 2, num_ms_combs: 4, mus: [0, 0, 0, 0], ns: [1, 1, 2, 2], ls: [1, 1, 0, 2], ms_combs: [-1, 1, 0, 0, 0, 0, 0, 0, 0, 1, 0, -1, 1, 1, 0, -2], ctildes: [-0.022298281136827511, 0.033347129765765093, -0.022298281136827507, 0.033347129765765086, 0.07724351170087991, -0.11551784608179515, -0.054619410926354625, 0.081683452312501209]}
    - {mu0: 0, rank: 4, ndensity: 2, num_ms_combs: 6, mus: [0, 0, 0, 0], ns: [1, 1, 2, 2], ls: [1, 1, 1, 1], ms_combs: [-1, 1, -1, 1, -1, 1, 0, 0, 0, 0, -1, 1, 0, 0, 0, 0, 0, 1, -1, 0, 1, 1, -1, -1], ctildes: [0.047005145647594018, -0.10516671142028243, 0.041477143378895874, 0.049178107956879741, 0.041477143378895874, 0.049178107956879741, 0.044241144513244936, -0.027994301731701358, -0.25991886481077164, 0.01362099101304594, 0.12995943240538582, -0.00681049550652297]}
    - {mu0: 0, rank: 4, ndensity: 2, num_ms_combs: 5, mus: [0, 0, 0, 0], ns: [1, 1, 2, 2], ls: [1, 2, 0, 1], ms_combs: [0, 0, 0, 0, 0, 1, 0, -1, 1, -2, 0, 1, 1, -1, 0, 0, 1, 0, 0, -1], ctildes: [0.011469144213137416, 0.017937304149809749, -0.019865140496488579, -0.031068322138286551, 0.028093551108581149, 0.043937242528141122, -0.019865140496488579, -0.031068322138286551, 0.011469144213137415, 0.017937304149809746]}
    - {mu0: 0, rank: 4, ndensity: 2, num_ms_combs: 3, mus: [0, 0, 0, 0], ns: [1, 1, 2, 2], ls: [2, 2, 0, 0], ms_combs: [0, 0, 0, 0, 1, -1, 0, 0, 2, -2, 0, 0], ctildes: [-0.060085795068368995, -0.078133106431380592, 0.12017159013673802, 0.15626621286276121, -0.12017159013673805, -0.15626621286276124]}
    - {mu0: 0, rank: 4, ndensity: 2, num_ms_combs: 1, mus: [0, 0, 0, 0], ns: [1, 1, 2, 3], ls: [0, 0, 0, 0], ms_combs: [0, 0, 0, 0], ctildes: [0.017536485879881811, -0.0055894160105150869]}
    - {mu0: 0, rank: 4, ndensity: 2, num_ms_combs: 2, mus: [0, 0, 0, 0], ns: [1, 1, 2, 3], ls: [0, 0, 1, 1], ms_combs: [0, 0, 0, 0, 0, 0, 1, -1], ctildes: [0.022393467028824866, 0.04032451964956478, -0.044786934057649726, -0.080649039299129546]}
    - {mu0: 0, rank: 4, ndensity: 2, num_ms_combs: 2, mus: [0, 0, 0, 0], ns: [1, 1, 2, 3], ls: [0, 1, 0, 1], ms_combs: [0, 0, 0, 0, 0, 1, 0, -1], ctildes: [-0.016518855584136054, 0.02124989737365723, 0.033037711168272102, -0.042499794747314447]}
    - {mu0: 0, rank: 4, ndensity: 2, num_ms_combs: 2, mus: [0, 0, 0, 0], ns: [1, 1, 2, 3], ls: [0, 1, 1, 0], ms_combs: [0, 0, 0, 0, 0, 1, -1, 0], ctildes: [0.0016471181919367288, -0.023514837462716067, -0.0032942363838734568, 0.04702967492543212]}
    - {mu0: 0, rank: 4, ndensity: 2, num_ms_combs: 2, mus: [0, 0, 0, 0], ns: [1, 1, 2, 3], ls: [1, 1, 0, 0], ms_combs: [0, 0, 0, 0, 1, -1, 0, 0], ctildes: [0.040909821935076238, 0.03859164430533564, -0.081819643870152461, -0.077183288610671266]}
    - {mu0: 0, rank: 4, ndensity: 2, num_ms_combs: 1, mus: [0, 0, 0, 0], ns: [1, 1, 3, 3], ls: [0, 0, 0, 0], ms_combs: [0, 0, 0, 0], ctildes: [-0.11038029395734238, -0.017574122596836581]}
    - {mu0: 0, rank: 4, ndensity: 2, num_ms_combs: 2, mus: [0, 0, 0, 0], ns: [1, 1, 3, 3], ls: [0, 0, 1, 1], ms_combs: [0, 0, 0, 0, 0, 0, 1, -1], ctildes: [-0.0072549540395171362, -0.0097305135777076401, 0.014509908079034269, 0.019461027155415277]}
    - {mu0: 0, rank: 4, ndensity: 2, num_ms_combs: 2, mus: [0, 0, 0, 0], ns: [1, 1, 3, 3], ls: [0, 1, 0, 1], ms_combs: [0, 0, 0, 0, 0, 1, 0, -1], ctildes: [0.062158822945355081, 0.0009452900870142388, -0.12431764589071014, -0.0018905801740284772]}
    - {mu0: 0, rank: 4, ndensity: 2, num_ms_combs: 2, mus: [0, 0, 0, 0], ns: [1, 1, 3, 3], ls: [1, 1, 0, 0], ms_combs: [0, 0, 0, 0, 1, -1, 0, 0], ctildes: [0.065120388291987324, 0.057601801535447326, -0.13024077658397462, -0.11520360307089463]}
    - {mu0: 0, rank: 4, ndensity: 2, num_ms_combs: 1, mus: [0, 0, 0, 0], ns: [1, 2, 2, 2], ls: [0, 0, 0, 0], ms_combs: [0, 0, 0, 0], ctildes: [0.17051121600116412, 0.32563572590122603]}
    - {mu0: 0, rank: 4, ndensity: 2, num_ms_combs: 2, mus: [0, 0, 0, 0], ns: [1, 2, 2, 2], ls: [0, 0, 1, 1], ms_combs: [0, 0, 0, 0, 0, 0, 1, -1], ctildes: [0.007924630252065577, -0.022906563474147264, -0.01584926050413115, 0.045813126948294522]}
    - {mu0: 0, rank: 4, ndensity: 2, num_ms_combs: 2, mus: [0, 0, 0, 0], ns: [1, 2, 2, 2], ls: [1, 0, 0, 1], ms_combs: [0, 0, 0, 0, 1, 0, 0, -1], ctildes: [0.087035846750980514, -0.07954920685375462, -0.174071693501961, 0.15909841370750921]}
    - {mu0: 0, rank: 4, ndensity: 2, num_ms_combs: 1, mus: [0, 0, 0, 0], ns: [1, 2, 2, 3], ls: [0, 0, 0, 0], ms_combs: [0, 0, 0, 0], ctildes: [0.018826997674893368, 0.0046752297898488117]}
    - {mu0: 0, rank: 4, ndensity: 2, num_ms_combs: 2, mus: [0, 0, 0, 0], ns: [1, 2, 2, 3], ls: [0, 0, 1, 1], ms_combs: [0, 0, 0, 0, 0, 0, 1, -1], ctildes: [-0.015934724230219542, 0.046806691416184022, 0.031869448460439077, -0.093613382832368031]}
    - {mu0: 0, rank: 4, ndensity: 2, num_ms_combs: 2, mus: [0, 0, 0, 0], ns: [1, 2, 2, 3], ls: [0, 1, 1, 0], ms_combs: [0, 0, 0, 0, 0, 1, -1, 0], ctildes: [-0.012031600353775799, -0.062263197350118468, 0.02406320070755159, 0.12452639470023691]}
    - {mu0: 0, rank: 4, ndensity: 2, num_ms_combs: 2, mus: [0, 0, 0, 0], ns: [1, 2, 2, 3], ls: [1, 0, 0, 1], ms_combs: [0, 0, 0, 0, 1, 0, 0, -1], ctildes: [0.010302516063167108, 0.0072770111383223274, -0.020605032126334213, -0.014554022276644651]}
    - {mu0: 0, rank: 4, ndensity: 2, num_ms_combs: 2, mus: [0, 0, 0, 0], ns: [1, 2, 2, 3], ls: [1, 0, 1, 0], ms_combs: [0, 0, 0, 0, 1, 0, -1, 0], ctildes: [0.0061275872615350882, -0.029526915848933227, -0.012255174523070175, 0.059053831697866439]}
    - {mu0: 0, rank: 4, ndensity: 2, num_ms_combs: 1, mus: [0, 0, 0, 0], ns: [1, 2, 3, 3], ls: [0, 0, 0, 0], ms_combs: [0, 0, 0, 0], ctildes: [0.050906582099347134, -0.0068399426243140196]}
    - {mu0: 0, rank: 4, ndensity: 2, num_ms_combs: 1, mus: [0, 0, 0, 0], ns: [1, 3, 3, 3], ls: [0, 0, 0, 0], ms_combs: [0, 0, 0, 0], ctildes: [-0.055264473983990987, 0.14386560447835203]}
    - {mu0: 0, rank: 4, ndensity: 2, num_ms_combs: 1, mus: [0, 0, 0, 0], ns: [2, 2, 2, 2], ls: [0, 0, 0, 0], ms_combs: [0, 0, 0, 0], ctildes: [-0.48699043203704534, 0.099772508470284682]}
    - {mu0: 0, rank: 4, ndensity: 2, num_ms_combs: 2, mus: [0, 0, 0, 0], ns: [2, 2, 2, 2], ls: [0, 0, 1, 1], ms_combs: [0, 0, 0, 0, 0, 0, 1, -1], ctildes: [0.033095773232399962, -0.015376372058135865, -0.066191546464799911, 0.030752744116271723]}
    - {mu0: 0, rank: 4, ndensity: 2, num_ms_combs: 1, mus: [0, 0, 0, 0], ns: [2, 2, 2, 3], ls: [0, 0, 0, 0], ms_combs: [0, 0, 0, 0], ctildes: [-0.11445295452496421, -0.084776145141548104]}
    - {mu0: 0, rank: 4, ndensity: 2, num_ms_combs: 1, mus: [0, 0, 0, 0], ns: [2, 2, 3, 3], ls: [0, 0, 0, 0], ms_combs: [0, 0, 0, 0], ctildes: [0.16368415858424679, -0.042712650627238023]}
    - {mu0: 0, rank: 5, ndensity: 2, num_ms_combs: 1, mus: [0, 0, 0, 0, 0], ns: [1, 1, 1, 1, 1], ls: [0, 0, 0, 0, 0], ms_combs: [0, 0, 0, 0, 0], ctildes: [0.11232521312872684, -0.031971281977660519]}
    - {mu0: 0, rank: 5, ndensity: 2, num_ms_combs: 2, mus: [0, 0, 0, 0, 0], ns: [1, 1, 1, 1, 1], ls: [0, 0, 0, 1, 1], ms_combs: [0, 0, 0, 0, 0, 0, 0, 0, 1, -1], ctildes: [0.043895478407636204, -0.046868553213925357, -0.087790956815272381, 0.093737106427850686]}
    - {mu0: 0, rank: 5, ndensity: 2, num_ms_combs: 3, mus: [0, 0, 0, 0, 0], ns: [1, 1, 1, 1, 1], ls: [0, 0, 0, 2, 2], ms_combs: [0, 0, 0, 0, 0, 0, 0, 0, 1, -1, 0, 0, 0, 2, -2], ctildes: [-0.011325027575897626, 0.093532807851855471, 0.022650055151795256, -0.18706561570371097, -0.022650055151795263, 0.18706561570371102]}
    - {mu0: 0, rank: 5, ndensity: 2, num_ms_combs: 4, mus: [0, 0, 0, 0, 0], ns: [1, 1, 1, 1, 1], ls: [0, 0, 1, 1, 2], ms_combs: [0, 0, -1, 1, 0, 0, 0, 0, 0, 0, 0, 0, 0, 1, -1, 0, 0, 1, 1, -2], ctildes: [-0.0072368248480997668, 0.031131967324682736, -0.007236824848099766, 0.031131967324682732, 0.025069096644771444, -0.10784429829184929, -0.017726528235738816, 0.076257434634471447]}
    - {mu0: 0, rank: 5, ndensity: 2, num_ms_combs: 3, mus: [0, 0, 0, 0, 0], ns: [1, 1, 1, 1, 1], ls: [0, 1, 1, 1, 1], ms_combs: [0, -1, -1, 1, 1, 0, -1, 0, 0, 1, 0, 0, 0, 0, 0], ctildes: [-0.10672714457777341, -0.15189592790301154, 0.10672714457777345, 0.1518959279030116, -0.026681786144443366, -0.037973981975752906]}
    - {mu0: 0, rank: 5, ndensity: 2, num_ms_combs: 1, mus: [0, 0, 0, 0, 0], ns: [1, 1, 1, 1, 2], ls: [0, 0, 0, 0, 0], ms_combs: [0, 0, 0, 0, 0], ctildes: [-0.055799217178517269, 0.055227259246243061]}
    - {mu0: 0, rank: 5, ndensity: 2, num_ms_combs: 2, mus: [0, 0, 0, 0, 0], ns: [1, 1, 1, 1, 2], ls: [0, 0, 0, 1, 1], ms_combs: [0, 0, 0, 0, 0, 0, 0, 0, 1, -1], ctildes: [-0.065322554018181433, -0.011104661378072899, 0.13064510803636284, 0.022209322756145795]}
    - {mu0: 0, rank: 5, ndensity: 2, num_ms_combs: 2, mus: [0, 0, 0, 0, 0], ns: [1, 1, 1, 1, 2], ls: [0, 0, 1, 1, 0], ms_combs: [0, 0, 0, 0, 0, 0, 0, 1, -1, 0], ctildes: [0.033297410737626383, 0.0024697701554153143, -0.066594821475252766, -0.0049395403108306278]}
    - {mu0: 0, rank: 5, ndensity: 2, num_ms_combs: 1, mus: [0, 0, 0, 0, 0], ns: [1, 1, 1, 2, 2], ls: [0, 0, 0, 0, 0], ms_combs: [0, 0, 0, 0, 0], ctildes: [-0.16813022415172937, 0.16092925605064901]}
    - {mu0: 0, rank: 5, ndensity: 2, num_ms_combs: 2, mus: [0, 0, 0, 0, 0], ns: [1, 1, 1, 2, 2], ls: [0, 0, 0, 1, 1], ms_combs: [0, 0, 0, 0, 0, 0, 0, 0, 1, -1], ctildes: [0.0023303295131123047, 0.0091461752272491374, -0.0046606590262246086, -0.018292350454498271]}
    - {mu0: 0, rank: 5, ndensity: 2, num_ms_combs: 2, mus: [0, 0, 0, 0, 0], ns: [1, 1, 1, 2, 2], ls: [0, 0, 1, 0, 1], ms_combs: [0, 0, 0, 0, 0, 0, 0, 1, 0, -1], ctildes: [0.031517699764403391, -0.020741439477067563, -0.063035399528806768, 0.041482878954135119]}
    - {mu0: 0, rank: 5, ndensity: 2, num_ms_combs: 2, mus: [0, 0, 0, 0, 0], ns: [1, 1, 1, 2, 2], ls: [0, 1, 1, 0, 0], ms_combs: [0, 0, 0, 0, 0, 0, 1, -1, 0, 0], ctildes: [-0.0095840551208936104, 0.041262187936825769, 0.019168110241787217, -0.082524375873651523]}
    - {mu0: 0, rank: 5, ndensity: 2, num_ms_combs: 1, mus: [0, 0, 0, 0, 0], ns: [1, 1, 2, 2, 2], ls: [0, 0, 0, 0, 0], ms_combs: [0, 0, 0, 0, 0], ctildes: [-0.040289685213376621, 0.10673631918901182]}
    - {mu0: 0, rank: 5, ndensity: 2, num_ms_combs: 1, mus: [0, 0, 0, 0, 0], ns: [1, 2, 2, 2, 2], ls: [0, 0, 0, 0, 0], ms_combs: [0, 0, 0, 0, 0], ctildes: [0.16860615264303938, -0.3778140084370516]}
    - {mu0: 0, rank: 6, ndensity: 2, num_ms_combs: 1, mus: [0, 0, 0, 0, 0, 0], ns: [1, 1, 1, 1, 1, 1], ls: [0, 0, 0, 0, 0, 0], ms_combs: [0, 0, 0, 0, 0, 0], ctildes: [-0.074234506962718383, 0.13261373685280126]}
    - {mu0: 0, rank: 6, ndensity: 2, num_ms_combs: 2, mus: [0, 0, 0, 0, 0, 0], ns: [1, 1, 1, 1, 1, 1], ls: [0, 0, 0, 0, 1, 1], ms_combs: [0, 0, 0, 0, 0, 0, 0, 0, 0, 0, 1, -1], ctildes: [-0.015013571487853421, -0.0091689415701900704, 0.030027142975706838, 0.018337883140380137]}
    - {mu0: 0, rank: 6, ndensity: 2, num_ms_combs: 1, mus: [0, 0, 0, 0, 0, 0], ns: [1, 1, 1, 1, 1, 2], ls: [0, 0, 0, 0, 0, 0], ms_combs: [0, 0, 0, 0, 0, 0], ctildes: [0.16194467215249908, -0.35815637728856464]}
    - {mu0: 0, rank: 6, ndensity: 2, num_ms_combs: 1, mus: [0, 0, 0, 0, 0, 0], ns: [1, 1, 1, 1, 2, 2], ls: [0, 0, 0, 0, 0, 0], ms_combs: [0, 0, 0, 0, 0, 0], ctildes: [-0.088642589205392849, 0.23198643112617201]}
