elements: [Fe]
E0: [0]
deltaSplineBins: 0.001
embeddings:
  0: {ndensity: 2, FS_parameters: [1, 1, 1, 0.5], npoti: FinnisSinclairShiftedScaled, rho_core_cutoff: 100000, drho_core_cutoff: 250}
bonds:
  [0, 0]: {nradmax: 6, lmax: 3, nradbasemax: 9, radbasename: SBessel, radparameters: [5.25], radcoefficients: [[[1.7958138269613653, -0.44057493251685637, 0.04867380464808229, -0.064551708351777495, -0.37604720316709039, 0.37420322395632422, -0.56070055428156651, 0.49189181959701916, -0.28645849019336556], [0.62002497386505107, -0.15645249336156034, -0.044349545784478236, 0.027218097564415834, -0.044952019120275334, 0.1083910239737792, 0.35742132636033325, -0.3168106448828964, 0.10175430034550101], [1.310839698330438, -0.004593123792516746, 0.11101426795685111, 0.47479918201987059, -0.63303342933641449, 0.97653361807731476, -0.8975107201416449, 0.31572354835909677, -0.023265773635535312], [1.1232578154660362, -0.51144774345921895, 0.21755678272050674, 0.1768277401207177, -0.42673760207816896, 0.55736124855342062, -0.43009245995196821, 0.25721968264074202, -0.13317956959101529]], [[1.0893414897875058, 0.26652681247928695, -0.53952619544252844, 0.57847089580540723, -0.66472736545151379, 0.38999894532160284, -0.79687543180042875, 0.72237443472874407, -0.38584122996317166], [-0.60655353398252443, 0.24459553348926749, 0.088931502665689902, 0.064679187088511197, -0.28604764387516673, 0.66002125396439548, 0.67441624885618989, -0.86481195933788235, 0.5092751771463323], [-0.028001221590472501, 0.89813934866950751, 0.32029726849327961, -0.47675746802034336, -0.06912936092145007, 0.52788199083363907, -0.49614367585890307, 0.34034713915052267, -0.16556932790519824], [0, 1, 0, 0, 0, 0, 0, 0, 0]], [[0.34117487613352243, -0.33551042174216017, 1.112552405852395, 0.17007163161648012, 0.070915091575594197, 0.093782911697205831, 0.49348931215959868, -0.088098392444656795, -0.13029941896564531], [-0.20988586539358792, -0.52780902545957376, 0.85167789305809571, 0.46483106659725859, -0.20144234036185865, -0.50510410253441529, -0.00091489780835869988, -0.12471575981459047, 0.23914955096679541], [0.71184244001685149, 0.20738228979731707, 0.6439217853050091, 0.29548404447244841, 0.23157740254336912, -0.83285906524729847, 0.79940099267288445, -0.67450473364781582, 0.32076260026603842], [0, 0, 1, 0, 0, 0, 0, 0, 0]], [[0.19619327010462084, 0.094663405813409235, -0.067260649583902057, 1.3084183006586514, -1.014046019455912, -0.095380228334397896, 0.15004374843886556, 0.27173795365428022, -0.27035698463459384], [0.088735694947854854, 0.05571838860302579, 0.095068714201174423, 0.94919457723481526, -0.34144267960660546, -0.026650619422532145, 0.15249730906630232, 0.1419210058807279, -0.10241522473439336], [0, 0, 0, 1, 0, 0, 0, 0, 0], [0, 0, 0, 1, 0, 0, 0, 0, 0]], [[0.15972715053173128, -0.58564592811088356, 0.035054727907270399, 0.072685161408980639, 0.30417860618007442, -0.0369746713843754, -0.59028944934606897, 0.32999571619870299, -0.015807404798611896], [0.071333660809067459, 0.037022188586528469, -0.048500462234530091, -0.048451005100759101, 1.0004084137047675, 0.005497161157778689, -0.15496802354082032, 0.11179731702850317, 0.1785466216956684], [0, 0, 0, 0, 1, 0, 0, 0, 0], [0, 0, 0, 0, 1, 0, 0, 0, 0]], [[-0.32079757670067827, 0.049006548182829748, -0.0053139864862582461, -0.072836893465753699, 0.097823727855696929, 1.0570623923698355, -0.27474911450104778, -0.22906374251047137, 0.21883370023574092], [0, 0, 0, 0, 0, 1, 0, 0, 0], [0, 0, 0, 0, 0, 1, 0, 0, 0], [0, 0, 0, 0, 0, 1, 0, 0, 0]]], prehc: 0, lambdahc: 0, rcut: 6.5, dcut: 0.01, rcut_in: 0, dcut_in: 0, inner_cutoff_type: distance}
functions:
  0:
    - {mu0: 0, rank: 1, ndensity: 2, num_ms_combs: 1, mus: [0], ns: [1], ls: [0], ms_combs: [0], ctildes: [-0.29829132635410288, -0.11977993403290921]}
    - {mu0: 0, rank: 1, ndensity: 2, num_ms_combs: 1, mus: [0], ns: [2], ls: [0], ms_combs: [0], ctildes: [-0.75429015522234111, -0.51035757109067892]}
    - {mu0: 0, rank: 1, ndensity: 2, num_ms_combs: 1, mus: [0], ns: [3], ls: [0], ms_combs: [0], ctildes: [0.71012563269396456, 0.0058001432588425514]}
    - {mu0: 0, rank: 1, ndensity: 2, num_ms_combs: 1, mus: [0], ns: [4], ls: [0], ms_combs: [0], ctildes: [0.083235529966828065, 0.058449530307636277]}
    - {mu0: 0, rank: 1, ndensity: 2, num_ms_combs: 1, mus: [0], ns: [5], ls: [0], ms_combs: [0], ctildes: [-0.54162647392530172, -0.30629478114503472]}
    - {mu0: 0, rank: 1, ndensity: 2, num_ms_combs: 1, mus: [0], ns: [6], ls: [0], ms_combs: [0], ctildes: [1.0670380485441393, 0.44876779471236389]}
    - {mu0: 0, rank: 1, ndensity: 2, num_ms_combs: 1, mus: [0], ns: [7], ls: [0], ms_combs: [0], ctildes: [-0.18083751275580326, -0.46682002609851403]}
    - {mu0: 0, rank: 1, ndensity: 2, num_ms_combs: 1, mus: [0], ns: [8], ls: [0], ms_combs: [0], ctildes: [-0.12925727639016801, -0.26865009284829355]}
    - {mu0: 0, rank: 1, ndensity: 2, num_ms_combs: 1, mus: [0], ns: [9], ls: [0], ms_combs: [0], ctildes: [0.058673663147681167, 0.60895807700084648]}
    - {mu0: 0, rank: 2, ndensity: 2, num_ms_combs: 1, mus: [0, 0], ns: [1, 1], ls: [0, 0], ms_combs: [0, 0], ctildes: [-0.076001990535692024, -0.19568782870979717]}
    - {mu0: 0, rank: 2, ndensity: 2, num_ms_combs: 2, mus: [0, 0], ns: [1, 1], ls: [1, 1], ms_combs: [0, 0, 1, -1], ctildes: [-0.10010695020166242, -0.06157419237341312, 0.20021390040332482, 0.12314838474682623]}
    - {mu0: 0, rank: 2, ndensity: 2, num_ms_combs: 3, mus: [0, 0], ns: [1, 1], ls: [2, 2], ms_combs: [0, 0, 1, -1, 2, -2], ctildes: [0.058929661180325596, -0.5393188701217867, -0.11785932236065121, 1.0786377402435734, 0.11785932236065123, -1.0786377402435738]}
    - {mu0: 0, rank: 2, ndensity: 2, num_ms_combs: 4, mus: [0, 0], ns: [1, 1], ls: [3, 3], ms_combs: [0, 0, 1, -1, 2, -2, 3, -3], ctildes: [-0.053939992469751112, -0.1793116951972282, 0.10787998493950222, 0.3586233903944564, -0.10787998493950221, -0.3586233903944564, 0.10787998493950221, 0.3586233903944564]}
    - {mu0: 0, rank: 2, ndensity: 2, num_ms_combs: 1, mus: [0, 0], ns: [1, 2], ls: [0, 0], ms_combs: [0, 0], ctildes: [0.16180692794517762, -0.10027089124986374]}
    - {mu0: 0, rank: 2, ndensity: 2, num_ms_combs: 2, mus: [0, 0], ns: [1, 2], ls: [1, 1], ms_combs: [0, 0, 1, -1], ctildes: [0.086031324792282496, 0.093858904693603487, -0.17206264958456496, -0.18771780938720695]}
    - {mu0: 0, rank: 2, ndensity: 2, num_ms_combs: 3, mus: [0, 0], ns: [1, 2], ls: [2, 2], ms_combs: [0, 0, 1, -1, 2, -2], ctildes: [0.053036637192360646, -0.12487836781744993, -0.10607327438472131, 0.24975673563489989, 0.10607327438472133, -0.24975673563489995]}
    - {mu0: 0, rank: 2, ndensity: 2, num_ms_combs: 1, mus: [0, 0], ns: [1, 3], ls: [0, 0], ms_combs: [0, 0], ctildes: [0.4814410006281396, 0.15023235044577649]}
    - {mu0: 0, rank: 2, ndensity: 2, num_ms_combs: 2, mus: [0, 0], ns: [1, 3], ls: [1, 1], ms_combs: [0, 0, 1, -1], ctildes: [0.027210132675171757, -0.086247323864049263, -0.054420265350343507, 0.1724946477280985]}
    - {mu0: 0, rank: 2, ndensity: 2, num_ms_combs: 3, mus: [0, 0], ns: [1, 3], ls: [2, 2], ms_combs: [0, 0, 1, -1, 2, -2], ctildes: [0.014532134624847405, 0.11195996294658593, -0.029064269249694814, -0.22391992589317189, 0.029064269249694821, 0.22391992589317194]}
    - {mu0: 0, rank: 2, ndensity: 2, num_ms_combs: 1, mus: [0, 0], ns: [1, 4], ls: [0, 0], ms_combs: [0, 0], ctildes: [0.14946672241825279, 0.092582929022364355]}
    - {mu0: 0, rank: 2, ndensity: 2, num_ms_combs: 2, mus: [0, 0], ns: [1, 4], ls: [1, 1], ms_combs: [0, 0, 1, -1], ctildes: [-0.031515117299357472, -0.023282132344449553, 0.063030234598714929, 0.046564264688899099]}
    - {mu0: 0, rank: 2, ndensity: 2, num_ms_combs: 1, mus: [0, 0], ns: [1, 5], ls: [0, 0], ms_combs: [0, 0], ctildes: [0.38196278829953645, 0.070708331559287185]}
    - {mu0: 0, rank: 2, ndensity: 2, num_ms_combs: 2, mus: [0, 0], ns: [1, 5], ls: [1, 1], ms_combs: [0, 0, 1, -1], ctildes: [-0.018490072799431864, 0.25469933495494174, 0.036980145598863721, -0.50939866990988336]}
    - {mu0: 0, rank: 2, ndensity: 2, num_ms_combs: 1, mus: [0, 0], ns: [1, 6], ls: [0, 0], ms_combs: [0, 0], ctildes: [-0.071199618918215385, 0.23873390884538387]}
    - {mu0: 0, rank: 2, ndensity: 2, num_ms_combs: 1, mus: [0, 0], ns: [2, 2], ls: [0, 0], ms_combs: [0, 0], ctildes: [-0.035214990126499091, -0.182565765072183]}
    - {mu0: 0, rank: 2, ndensity: 2, num_ms_combs: 2, mus: [0, 0], ns: [2, 2], ls: [1, 1], ms_combs: [0, 0, 1, -1], ctildes: [0.043216327899624089, -0.22234379224259415, -0.086432655799248165, 0.44468758448518819]}
    - {mu0: 0, rank: 2, ndensity: 2, num_ms_combs: 3, mus: [0, 0], ns: [2, 2], ls: [2, 2], ms_combs: [0, 0, 1, -1, 2, -2], ctildes: [0.047443878080684933, -0.18087420535398968, -0.094887756161369879, 0.36174841070797942, 0.094887756161369893, -0.36174841070797953]}
    - {mu0: 0, rank: 2, ndensity: 2, num_ms_combs: 1, mus: [0, 0], ns: [2, 3], ls: [0, 0], ms_combs: [0, 0], ctildes: [-0.23618372979735974, -0.010223761902345333]}
    - {mu0: 0, rank: 2, ndensity: 2, num_ms_combs: 2, mus: [0, 0], ns: [2, 3], ls: [1, 1], ms_combs: [0, 0, 1, -1], ctildes: [0.01365278665254724, 0.020487186273099294, -0.027305573305094477, -0.040974372546198581]}
    - {mu0: 0, rank: 2, ndensity: 2, num_ms_combs: 1, mus: [0, 0], ns: [2, 4], ls: [0, 0], ms_combs: [0, 0], ctildes: [-0.44255885716212745, 0.48856124879743829]}
    - {mu0: 0, rank: 2, ndensity: 2, num_ms_combs: 2, mus: [0, 0], ns: [2, 4], ls: [1, 1], ms_combs: [0, 0, 1, -1], ctildes: [0.0053346059360547043, 0.020998098278626677, -0.010669211872109407, -0.041996196557253347]}
    - {mu0: 0, rank: 2, ndensity: 2, num_ms_combs: 1, mus: [0, 0], ns: [2, 5], ls: [0, 0], ms_combs: [0, 0], ctildes: [-0.07675556791859435, -0.15596683369925127]}
    - {mu0: 0, rank: 2, ndensity: 2, num_ms_combs: 1, mus: [0, 0], ns: [2, 6], ls: [0, 0], ms_combs: [0, 0], ctildes: [-0.34021017715717389, -0.17021999351859859]}
    - {mu0: 0, rank: 2, ndensity: 2, num_ms_combs: 1, mus: [0, 0], ns: [3, 3], ls: [0, 0], ms_combs: [0, 0], ctildes: [-0.03100859992022021, -0.015726272985196639]}
    - {mu0: 0, rank: 2, ndensity: 2, num_ms_combs: 2, mus: [0, 0], ns: [3, 3], ls: [1, 1], ms_combs: [0, 0, 1, -1], ctildes: [0.071119898377215773, -0.33159082322988609, -0.14223979675443152, 0.66318164645977207]}
    - {mu0: 0, rank: 2, ndensity: 2, num_ms_combs: 1, mus: [0, 0], ns: [3, 4], ls: [0, 0], ms_combs: [0, 0], ctildes: [0.08125206259829687, -0.091380675718778906]}
    - {mu0: 0, rank: 2, ndensity: 2, num_ms_combs: 1, mus: [0, 0], ns: [3, 5], ls: [0, 0], ms_combs: [0, 0], ctildes: [0.044519313660202835, 0.01517390229712086]}
    - {mu0: 0, rank: 2, ndensity: 2, num_ms_combs: 1, mus: [0, 0], ns: [4, 4], ls: [0, 0], ms_combs: [0, 0], ctildes: [0.038461477809869769, -0.40276179829466641]}
    - {mu0: 0, rank: 3, ndensity: 2, num_ms_combs: 1, mus: [0, 0, 0], ns: [1, 1, 1], ls: [0, 0, 0], ms_combs: [0, 0, 0], ctildes: [0.097318775048170908, -0.3347197953041357]}
    - {mu0: 0, rank: 3, ndensity: 2, num_ms_combs: 2, mus: [0, 0, 0], ns: [1, 1, 1], ls: [0, 1, 1], ms_combs: [0, 0, 0, 0, 1, -1], ctildes: [-0.056030305551375732, -0.16540184756812359, 0.11206061110275144, 0.33080369513624713]}
    - {mu0: 0, rank: 3, ndensity: 2, num_ms_combs: 1, mus: [0, 0, 0], ns: [1, 1, 2], ls: [0, 0, 0], ms_combs: [0, 0, 0], ctildes: [0.087794913001925046, 0.27652842796367177]}
    - {mu0: 0, rank: 3, ndensity: 2, num_ms_combs: 2, mus: [0, 0, 0], ns: [1, 1, 2], ls: [0, 1, 1], ms_combs: [0, 0, 0, 0, 1, -1], ctildes: [-0.052691238929068206, 0.15568670056240769, 0.1053824778581364, -0.31137340112481532]}
    - {mu0: 0, rank: 3, ndensity: 2, num_ms_combs: 2, mus: [0, 0, 0], ns: [1, 1, 2], ls: [1, 1, 0], ms_combs: [0, 0, 0, 1, -1, 0], ctildes: [0.13305097419147963, -0.10544794767976409, -0.2661019483829592, 0.21089589535952816]}
    - {mu0: 0, rank: 3, ndensity: 2, num_ms_combs: 1, mus: [0, 0, 0], ns: [1, 1, 3], ls: [0, 0, 0], ms_combs: [0, 0, 0], ctildes: [-0.030497084711192488, -0.085821288376545929]}
    - {mu0: 0, rank: 3, ndensity: 2, num_ms_combs: 1, mus: [0, 0, 0], ns: [1, 1, 4], ls: [0, 0, 0], ms_combs: [0, 0, 0], ctildes: [-0.012434934509035149, 0.035488732647681362]}
    - {mu0: 0, rank: 3, ndensity: 2, num_ms_combs: 1, mus: [0, 0, 0], ns: [1, 2, 2], ls: [0, 0, 0], ms_combs: [0, 0, 0], ctildes: [-0.31229565643120427, 0.35590854705401825]}
    - {mu0: 0, rank: 3, ndensity: 2, num_ms_combs: 1, mus: [0, 0, 0], ns: [1, 2, 3], ls: [0, 0, 0], ms_combs: [0, 0, 0], ctildes: [0.035146031489942928, 0.064578335390377883]}
    - {mu0: 0, rank: 3, ndensity: 2, num_ms_combs: 1, mus: [0, 0, 0], ns: [2, 2, 2], ls: [0, 0, 0], ms_combs: [0, 0, 0], ctildes: [0.12210985237347893, -0.23914728387969897]}
    - {mu0: 0, rank: 4, ndensity: 2, num_ms_combs: 1, mus: [0, 0, 0, 0], ns: [1, 1, 1, 1], ls: [0, 0, 0, 0], ms_combs: [0, 0, 0, 0], ctildes: [-0.0098829630816645482, 0.032684225015521928]}
    - {mu0: 0, rank: 4, ndensity: 2, num_ms_combs: 1, mus: [0, 0, 0, 0], ns: [1, 1, 1, 2], ls: [0, 0, 0, 0], ms_combs: [0, 0, 0, 0], ctildes: [0.010459660696874979, -0.03719350943397657]}
