elements: [Fe]
E0: [0]
deltaSplineBins: 0.001
embeddings:
  0: {ndensity: 2, FS_parameters: [1, 1, 1, 0.5], npoti: FinnisSinclairShiftedScaled, rho_core_cutoff: 100000, drho_core_cutoff: 250}
bonds:
  [0, 0]: {nradmax: 6, lmax: 3, nradbasemax: 9, radbasename: SBessel, radparameters: [5.25], radcoefficients: [[[1.6115867835779061, -0.36385720017198003, -0.077019320075479819, 0.30028222434309171, -0.52675756359232462, 0.32444251561233106, -0.55464990782447809, 0.49941710174152704, -0.27833095216979886], [0.33215149056382121, 0.10702508132251369, -0.022705453386136172, -0.19992219364376196, 0.25640978598564357, 0.13086858191155071, 0.48622770007082688, -0.43339278886392402, 0.21123284976979892], [1.491284865373576, -0.2404992693789938, -0.10249220797333386, 0.99304602583411272, -0.76417858917592407, 1.110225963452518, -0.97393159268445761, 0.33047771960907751, 0.09452434075854628], [1.7126442167550278, -0.44848136308252273, 0.25735498502187981, 0.49943792050986141, -0.67017583489145016, 0.78990367047590848, -0.63876042023849489, 0.35287872153600292, -0.28937094930214002]], [[1.2843242089457805, 0.14600068664130322, -0.52107341026385956, 0.50482806037240169, -0.6689913663384921, 0.17181296106220748, -0.76224157797858405, 0.72313595399156549, -0.42035699437912027], [-0.61760437492108577, 0.42898457851813493, -0.044058040039834399, 0.038716204045446914, 0.1389170489609258, 0.49634291410754322, 0.71898776699052447, -0.775629248623253, 0.58657099421836578], [0.11914322603152927, 1.1023005469895171, 0.48938200727433184, -0.65166037704452595, -0.23562519729144774, 0.56293658728241636, -0.43828384535129128, 0.36895860510327716, -0.22616023020245368], [0, 1, 0, 0, 0, 0, 0, 0, 0]], [[0.31007346102556121, -0.62565246353719817, 0.95767026356409313, 0.32714778113541743, 0.54513475212527773, -0.3553120080064664, 0.90479783943763514, -0.46098446372344071, 0.21209680020628421], [0.46328133458149051, -0.58311644429189136, 0.47649257186227861, 0.72659043982029237, -0.48625098052758498, -0.71907501619695557, 0.32502641578598301, -0.3446207831638407, 0.14756344017955061], [0.6478149071509155, 0.24315179073163315, 0.9562360073519347, 0.56717556573374517, 0.44584542985135645, -0.70233886942080637, 0.83073087180258665, -0.692035700449531, 0.62195667930405452], [0, 0, 1, 0, 0, 0, 0, 0, 0]], [[0.379258346703016, 0.52837806588476965, -0.83845304593027525, 1.3815055953509245, -1.2142436299272168, -0.3508099302443089, 0.30459252224638494, 0.059221027462681389, -0.20783848052831591], [0.20953483050276922, 0.33732460371792172, 0.32850324166307948, 0.62234439167418965, -0.866283342094748, -0.027015901771857507, 0.021148353068157544, 0.15891109695850261, -0.091135006904564039], [0, 0, 0, 1, 0, 0, 0, 0, 0], [0, 0, 0, 1, 0, 0, 0, 0, 0]], [[0.095672908513276991, -0.2915639314728084, -0.25120563886095049, -0.14631498620288272, 0.60481299578445447, -0.10388982399007071, -0.50357056186289229, 0.30463395986868369, -0.044005715233026869], [0.19854385984587736, 0.0040566536444356987, -0.066435347056910898, -0.12112703852502787, 1.0386918310202067, 0.49858364043628772, -0.17875041314356702, 0.27944733395453625, 0.19313728691031334], [0, 0, 0, 0, 1, 0, 0, 0, 0], [0, 0, 0, 0, 1, 0, 0, 0, 0]], [[-0.76547781608067922, -0.020206567316234651, 0.030444737075449025, 0.47485342050947643, 0.3465145760525743, 1.5316722985310878, -0.52392535643235061, -0.079862750626783788, 0.3717241245806997], [0, 0, 0, 0, 0, 1, 0, 0, 0], [0, 0, 0, 0, 0, 1, 0, 0, 0], [0, 0, 0, 0, 0, 1, 0, 0, 0]]], prehc: 0, lambdahc: 0, rcut: 6.5, dcut: 0.01, rcut_in: 0, dcut_in: 0, inner_cutoff_type: distance}
functions:
  0:
    - {mu0: 0, rank: 1, ndensity: 2, num_ms_combs: 1, mus: [0], ns: [1], ls: [0], ms_combs: [0], ctildes: [-0.59071902602378334, -0.075334243685015817]}
    - {mu0: 0, rank: 1, ndensity: 2, num_ms_combs: 1, mus: [0], ns: [2], ls: [0], ms_combs: [0], ctildes: [-0.67290938534834499, -0.25282530313344737]}
    - {mu0: 0, rank: 1, ndensity: 2, num_ms_combs: 1, mus: [0], ns: [3], ls: [0], ms_combs: [0], ctildes: [0.77242847519219693, 0.0826075510587196]}
    - {mu0: 0, rank: 1, ndensity: 2, num_ms_combs: 1, mus: [0], ns: [4], ls: [0], ms_combs: [0], ctildes: [0.028815411054814902, -0.13863138519381366]}
    - {mu0: 0, rank: 1, ndensity: 2, num_ms_combs: 1, mus: [0], ns: [5], ls: [0], ms_combs: [0], ctildes: [-0.49659446088228376, -0.44697138589430463]}
    - {mu0: 0, rank: 1, ndensity: 2, num_ms_combs: 1, mus: [0], ns: [6], ls: [0], ms_combs: [0], ctildes: [0.60160187086411221, 0.49397149153713971]}
    - {mu0: 0, rank: 1, ndensity: 2, num_ms_combs: 1, mus: [0], ns: [7], ls: [0], ms_combs: [0], ctildes: [-0.56314074838403116, -0.29854897691264515]}
    - {mu0: 0, rank: 1, ndensity: 2, num_ms_combs: 1, mus: [0], ns: [8], ls: [0], ms_combs: [0], ctildes: [0.30183960713416158, -0.088515615690003158]}
    - {mu0: 0, rank: 1, ndensity: 2, num_ms_combs: 1, mus: [0], ns: [9], ls: [0], ms_combs: [0], ctildes: [-0.15359917488926272, 0.40143552625754897]}
    - {mu0: 0, rank: 2, ndensity: 2, num_ms_combs: 1, mus: [0, 0], ns: [1, 1], ls: [0, 0], ms_combs: [0, 0], ctildes: [0.026298928233298269, 0.079150121392016146]}
    - {mu0: 0, rank: 2, ndensity: 2, num_ms_combs: 2, mus: [0, 0], ns: [1, 1], ls: [1, 1], ms_combs: [0, 0, 1, -1], ctildes: [0.070108363785003167, 0.039814199401198271, -0.14021672757000631, -0.079628398802396527]}
    - {mu0: 0, rank: 2, ndensity: 2, num_ms_combs: 3, mus: [0, 0], ns: [1, 1], ls: [2, 2], ms_combs: [0, 0, 1, -1, 2, -2], ctildes: [0.078780035827987552, -0.55270950554335629, -0.15756007165597513, 1.1054190110867128, 0.15756007165597516, -1.105419011086713]}
    - {mu0: 0, rank: 2, ndensity: 2, num_ms_combs: 4, mus: [0, 0], ns: [1, 1], ls: [3, 3], ms_combs: [0, 0, 1, -1, 2, -2, 3, -3], ctildes: [0.076854562563428166, -0.44796114297960959, -0.15370912512685633, 0.89592228595921919, 0.15370912512685631, -0.89592228595921908, -0.15370912512685631, 0.89592228595921908]}
    - {mu0: 0, rank: 2, ndensity: 2, num_ms_combs: 1, mus: [0, 0], ns: [1, 2], ls: [0, 0], ms_combs: [0, 0], ctildes: [0.63623698480588931, -0.0087743081732366349]}
    - {mu0: 0, rank: 2, ndensity: 2, num_ms_combs: 2, mus: [0, 0], ns: [1, 2], ls: [1, 1], ms_combs: [0, 0, 1, -1], ctildes: [-0.020925808192167814, 0.17961272533634057, 0.04185161638433562, -0.35922545067268108]}
    - {mu0: 0, rank: 2, ndensity: 2, num_ms_combs: 3, mus: [0, 0], ns: [1, 2], ls: [2, 2], ms_combs: [0, 0, 1, -1, 2, -2], ctildes: [0.02538373202542216, -0.068657689230448904, -0.050767464050844327, 0.13731537846089784, 0.050767464050844341, -0.13731537846089786]}
    - {mu0: 0, rank: 2, ndensity: 2, num_ms_combs: 1, mus: [0, 0], ns: [1, 3], ls: [0, 0], ms_combs: [0, 0], ctildes: [0.49171259985423132, 0.026704544106356407]}
    - {mu0: 0, rank: 2, ndensity: 2, num_ms_combs: 2, mus: [0, 0], ns: [1, 3], ls: [1, 1], ms_combs: [0, 0, 1, -1], ctildes: [0.13249289408718323, -0.43359228993006416, -0.26498578817436641, 0.86718457986012809]}
    - {mu0: 0, rank: 2, ndensity: 2, num_ms_combs: 3, mus: [0, 0], ns: [1, 3], ls: [2, 2], ms_combs: [0, 0, 1, -1, 2, -2], ctildes: [-0.052252485984906991, 0.38303276999801272, 0.104504971969814, -0.76606553999602545, -0.10450497196981402, 0.76606553999602567]}
    - {mu0: 0, rank: 2, ndensity: 2, num_ms_combs: 1, mus: [0, 0], ns: [1, 4], ls: [0, 0], ms_combs: [0, 0], ctildes: [0.16325625852833214, 0.14530819081166682]}
    - {mu0: 0, rank: 2, ndensity: 2, num_ms_combs: 2, mus: [0, 0], ns: [1, 4], ls: [1, 1], ms_combs: [0, 0, 1, -1], ctildes: [-0.00056542148544034448, -0.12458071028540724, 0.0011308429708806887, 0.24916142057081445]}
    - {mu0: 0, rank: 2, ndensity: 2, num_ms_combs: 1, mus: [0, 0], ns: [1, 5], ls: [0, 0], ms_combs: [0, 0], ctildes: [-0.042416617095272058, 0.23000750018932531]}
    - {mu0: 0, rank: 2, ndensity: 2, num_ms_combs: 2, mus: [0, 0], ns: [1, 5], ls: [1, 1], ms_combs: [0, 0, 1, -1], ctildes: [-0.030045881294005459, 0.33128129321464461, 0.060091762588010904, -0.662562586429289]}
    - {mu0: 0, rank: 2, ndensity: 2, num_ms_combs: 1, mus: [0, 0], ns: [1, 6], ls: [0, 0], ms_combs: [0, 0], ctildes: [0.1298647713808507, 0.26554359923606613]}
    - {mu0: 0, rank: 2, ndensity: 2, num_ms_combs: 1, mus: [0, 0], ns: [2, 2], ls: [0, 0], ms_combs: [0, 0], ctildes: [-0.44815480163116311, -0.65444636592272176]}
    - {mu0: 0, rank: 2, ndensity: 2, num_ms_combs: 2, mus: [0, 0], ns: [2, 2], ls: [1, 1], ms_combs: [0, 0, 1, -1], ctildes: [0.060519416614858122, -0.19209639055526803, -0.12103883322971623, 0.38419278111053601]}
    - {mu0: 0, rank: 2, ndensity: 2, num_ms_combs: 3, mus: [0, 0], ns: [2, 2], ls: [2, 2], ms_combs: [0, 0, 1, -1, 2, -2], ctildes: [0.058593140971859636, -0.25004472926700405, -0.11718628194371929, 0.50008945853400821, 0.11718628194371931, -0.50008945853400832]}
    - {mu0: 0, rank: 2, ndensity: 2, num_ms_combs: 1, mus: [0, 0], ns: [2, 3], ls: [0, 0], ms_combs: [0, 0], ctildes: [-0.18535418908420587, 0.0035410110022777164]}
    - {mu0: 0, rank: 2, ndensity: 2, num_ms_combs: 2, mus: [0, 0], ns: [2, 3], ls: [1, 1], ms_combs: [0, 0, 1, -1], ctildes: [0.0037268397710844615, 0.0051417733994072118, -0.0074536795421689221, -0.010283546798814422]}
    - {mu0: 0, rank: 2, ndensity: 2, num_ms_combs: 1, mus: [0, 0], ns: [2, 4], ls: [0, 0], ms_combs: [0, 0], ctildes: [-0.60708090430963013, 0.61480805336395217]}
    - {mu0: 0, rank: 2, ndensity: 2, num_ms_combs: 2, mus: [0, 0], ns: [2, 4], ls: [1, 1], ms_combs: [0, 0, 1, -1], ctildes: [-0.011710955173154956, 0.17540995899055278, 0.023421910346309905, -0.35081991798110551]}
    - {mu0: 0, rank: 2, ndensity: 2, num_ms_combs: 1, mus: [0, 0], ns: [2, 5], ls: [0, 0], ms_combs: [0, 0], ctildes: [0.22478486019857175, -0.3040717843825817]}
    - {mu0: 0, rank: 2, ndensity: 2, num_ms_combs: 1, mus: [0, 0], ns: [2, 6], ls: [0, 0], ms_combs: [0, 0], ctildes: [-0.45942351453069746, -0.12161984872090581]}
    - {mu0: 0, rank: 2, ndensity: 2, num_ms_combs: 1, mus: [0, 0], ns: [3, 3], ls: [0, 0], ms_combs: [0, 0], ctildes: [-0.091740906022504107, 0.13270259773372348]}
    - {mu0: 0, rank: 2, ndensity: 2, num_ms_combs: 2, mus: [0, 0], ns: [3, 3], ls: [1, 1], ms_combs: [0, 0, 1, -1], ctildes: [0.054551531837723599, -0.24358171608474335, -0.10910306367544717, 0.4871634321694866]}
    - {mu0: 0, rank: 2, ndensity: 2, num_ms_combs: 1, mus: [0, 0], ns: [3, 4], ls: [0, 0], ms_combs: [0, 0], ctildes: [0.060204847058257377, 0.13258316121393729]}
    - {mu0: 0, rank: 2, ndensity: 2, num_ms_combs: 1, mus: [0, 0], ns: [3, 5], ls: [0, 0], ms_combs: [0, 0], ctildes: [0.085219997097802952, 0.0030745316328679912]}
    - {mu0: 0, rank: 2, ndensity: 2, num_ms_combs: 1, mus: [0, 0], ns: [4, 4], ls: [0, 0], ms_combs: [0, 0], ctildes: [0.06952273641990761, -0.51030934169946685]}
    - {mu0: 0, rank: 3, ndensity: 2, num_ms_combs: 1, mus: [0, 0, 0], ns: [1, 1, 1], ls: [0, 0, 0], ms_combs: [0, 0, 0], ctildes: [0.0087446840918254214, -0.55917992769894076]}
    - {mu0: 0, rank: 3, ndensity: 2, num_ms_combs: 2, mus: [0, 0, 0], ns: [1, 1, 1], ls: [0, 1, 1], ms_combs: [0, 0, 0, 0, 1, -1], ctildes: [-0.08162896901523263, -0.069939684674968153, 0.16325793803046523, 0.13987936934993628]}
    - {mu0: 0, rank: 3, ndensity: 2, num_ms_combs: 1, mus: [0, 0, 0], ns: [1, 1, 2], ls: [0, 0, 0], ms_combs: [0, 0, 0], ctildes: [0.15306387745152292, 0.5088872938122434]}
    - {mu0: 0, rank: 3, ndensity: 2, num_ms_combs: 2, mus: [0, 0, 0], ns: [1, 1, 2], ls: [0, 1, 1], ms_combs: [0, 0, 0, 0, 1, -1], ctildes: [-0.03749150671123639, 0.083885359499586809, 0.074983013422472766, -0.16777071899917356]}
    - {mu0: 0, rank: 3, ndensity: 2, num_ms_combs: 2, mus: [0, 0, 0], ns: [1, 1, 2], ls: [1, 1, 0], ms_combs: [0, 0, 0, 1, -1, 0], ctildes: [0.11112777287905516, -0.090058595324284577, -0.22225554575811027, 0.18011719064856913]}
    - {mu0: 0, rank: 3, ndensity: 2, num_ms_combs: 1, mus: [0, 0, 0], ns: [1, 1, 3], ls: [0, 0, 0], ms_combs: [0, 0, 0], ctildes: [-0.035892251610795303, -0.08578091085782559]}
    - {mu0: 0, rank: 3, ndensity: 2, num_ms_combs: 1, mus: [0, 0, 0], ns: [1, 1, 4], ls: [0, 0, 0], ms_combs: [0, 0, 0], ctildes: [1.7548862961990416e-05, 0.027561902560833195]}
    - {mu0: 0, rank: 3, ndensity: 2, num_ms_combs: 1, mus: [0, 0, 0], ns: [1, 2, 2], ls: [0, 0, 0], ms_combs: [0, 0, 0], ctildes: [-0.26984278737277223, 0.27443425386556419]}
    - {mu0: 0, rank: 3, ndensity: 2, num_ms_combs: 1, mus: [0, 0, 0], ns: [1, 2, 3], ls: [0, 0, 0], ms_combs: [0, 0, 0], ctildes: [0.031067867534652727, 0.032134559885831769]}
    - {mu0: 0, rank: 3, ndensity: 2, num_ms_combs: 1, mus: [0, 0, 0], ns: [2, 2, 2], ls: [0, 0, 0], ms_combs: [0, 0, 0], ctildes: [0.10197938775694104, -0.16263825872770116]}
    - {mu0: 0, rank: 4, ndensity: 2, num_ms_combs: 1, mus: [0, 0, 0, 0], ns: [1, 1, 1, 1], ls: [0, 0, 0, 0], ms_combs: [0, 0, 0, 0], ctildes: [-0.0054939303637795544, 0.053546460134729051]}
    - {mu0: 0, rank: 4, ndensity: 2, num_ms_combs: 1, mus: [0, 0, 0, 0], ns: [1, 1, 1, 2], ls: [0, 0, 0, 0], ms_combs: [0, 0, 0, 0], ctildes: [0.0058175048781937966, -0.056570194992678048]}
